svm_type c_svc
kernel_type linear
nr_class 3
total_sv 678
rho -11.933675121171291 -1.0931978127548232 11.85590191249829
label 38 36 42
nr_sv 228 193 257
SV
0 4 1:0.53010963 2:0.37463508 3:0.63136376 4:0.38101066 5:0.48703864 6:0.62063492 7:0.27135553 8:0.55954102 9:0.32937148 10:0.60933814 11:0.3346865 12:0.39288036 13:0.43610862 14:0.53779305 15:0.45276453 16:0.45112879 17:0.5266967 18:0.46283895 
0 4 1:0.48828644 2:0.41535247 3:0.49638854 4:0.47966218 5:0.58101621 6:0.63082129 7:0.28387532 8:0.62272409 9:0.35291616 10:0.65079548 11:0.30837955 12:0.34910663 13:0.37284767 14:0.32509587 15:0.46445002 16:0.29560787 17:0.63144949 18:0.6519682 
0 4 1:0.51524648 2:0.46232421 3:0.45183831 4:0.43164513 5:0.45663185 6:0.58704899 7:0.26304861 8:0.59531492 9:0.36917859 10:0.70014056 11:0.50829764 12:0.48674364 13:0.54873012 14:0.59948941 15:0.56917082 16:0.39626142 17:0.63578712 18:0.66683104 
0 4 1:0.65731887 2:0.2780287 3:0.54316217 4:0.52373301 5:0.64025165 6:0.5903917 7:0.36337064 8:0.71589256 9:0.47554835 10:0.65286279 11:0.34602784 12:0.52701191 13:0.31267497 14:0.40186158 15:0.59851013 16:0.30222329 17:0.52040335 18:0.54080862 
0 4 1:0.47588786 2:0.4757797 3:0.47762172 4:0.39412978 5:0.50665337 6:0.65045498 7:0.30462229 8:0.58159223 9:0.38909964 10:0.67789493 11:0.37069756 12:0.65241476 13:0.61414059 14:0.42415908 15:0.61649315 16:0.22930938 17:0.56306639 18:0.58390669 
0 4 1:0.65664995 2:0.43995638 3:0.63600432 4:0.32963368 5:0.45459316 6:0.7182894 7:0.3158778 8:0.55440291 9:0.32355922 10:0.62573013 11:0.29753003 12:0.42631517 13:0.3963323 14:0.47881508 15:0.40131257 16:0.41125548 17:0.3098863 18:0.42137531 
4 0 1:0.29770199 2:0.88773204 3:0.28345778 4:0.5946866 5:0.50125871 6:0.18584011 7:0.9964298 8:0.084030551 9:0.70032616 10:0.76324717 11:0.20956355 12:0.78334035 13:0.48506131 14:0.41607569 15:0.79075625 16:0.16802537 17:0.70515246 18:0.49549679 
4 0 1:0.32646373 2:0.94573374 3:0.25002741 4:0.62319469 5:0.51408725 6:0.03843574 7:0.87795554 8:0.064644929 9:0.61385836 10:0.64778581 11:0.21289478 12:0.88845622 13:0.54464077 14:0.52426109 15:1 16:0.32394246 17:0.79125338 18:0.48144724 
4 0 1:0.31505338 2:0.83934867 3:0.29607158 4:0.66942334 5:0.43456374 6:0.17673952 7:1 8:0.2155136 9:0.69580282 10:0.72093868 11:0.43753939 12:0.92238306 13:0.28161689 14:0.35208684 15:0.8130427 16:0.062049681 17:0.74494226 18:0.68549753 
4 4 1:0.42946418 2:0.91869368 3:0.348552 4:0.52660988 5:0.6559356 6:0.28660082 7:0.69302636 8:0.26664638 9:0.48059372 10:0.75140542 11:0.34819385 12:0.77790087 13:0.47340621 14:0.34067311 15:0.62751002 16:0.23274578 17:0.67000033 18:0.61388253 
4 4 1:0.23444084 2:0.88009298 3:0.41871886 4:0.61253468 5:0.73388668 6:0.26488432 7:0.82092845 8:0.22273753 9:0.52671751 10:0.61932615 11:0.24105994 12:0.54881787 13:0.52330116 14:0.50875812 15:0.74984193 16:0.13792642 17:0.50941175 18:0.36145556 
0 4 1:0.40026461 2:0.74035055 3:0.25695652 4:0.58585388 5:0.35214331 6:0.24411178 7:0.83768565 8:0.036155917 9:0.55704463 10:0.66842656 11:0.1248162 12:0.60862993 13:0.49902331 14:0.55915259 15:0.78890775 16:0.12235719 17:0.57840637 18:0.50714836 
0 4 1:0.39996041 2:0.82832049 3:0.33073034 4:0.59231012 5:0.53928489 6:0.21247353 7:0.75866459 8:0.22529608 9:0.52799146 10:0.59074359 11:0.14025185 12:0.68089649 13:0.71528058 14:0.48719735 15:0.74814932 16:0.39094399 17:0.6898611 18:0.43772374 
0 4 1:0.44004072 2:0.77474136 3:0.20129582 4:0.63792502 5:0.48899594 6:0.13867601 7:0.80377213 8:0.11293351 9:0.51843746 10:0.64787943 11:0.25381389 12:0.63739404 13:0.54460464 14:0.49561832 15:0.68819456 16:0.21591407 17:0.59443917 18:0.68216653 
0 4 1:0.45252713 2:0.91956186 3:0.15543337 4:0.67664204 5:0.32950857 6:0.093142476 7:0.8968592 8:0.034746595 9:0.58109111 10:0.68744345 11:0.20154365 12:0.73289241 13:0.54690858 14:0.51392874 15:0.8822945 16:0.27872124 17:0.53038966 18:0.39684485 
0 0.031425249762317725 1:0.52561576 2:0.93192598 3:0.24064931 4:0.58563856 5:0.56932198 6:0.25814547 7:0.6745877 8:0.16146456 9:0.51387912 10:0.75428764 11:0.34636645 12:0.78749478 13:0.52813203 14:0.37007394 15:0.70442661 16:0.44187834 17:0.83085057 18:0.44955847 
4 0 1:0.34890436 2:0.85198393 3:0.26124922 4:0.65542058 5:0.47242456 6:0.10201888 7:0.83909989 8:0.14657347 9:0.65224319 10:0.78079669 11:0.18300079 12:0.68084995 13:0.56978429 14:0.38455946 15:0.75392015 16:0.19534969 17:0.61300658 18:0.59475544 
4 4 1:0.33012322 2:0.91351213 3:0.38203134 4:0.50577615 5:0.48708833 6:0.12290631 7:0.73648311 8:0.25566446 9:0.52824852 10:0.58886531 11:0.14254453 12:0.61055105 13:0.59876776 14:0.47714256 15:0.82783677 16:0.32057012 17:0.62896938 18:0.52214289 
4 4 1:0.36587959 2:0.90985651 3:0.23212392 4:0.64797535 5:0.63509247 6:0.19647176 7:0.8756391 8:0.11847837 9:0.53688847 10:0.61139114 11:0.37472525 12:0.83327999 13:0.37057301 14:0.34442273 15:0.62391423 16:0.11293484 17:0.78185633 18:0.52757542 
0 4 1:0.51689745 2:0.66255522 3:0.1798477 4:0.62524248 5:0.39085754 6:0.26473315 7:0.77957962 8:0.14784931 9:0.60006952 10:0.73170715 11:0.067666076 12:0.62236811 13:0.56275051 14:0.44126336 15:0.79379226 16:0.29715487 17:0.52214366 18:0.47106609 
0 4 1:0.48146481 2:0.89994383 3:0.18946592 4:0.67405984 5:0.27529726 6:0.045738115 7:0.74785205 8:0.053563216 9:0.49485603 10:0.67361169 11:0.13086205 12:0.63322601 13:0.57752371 14:0.51379157 15:0.94184848 16:0.37291543 17:0.63233307 18:0.58297039 
0 4 1:0.53793127 2:0.76874256 3:0.18339579 4:0.7336296 5:0.31677514 6:0.15065588 7:0.70991459 8:0.057306965 9:0.41829791 10:0.61462524 11:0.040100119 12:0.69479882 13:0.59112394 14:0.45050405 15:0.72451457 16:0.22448999 17:0.64698916 18:0.54749013 
2.7870415730966451 0 1:0.46485238 2:0.87241453 3:0.27903739 4:0.6493722 5:0.34008645 6:0.053881679 7:0.82717864 8:0.13019884 9:0.58242172 10:0.72497903 11:0.20487652 12:0.80138015 13:0.54562514 14:0.42145146 15:0.77797185 16:0.25021803 17:0.63409705 18:0.55727244 
0 4 1:0.45971598 2:0.86752833 3:0.21917545 4:0.72132654 5:0.29899591 7:0.86297624 8:0.13588607 9:0.54202975 10:0.57254356 11:0.20347082 12:0.79825416 13:0.60160046 14:0.43741682 15:0.60589242 16:0.076231173 17:0.55881983 18:0.49614423 
4 4 1:0.48144476 2:0.88810848 3:0.37520823 4:0.48246075 5:0.43210205 6:0.28103859 7:0.61670289 8:0.24860709 9:0.48229785 10:0.67314491 11:0.36991908 12:0.79269228 13:0.59128936 14:0.370795 15:0.76697895 16:0.37796555 17:0.56661807 18:0.6417143 
0 4 1:0.48512322 2:0.76384799 3:0.25244884 4:0.59186222 5:0.5369004 6:0.31349904 7:0.66785931 8:0.10086783 9:0.48132188 10:0.66563318 11:0.38424563 12:0.78624779 13:0.55754354 14:0.54084714 15:0.72980031 16:0.25970877 17:0.63137512 18:0.5276923 
4 4 1:0.62672721 2:0.88211604 3:0.367847 4:0.4177739 5:0.55988014 6:0.16058967 7:0.51587547 8:0.36575896 9:0.4339829 10:0.53293658 11:0.16999621 12:0.57487032 13:0.69764682 14:0.58947059 15:0.69916589 16:0.32033663 17:0.60752146 18:0.45183996 
0 4 1:0.53288672 2:0.84738738 3:0.079582627 4:0.61520541 5:0.36428461 6:0.12024977 7:0.85149522 8:0.031861118 9:0.50888884 10:0.71851823 11:0.20059749 12:0.76404014 13:0.57969224 14:0.44536611 15:0.71852713 16:0.22180376 17:0.68376485 18:0.60039888 
4 4 1:0.30007483 2:0.81987717 3:0.31113051 4:0.63545351 5:0.6730979 6:0.29815018 7:0.79672973 8:0.29789717 9:0.59033198 10:0.51835217 11:0.3364909 12:0.74426992 13:0.39753898 14:0.35250551 15:0.57912273 16:0.090594546 17:0.79703244 18:0.65616369 
0 4 1:0.53569943 2:0.75054145 3:0.13081004 4:0.64682171 5:0.45677587 6:0.29658435 7:0.70202751 8:0.032684182 9:0.45794212 10:0.69465449 11:0.21572617 12:0.60167823 13:0.48449791 14:0.49045072 15:0.78496853 16:0.34471032 17:0.76496712 18:0.55433979 
4 4 1:0.58696797 2:0.92232677 3:0.40581352 4:0.57419055 5:0.49636224 6:0.25099275 7:0.63271605 8:0.28536098 9:0.45643144 10:0.65203934 11:0.31669363 12:0.67768297 13:0.50888566 14:0.32680192 15:0.59039939 16:0.25944421 17:0.48462828 18:0.44328895 
4 4 1:0.49365053 2:0.88429188 3:0.22143272 4:0.70995888 5:0.49317152 6:0.10389318 7:0.78079565 8:0.20261725 9:0.42063777 10:0.66983351 11:0.17651374 12:0.65749719 13:0.57698481 14:0.46395496 15:0.80089367 16:0.28252948 17:0.60905103 18:0.35304819 
0 1.5449121374843073 1:0.54482069 2:0.67301843 3:0.27881719 4:0.64079908 5:0.43454596 6:0.31396293 7:0.78088119 8:0.21475317 9:0.4774172 10:0.78707936 11:0.31447391 12:0.65126274 13:0.36024452 14:0.25830056 15:0.5460896 16:0.15726108 17:0.48330584 18:0.44857299 
0 4 1:0.58020041 2:0.73621757 3:0.16306689 4:0.6432127 5:0.27431418 6:0.14573308 7:0.69513908 8:0.10442457 9:0.53877967 10:0.78334155 11:0.23025834 12:0.74061491 13:0.56875905 14:0.49387994 15:0.8301529 16:0.30441013 17:0.62858185 18:0.65910586 
0 4 1:0.34074783 2:0.73486451 3:0.4005528 4:0.55717527 5:0.7833066 6:0.63239486 7:0.61074358 8:0.56675333 9:0.63589274 10:0.41234846 11:0.69554381 12:0.54397045 13:0.54817319 14:0.60481544 15:0.36472074 16:0.74663517 17:0.75076071 18:0.65816862 
0 4 1:0.23239722 2:0.75186997 3:0.29784644 4:0.62011017 5:0.65511791 6:0.7689325 7:0.58528842 8:0.4565585 9:0.72126774 10:0.47113021 11:0.77183135 12:0.30171001 13:0.34752053 14:0.78974807 15:0.34854259 16:0.66275469 17:0.64990193 18:0.51797363 
4 4 1:0.24633302 2:0.77497618 3:0.49257514 4:0.64616486 5:0.67086735 6:0.70376067 7:0.58422239 8:0.43079917 9:0.52608929 10:0.29468076 11:0.75595499 12:0.58095443 13:0.70131173 14:0.71447897 15:0.25190915 16:0.51973185 17:0.54909488 18:0.59170399 
4 4 1:0.32084217 2:0.71792672 3:0.44198789 4:0.67582581 5:0.76753607 6:0.65336601 7:0.65599819 8:0.55347431 9:0.54567826 10:0.28200878 11:0.75907055 12:0.62796958 13:0.58967631 14:0.72671822 15:0.44977204 16:0.67904684 17:0.47591898 18:0.36485865 
0 4 1:0.34833199 2:0.79409506 3:0.25980613 4:0.63836064 5:0.5170998 6:0.59449381 7:0.54601498 8:0.48353872 9:0.64195899 10:0.23792917 11:0.82423991 12:0.5640041 13:0.72690184 14:0.77903439 15:0.25703667 16:0.80060098 17:0.55416457 18:0.46760206 
0 4 1:0.46851798 2:0.69024348 3:0.2129438 4:0.65247077 5:0.54916707 6:0.61070984 7:0.49435431 8:0.53915544 9:0.72070691 10:0.2674811 11:0.91259503 12:0.71766195 13:0.65644914 14:0.63640007 15:0.31467185 16:0.869825 17:0.45093721 18:0.4844876 
0 4 1:0.39831046 2:0.66410841 3:0.42072038 4:0.55673936 5:0.71261023 6:0.62742133 7:0.54922299 8:0.63542369 9:0.64814818 10:0.10786972 11:0.79284398 12:0.85689079 13:0.56818801 14:0.61721144 15:0.2634725 16:0.6382394 17:0.6860286 18:0.51617096 
4 4 1:0.37684328 2:0.7638785 3:0.38454411 4:0.57757255 5:0.79957354 6:0.60395392 7:0.55276996 8:0.52559085 9:0.54717619 10:0.26550995 11:0.61226377 12:0.55836205 13:0.52049339 14:0.48358054 15:0.3582316 16:0.76362904 17:0.5046555 18:0.61074357 
4 4 1:0.48686599 2:0.6831675 3:0.42697513 4:0.57563262 5:0.57420919 6:0.88078825 7:0.40879542 8:0.56770481 9:0.8146891 10:0.30844434 11:0.84612479 12:0.40071695 13:0.54460367 14:0.70351418 15:0.23529013 16:0.73924965 17:0.33236341 18:0.3672672 
0 4 1:0.27501317 2:0.68100577 3:0.36211343 4:0.58121752 5:0.59835444 6:0.65714364 7:0.53464714 8:0.5986809 9:0.61915301 10:0.35324468 11:0.81526752 12:0.49858591 13:0.41762237 14:0.56653181 15:0.25871511 16:0.49053779 17:0.40614167 18:0.35057356 
0 4 1:0.41222847 2:0.73823088 3:0.23413746 4:0.65662467 5:0.67112512 6:0.63652832 7:0.46428893 8:0.58893526 9:0.79820433 10:0.072431733 11:0.71043713 12:0.63051517 13:0.58179288 14:0.73353765 15:0.31628718 16:0.83124147 17:0.57408508 18:0.49432913 
4 4 1:0.40031466 2:0.84636352 3:0.32315044 4:0.5460033 5:0.72641833 6:0.74196209 7:0.43265294 8:0.36822199 9:0.83822782 10:0.37350062 11:0.59390057 12:0.53803807 13:0.54876636 14:0.68096229 15:0.35800618 16:0.81336351 17:0.50704025 18:0.27054287 
0 4 1:0.37938707 2:0.77381461 3:0.25207537 4:0.62070003 5:0.41720103 6:0.68382526 7:0.60261917 8:0.44392892 9:0.60049966 10:0.11534786 11:0.83559595 12:0.46627608 13:0.30632631 14:0.66304236 15:0.24884639 16:0.72309846 17:0.54373688 18:0.51793496 
0 4 1:0.30925175 2:0.654847 3:0.35089262 4:0.56330759 5:0.66931873 6:0.75547204 7:0.53412917 8:0.53102542 9:0.84324016 10:0.29727246 11:0.6441825 12:0.45101964 13:0.48218686 14:0.77441048 15:0.41615909 16:0.87337328 17:0.69827328 18:0.50008435 
4 4 1:0.38198353 2:0.70494698 3:0.28688038 4:0.5368268 5:0.66981512 6:0.72542527 7:0.59911477 8:0.53193858 9:0.68034452 10:0.14437911 11:0.6921234 12:0.61925144 13:0.43629368 14:0.78802466 15:0.38884135 16:0.54026962 17:0.4407113 18:0.4485552 
0 4 1:0.34078753 2:0.7810528 3:0.15800832 4:0.82730875 5:0.27907662 6:0.5854338 7:0.52996552 8:0.28393965 9:0.69437236 10:0.20179321 11:0.71684245 12:0.28453036 13:0.4344579 14:0.70720802 15:0.29400647 16:0.96860795 17:0.46786058 18:0.51188149 
0 4 1:0.41656792 2:0.68203816 3:0.17972672 4:0.87427368 5:0.56785285 6:0.49939566 7:0.60845442 8:0.43784523 9:0.68775657 10:0.27857754 11:0.62350585 12:0.47868354 13:0.5706457 14:0.5939953 15:0.20471605 16:0.74838648 17:0.42079622 18:0.41656815 
0 4 1:0.33184476 2:0.78490733 3:0.25538128 4:0.69812717 5:0.57171068 6:0.62259933 7:0.60389402 8:0.45318701 9:0.57531657 10:0.25952441 11:0.83229041 12:0.53168904 13:0.74293889 14:0.83613784 15:0.19160245 16:0.57023241 17:0.47622153 18:0.56673622 
0 4 1:0.3385054 2:0.7354195 3:0.30748414 4:0.72178042 5:0.56272749 6:0.67437432 7:0.59068278 8:0.36987578 9:0.56800691 10:0.34202038 11:0.94127925 12:0.52205713 13:0.55280299 14:0.73962572 15:0.1956355 16:0.67427548 17:0.55871385 18:0.51885039 
0 4 1:0.30481275 2:0.69804659 3:0.32536702 4:0.60895885 5:0.59340715 6:0.61465004 7:0.60761965 8:0.57297678 9:0.62064579 10:0.2340457 11:0.78532614 12:0.67375292 13:0.8116387 14:0.70308217 15:0.28610808 16:0.781913 17:0.52897374 18:0.60970538 
0 4 1:0.32691991 2:0.7225926 3:0.2139926 4:0.81346327 5:0.37348795 6:0.61490454 7:0.48943149 8:0.43851763 9:0.77989229 10:0.24906299 11:0.78132075 12:0.3554374 13:0.48423514 14:0.76593231 15:0.27969487 16:0.79533106 17:0.59604392 18:0.52397525 
0 4 1:0.39147586 2:0.88836116 3:0.22003137 4:0.65588977 5:0.51262159 6:0.63571754 7:0.43314458 8:0.46008459 9:0.80235746 10:0.13151003 11:0.65774139 12:0.53944088 13:0.66655566 14:0.6469085 15:0.14175028 16:0.72611365 17:0.51349743 18:0.62280514 
0 4 1:0.36232792 2:0.70457834 3:0.2734879 4:0.64663033 5:0.52731091 6:0.64047287 7:0.55891302 8:0.46981196 9:0.698727 10:0.26921947 11:0.71632441 12:0.53943967 13:0.66738859 14:0.62775881 15:0.20494778 16:0.76954696 17:0.53387566 18:0.54337651 
0 4 1:0.20261497 2:0.67371292 3:0.25742756 4:0.067018727 5:0.73406335 6:0.46813645 7:0.2200643 8:0.39662404 9:0.38259697 10:0.52426955 11:0.42272072 12:0.31120608 13:0.70911361 14:0.70359606 15:0.55621865 16:0.58563319 17:0.57762101 18:0.64725364 
0 4 1:0.18616726 2:0.64272914 3:0.19222918 4:0.011683133 5:0.70581055 6:0.45783257 7:0.31727639 8:0.53964371 9:0.42983723 10:0.57146567 11:0.50843084 12:0.37909816 13:0.81308215 14:0.69473281 15:0.57175402 16:0.47422603 17:0.66301624 18:0.72616755 
4 0 1:0.30361251 2:0.5691801 3:0.50148662 4:0.5937721 5:0.74824553 6:0.74464371 7:0.31439595 8:0.7470577 9:0.51121428 10:0.74915741 11:0.7676443 12:0.21867907 13:0.79676738 14:0.57143538 15:0.5713899 16:0.59615153 17:0.38827334 18:0.59334905 
0 4 1:0.20004581 2:0.5446463 3:0.27809828 4:0.30361217 5:0.4555518 6:0.70130908 7:0.2512962 8:0.55429801 9:0.26984463 10:0.37083359 11:0.63923166 12:0.36477105 13:0.70028797 14:0.64401986 15:0.52208705 16:0.58047899 17:0.36276122 18:0.73070921 
0 4 1:0.27902362 2:0.30205603 3:0.42080743 4:0.41991672 5:0.56852563 6:0.76408339 7:0.21665935 8:0.84910012 9:0.58985029 10:0.49909114 11:0.94600826 12:0.27035703 13:0.58956304 14:0.65382547 15:0.55936205 16:0.63231022 17:0.5637351 18:0.53002945 
4 0 1:0.3264861 2:0.5097355 3:0.64956671 4:0.53942061 5:0.74080097 6:0.73793972 7:0.3117222 8:0.72025233 9:0.45397699 10:0.72223125 11:0.89425328 12:0.27995369 13:0.82537965 14:0.42469333 15:0.43924129 16:0.54129783 17:0.35929242 18:0.49837478 
0 4 1:0.39151391 2:0.41025284 3:0.45361579 4:0.43786343 5:0.35543141 6:0.76083921 7:0.22951653 8:0.75197535 9:0.45266675 10:0.53573875 11:0.75567191 12:0.15785919 13:0.88126812 14:0.49843578 15:0.65029729 16:0.72101321 17:0.56519907 18:0.59026241 
4 0 1:0.46990038 2:0.55988284 3:0.84151739 4:0.51786714 5:0.66591917 6:0.72581618 7:0.30672465 8:0.47491276 9:0.45961886 10:0.66925065 11:0.34986954 12:0.58665801 13:0.73590021 14:0.67343727 15:0.32365241 16:0.60973077 17:0.44416758 18:0.51635153 
4 0 1:0.53932534 2:0.4894123 3:0.76184425 4:0.54727953 5:0.50986562 6:0.5810645 7:0.41319688 8:0.52117862 9:0.48080041 10:0.63801017 11:0.32879193 12:0.68478175 13:0.51105642 14:0.55582985 15:0.46672675 16:0.3882997 17:0.54160241 18:0.9073954 
4 0 1:0.54005672 2:0.59955512 3:0.78620646 4:0.46966905 5:0.64219273 6:0.73063385 7:0.41482575 8:0.4938043 9:0.40942306 10:0.6742756 11:0.62877603 12:0.51347883 13:0.61259994 14:0.59413129 15:0.17018611 16:0.61054926 17:0.6113899 18:0.71628935 
4 0 1:0.45101992 2:0.56569627 3:0.8618628 4:0.52280628 5:0.68929209 6:0.67823806 7:0.33448901 8:0.50110639 9:0.42064697 10:0.74282763 11:0.42877952 12:0.55794881 13:0.61594394 14:0.59190625 15:0.28327064 16:0.63043989 17:0.59331385 18:0.56011257 
0 2.5375563853490974 1:0.6107931 2:0.49250077 3:0.75111728 4:0.54330201 5:0.51717686 6:0.76992012 7:0.33429942 8:0.42779899 9:0.41055512 10:0.60621903 11:0.44651212 12:0.58106553 13:0.5420412 14:0.70464299 15:0.42857093 16:0.55553884 17:0.834751 18:0.93118372 
4 4 1:0.59483525 2:0.58178573 3:0.72112991 4:0.41685544 5:0.58747646 6:0.76862923 7:0.37503966 8:0.53453916 9:0.50059473 10:0.68730468 11:0.49314955 12:0.50983219 13:0.73748826 14:0.65867419 15:0.26993759 16:0.52600295 17:0.57868815 18:0.70351284 
4 0 1:0.47047547 2:0.60000614 3:0.88803716 4:0.42037837 5:0.59703443 6:0.8170336 7:0.43599001 8:0.61009766 9:0.53762359 10:0.64686276 11:0.50839917 12:0.66792473 13:0.55966057 14:0.68793055 15:0.32257357 16:0.51010725 17:0.64208734 18:0.74054671 
4 4 1:0.44160314 2:0.62931684 3:0.87026382 4:0.42385454 5:0.62413658 6:0.74233311 7:0.47184262 8:0.67672094 9:0.55186054 10:0.61487427 11:0.40869488 12:0.57687364 13:0.41685855 14:0.68177236 15:0.31029559 16:0.4845147 17:0.66681698 18:0.76702537 
4 0 1:0.50859851 2:0.53372535 3:0.80173371 4:0.54186555 5:0.5457708 6:0.78843436 7:0.3160776 8:0.51355436 9:0.40554229 10:0.59151663 11:0.50318491 12:0.5348392 13:0.58832623 14:0.63702335 15:0.38234759 16:0.50962951 17:0.4535313 18:0.63458421 
4 0 1:0.48208752 2:0.55825198 3:0.86994191 4:0.46465686 5:0.54008636 6:0.77230771 7:0.43012431 8:0.55266375 9:0.49451034 10:0.67092786 11:0.54385229 12:0.51772626 13:0.57981553 14:0.72577924 15:0.32242336 16:0.52740909 17:0.56346775 18:0.74107883 
4 4 1:0.67166871 2:0.5622628 3:0.71487034 4:0.44619459 5:0.62417429 6:0.78728005 7:0.37331427 8:0.63100574 9:0.420009 10:0.616789 11:0.62451934 12:0.46748453 13:0.4327681 14:0.62743052 16:0.40786937 17:0.63662694 18:0.48955716 
4 0 1:0.48443448 2:0.60071868 3:0.8249084 4:0.54062279 5:0.72714627 6:0.78066245 7:0.46662442 8:0.53147065 9:0.39746462 10:0.64276529 11:0.42100895 12:0.59647148 13:0.5087787 14:0.6078417 15:0.25307744 16:0.46722466 17:0.70259247 18:0.65077076 
4 0 1:0.41769936 2:0.54846486 3:0.84803002 4:0.40280264 5:0.58088229 6:0.80887339 7:0.44351085 8:0.60064161 9:0.50013026 10:0.65655744 11:0.50246726 12:0.65762213 13:0.57237469 14:0.81821066 15:0.36969509 16:0.39444251 17:0.52044482 18:0.53641567 
0 4 1:0.75720126 2:0.459993 3:0.74620524 4:0.4938794 5:0.57083262 6:0.74734791 7:0.34079785 8:0.52219781 9:0.40219125 10:0.61881878 11:0.4094914 12:0.46728582 13:0.53415085 14:0.59068735 15:0.36772843 16:0.61837795 17:0.69197795 18:0.49439546 
4 4 1:0.49427296 2:0.60812185 3:0.76279161 4:0.44935905 5:0.6806778 6:0.78438276 7:0.36875016 8:0.62650593 9:0.54190303 10:0.66470035 11:0.58380601 12:0.54149343 13:0.51750957 14:0.67759373 15:0.26672979 16:0.30589586 17:0.61866091 18:0.45807451 
0 4 1:0.61302941 2:0.52652465 3:0.72986001 4:0.44723711 5:0.52207292 6:0.76782829 7:0.21328333 8:0.4704697 9:0.40890667 10:0.63697075 11:0.62508521 12:0.57683482 13:0.58457513 14:0.66019041 15:0.28395669 16:0.5161714 17:0.72109289 18:0.82131195 
4 0 1:0.55238327 2:0.60259002 3:0.75738785 4:0.50250486 5:0.77561048 6:0.78950955 7:0.35532404 8:0.50276159 9:0.42669414 10:0.73486168 11:0.488919 12:0.59026226 13:0.59965999 14:0.57012811 15:0.31973821 16:0.47999199 17:0.62792491 18:0.54370756 
4 0 1:0.49281372 2:0.65854831 3:0.77931078 4:0.41378188 5:0.71913561 6:0.7083177 7:0.33136162 8:0.61323011 9:0.3732736 10:0.63928569 11:0.64290391 12:0.64522052 13:0.54511002 14:0.63333928 15:0.40637635 16:0.55524964 17:0.77005509 18:0.51331714 
4 4 1:0.62907774 2:0.65734707 3:0.73582258 4:0.43519079 5:0.54782895 6:0.70146357 7:0.48012302 8:0.5272906 9:0.31331111 10:0.68056205 11:0.50772464 12:0.5229011 13:0.49890499 14:0.62986155 15:0.50135332 16:0.56431297 17:0.62974064 18:0.59657509 
4 0 1:0.49510072 2:0.69435191 3:0.84788325 4:0.45110483 5:0.69390123 6:0.66868962 7:0.45811882 8:0.62719199 9:0.33236359 10:0.68618508 11:0.57327192 12:0.58670248 13:0.56735136 14:0.53959248 15:0.284497 16:0.5049439 17:0.82975248 18:0.64652262 
4 0 1:0.44876786 2:0.6144937 3:0.82398804 4:0.40283239 5:0.70833442 6:0.74797025 7:0.4705806 8:0.6543049 9:0.47321801 10:0.65978986 11:0.63824104 12:0.62953911 13:0.54244497 14:0.54615147 15:0.38190789 16:0.65065352 17:0.78266397 18:0.88333506 
4 4 1:0.7327872 2:0.52703772 3:0.87988549 4:0.54393748 5:0.63873441 6:0.73482739 7:0.28653025 8:0.73242148 9:0.47305003 10:0.56983639 11:0.51559977 12:0.62868446 13:0.25770405 14:0.55423254 15:0.47447866 16:0.68965777 17:0.56343997 18:0.50874595 
4 4 1:0.78348705 2:0.3792722 3:0.88050774 4:0.70838826 5:0.52975171 6:0.77067029 7:0.25540844 8:0.56515775 9:0.44225144 10:0.5120144 11:0.48706203 12:0.50157486 13:0.28479635 14:0.67303178 15:0.44116059 16:0.73301058 17:0.31251659 18:0.43711984 
4 0 1:0.46856096 2:0.47798508 3:0.90240393 4:0.43871042 5:0.63107697 6:0.58659731 7:0.38662932 8:0.56547775 9:0.49968121 10:0.63571469 11:0.68125785 12:0.55547987 13:0.56365146 14:0.66742015 15:0.59573961 16:0.68067589 17:0.62838075 18:0.54828162 
4 4 1:0.59411679 2:0.42694256 3:0.86017586 4:0.58811105 5:0.79498727 6:0.83129746 7:0.38512575 8:0.69220809 9:0.47205188 10:0.63388386 11:0.5031902 12:0.52011888 13:0.52545922 14:0.5931728 15:0.44950872 16:0.51579103 17:0.38131035 18:0.54922194 
4 4 1:0.64735752 2:0.65823746 3:0.83300787 4:0.47303784 5:0.66703384 6:0.57540723 7:0.41979523 8:0.70939244 9:0.60182231 10:0.57160026 11:0.52015792 12:0.44473332 13:0.54511159 14:0.53500238 15:0.4424124 16:0.67408951 17:0.47751977 18:0.53349259 
4 4 1:0.78752287 2:0.63999446 3:0.82284508 4:0.51425485 5:0.52723694 6:0.60481629 7:0.2100329 8:0.64033082 9:0.49928529 10:0.59536718 11:0.53979393 12:0.46925876 13:0.44127957 14:0.68189985 15:0.53567094 16:0.70546602 17:0.44001356 18:0.45683416 
4 4 1:0.71993802 2:0.64850494 3:0.85882184 4:0.50616895 5:0.65294201 6:0.67311969 7:0.28492433 8:0.68860556 9:0.48263392 10:0.57881558 11:0.52966917 12:0.50208241 13:0.4417356 14:0.65605468 15:0.53646932 16:0.73344251 17:0.51858296 18:0.55744543 
4 4 1:0.7417879 2:0.58604304 3:0.78626654 4:0.527799 5:0.56142738 6:0.59840957 7:0.32954303 8:0.77240275 9:0.60771264 10:0.67798141 11:0.56349071 12:0.59451692 13:0.58854261 14:0.67510735 15:0.38048346 16:0.66024435 17:0.38750287 18:0.46118855 
4 4 1:0.75047657 2:0.69193835 3:0.80621354 4:0.45926573 5:0.52746157 6:0.58844783 7:0.30931941 8:0.63486226 9:0.53651871 10:0.5660316 11:0.63171235 12:0.55846188 13:0.38058089 14:0.53446813 15:0.3713549 16:0.58319495 17:0.49385718 18:0.43410233 
0 4 1:0.84228285 2:0.38839551 3:0.64624699 4:0.62983068 5:0.3777851 6:0.54539837 7:0.18542368 8:0.62076836 9:0.32754353 10:0.53768686 11:0.42178099 12:0.53681263 13:0.22243837 14:0.775828 15:0.42792599 16:0.67709098 17:0.47989656 18:0.42628798 
4 4 1:0.48430396 2:0.61165828 3:0.58013686 4:0.60256197 5:0.52933226 6:0.59629661 7:0.49194715 8:0.56666692 9:0.48930302 10:0.50237254 11:0.42362763 12:0.43064278 13:0.66101975 14:0.56091943 15:0.45419771 16:0.53888862 17:0.54549224 18:0.40552127 
0 4 1:0.57183457 2:0.6464681 3:0.51309349 4:0.58069314 5:0.26061788 6:0.81923617 7:0.40027206 8:0.48186576 9:0.62391385 10:0.47178499 11:0.45026847 12:0.59540142 13:0.79516338 14:0.58068564 15:0.24205733 16:0.63963271 17:0.63945133 18:0.59791078 
0 4 1:0.57523302 2:0.59780634 3:0.66235121 4:0.52075091 5:0.37987477 6:0.78043259 7:0.44504273 8:0.51570848 9:0.74402107 10:0.57706627 11:0.62622302 12:0.57451548 13:1 14:0.63885289 15:0.18632685 16:0.44499847 17:0.55848498 18:0.22917806 
0 0.6862715652791701 1:0.58722171 2:0.61086445 3:0.63694245 4:0.59818375 5:0.24829722 6:0.88104635 7:0.47253032 8:0.55764762 9:0.68092245 10:0.52776517 11:0.50474561 12:0.42829396 13:0.87604176 14:0.50535158 15:0.47317726 16:0.74304343 17:0.74548061 18:0.47618109 
4 4 1:0.68852098 2:0.58972739 3:0.51290418 4:0.62634254 5:0.5457298 6:0.62649061 7:0.44072102 8:0.71084708 9:0.43077078 10:0.33994423 11:0.64264153 12:0.74573987 13:0.64756566 14:0.47509502 15:0.38041086 16:0.38921756 17:0.64661938 18:0.61331544 
4 0 1:0.19068644 2:0.77121173 3:0.7212156 4:0.34734272 5:0.73116807 6:0.55145812 7:0.449662 8:0.77311117 9:0.56139387 10:0.59070986 11:0.6113555 12:0.68632739 13:0.55569424 14:0.67371774 15:0.67083969 16:0.77785477 17:0.88472289 18:0.42786281 
0 4 1:0.53590289 2:0.45382126 3:0.74630363 4:0.44187994 5:0.42378616 6:0.85805734 7:0.32871823 8:0.95101848 9:0.45677008 10:0.46968999 11:0.39444363 12:0.64702834 13:0.50748437 14:0.72458594 15:0.37298852 16:0.57094886 17:0.58881906 18:0.56945107 
4 4 1:0.52879631 2:0.54855848 3:0.75569779 4:0.50904985 5:0.59997045 6:0.67318672 7:0.23718847 8:1 9:0.49301678 10:0.452968 11:0.50402797 12:0.50016067 13:0.54878593 14:1 15:0.41713042 16:0.71765731 17:0.46040129 18:0.36764024 
0 1.9649101809123835 1:0.52834036 2:0.47297338 3:0.68821407 4:0.48382198 5:0.43105743 6:0.79571616 7:0.27131488 8:0.99338701 9:0.50250133 10:0.53197825 11:0.4113437 12:0.67238488 13:0.38582363 14:0.87659573 15:0.27924244 16:0.44743792 17:0.3401539 18:0.19015796 
4 4 1:0.59862368 2:0.54253996 3:0.74888591 4:0.4576748 5:0.41244347 6:0.84716501 7:0.26850921 8:0.93867833 9:0.6127495 10:0.58955664 11:0.39833849 12:0.58664896 13:0.47210175 14:0.89433948 15:0.3844528 16:0.59506501 17:0.53768631 18:0.47237882 
0 4 1:0.57007249 2:0.42622283 3:0.60581283 4:0.53058719 5:0.51163877 6:0.80558617 7:0.19872076 8:0.8226234 9:0.46163311 10:0.45086749 11:0.57853169 12:0.64995017 13:0.38359714 14:0.7219033 15:0.38364455 16:0.46470795 17:0.51877792 18:0.58307239 
0 4 1:0.59263824 2:0.4769572 3:0.75872167 4:0.51041003 5:0.36977576 6:0.81756913 7:0.26408869 8:0.97768642 9:0.55475454 10:0.57707323 11:0.52270656 12:0.58429804 13:0.59162522 14:0.93425523 15:0.53623445 16:0.69182357 17:0.6416847 18:0.48672299 
4 4 1:0.23732116 2:0.6299966 3:0.69294558 4:0.39203125 5:0.76760566 6:0.94953125 7:0.34858294 8:0.86852327 9:0.68939188 10:0.58916515 11:0.38151453 12:0.56560305 13:0.73113517 14:0.84782532 15:0.65447053 16:0.62084263 17:0.52295954 18:0.54083477 
4 4 1:0.49728075 2:0.63094739 3:0.92085799 4:0.39249701 5:0.60732057 6:0.78199653 7:0.45516864 8:0.78001086 9:0.49449868 10:0.53813595 11:0.59853703 12:0.55091016 13:0.67906338 14:0.73180298 15:0.50363068 16:0.44280709 17:0.63250334 18:0.41065056 
4 4 1:0.61121399 2:0.61223737 3:0.78790309 4:0.47124449 5:0.60226578 6:0.67113906 7:0.44572908 8:0.81745036 9:0.50084086 10:0.51642101 11:0.55890967 12:0.64854686 13:0.67842288 14:0.73122031 15:0.37188747 16:0.47754729 17:0.57407784 18:0.28368887 
0 4 1:0.57172721 2:0.50690809 3:0.67683084 4:0.53467007 5:0.53993894 6:0.78547952 7:0.27768882 8:0.78163107 9:0.54644075 10:0.58932152 11:0.58967739 12:0.63397683 13:0.43773369 14:0.75691581 15:0.33924622 16:0.55644118 17:0.47245453 18:0.45672405 
4 4 1:0.65519023 2:0.77759925 3:0.90650828 4:0.46296867 5:0.56998106 6:0.71843662 7:0.44324091 8:0.66131463 9:0.67385819 10:0.62112221 11:0.60268393 12:0.68263045 13:0.70039305 14:0.77250464 15:0.46443609 16:0.52175786 17:0.56031697 18:0.49081858 
4 0 1:0.26793344 2:0.73370484 3:0.46841058 4:0.57577751 5:0.62703549 6:0.44748019 7:0.40786996 8:0.79115297 9:0.6841804 10:0.49139471 11:0.44630235 12:0.55715794 13:0.50836451 14:0.62923834 15:0.56690086 16:0.75144406 17:0.49621927 18:0.27569868 
0.99183273969304242 0 1:0.23399894 2:0.76376812 3:0.53750985 4:0.500232 5:0.52510222 6:0.45284139 7:0.38997417 8:0.8554847 9:0.5820866 10:0.3726054 11:0.36975924 12:0.46128021 13:0.76173302 14:0.71978112 15:0.49828216 16:0.67496161 17:0.58732043 18:0.2891833 
4 4 1:0.32116873 2:0.73758424 3:0.65018029 4:0.38140836 5:0.63552051 6:0.57456633 7:0.30506544 8:0.8914165 9:0.64293486 10:0.48033991 11:0.57827478 12:0.71596111 13:0.66817428 14:0.64174942 15:0.59980346 16:0.60493769 17:0.77965988 18:0.49234732 
4 1.0832088867682943 2:0.97378835 3:0.82776469 4:0.037962257 5:0.41407271 6:0.38136098 7:0.49699083 8:0.74349361 9:0.62267616 10:0.54711702 11:0.53819616 12:0.52569255 13:0.72194593 14:0.50235048 15:0.392674 16:0.38709928 17:0.4633345 18:0.48148625 
4 4 1:0.35504649 2:0.80274197 3:0.53686139 4:0.36055642 5:0.84592849 6:0.30390718 7:0.39043385 8:0.87024179 9:0.49559161 10:0.41302139 11:0.52116472 12:0.39260033 13:0.85798322 14:0.76296789 15:0.56173466 16:0.62203684 17:0.39364243 18:0.31399808 
0.49239675307846176 0 1:0.40873031 2:0.52805511 3:0.68020414 4:0.47495631 5:0.56941975 6:0.77247514 7:0.2802872 8:0.94894272 9:0.57769004 10:0.54602858 11:0.69586248 12:0.67971991 13:0.60702899 14:0.55948163 15:0.36223603 16:0.58408488 17:0.46056387 18:0.52703422 
4 4 1:0.40488248 2:0.60665177 3:0.75885172 4:0.4317622 5:0.65322597 6:0.76051501 7:0.49531543 8:0.8387746 9:0.35335446 10:0.57094296 11:0.57345289 12:0.75469397 13:0.51475533 14:0.70795967 15:0.54091357 16:0.37194813 17:0.37048321 18:0.56762171 
4 0 1:0.27740549 2:0.517637 3:0.74444456 4:0.50977448 5:0.80298665 6:0.8712449 7:0.57861241 8:0.8531991 9:0.47318886 10:0.54043857 11:0.74338903 12:0.6965976 13:0.3166832 14:0.68966016 15:0.55489241 16:0.57445242 17:0.48716116 18:0.48125059 
0 0.31003820757422279 1:0.54700723 2:0.43910133 3:0.71019728 4:0.48168224 5:0.58974522 6:0.70899902 7:0.26740931 8:0.84914983 9:0.41749127 10:0.63300074 11:0.56855784 12:0.71611269 13:0.26653709 14:0.88807969 15:0.45215888 16:0.53768699 17:0.34765727 18:0.40318926 
4 4 1:0.55707085 2:0.52089345 3:0.73244209 4:0.43417125 5:0.69331908 6:0.59450664 7:0.33869878 8:0.81266715 9:0.34490886 10:0.66351111 11:0.61418845 12:0.77575509 13:0.4261995 14:0.63212268 15:0.45385807 16:0.4524884 17:0.48275331 18:0.46636249 
4 4 1:0.57960964 2:0.5703557 3:0.75074474 4:0.50643051 5:0.68594403 6:0.62285515 7:0.30226894 8:0.76639978 9:0.34706262 10:0.51609726 11:0.70036762 12:0.70669918 13:0.36899534 14:0.61352912 15:0.51076703 16:0.46845893 17:0.56770168 18:0.45591177 
4 0 1:0.55605006 2:0.58740131 3:0.76352299 4:0.46998221 5:0.72659317 6:0.61048845 7:0.28986256 8:0.80422942 9:0.34503318 10:0.59769597 11:0.5709824 12:0.76249054 13:0.39389517 14:0.71475745 15:0.56297819 16:0.61380187 17:0.72809999 18:0.50740832 
4 0 1:0.2001346 2:0.70546198 3:0.71416579 4:0.58517133 5:0.57084102 6:0.6990966 7:0.30389591 8:0.86429657 9:0.43059913 10:0.55208701 11:0.68034841 12:0.56298926 13:0.39174746 14:0.47904343 15:0.56922719 16:0.62041601 17:0.52400036 18:0.46368958 
4 0 1:0.25976632 2:0.56746125 3:0.5004638 4:0.61778688 5:0.96905845 6:0.73100983 7:0.31383244 8:0.76796724 9:0.3855025 10:0.65290019 11:0.53505594 12:0.51843933 13:0.55221351 14:0.56794511 15:0.558618 16:0.56288415 17:0.33828887 18:0.34462526 
4 0 1:0.15504655 2:0.6436478 3:0.5474096 4:0.48448925 5:0.97431488 6:0.91268016 7:0.22340941 8:0.60836058 9:0.6087329 10:0.70043254 11:0.53321197 12:0.60271283 13:0.52870742 14:0.4631545 15:0.71499983 16:0.56925398 17:0.49901165 18:0.64624152 
0 4 1:0.21237117 2:0.70008521 3:0.099767808 4:0.78577983 5:0.16352157 6:0.45977667 7:0.31357945 8:0.37141886 9:0.68759342 10:0.33422572 11:0.74498109 12:0.22659271 13:0.53090686 14:0.70102807 15:0.39533764 16:0.72437428 17:0.21942347 18:0.4880921 
0 4 1:0.45466293 2:0.78250821 3:0.031886746 4:0.73321703 5:0.23801183 6:0.43073612 7:0.40858409 8:0.33814533 9:0.63245341 10:0.19434776 11:0.68623399 12:0.21554428 13:0.43186313 14:0.70225375 15:0.32105915 16:0.69866556 17:0.30223351 18:0.51001754 
0 4 1:0.47968178 2:0.6933295 3:0.17159252 4:0.66278109 5:0.042761963 6:0.3308451 7:0.30416533 8:0.34570939 9:0.56904721 10:0.18256588 11:0.68171072 12:0.2227131 13:0.67180026 14:0.71877389 15:0.32010432 16:0.73618818 17:0.39888099 18:0.75676035 
0 4 1:0.35691921 2:0.53272093 3:0.08723157 4:0.78236167 5:0.42764995 6:0.43820488 7:0.53826668 8:0.46314073 9:0.64683 10:0.33501984 11:0.67167428 12:0.39058449 13:0.7720506 14:0.73763497 15:0.34626557 16:0.77200459 17:0.38751352 18:0.49939856 
0 4 1:0.53394211 2:0.70291125 3:0.15038773 4:0.7552194 5:0.21151627 6:0.61637829 7:0.42048629 8:0.32591072 9:0.68289167 10:0.13819096 11:0.65983373 12:0.30558176 13:0.56352509 14:0.68638492 15:0.31762254 16:0.83753932 17:0.25286926 18:0.51219108 
0 4 1:0.3422983 2:0.59404669 3:0.15386199 4:0.81292723 5:0.35264334 6:0.48331955 7:0.40939755 8:0.32465706 9:0.62230067 10:0.29678255 11:0.74366564 12:0.23724529 13:0.51500967 14:0.76439864 15:0.3645872 16:0.773742 17:0.49956705 18:0.59427225 
0 4 1:0.4162126 2:0.55938098 3:0.10097001 4:0.73632338 5:0.32050532 6:0.42677504 7:0.44232175 8:0.43611193 9:0.58284155 10:0.36280615 11:0.81891544 12:0.44314493 13:0.65234907 14:0.58655185 15:0.18430591 16:0.61796364 17:0.51963433 18:0.78030409 
0 4 1:0.47249944 2:0.70139209 3:0.086227634 4:0.7787137 5:0.11651991 6:0.47246081 7:0.39479384 8:0.34305037 9:0.64396795 10:0.12386988 11:0.78784948 12:0.21254902 13:0.51405334 14:0.6297635 15:0.1511856 16:0.77119013 17:0.17632477 18:0.52125471 
0 4 1:0.40628969 2:0.69136395 3:0.11540097 4:0.64641956 5:0.15289882 6:0.54095407 7:0.41581823 8:0.40374531 9:0.68800796 10:0.18528054 11:0.58525254 12:0.27740708 13:0.53147713 14:0.53936449 15:0.29136688 16:0.69323146 17:0.26829515 18:0.69489364 
0 4 1:0.39825638 2:0.6305314 3:0.23928009 4:0.65788964 5:0.18583159 6:0.47352829 7:0.26725704 8:0.37029113 9:0.5753126 10:0.245552 11:0.69396669 12:0.33404077 13:0.64712948 14:0.58487853 15:0.29973229 16:0.75510234 17:0.26871623 18:0.59937331 
0 4 1:0.38000588 2:0.6821486 3:0.19732329 4:0.81120521 5:0.11157625 6:0.45975772 7:0.51476162 8:0.31035822 9:0.63125489 10:0.23791398 11:0.75123069 12:0.41742686 13:0.48618889 14:0.64325318 15:0.30219109 16:0.76679547 17:0.47128913 18:0.70608367 
0 4 1:0.45538468 2:0.65681395 3:0.20885977 4:0.64745234 5:0.22645424 6:0.44265327 7:0.42611881 8:0.41145567 9:0.6232031 10:0.30252491 11:0.77215517 12:0.26870549 13:0.47300826 14:0.63701738 15:0.27831096 16:0.61904903 17:0.22785921 18:0.60960084 
0 4 1:0.37660426 2:0.64479989 3:0.10959433 4:0.71225423 5:0.38093779 6:0.43235448 7:0.3934917 8:0.40480126 9:0.596275 10:0.33497278 11:0.69077328 12:0.34005858 13:0.56993554 14:0.64155987 15:0.34612165 16:0.73447226 17:0.54095197 18:0.67700823 
0 4 1:0.25527325 2:0.69357972 3:0.16987055 4:0.78051265 5:0.227281 6:0.59908234 7:0.43889832 8:0.33771537 9:0.59404455 10:0.13583477 11:0.79821528 12:0.39982382 13:0.60602986 14:0.68841477 15:0.20033896 16:0.62058495 17:0.37023338 18:0.50298831 
0 4 1:0.40305976 2:0.68328145 3:0.27115833 4:0.82816414 5:0.2672259 6:0.68556393 7:0.58465484 8:0.36758804 9:0.82507259 10:0.34632424 11:0.79826363 12:0.45540379 13:0.62955146 14:0.63458892 15:0.28433693 16:0.85654787 17:0.48930589 18:0.79555074 
0 4 1:0.29166473 2:0.67043792 3:0.27154863 4:0.69966021 5:0.090938499 6:0.55223501 7:0.44342899 8:0.28827879 9:0.71666737 10:0.24419735 11:0.6142061 12:0.36471349 13:0.63463136 14:0.67919657 15:0.2962595 16:0.68743513 17:0.34606356 18:0.85876714 
4 4 1:0.34806449 2:0.78196287 3:0.37502543 4:0.95865081 5:0.18304942 6:0.50723517 7:0.51450339 8:0.5270358 9:0.65781065 10:0.083481316 11:0.65689587 12:0.14912245 13:0.50504124 14:0.73896677 15:0.25679615 16:0.48464712 17:0.29534187 18:0.78580267 
0 4 1:0.33293548 2:0.69533762 3:0.12584354 4:1 5:0.16652777 6:0.55390393 7:0.56164767 8:0.46246349 9:0.88888822 10:0.29349665 11:0.94586849 12:0.37413544 13:0.69849732 14:0.77149137 15:0.25397453 16:0.82797537 17:0.36336902 18:0.83895335 
0 4 1:0.27478559 2:0.7388118 3:0.21906194 4:0.89016915 5:0.17478506 6:0.71202039 7:0.5244426 8:0.36053224 9:1 10:0.31940521 11:0.75826796 12:0.32512386 13:0.62733363 14:0.78673431 15:0.38426985 16:0.81480591 17:0.38283666 18:0.79791211 
0 4 1:0.36651205 2:0.66955803 3:0.29198437 4:0.96122905 5:0.27207076 6:0.54456272 7:0.50023434 8:0.54344714 9:0.86760465 10:0.46531187 11:0.870183 12:0.26795362 13:0.64619904 14:0.7783098 15:0.31498978 16:0.57782725 17:0.25646276 18:0.60210161 
4 4 1:0.45446922 2:0.74599918 3:0.35138503 4:0.86151019 5:0.20559014 6:0.54204805 7:0.50714548 8:0.49786742 9:0.60339949 10:0.17886617 11:0.64230689 12:0.19290807 13:0.41946647 14:0.59272055 15:0.33042088 16:0.60148992 17:0.17341119 18:0.587606 
0 4 1:0.36394526 2:0.68589085 3:0.39379821 4:0.83777004 5:0.34072143 6:0.54645833 7:0.56084619 8:0.47002316 9:0.81168288 10:0.39506769 11:0.79177311 12:0.43469162 13:0.58863582 14:0.77994343 15:0.34343711 16:0.68703448 17:0.41019647 18:0.50989831 
0 4 1:0.35179097 2:0.66306459 3:0.21032185 4:0.92898184 5:0.29138769 6:0.49328161 7:0.56178823 8:0.57155773 9:0.85686077 10:0.28280754 11:0.78469116 12:0.3739672 13:0.64536741 14:0.78343699 15:0.36139465 16:0.89251953 17:0.41613843 18:0.65913201 
4 0 1:0.60330271 2:0.29580463 3:0.84273044 4:0.58337409 5:0.67018397 6:0.87032303 7:0.31776249 8:0.74145085 9:0.30719696 10:0.70969258 11:0.3905036 12:0.57453188 13:0.52362639 14:0.59170616 15:0.46885708 16:0.59897155 17:0.28377401 18:0.6476926 
4 4 1:0.61080063 2:0.30253193 3:0.87365154 4:0.48050692 5:0.67957212 6:0.9496698 7:0.33218821 8:0.8557333 9:0.45205296 10:0.62538104 11:0.37278198 12:0.54836701 13:0.19957786 14:0.58357462 15:0.44738643 16:0.64094231 17:0.20665993 18:0.61181288 
2.0069235295721315 4 1:0.73270294 2:0.41345691 3:0.68584028 4:0.60323507 5:0.53063306 6:0.77514036 7:0.23296745 8:0.91114049 9:0.11761248 10:0.66759325 11:0.49046043 12:0.45309035 13:0.53858066 14:0.46207104 15:0.35621925 16:0.42977929 17:0.30820472 18:0.3909129 
0 4 1:0.64511571 2:0.37652654 3:0.65413912 4:0.326439 5:0.63486018 6:0.74131364 7:0.15842502 8:0.78449651 9:0.17127344 10:0.58963542 11:0.21876705 12:0.46508654 13:0.58521411 14:0.53181848 15:0.3688643 16:0.48194021 17:0.27350398 18:0.67592704 
0 4 1:0.60029334 2:0.35398787 3:0.67626998 4:0.4258198 5:0.52694316 6:0.67606244 7:0.14685798 8:0.85792671 9:0.26622366 10:0.66927994 11:0.35912006 12:0.39809454 13:0.4051638 14:0.44354681 15:0.60854892 16:0.63929636 17:0.22844556 18:0.49490912 
4 0 1:0.58033453 2:0.34564738 3:0.91495018 4:0.49349511 5:0.76747098 6:0.89148302 7:0.2580725 8:0.78945379 9:0.43551378 10:0.73488774 11:0.59455635 12:0.63112743 13:0.46790242 14:0.42889953 15:0.51767188 16:0.51317313 17:0.099334769 18:0.41514792 
0 4 1:0.80577048 2:0.47964913 3:0.64980699 4:0.48390896 5:0.49018573 6:0.63788215 7:0.25332637 8:0.83227877 9:0.18923421 10:0.7545475 11:0.36830431 12:0.56262901 13:0.4840404 14:0.57132949 15:0.43008836 16:0.60713544 17:0.39934646 18:0.66207996 
4 4 1:0.61161983 2:0.2267564 3:0.88242218 4:0.56300806 5:0.61145067 6:0.78339203 7:0.25609098 8:0.86434542 9:0.34036097 10:0.56594416 11:0.3070687 12:0.5168649 13:0.24040409 14:0.38964186 15:0.38323235 16:0.41243882 17:0.22182439 18:0.53967533 
0 4 1:0.48425866 2:0.34608281 3:0.7235761 4:0.42127554 5:0.51294121 6:0.8067337 7:0.18372267 8:0.79640419 9:0.36216011 10:0.63109603 11:0.41425353 12:0.5663292 13:0.38430558 14:0.63323054 15:0.45816327 16:0.46782683 17:0.17900536 18:0.59862329 
4 0 1:0.58530321 2:0.22441285 3:0.87866614 4:0.52841727 5:0.68727106 6:0.91348523 7:0.41251101 8:0.68938232 9:0.44904623 10:0.73466367 11:0.32844235 12:0.67993812 13:0.46876584 14:0.63705462 15:0.51452585 16:0.74597956 17:0.17608817 18:0.59792711 
0 4 1:0.58914381 2:0.39744922 3:0.46462142 4:0.44816269 5:0.56204441 6:0.76051576 8:0.78657205 9:0.34446695 10:0.65809841 11:0.51127783 12:0.4204697 13:0.61347005 14:0.30564489 15:0.29565602 16:0.40920287 17:0.42541581 18:0.42602206 
0 4 1:0.56802194 2:0.40957477 3:0.6435843 4:0.40439768 5:0.50193912 6:0.72003157 7:0.15100261 8:0.68233902 9:0.11523577 10:0.63012387 11:0.21895586 12:0.27915043 13:0.42623805 14:0.5513281 15:0.37839768 16:0.63795632 17:0.27055356 18:0.30389853 
0 4 1:0.63230534 2:0.26178611 3:0.69535504 4:0.33390478 5:0.57460464 6:0.76434302 7:0.089878327 8:0.73300188 9:0.23044735 10:0.6728554 11:0.40374673 12:0.49500222 13:0.44966461 14:0.54819922 15:0.49494939 16:0.55240054 17:0.23210764 18:0.42791274 
0 4 1:0.69084467 2:0.33822588 3:0.59006186 4:0.28356406 5:0.51022538 6:0.75359057 7:0.18994029 8:0.70516964 9:0.19647025 10:0.64348306 11:0.20275174 12:0.47101963 13:0.56113695 14:0.56276147 15:0.38390205 16:0.44446393 17:0.21439167 18:0.52268598 
3.9514027976425297 4 1:0.70079853 2:0.2956879 3:0.71602145 4:0.4239185 5:0.63404774 6:0.75333956 7:0.2220188 8:0.7122087 9:0.32222297 10:0.75825552 11:0.34572649 12:0.59419621 13:0.61226848 14:0.49472693 15:0.2576874 16:0.3681192 17:0.16365236 18:0.70823428 
0 4 1:0.51214435 2:0.54487276 3:0.60032293 4:0.41102546 5:0.5788279 6:0.73932025 7:0.28401949 8:0.72546245 9:0.27598553 10:0.6633512 11:0.49130016 12:0.58747872 13:0.6341629 14:0.53470104 15:0.3657141 16:0.42695271 17:0.31914823 18:0.61877239 
4 0 1:0.64117448 2:0.3019943 3:0.82079347 4:0.5655403 5:0.63081086 6:0.92203369 7:0.3198079 8:0.70250734 9:0.54630704 10:0.75439538 11:0.34803378 12:0.81617145 13:0.49763138 14:0.59798145 15:0.47122141 16:0.58011221 17:0.03239781 18:0.52473931 
0 4 1:0.59073666 2:0.33580637 3:0.71999323 4:0.40440665 5:0.60847728 6:0.79239857 7:0.18163705 8:0.7380822 9:0.37607626 10:0.67642892 11:0.47681711 12:0.56224392 13:0.37070634 14:0.48246446 15:0.38837783 16:0.40843855 17:0.24655748 18:0.62176678 
0 4 1:0.78693521 2:0.46683976 3:0.22376743 4:0.25327883 5:0.5198736 6:0.5934068 7:0.1995055 8:0.650837 9:0.15695106 10:0.55561018 11:0.31541541 12:0.27235833 13:0.42832898 14:0.57503383 15:0.54843492 16:0.72157576 17:0.24451657 18:0.24924519 
0 4 1:0.74110865 2:0.44059939 3:0.29369722 4:0.27605969 5:0.48337378 6:0.48457746 7:0.22034947 8:0.59497928 9:0.078807968 10:0.70496781 11:0.38582895 12:0.46495033 13:0.34829469 14:0.56467068 15:0.40618326 16:0.71116994 17:0.28102103 18:0.6704686 
0 4 1:0.57761562 2:0.59398257 3:0.52002111 4:0.45189905 5:0.51789699 6:0.60689899 7:0.19059831 8:0.68810912 9:0.26379462 10:0.64653297 11:0.28476465 12:0.56766721 13:0.5450314 14:0.41690177 15:0.38462287 16:0.45734603 17:0.18267401 18:0.44776442 
0 4 1:0.48095558 2:0.41542863 3:0.53877104 4:0.32775658 5:0.65850001 6:0.79893495 7:0.26456298 8:0.81034073 9:0.28462557 10:0.71409917 11:0.35117285 12:0.44332021 13:0.52974621 14:0.65022046 15:0.50991424 16:0.57376805 17:0.33279822 18:0.47631312 
0 4 1:0.69619905 2:0.45704792 3:0.50463521 4:0.37887445 5:0.31470408 6:0.60226188 7:0.17058027 8:0.80812084 9:0.1995705 10:0.49404749 11:0.28399788 12:0.44999828 13:0.48055818 14:0.58294161 15:0.41925299 16:0.43748948 17:0.080618526 18:0.5822104 
0 4 1:0.71554781 2:0.52011831 3:0.58196672 4:0.42338719 5:0.48419039 6:0.78045594 7:0.25380361 8:0.71886426 9:0.19037562 10:0.76610367 11:0.38173496 12:0.65573694 13:0.55578911 14:0.61310581 15:0.35209997 16:0.33395796 17:0.32165885 18:0.57214551 
0 4 1:0.55963747 2:0.15273517 3:0.58695873 4:0.41042902 5:0.44430211 6:0.81915635 7:0.20314609 8:0.75372005 9:0.27538121 10:0.60849911 11:0.58680258 12:0.51784715 13:0.3256643 14:0.6203151 15:0.48921335 16:0.42111212 17:0.35661252 18:0.76548359 
0 4 1:0.49179151 2:0.51365178 3:0.59576396 4:0.38049873 5:0.61875955 6:0.81842886 7:0.24040103 8:0.74023693 9:0.182883 10:0.52771003 11:0.43137193 12:0.482711 13:0.54187395 14:0.61777075 15:0.45883212 16:0.50311456 17:0.28256852 18:0.56971427 
4 4 1:0.64421414 2:0.39628795 3:0.82704209 4:0.54023924 5:0.79678388 6:0.90051394 7:0.24619243 8:0.86137402 9:0.36119827 10:0.70175981 11:0.42947611 12:0.71271031 13:0.44593485 14:0.5944904 15:0.39400936 16:0.4947194 17:0.3164758 18:0.65763101 
0 4 1:0.82562611 2:0.24500858 3:0.40619495 4:0.59391607 5:0.52242364 6:0.70730737 7:0.27745344 8:0.64039938 9:0.24264974 10:0.81608781 11:0.68325875 12:0.49182922 13:0.3513209 14:0.65385353 15:0.46361948 16:0.41960292 17:0.32247578 18:0.44926047 
0 4 1:0.55721394 2:0.30512739 3:0.61902069 4:0.33868602 5:0.44091363 6:0.72770047 7:0.36763432 8:0.78562639 9:0.52666968 10:0.6794973 11:0.40968467 12:0.35202188 13:0.41076941 14:0.59218801 15:0.57895947 16:0.45504448 17:0.35071518 18:0.5325325 
0 4 1:0.67558925 2:0.39885652 3:0.68618691 4:0.42509605 5:0.46421525 6:0.86330699 7:0.15176667 8:0.76593276 9:0.33759625 10:0.62177161 11:0.33055268 12:0.55129137 13:0.54162606 14:0.49859223 15:0.31565491 16:0.45321428 17:0.23553264 18:0.71519289 
3.6641421139035728 0 1:0.40552117 2:0.39161557 3:0.80430107 4:0.56716416 5:0.5866812 6:0.97143762 7:0.25674479 8:0.87232278 9:0.41292138 10:0.81573858 11:0.54767642 12:0.38624851 13:0.68835974 14:0.50999108 15:0.52371652 16:0.63622154 17:0.30249276 18:0.45450107 
4 0 1:0.40182136 2:0.56177569 3:0.83545402 4:0.67471283 5:0.69913343 6:0.75119015 7:0.16347053 8:0.68431542 9:0.43904502 10:0.6134459 11:0.40424268 12:0.23679231 13:0.55594891 14:0.46752471 15:0.29941228 16:0.46492579 17:0.086146446 18:0.36503472 
4 0 1:0.50604266 2:0.51463896 3:0.77994159 4:0.58388067 5:0.7685176 6:0.77620832 7:0.25984228 8:0.73503633 9:0.10135487 10:0.68439216 11:0.55864413 12:0.37473186 15:0.29216861 16:0.45209967 17:0.095335511 18:0.20526132 
0 4 1:0.53276447 2:0.55882164 3:0.46269972 4:0.19244788 5:0.68992768 6:0.63294062 7:0.13373215 8:0.72090871 9:0.2563958 10:0.62460599 11:0.36732037 12:0.49510523 13:0.42828857 14:0.56866787 15:0.31997863 16:0.43454206 17:0.47647306 18:0.47779652 
4 4 1:0.79110988 2:0.51297611 3:0.64993134 4:0.56282274 5:0.70067801 6:0.84183431 7:0.14999085 8:0.70992802 9:0.35364351 10:0.58149775 11:0.38738268 12:0.5046284 13:0.48664818 14:0.55727584 15:0.27617116 16:0.39483026 17:0.22807579 18:0.63178116 
0 4 1:0.49574789 2:0.4162935 3:0.48546108 4:0.38089407 5:0.34410264 6:0.64172245 7:0.15781153 8:0.61453347 9:0.25808228 10:0.55198537 11:0.27249465 12:0.45221632 13:0.55986725 14:0.64860203 15:0.43214257 16:0.43460231 17:0.32540038 18:0.57301744 
0 4 1:0.58789802 2:0.25404929 3:0.55357589 4:0.37837399 5:0.63567411 6:0.86103482 7:0.19046949 8:0.80277248 9:0.2766229 10:0.56580216 11:0.2178153 12:0.28410059 13:0.4738336 14:0.68187335 15:0.35100967 16:0.53103375 17:0.31288778 18:0.47234271 
0 4 1:0.61263923 2:0.31761742 3:0.56416824 4:0.37168682 5:0.56728005 6:0.76856648 7:0.11194999 8:0.78414771 9:0.33677457 10:0.67781386 11:0.28241483 12:0.41461061 13:0.5531022 14:0.67898083 15:0.27398442 16:0.57662173 17:0.35788348 18:0.53815737 
0 4 1:0.65638721 2:0.4762312 3:0.50741124 4:0.37875505 5:0.36743079 6:0.54603504 7:0.19091618 8:0.63168103 9:0.20567452 10:0.62979087 11:0.32286802 12:0.5500419 13:0.65977994 14:0.50224844 15:0.38212444 16:0.63187107 17:0.42138214 18:0.66423481 
0 4 1:0.47026624 2:0.29126081 3:0.56264183 4:0.17826377 5:0.58465375 6:0.57182992 7:0.1636586 8:0.68047398 9:0.32301161 10:0.53825034 11:0.43632875 12:0.42996636 13:0.65241691 14:0.58330522 15:0.35048341 16:0.53758044 17:0.44360782 18:0.42905052 
0 4 1:0.6017437 2:0.43482498 3:0.53414073 4:0.57717123 5:0.26184842 6:0.73132469 7:0.098308996 8:0.72210341 9:0.33414644 10:0.64563437 11:0.37792821 12:0.2609347 13:0.54751006 14:0.52495938 15:0.48915923 16:0.57058894 17:0.31562409 18:0.39026966 
0 4 1:0.57658 2:0.37610681 3:0.47293376 4:0.60117363 5:0.22319347 6:0.83595344 7:0.17365953 8:0.55883319 9:0.34184123 10:0.53359784 11:0.5125888 12:0.22744122 13:0.41238521 14:0.48454465 15:0.37417931 16:0.41330242 17:0.37780596 18:0.39668823 
0 4 1:0.637811 2:0.44520349 3:0.58028205 4:0.62865081 5:0.55255365 6:0.61716302 7:0.21835282 8:0.80561345 9:0.38197541 10:0.59358913 11:0.54551247 12:0.15767938 13:0.58148444 14:0.76506663 15:0.54750996 16:0.66436 17:0.56544499 18:0.52267083 
4 4 1:0.57828675 2:0.41043515 3:0.6034458 4:0.65646006 5:0.56513048 6:0.57884073 7:0.26097243 8:0.76338189 9:0.3867574 10:0.52662029 11:0.54462644 12:0.27108817 13:0.63652534 14:0.57434431 15:0.53235109 16:0.51175398 17:0.52376413 18:0.76960988 
0 4 1:0.60890865 2:0.43259029 3:0.55042117 4:0.62146347 5:0.55623903 6:0.69832073 7:0.26041524 8:0.73521008 9:0.36517915 10:0.65042181 11:0.62301639 12:0.37623774 13:0.67513273 14:0.59895898 15:0.47540226 16:0.44236427 17:0.45897749 18:0.4171935 
0 4 1:0.62554158 2:0.4514995 3:0.60592785 4:0.55246833 5:0.45119077 6:0.61787163 7:0.25897929 8:0.76700585 9:0.33165898 10:0.6452319 11:0.7378669 12:0.49270779 13:0.69840289 14:0.57724574 15:0.44748011 16:0.41401464 17:0.4301544 18:0.56937936 
4 4 1:0.62048859 2:0.45846937 3:0.52786117 4:0.68408076 5:0.74296106 6:0.76919563 7:0.16774361 8:0.73096234 9:0.65273955 10:0.53554132 11:0.65650731 12:0.25656274 13:0.88359969 14:0.61733984 15:0.46903055 16:0.59894821 17:0.34067982 18:0.3701456 
0 4 1:0.75398974 2:0.4853436 3:0.46078285 4:0.3821854 5:0.487991 6:0.58254535 7:0.12519244 8:0.63891269 9:0.41615472 10:0.42650175 11:0.46327942 12:0.16523956 13:0.45282595 14:0.63082328 15:0.38463996 16:0.45150434 17:0.37573861 18:0.43844279 
0 4 1:0.60641571 2:0.38202635 3:0.29714452 4:0.40544814 5:0.26605926 6:0.64559464 7:0.27333021 8:0.68584307 9:0.30272332 10:0.66868196 11:0.51291843 12:0.27764537 13:0.56763863 14:0.55338359 15:0.42734475 16:0.7855553 17:0.46178181 18:0.39435855 
4 4 1:0.67571932 2:0.63502861 3:0.35866307 4:0.38209384 5:0.30692284 6:0.48145153 7:0.27927515 8:0.59906156 9:0.46108182 10:0.58426318 11:0.4240509 12:0.16021112 13:0.72133943 14:0.66563353 15:0.62751806 16:0.51821982 17:0.2634749 18:0.67841473 
0 4 1:0.56550864 2:0.41387681 3:0.29255756 4:0.41196702 5:0.27149426 6:0.44620591 7:0.24722573 8:0.55360228 9:0.32962089 10:0.67686705 11:0.39625577 12:0.31670382 13:0.7586572 14:0.63365132 15:0.44088277 16:0.68389729 17:0.45846633 18:0.58893106 
0 4 1:0.41731176 2:0.42641211 3:0.19999698 4:0.63145028 5:0.53667845 6:0.42521447 7:0.37289529 8:0.62749851 9:0.57324921 10:0.50028107 11:0.54946978 12:0.42129862 13:0.7102277 14:0.59268746 15:0.47121428 16:0.66470434 17:0.4079962 18:0.6254923 
0 4 1:0.53447252 2:0.33739454 3:0.49085189 4:0.63946491 5:0.34571809 6:0.51495555 7:0.41075062 8:0.60741495 9:0.34415628 10:0.48388939 11:0.31920832 12:0.34029007 13:0.61526123 14:0.56533706 15:0.49147834 16:0.29965097 17:0.44554009 18:0.43039872 
0 2.7303248825394935 1:0.48042131 2:0.32758912 3:0.49015121 4:0.48182288 5:0.31839535 6:0.36660322 7:0.24309961 8:0.61090539 9:0.43686278 10:0.54747061 11:0.50106225 12:0.41437521 13:0.6136121 14:0.88716897 15:0.53253996 16:0.55831114 17:0.5460305 18:0.65727685 
0 4 1:0.45369594 2:0.45698824 3:0.44243113 4:0.61977922 5:0.3605649 6:0.53665481 7:0.19298819 8:0.68498004 9:0.36697367 10:0.38879691 11:0.50238336 12:0.35482041 13:0.57660463 14:0.49712277 15:0.49594862 16:0.49925448 17:0.53748998 18:0.63319213 
0 4 1:0.62915693 2:0.44468272 3:0.30140509 4:0.44927912 5:0.14260984 6:0.41075913 7:0.34515693 8:0.65955372 9:0.34010397 10:0.53184294 11:0.62587805 12:0.24657506 13:0.59617941 14:0.69051552 15:0.52773553 16:0.6311858 17:0.4743968 18:0.61500406 
0 4 1:0.48130767 2:0.50118522 3:0.4970614 4:0.63450706 5:0.32198827 6:0.50911537 7:0.27519722 8:0.6586262 9:0.23378972 10:0.53429739 11:0.35489719 12:0.20956326 13:0.67684517 14:0.61442944 15:0.45554091 16:0.48086992 17:0.49707595 18:0.47473956 
4 4 1:0.55931238 2:0.67704693 3:0.74341635 4:0.43032596 5:0.50321434 6:0.71271176 7:0.55194143 8:0.73335506 9:0.39487731 10:0.56735861 11:0.50993562 12:0.58548113 13:0.80173414 14:0.63897178 15:0.48223889 16:0.5993259 17:0.58831311 18:0.56597839 
4 4 1:0.44388402 2:0.74243458 3:0.7609255 4:0.40011916 5:0.67761806 6:0.84016662 7:0.40814718 8:0.65705019 9:0.43491601 10:0.46745438 11:0.51979061 12:0.43890237 13:0.69193242 14:0.57500641 15:0.51667651 16:0.71444301 17:0.60574933 18:0.46334321 
4 4 1:0.59146841 2:0.73861 3:0.727144 4:0.47025126 5:0.53538697 6:0.69009662 7:0.46254578 8:0.67826906 9:0.37306831 10:0.71747342 11:0.7615531 12:0.55797156 13:0.70009655 14:0.59499978 15:0.30069963 16:0.57599705 17:0.68261696 18:0.505165 
2.2194816863437543 4 1:0.49446787 2:0.65329302 3:0.69071486 4:0.42534388 5:0.48013047 6:0.96124893 7:0.30528251 8:0.71015382 9:0.25227512 10:0.45908094 11:0.48403076 12:0.30818818 13:0.58736698 14:0.65937552 15:0.47954305 16:0.57447709 17:0.60886309 18:0.47721973 
4 4 1:0.45721443 2:0.69262793 3:0.82216053 4:0.41860494 5:0.65794169 6:0.77710149 7:0.43132506 8:0.77351636 9:0.42178927 10:0.43407233 11:0.65568068 12:0.51998363 13:0.913049 14:0.74079805 15:0.42429651 16:0.41696395 17:0.72972838 18:0.71694591 
4 4 1:0.46049685 2:0.70660771 3:0.70410076 4:0.45829922 5:0.59005979 6:0.73043751 7:0.36574827 8:0.72489575 9:0.48720967 10:0.55041701 11:0.62631458 12:0.40019809 13:0.71628931 14:0.69524292 15:0.33198264 16:0.58440242 17:0.50358778 18:0.42807567 
4 0 1:0.55756349 2:0.56269988 3:0.77515076 4:0.55161302 5:0.35924749 6:0.81540196 7:0.44440734 8:0.74015086 9:0.50032993 10:0.60297117 11:0.5422858 12:0.684205 13:0.74618665 14:0.67569607 15:0.32371538 16:0.57895166 17:0.41740878 18:0.56896621 
4 4 1:0.42014785 2:0.73241508 3:0.74121113 4:0.40681279 5:0.57645725 6:0.828369 7:0.43585577 8:0.75312403 9:0.4430639 10:0.50454969 11:0.60851866 12:0.4147549 13:0.60313404 14:0.68128033 15:0.32157564 16:0.41623532 17:0.57975708 18:0.5637595 
4 0 1:0.52668333 2:0.69343548 3:0.80541027 4:0.50844492 5:0.63147298 6:0.7368077 7:0.46826228 8:0.66180083 9:0.40925792 10:0.67298951 11:0.50779434 12:0.51411385 13:0.75763737 14:0.59279044 15:0.37592585 16:0.62561067 17:0.85792078 18:0.55297371 
4 4 1:0.37238679 2:0.75880389 3:0.7746829 4:0.39906168 5:0.49557657 6:0.75821545 7:0.36529316 8:0.71649596 9:0.37552285 10:0.44357754 11:0.50876409 12:0.45218281 13:0.68236111 14:0.60795104 15:0.33213384 16:0.50532503 17:0.66866446 18:0.59020603 
4 4 1:0.52743254 2:0.6356922 3:0.73812677 4:0.48802515 5:0.58034785 6:0.76465457 7:0.28455796 8:0.79026772 9:0.40169935 10:0.59273149 11:0.44240145 12:0.51768363 13:0.64583624 14:0.5323464 15:0.34904457 16:0.67463696 17:0.5122129 18:0.53469283 
0 4 1:0.52869444 2:0.64575721 3:0.67493779 4:0.42595244 5:0.47019056 6:0.89225835 7:0.31705212 8:0.76460749 9:0.33046522 10:0.67424465 11:0.45000533 12:0.39190897 13:0.55154439 14:0.53438514 15:0.37459896 16:0.63477243 17:0.7326813 18:0.57767175 
4 4 1:0.37361862 2:0.75692796 3:0.64761885 4:0.43684795 5:0.68095417 6:0.75379044 7:0.27053325 8:0.77030534 9:0.42600225 10:0.40816727 11:0.59905324 12:0.47106276 13:0.64370292 14:0.56044259 15:0.35092513 16:0.71158151 17:0.70515859 18:0.57749726 
0 3.7749829686247982 1:0.57828604 2:0.62330114 3:0.63330931 4:0.47582061 5:0.76494176 6:0.7995015 7:0.26727396 8:0.65121858 9:0.3517595 10:0.71004186 11:0.51926568 12:0.44695871 13:0.55301938 14:0.56976466 15:0.48857529 16:0.81572248 17:0.84169298 18:0.59353187 
0 4 1:0.56440104 2:0.64916323 3:0.73256024 4:0.5004919 5:0.60836724 6:0.78472789 7:0.31226012 8:0.64375545 9:0.20521173 10:0.64909868 11:0.60886597 12:0.42368027 13:0.69141077 14:0.68588482 15:0.29445907 16:0.68398939 17:0.61189123 18:0.51656427 
4 4 1:0.51573351 2:0.69863019 3:0.65462857 4:0.47311868 5:0.56920439 6:0.74941767 7:0.40225047 8:0.76296115 9:0.38446289 10:0.49075801 11:0.61284097 12:0.48571431 13:0.72259042 14:0.65786234 15:0.38897115 16:0.50271857 17:0.48629859 18:0.17725813 
4 4 1:0.43395114 2:0.7378696 3:0.69021771 4:0.44823567 5:0.50749473 6:0.83033811 7:0.36638176 8:0.72892919 9:0.38003637 10:0.34684712 11:0.59119601 12:0.4099132 13:0.73608342 14:0.60528817 15:0.24925202 16:0.34153655 17:0.52090289 18:0.36148167 
4 4 1:0.56737944 2:0.66496689 3:0.65944838 4:0.45184962 5:0.58263032 6:0.69870005 7:0.24037713 8:0.68306432 9:0.27205631 10:0.72103348 11:0.58208951 12:0.50398389 13:0.66046454 14:0.60982929 15:0.36247699 16:0.4819358 17:0.59008632 18:0.59981961 
0 4 1:0.55573958 2:0.67136595 3:0.63658322 4:0.50221999 5:0.61433381 6:0.83940223 7:0.29477034 8:0.59075339 9:0.26785528 10:0.67101183 11:0.70598396 12:0.52466842 13:0.63153774 14:0.559759 15:0.35958435 16:0.58396433 17:0.57324258 18:0.4113272 
4 0 1:0.27947782 2:0.73875681 3:0.81013004 4:0.51208324 5:0.6336823 6:0.80060728 7:0.38773285 8:0.59032611 9:0.40533384 10:0.60225729 11:0.67550713 12:0.38251578 13:0.67763838 14:0.6961135 15:0.48578907 16:0.4634379 17:0.68893692 18:0.39382874 
0 4 1:0.57093318 2:0.62077786 3:0.56090961 4:0.56390044 5:0.6541419 6:0.64853679 7:0.52107842 8:0.78755861 9:0.28952243 10:0.54387666 11:0.73875033 12:0.48705605 13:0.59186024 14:0.61637796 15:0.39708085 16:0.6300845 17:0.80365636 18:0.63964751 
-0 4 1:0.77772412 2:0.54564085 3:0.78135813 4:0.32902727 5:0.62178794 6:0.55188716 7:0.24030445 8:0.56225888 9:0.32553845 10:0.61320814 11:0.34531746 12:0.42406687 13:0.51498325 14:0.51652239 15:0.44532351 16:0.26314994 17:0.32283517 18:0.48991138 
-0 4 1:0.70862592 2:0.66863446 3:0.72943669 4:0.52193832 5:0.68083535 6:0.71854501 7:0.3131392 8:0.59808218 9:0.33731476 10:0.52340305 11:0.30830725 12:0.37350188 13:0.50579006 14:0.48945471 15:0.31408147 16:0.32536812 17:0.58212525 18:0.70618238 
-0 4 1:0.81812097 2:0.55908893 3:0.76052356 4:0.23811494 5:0.60476659 6:0.47177564 7:0.17309753 8:0.55111114 9:0.21366932 10:0.52350213 11:0.27810973 12:0.4707456 13:0.36834274 14:0.40876865 15:0.42890771 16:0.24781796 17:0.33827873 18:0.38709443 
-0 4 1:0.6871633 2:0.57512973 3:0.7861457 4:0.35785513 5:0.64903481 6:0.68367116 7:0.22498948 8:0.57378873 9:0.34539617 10:0.61697347 11:0.43475509 12:0.44847244 13:0.3750148 14:0.39740478 15:0.4395887 16:0.34958563 17:0.26175683 18:0.50392552 
-0 4 1:0.7117023 2:0.67210451 3:0.82070177 4:0.42785386 5:0.5585673 6:0.59493351 7:0.31759857 8:0.66472649 9:0.29870112 10:0.51327667 11:0.39225393 12:0.50491612 13:0.56668326 14:0.64288416 15:0.39504595 16:0.33229891 17:0.45959662 18:0.58396998 
-0 4 1:0.73218663 2:0.57742823 3:0.79677078 4:0.33100969 5:0.62127659 6:0.58530835 7:0.23649885 8:0.56704916 9:0.29736055 10:0.48700574 11:0.17890868 12:0.44303053 13:0.28562227 14:0.37969987 15:0.42517035 16:0.26530104 17:0.42668122 18:0.48652851 
-0 4 1:0.72502198 2:0.60481121 3:0.80941305 4:0.47187328 5:0.66470238 6:0.66153699 7:0.272081 8:0.61794589 9:0.29906403 10:0.56411999 11:0.41419753 12:0.52197144 13:0.58514889 14:0.5942543 15:0.39260648 16:0.25141454 17:0.40248221 18:0.52123145 
-0 4 1:0.71470241 2:0.60314256 3:0.76171589 4:0.4424104 5:0.67317575 6:0.66083064 7:0.28465099 8:0.67866539 9:0.36527384 10:0.57292822 11:0.5001567 12:0.45194455 13:0.43372619 14:0.43475711 15:0.27180415 16:0.13192789 17:0.41489522 18:0.63633435 
-4 4 1:0.60104479 2:0.5409108 3:0.7248439 4:0.48784918 5:0.68749388 6:0.68247592 7:0.22208945 8:0.61583729 9:0.34557424 10:0.56284791 11:0.43955933 12:0.51706119 13:0.49743744 14:0.44925356 15:0.26393253 16:0.14491241 17:0.25831696 18:0.44235757 
-0 4 1:0.81407735 2:0.4690489 3:0.71397781 4:0.46051262 5:0.69017272 6:0.64630123 7:0.32644032 8:0.68020519 9:0.31380072 10:0.55591596 11:0.3764875 12:0.53002911 13:0.57934521 14:0.4123457 15:0.4722816 16:0.21772322 17:0.3449648 18:0.4717611 
-0 4 1:0.69137857 2:0.57198623 3:0.8594053 4:0.32548265 5:0.65375077 6:0.61399297 7:0.26910407 8:0.67571904 9:0.33184748 10:0.40252185 11:0.35089258 12:0.43858435 13:0.48421415 14:0.50960329 15:0.36588918 16:0.19383776 17:0.27430823 18:0.38379812 
-0 4 1:0.79100645 2:0.58877175 3:0.83533361 4:0.38755519 5:0.66759352 6:0.64785222 7:0.27935425 8:0.64534408 9:0.21955024 10:0.4291959 11:0.38401481 12:0.53563521 13:0.48342218 14:0.49057899 15:0.37773787 16:0.38549163 17:0.45763206 18:0.51855716 
-0 4 1:0.76480353 2:0.58470345 3:0.84029637 4:0.35228898 5:0.64338631 6:0.65426649 7:0.25834219 8:0.62791628 9:0.35972011 10:0.52870977 11:0.50695593 12:0.54018516 13:0.50236875 14:0.50116951 15:0.45216697 16:0.43071306 17:0.41115657 18:0.57550006 
-0 4 1:0.75166987 2:0.84827927 3:0.50899104 4:0.46887134 5:0.48960679 6:0.26410408 7:0.56205113 8:0.27757115 9:0.28252397 10:0.47385892 11:0.14682341 12:0.53553537 13:0.46446484 14:0.4136313 15:0.58756069 16:0.23991335 17:0.31481385 18:0.3338949 
-4 0 1:0.35497378 2:0.92421162 3:0.38750427 4:0.65475692 5:0.65226084 6:0.18773754 7:0.80382559 8:0.27287603 9:0.46263547 10:0.69385206 11:0.37605953 12:0.84057933 13:0.56890928 14:0.31077153 15:0.61286052 16:0.12174393 17:0.55983921 18:0.49103557 
-0 2.1993893065439152 1:0.63198331 2:0.83380736 3:0.39375387 4:0.57131733 5:0.54998647 6:0.24300898 7:0.66025762 8:0.2026593 9:0.38196871 10:0.54238186 11:0.17462327 12:0.76927126 13:0.58240513 14:0.4496671 15:0.70419856 16:0.12690159 17:0.41522766 18:0.48760898 
-4 4 1:0.60955169 2:0.85208656 3:0.36516577 4:0.55153526 5:0.48727002 6:0.22686291 7:0.62484304 8:0.19176445 9:0.42025336 10:0.66209721 11:0.23973468 12:0.61586058 13:0.52192969 14:0.47057353 15:0.67359672 16:0.12425711 17:0.35056692 18:0.462167 
-0 4 1:0.72189897 2:0.80501782 3:0.49921069 4:0.5272615 5:0.57155387 6:0.22682018 7:0.52090968 8:0.3198094 9:0.44073113 10:0.68863119 11:0.22567161 12:0.52800646 13:0.45988091 14:0.36971922 15:0.54796307 16:0.21753513 17:0.30451262 18:0.32001162 
-4 4 1:0.72473444 2:0.82286123 3:0.50409894 4:0.56262504 5:0.52835146 6:0.22619605 7:0.64853109 8:0.33058025 9:0.3919278 10:0.54936886 11:0.14341683 12:0.56475631 13:0.49157113 14:0.34371726 15:0.49350849 16:0.33553591 17:0.5011408 18:0.28985659 
-0 4 1:0.69387845 2:0.83622556 3:0.41141061 4:0.51138286 5:0.54117328 6:0.31039391 7:0.62512902 8:0.25354289 9:0.35094752 10:0.54259131 11:0.23370678 12:0.6383491 13:0.42843632 14:0.33675078 15:0.4599105 16:0.11747954 17:0.27916338 18:0.42687571 
-4 0 1:0.43278873 2:0.90087125 3:0.35461869 4:0.51140987 5:0.57033893 6:0.36528196 7:0.66566422 8:0.14996751 9:0.48784675 10:0.62953762 11:0.18716296 12:0.69489837 13:0.34815629 14:0.32017214 15:0.57926569 16:0.087816613 17:0.4796447 18:0.379734 
-4 0 1:0.3997261 2:0.89593278 3:0.45697171 4:0.57849434 5:0.53541319 6:0.37628996 7:0.66921314 8:0.25861953 9:0.54224821 10:0.56865502 11:0.20722543 12:0.53332178 13:0.27601486 14:0.30732037 15:0.67426797 16:0.2313551 17:0.47917501 18:0.38028292 
-4 0 1:0.456072 2:0.928781 3:0.38370414 4:0.56190095 5:0.59076797 6:0.36288154 7:0.78965258 8:0.31390604 9:0.55448139 10:0.61541473 11:0.15339183 12:0.6996337 13:0.42213545 14:0.4021447 15:0.66487145 16:0.17563232 17:0.60638296 18:0.60364464 
-4 0 1:0.5525485 2:0.92469097 3:0.36198369 4:0.5961571 5:0.61497399 6:0.24222816 7:0.74141867 8:0.22074751 9:0.37600046 10:0.69794485 11:0.23576626 12:0.6562957 13:0.43751865 14:0.37559273 15:0.71167633 16:0.32061802 17:0.69391363 18:0.50161519 
-4 0 1:0.23640219 2:0.8184135 3:0.49402726 4:0.54297141 5:0.69987824 6:0.29413388 7:0.60374794 8:0.31644144 9:0.5333797 10:0.673097 11:0.33832684 12:0.76396421 13:0.90215107 14:0.53497947 15:0.75546245 16:0.25662677 17:0.38863788 18:0.61365953 
-4 0 1:0.46823117 2:0.95490943 3:0.43052457 4:0.51120923 5:0.51157277 6:0.22041933 7:0.62203779 8:0.15031967 9:0.3974891 10:0.64821671 11:0.1519446 12:0.54962061 13:0.36889724 14:0.42610578 15:0.70583464 16:0.207284 17:0.71317985 18:0.81291364 
-4 0 1:0.39253917 2:0.86783846 3:0.39921322 4:0.53884051 5:0.61350528 6:0.15177003 7:0.529404 8:0.2693092 9:0.49009473 10:0.63896197 11:0.31617632 12:0.75802572 13:0.38306224 14:0.30423398 15:0.7142565 16:0.40645432 17:0.56732594 18:0.44884082 
-4 0 1:0.42977534 2:0.92094353 3:0.42327212 4:0.49649278 5:0.59032141 6:0.22856401 7:0.64890836 8:0.28945292 9:0.45726637 10:0.76803251 11:0.45460697 12:0.69810139 13:0.32218664 14:0.3347031 15:0.62581938 16:0.20541744 17:0.55575048 18:0.43454105 
-0 4 1:0.50384298 2:0.81579105 3:0.65071067 4:0.36438075 5:0.73368004 6:0.57384617 7:0.60672082 8:0.7097635 9:0.60485546 10:0.37065218 11:0.56431614 12:0.58025016 13:0.73933677 14:0.61449491 15:0.39550955 16:0.55208819 17:0.38535933 18:0.34542013 
-4 4 1:0.50927077 2:0.73519238 3:0.53123778 4:0.54990249 5:0.76557182 6:0.72229073 7:0.54440497 8:0.47651669 9:0.77048248 10:0.48885979 11:0.65270786 12:0.60651559 13:0.60061267 14:0.71970563 15:0.54950654 16:0.73425229 17:0.49954785 18:0.48962774 
-0 4 1:0.4457282 2:0.87600323 3:0.57829341 4:0.43206626 5:0.62768369 6:0.73591485 7:0.60291572 8:0.53347482 9:0.7703927 10:0.44939633 11:0.58193155 12:0.48879845 13:0.58492833 14:0.66907525 15:0.42573355 16:0.68983905 17:0.50541747 18:0.42999041 
-4 4 1:0.25600417 2:0.74920317 3:0.54716299 4:0.60399733 5:0.70335442 6:0.58732554 7:0.5780962 8:0.43477494 9:0.58486025 10:0.51702385 11:0.65559346 12:0.52442471 13:0.59505228 14:0.60359849 15:0.36075268 16:0.55546417 17:0.53383368 18:0.54860961 
-2.5565492701662555 0 1:0.41767541 2:0.69946753 3:0.68576886 4:0.4721699 5:0.77628899 6:0.63111312 7:0.50346302 8:0.55150334 9:0.68572816 10:0.47366867 11:0.59586318 12:0.53831442 13:0.65499775 14:0.7244145 15:0.50014807 16:0.6487118 17:0.54882784 18:0.33090801 
-0 4 1:0.55600267 2:0.74532242 3:0.64439691 4:0.53885088 5:0.66223988 6:0.68891154 7:0.5169406 8:0.46760119 9:0.67631001 10:0.37904395 11:0.72644299 12:0.60178405 13:0.44774025 14:0.67025925 15:0.44498023 16:0.51903298 17:0.34248129 18:0.45453885 
-0 4 1:0.45355834 2:0.75803549 3:0.62292415 4:0.51279265 5:0.75820228 6:0.71662952 7:0.55074042 8:0.46164938 9:0.58374773 10:0.35680428 11:0.62520013 12:0.64292434 13:0.72992807 14:0.79514965 15:0.56980337 16:0.67117023 17:0.46745128 18:0.39057061 
-4 4 1:0.40637723 2:0.64735357 3:0.51602211 4:0.64312486 5:0.61284762 6:0.66742881 7:0.55210819 8:0.51727503 9:0.71829203 10:0.42598784 11:0.87170871 12:0.53321198 13:0.49286607 14:0.67858922 15:0.27282927 16:0.64559039 17:0.52169653 18:0.39931442 
-4 4 1:0.46539881 2:0.65417621 3:0.44609301 4:0.48060836 5:0.61243805 6:0.76262627 7:0.57520828 8:0.5101064 9:0.81491319 10:0.34488112 11:0.63038713 12:0.60959247 13:0.5347974 14:0.69740925 15:0.4039498 16:0.58503965 17:0.48105252 18:0.56548089 
-4 4 1:0.50544073 2:0.68395246 3:0.37731897 4:0.69100247 5:0.66945452 6:0.7197591 7:0.50687975 8:0.55549051 9:0.77383789 10:0.18793472 11:0.66245683 12:0.56285911 13:0.72973087 14:0.68992735 15:0.21578885 16:0.72071597 17:0.50504378 18:0.51303409 
-0 4 1:0.56272809 2:0.74047878 3:0.59823026 4:0.50235529 5:0.70126324 6:0.70937293 7:0.46370547 8:0.41878917 9:0.71483437 10:0.39199497 11:0.61093158 12:0.59458186 13:0.58647994 14:0.72382607 15:0.45760155 16:0.51740894 17:0.37300737 18:0.41983075 
-4 0 1:0.46950015 2:0.73812272 3:0.63529177 4:0.63799074 5:0.58588857 6:0.60550641 7:0.47427165 8:0.53689091 9:0.73291981 10:0.47489937 11:0.75723279 12:0.55225952 13:0.58428312 14:0.61947335 15:0.37467976 16:0.65365375 17:0.50114453 18:0.63973081 
-4 4 1:0.48595681 2:0.7147205 3:0.58433828 4:0.50520921 5:0.63257052 6:0.78190497 7:0.552777 8:0.38391403 9:0.72902404 10:0.46165194 11:0.6875469 12:0.71255735 13:0.6298987 14:0.63120034 15:0.44544769 16:0.71372368 17:0.51755458 18:0.44199462 
-4 4 1:0.44407128 2:0.69895359 3:0.39585678 4:0.51312504 5:0.62509151 6:0.69813896 7:0.53679217 8:0.52009947 9:0.81966545 10:0.31323093 11:0.73763424 12:0.74737838 13:0.58508312 14:0.75254234 15:0.43694751 16:0.69645885 17:0.53122848 18:0.48879445 
-4 4 1:0.3546445 2:0.71134945 3:0.61707335 4:0.67339408 5:0.57177067 6:0.61969969 7:0.42107506 8:0.42269398 9:0.75272124 10:0.51807266 11:0.77613624 12:0.42496328 13:0.56894745 14:0.75956365 15:0.3183854 16:0.57676364 17:0.38506701 18:0.46592365 
-0 4 1:0.61421611 2:0.77554478 3:0.45709338 4:0.51881511 5:0.71809068 6:0.68774822 7:0.51478918 8:0.50452075 9:0.69987783 10:0.39157219 11:0.56449558 12:0.4605557 13:0.6298829 14:0.73643013 15:0.44482446 16:0.62114692 17:0.44177308 18:0.41688442 
-0 4 1:0.39778389 2:0.84425919 3:0.59071889 4:0.38668997 5:0.74271844 6:0.68839064 7:0.50244306 8:0.5406301 9:0.76169993 10:0.49986408 11:0.63084343 12:0.50752689 13:0.50048756 14:0.64021555 15:0.49359716 16:0.68492007 17:0.41792402 18:0.22714201 
-4 4 1:0.25210402 2:0.81246774 3:0.54788693 4:0.4501642 5:0.62352061 6:0.75545938 7:0.53872999 8:0.50777087 9:0.81125953 10:0.60664226 11:0.741367 12:0.57232226 13:0.77445982 14:0.74371826 15:0.47739827 16:0.66864037 17:0.48654371 18:0.53865925 
-2.4459223289126064 4 1:0.55406822 2:0.73243795 3:0.5566581 4:0.51130429 5:0.70283513 6:0.67393513 7:0.53790133 8:0.54482651 9:0.7875314 10:0.4726699 11:0.68188115 12:0.61542353 13:0.78538161 14:0.87613635 15:0.51908093 16:0.6922376 17:0.61383577 18:0.62491893 
-0 4 1:0.60347661 2:0.73027745 3:0.62663758 4:0.52882338 5:0.66035682 6:0.68493888 7:0.49717883 8:0.46271176 9:0.70011388 10:0.38439282 11:0.68619936 12:0.57566185 13:0.61319881 14:0.82746083 15:0.45145941 16:0.55181012 17:0.49109027 18:0.45672281 
-0 4 1:0.43893403 2:0.80942919 3:0.55269754 4:0.38930623 5:0.74476615 6:0.53305518 7:0.53817679 8:0.54749797 9:0.6272611 10:0.55336361 11:0.61863607 12:0.5376756 13:0.63860906 14:0.68405557 15:0.49248491 16:0.50817991 17:0.43003284 18:0.43306198 
-4 0 1:0.45740271 2:0.72486928 3:0.78793878 4:0.56314351 5:0.58714595 6:0.81848979 7:0.45527134 8:0.58582887 9:0.48725147 10:0.41538231 11:0.45937336 12:0.49802418 13:0.61293757 14:0.51880523 15:0.34337136 16:0.58046962 17:0.68927048 18:0.43594729 
-3.3717370557258901 0 1:0.47480127 2:0.67980688 3:0.82246048 4:0.60349188 5:0.52984218 6:0.77810776 7:0.39924861 8:0.55463832 9:0.63104984 10:0.52160835 11:0.60580911 12:0.55994045 13:0.88784813 14:0.62186262 15:0.5497621 16:0.69803993 17:0.50866011 18:0.53038194 
-4 0 1:0.37191034 2:0.59609494 3:0.69758111 4:0.53113605 5:0.50598606 6:0.8956091 7:0.43028321 8:0.60780478 9:0.60095177 10:0.65337811 11:0.59512316 12:0.63085932 13:0.8573385 14:0.60613824 15:0.50680854 16:0.50988992 17:0.43223999 18:0.4923848 
-1.5492902881172983 0 1:0.44260167 2:0.6342799 3:0.78873664 4:0.64003838 5:0.59764217 6:0.87698915 7:0.5260915 8:0.62897114 9:0.64271163 10:0.56554156 11:0.53320496 12:0.53564949 13:0.71584237 14:0.50509036 15:0.55325458 16:0.56433158 17:0.56633903 18:0.60854778 
-4 0 1:0.42561625 2:0.63834315 3:0.76017416 4:0.60769574 5:0.56844163 6:0.88233643 7:0.51458803 8:0.67056964 9:0.694646 10:0.61189348 11:0.51830192 12:0.42214109 13:0.70094079 14:0.48313933 15:0.54114743 16:0.63743247 17:0.58087516 18:0.60027371 
-4 0 1:0.46854607 2:0.62834524 3:0.75398628 4:0.6029257 5:0.55655941 6:0.91651502 7:0.42319688 8:0.64626773 9:0.60967187 10:0.61031352 11:0.61516647 12:0.65157801 13:0.67603813 14:0.52255153 15:0.44488567 16:0.4285202 17:0.5010511 18:0.33741421 
-0 4 1:0.53097011 2:0.77872769 3:0.71017132 4:0.46609158 5:0.71737848 6:0.62870144 7:0.29002541 8:0.76763249 9:0.4045758 10:0.48160807 11:0.52890807 12:0.16573687 13:0.54977831 14:0.47354109 15:0.52569227 16:0.61074136 17:0.5201839 18:0.38250449 
-0 4 1:0.55744753 2:0.7883655 3:0.73508244 4:0.40282967 5:1 6:0.73792068 7:0.43453243 8:0.61148131 9:0.30109699 10:0.50191751 11:0.35511369 12:0.5689316 13:0.64540568 14:0.63854623 15:0.29104192 16:0.48103949 17:0.57152244 18:0.38656555 
-4 0 1:0.44411012 2:0.70214275 3:0.88441293 4:0.40255114 5:0.78886771 6:0.66907917 7:0.43526691 8:0.60443669 9:0.45583235 10:0.70567708 11:0.49077263 12:0.73602373 13:0.62889382 14:0.69207512 15:0.39932917 16:0.56589949 17:0.60981966 18:0.4288225 
-4 4 1:0.64436386 2:0.74038335 3:0.76774844 4:0.36341425 5:0.70434668 6:0.72698878 7:0.36518222 8:0.58827236 9:0.42524275 10:0.54411099 11:0.63036148 12:0.62284345 13:0.60198128 14:0.64365203 15:0.26847834 16:0.5292049 17:0.59977025 18:0.4724908 
-4 0 1:0.45471231 2:0.6245147 3:0.83974558 4:0.40318621 5:0.68176185 6:0.7089669 7:0.48226371 8:0.6768794 9:0.51707668 10:0.74599883 11:0.62174572 12:0.55319625 13:0.56335345 14:0.65800729 15:0.30019469 16:0.48715934 17:0.60614604 18:0.68748817 
-4 0 1:0.48706458 2:0.73147651 3:0.86661257 4:0.4062068 5:0.78030516 6:0.65626484 7:0.34388323 8:0.61971049 9:0.4654324 10:0.74380584 11:0.52324428 12:0.64934339 13:0.53207984 14:0.5944889 15:0.29613682 16:0.49243001 17:0.63547279 18:0.56526921 
-4 4 1:0.60825927 2:0.67456961 3:0.77581293 4:0.4890063 5:0.62225281 6:0.68656396 7:0.52954762 8:0.55822515 9:0.49605479 10:0.73370626 11:0.57027615 12:0.43257211 13:0.49878634 14:0.70256094 15:0.32381109 16:0.49711318 17:0.69488847 18:0.51642743 
-4 0.47782652144556825 1:0.34347606 2:0.55973369 3:0.82887181 4:0.34540803 5:0.78382528 6:0.62859029 7:0.3722553 8:0.71419956 9:0.45474876 10:0.65260153 11:0.61302752 12:0.75773854 13:0.60247476 14:0.55470647 15:0.18977888 16:0.60744366 17:0.67311188 18:0.80435693 
-4 0 1:0.41033327 2:0.59879562 3:0.75642463 4:0.40387811 5:0.84953031 6:0.66839935 7:0.38826304 8:0.67753696 9:0.53829153 10:0.62103883 11:0.49873846 12:0.64734703 13:0.66661452 14:0.74457712 15:0.43337283 16:0.76516177 17:0.57686315 18:0.57264114 
-4 0 1:0.51731331 2:0.63592814 3:0.81524309 4:0.48953744 5:0.71415873 6:0.73064252 7:0.46564396 8:0.66358331 9:0.47122836 10:0.62714196 11:0.46691669 12:0.50919662 13:0.55339687 14:0.64508632 15:0.22743571 16:0.51103751 17:0.64989648 18:0.7369697 
-4 0 1:0.54814206 2:0.64689753 3:0.79866349 4:0.46208243 5:0.56986147 6:0.7296575 7:0.48728958 8:0.56096531 9:0.42832708 10:0.57275319 11:0.40071422 12:0.73798494 13:0.76835484 14:0.77188988 15:0.48372127 16:0.5496592 17:0.64189731 18:0.94971385 
-4 4 1:0.47732553 2:0.6596328 3:0.70804658 4:0.38681421 5:0.87300941 6:0.61444913 7:0.42958257 8:0.73199879 9:0.38305743 10:0.65719114 11:0.51523855 12:0.61998953 13:0.67180252 14:0.66207559 15:0.26080244 16:0.46961255 17:0.79386278 18:0.64695866 
-2.7106314710572574 0 1:0.4834565 2:0.73522685 3:0.79974097 4:0.39180334 5:0.85937767 6:0.69474286 7:0.35140636 8:0.55148569 9:0.29101467 10:0.55134629 11:0.48739606 12:0.74916761 13:0.88463093 14:0.77931694 15:0.29282441 16:0.38965007 17:0.56811143 18:0.6826192 
-0 4 1:0.59744521 2:0.76766342 3:0.71127129 4:0.4240301 5:0.87884451 6:0.70221791 7:0.43825513 8:0.6705154 9:0.41240343 10:0.58284978 11:0.3127358 12:0.53425884 13:0.73113907 14:0.58029021 15:0.27866135 16:0.25331967 17:0.52628645 18:0.3881754 
-4 0 1:0.62207434 2:0.74195851 3:0.7942614 4:0.49449214 5:0.69949312 6:0.74187167 7:0.3750873 8:0.52404617 9:0.31976374 10:0.62978318 11:0.48292868 12:0.56457115 13:0.66713188 14:0.48719883 15:0.35101951 16:0.56050095 17:0.61026961 18:0.63292122 
-0 4 1:0.82351462 2:0.7020274 3:0.86052031 4:0.41350402 5:0.54674719 6:0.52648915 7:0.21449756 8:0.74501481 9:0.34115892 10:0.57717382 11:0.43274231 12:0.40335235 13:0.48830652 14:0.59057308 15:0.42191246 16:0.37938284 17:0.36029316 18:0.33790364 
-0 4 1:0.66467514 2:0.72074858 3:0.83667371 4:0.37905541 5:0.59783627 6:0.54505896 7:0.49233615 8:0.70342669 9:0.43859352 10:0.55675081 11:0.5507931 12:0.42129464 13:0.44925352 14:0.64217781 15:0.46052661 16:0.48139419 17:0.49568415 18:0.4752543 
-0 4 1:0.76726933 2:0.67968233 3:0.80272963 4:0.48523874 5:0.60934964 6:0.5608209 7:0.27407753 8:0.68911364 9:0.39046597 10:0.55083229 11:0.60282172 12:0.43538448 13:0.52879775 14:0.64939496 15:0.45167445 16:0.64677296 17:0.36233661 18:0.56754847 
-0 4 1:0.78658798 2:0.71946842 3:0.77545971 4:0.46692456 5:0.60363644 6:0.60240264 7:0.26320318 8:0.6538523 9:0.47410118 10:0.57140342 11:0.66102282 12:0.41289735 13:0.23938421 14:0.60190286 15:0.46520485 16:0.55769314 17:0.45054283 18:0.4805351 
-0 4 1:0.77028926 2:0.76118002 3:0.78756218 4:0.4359393 5:0.62431296 6:0.56640786 7:0.26098337 8:0.67951094 9:0.46488873 10:0.55612034 11:0.59179067 12:0.45661126 13:0.52946659 14:0.53424755 15:0.3848929 16:0.47058253 17:0.39472432 18:0.56392214 
-0 2.6057931793649116 1:0.74195146 2:0.64639542 3:0.840996 4:0.49392811 5:0.53217373 6:0.55598036 7:0.20794946 8:0.68374836 9:0.5388007 10:0.63058434 11:0.61272288 12:0.43398463 13:0.3804527 14:0.67500921 15:0.46151262 16:0.63450994 17:0.39165582 18:0.4493241 
-0 4 1:0.84504839 2:0.81422436 3:0.75989781 4:0.36420123 5:0.51173994 6:0.53298459 7:0.31298624 8:0.64748255 9:0.48579853 10:0.53432933 11:0.56016705 12:0.50828743 13:0.69882996 14:0.66676917 15:0.52494652 16:0.49365484 17:0.44412374 18:0.52796192 
-4 0 1:0.34015423 2:0.81192497 3:0.73175053 4:0.40417145 5:0.52482124 6:0.57286774 7:0.42554102 8:0.61476654 9:0.65309949 10:0.45499711 11:0.48808538 12:0.52520721 13:0.8685518 14:0.59441393 15:0.47091826 16:0.55684688 17:0.63175142 18:0.47887104 
-0 4 1:0.58506201 2:0.65191648 3:0.76401248 4:0.42036689 5:0.80692931 6:0.67581425 7:0.43124892 8:0.88526246 9:0.5092131 10:0.53305345 11:0.63688189 12:0.58731694 13:0.70084946 14:0.5516122 15:0.35341744 16:0.29145835 17:0.73534144 18:0.59650954 
-0 4 1:0.55320762 2:0.69422781 3:0.81115253 4:0.45476146 5:0.81759655 6:0.65400842 7:0.39060963 8:0.86323396 9:0.45270963 10:0.44696569 11:0.64904832 12:0.58457791 13:0.64938344 14:0.62869314 15:0.52498932 16:0.32477787 17:0.73640276 18:0.53024748 
-4 1.2126429679014283 1:0.57882334 2:0.64958948 3:0.86485089 4:0.38605129 5:0.60494619 6:0.64626362 7:0.31265515 8:0.76035147 9:0.51803737 10:0.52165823 11:0.50431545 12:0.5308362 13:0.64489413 14:0.60632522 15:0.42237805 16:0.47252994 17:0.748081 18:0.5222264 
-0 0.71345310695256758 1:0.59847385 2:0.63502693 3:0.7909733 4:0.49798877 5:0.65586332 6:0.79648372 7:0.43608272 8:0.85140962 9:0.45618241 10:0.58477149 11:0.63598283 12:0.77709589 13:0.64084493 14:0.70033468 15:0.36512554 16:0.38793396 17:0.56382611 18:0.59003369 
-4 4 1:0.56565032 2:0.63782949 3:0.80036752 4:0.47797314 5:0.72790324 6:0.77696511 7:0.43043885 8:0.82139334 9:0.53648857 10:0.46665405 11:0.53672549 12:0.56842682 13:0.58648972 14:0.76866703 15:0.46084933 16:0.5673919 17:0.8360727 18:0.59875113 
-4 0 1:0.52480964 2:0.58675817 3:0.75193817 4:0.56554842 5:0.45735197 6:0.74658886 7:0.52560266 8:0.78052401 9:0.49529929 10:0.4673443 11:0.50095976 12:0.53976165 13:0.53805917 14:0.59048457 15:0.58210623 16:0.60267545 17:0.48539961 18:0.57690838 
-4 0 1:0.27649331 2:0.59726455 3:0.83709102 4:0.30404666 5:0.74935393 6:0.77727477 7:0.59962983 8:0.77356175 9:0.38859685 10:0.500214 11:0.75436099 12:0.98828485 13:0.47124547 14:0.63480503 15:0.54270527 16:0.55537687 17:0.63137397 18:0.6230557 
-3.0024800702142986 4 1:0.54066941 2:0.64795196 3:0.71854996 4:0.45222965 5:0.74163254 6:0.77520422 7:0.44618632 8:0.81154366 9:0.42422884 10:0.50695981 11:0.61256731 12:0.73781796 13:0.43617349 14:0.83046213 15:0.60802587 16:0.46036714 17:0.60469359 18:0.57603921 
-4 0 1:0.57665384 2:0.60708963 3:0.79647489 4:0.52974172 5:0.66832027 6:0.76547397 7:0.37962241 8:0.7745732 9:0.46220129 10:0.61440218 11:0.60649376 12:0.73124245 13:0.57571504 14:0.5848959 15:0.54597278 16:0.55243705 17:0.64186249 18:0.42784852 
-1.5457473564583633 0 1:0.47903427 2:0.62968291 3:0.79518703 4:0.457459 5:0.79873115 6:0.77875018 7:0.58315553 8:0.86332421 9:0.49395956 10:0.58068884 11:0.60532558 12:0.6127458 13:0.3975367 14:0.69233367 15:0.43777538 16:0.60201212 17:0.58865471 18:0.39602982 
-4 4 1:0.52731736 2:0.65150891 3:0.73861611 4:0.42713762 5:0.7577673 6:0.87502749 7:0.46449185 8:0.80600019 9:0.38249448 10:0.4955531 11:0.69395533 12:0.93748457 13:0.40109094 14:0.83156674 15:0.51621064 16:0.49859283 17:0.60491319 18:0.70425564 
-4 0 1:0.38851065 2:0.47816641 3:0.80160746 4:0.48812337 5:0.82506314 6:0.88248447 7:0.61039563 8:0.77537977 9:0.3181013 10:0.59598937 11:0.6520351 12:0.68662559 13:0.40462821 14:0.72208453 15:0.48518264 16:0.5883001 17:0.63668934 18:0.5971223 
-4 2.8238034382984631 1:0.43102371 2:0.52851249 3:0.70552972 4:0.39066251 5:0.89217239 6:0.90503526 7:0.49849711 8:0.75695306 9:0.3685353 10:0.5415547 11:0.66557425 12:0.85994559 13:0.43526321 14:0.50835702 15:0.54782362 16:0.44050657 17:0.40391611 18:0.52996481 
-4 0 1:0.45677269 2:0.5765811 3:0.88817656 4:0.53761549 5:0.78773768 6:0.73648681 7:0.46801628 8:0.73093753 9:0.44159009 10:0.60441921 11:0.58345619 12:0.66666122 13:0.43193883 14:0.55172877 15:0.52465662 16:0.64731819 17:0.66688329 18:0.55969917 
-0 4 1:0.62391068 2:0.70631505 3:0.73129107 4:0.44599682 5:0.60659534 6:0.74918895 7:0.41020105 8:0.63711821 9:0.54981896 10:0.53047521 11:0.71525974 12:0.62853326 13:0.72347924 14:0.82124919 15:0.67256398 16:0.51326854 17:0.56308047 18:0.4751199 
-4 4 1:0.48917003 2:0.62943749 3:0.7235572 4:0.52186738 5:0.71171465 6:0.61093584 7:0.3926725 8:0.83915563 9:0.46092983 10:0.71047852 11:0.73063585 12:0.80558553 13:0.5387331 14:0.71820353 15:0.58741654 16:0.54481268 17:0.63447776 18:0.45134557 
-4 4 1:0.57328648 2:0.59689716 3:0.74429573 4:0.54133776 5:0.70214382 6:0.65484508 7:0.36150147 8:0.84486528 9:0.40993536 10:0.52478084 11:0.59222338 12:0.5756429 13:0.33657512 14:0.69869018 15:0.5941904 16:0.69806835 17:0.67900009 18:0.50355973 
-4 0 1:0.20293462 2:0.53366034 3:0.86036478 4:0.41100087 5:0.70447396 6:0.70855898 7:0.51004876 8:0.73179378 9:0.47810383 10:0.57482224 11:0.67599667 12:0.60907661 13:0.5995186 14:0.45601601 15:0.47234432 16:0.66870381 17:0.60504903 18:0.49819052 
-4 0 1:0.5701693 2:0.4798188 3:0.81779089 4:0.58506705 5:0.57116012 6:0.7718579 7:0.33051017 8:0.7580309 9:0.54723103 10:0.67376381 11:0.57329423 12:0.59031193 13:0.4942394 14:0.74669714 15:0.56225703 16:0.58163445 17:0.65818657 18:0.56870969 
-4 0 1:0.30637613 2:0.54137518 3:0.88633639 4:0.56550703 5:0.82661655 6:0.83115028 7:0.52627246 8:0.80733385 9:0.46314521 10:0.52171123 11:0.63434056 12:0.58328757 13:0.55729705 14:0.55054854 15:0.51114988 16:0.56831468 17:0.63051186 18:0.56300653 
-4 4 1:0.36748063 2:0.60370765 3:0.65786141 4:0.33266466 5:0.57168118 6:0.75564903 7:0.38460759 8:0.83984932 9:0.51951114 10:0.56814174 11:0.4431702 12:0.65075948 13:0.73597517 14:0.77359114 15:0.58576849 16:0.50031498 17:0.41425601 18:0.49216508 
-4 0 1:0.56192565 2:0.58738472 3:0.78516291 4:0.50742479 5:0.59627178 6:0.61654171 7:0.26187103 8:0.74546301 9:0.4507406 10:0.66899314 11:0.54380583 12:0.57054693 13:0.45419233 14:0.63354535 15:0.64795536 16:0.59009633 17:0.66796224 18:0.52170029 
-4 0 1:0.44722198 2:0.6032699 3:0.75353298 4:0.5585456 5:0.96388785 6:0.83345729 7:0.39503492 8:0.77327195 9:0.50155815 10:0.50093547 11:0.65106159 12:0.62332528 13:0.55113254 14:0.45167264 15:0.48043701 16:0.6338164 17:0.64281922 18:0.59378528 
-4 0 1:0.46466812 2:0.62911174 3:0.82801035 4:0.42713312 5:0.51710088 6:0.82573301 7:0.27179518 8:0.75723171 9:0.41354958 10:0.63410356 11:0.46011185 12:0.59472031 13:0.5001878 14:0.77709522 15:0.57578413 16:0.43392669 17:0.41449599 18:0.66069074 
-4 0 1:0.50733848 2:0.74448419 3:0.54314554 4:0.81417356 5:0.53722184 6:0.4596008 7:0.54280595 8:0.44742139 9:0.6894052 10:0.38951603 11:0.68178612 12:0.61140108 13:0.73669539 14:0.77047236 15:0.43191464 16:0.73310446 17:0.57479889 18:0.62965644 
-4 4 1:0.6101767 2:0.77416573 3:0.44079348 4:0.74882232 5:0.36054466 6:0.62474042 7:0.56496317 8:0.48169356 9:0.68368737 10:0.22583068 11:0.58947643 12:0.37358376 13:0.60066346 14:0.79033488 15:0.45061852 16:0.69296304 17:0.45386755 18:0.6678512 
-0 4 1:0.62525848 2:0.66864572 3:0.54899146 4:0.76879393 5:0.63639856 6:0.69409766 7:0.60946998 8:0.55141821 9:0.81420021 10:0.43275569 11:0.77303768 12:0.59030473 13:0.59912975 14:0.67611421 15:0.40146449 16:0.64939393 17:0.50089516 18:0.57443912 
-4 0 1:0.13159306 2:0.61541593 3:0.69256174 4:0.49814847 5:0.52322899 6:0.65224472 7:0.604667 8:0.68749209 9:0.85853163 10:0.45554548 11:0.66049515 12:0.49048636 13:0.7039469 14:0.88557501 15:0.65686947 16:0.75999515 17:0.58175532 18:0.70533636 
-0 4 1:0.54054885 2:0.8640102 3:0.54709475 4:0.64634631 5:0.51951825 6:0.51251222 7:0.47709169 8:0.42308785 9:0.69897147 10:0.31169598 11:0.48747974 12:0.33648326 13:0.39017072 14:0.65333023 15:0.35654431 16:0.53612393 17:0.56556388 18:0.51336663 
-0 4 1:0.49111252 2:0.79357265 3:0.50917265 4:0.64286345 5:0.68407642 6:0.55764575 7:0.57231179 8:0.59195801 9:0.71162007 10:0.31379264 11:0.54697389 12:0.47209999 13:0.49352667 14:0.71371961 15:0.6278485 16:0.72061468 17:0.49732747 18:0.60797194 
-4 0 1:0.3926129 2:0.7871033 3:0.53420645 4:0.66218785 5:0.52959718 6:0.55897913 7:0.57080802 8:0.56733821 9:0.81124523 10:0.375812 11:0.62165599 12:0.50535902 13:0.54707861 14:0.68760815 15:0.47531851 16:0.68999388 17:0.57041792 18:0.67843928 
-0 3.2944267636192555 1:0.43042761 2:0.74030119 3:0.61891925 4:0.53353582 5:0.68640393 6:0.59033446 7:0.50650214 8:0.58168083 9:0.73424159 10:0.41313621 11:0.51412896 12:0.38576924 13:0.57862234 14:0.744055 15:0.56095843 16:0.6452543 17:0.65855626 18:0.71002421 
-0 4 1:0.46034299 2:0.82096127 3:0.57803223 4:0.56266909 5:0.63120998 6:0.47131268 7:0.56167975 8:0.62187513 9:0.76905545 10:0.48356472 11:0.51188202 12:0.33508185 13:0.53938215 14:0.79555863 15:0.55693784 16:0.55188241 17:0.47880442 18:0.50991877 
-0 4 1:0.64759591 2:0.81528308 3:0.49750788 4:0.72039311 5:0.46599283 6:0.51763311 7:0.43545166 8:0.38796005 9:0.7589823 10:0.36862716 11:0.72067309 12:0.52797452 13:0.54443366 14:0.74175936 15:0.41507222 16:0.60413306 17:0.42380182 18:0.4389375 
-0 4 1:0.3688534 2:0.72090877 3:0.49699896 4:0.56190313 5:0.59096359 6:0.3675941 7:0.39565858 8:0.69652596 9:0.68273252 10:0.19570812 11:0.55426589 12:0.46995412 13:0.30697302 14:0.46645445 15:0.52687993 16:0.62780403 17:0.22383341 18:0.59950373 
-0 4 1:0.60381336 2:0.8513803 3:0.44507345 4:0.71806067 5:0.50282341 6:0.50545912 7:0.55185003 8:0.47818698 9:0.73061361 10:0.38830676 11:0.66541621 12:0.53085547 13:0.51392851 14:0.58113254 15:0.37948753 16:0.50408251 17:0.28481395 18:0.56845387 
-4 4 1:0.5450665 2:0.8342557 3:0.48451087 4:0.75008861 5:0.4710247 6:0.53160038 7:0.47759099 8:0.35352111 9:0.7075752 10:0.37068192 11:0.65553459 12:0.38863407 13:0.49416031 14:0.7772207 15:0.37407341 16:0.53976371 17:0.46913293 18:0.45483841 
-0 4 1:0.52426609 2:0.85416021 3:0.40916511 4:0.66628807 5:0.57038108 6:0.43096819 7:0.54607045 8:0.66401716 9:0.7449825 10:0.2380458 11:0.54395859 12:0.59351577 13:0.49287732 14:0.59990755 15:0.52286855 16:0.60148269 17:0.3328789 18:0.41819709 
-0 2.2745507701785406 1:0.54435874 2:0.88992561 3:0.46339704 4:0.6699444 5:0.44859488 6:0.46361859 7:0.44266606 8:0.40022829 9:0.8353079 10:0.34772049 11:0.48783549 12:0.54470884 13:0.56930571 14:0.656753 15:0.49017455 16:0.66430755 17:0.34436149 18:0.52006082 
-0 4 1:0.45935946 2:0.81822742 3:0.58844641 4:0.63113519 5:0.54122128 6:0.40189387 7:0.47685587 8:0.54535436 9:0.68574065 10:0.31704655 11:0.51038897 12:0.3252561 13:0.44896454 14:0.70838949 15:0.40381005 16:0.50708235 17:0.39308203 18:0.50265304 
-4 0 1:0.42907703 2:0.76365706 3:0.66773595 4:0.58617347 5:0.57837935 6:0.59370228 7:0.5861316 8:0.57303934 9:0.73769533 10:0.31618513 11:0.45631475 12:0.44520452 13:0.54515552 14:0.73336337 15:0.56106514 16:0.75646666 17:0.69551671 18:0.56213219 
-4 0 1:0.49741427 2:0.7133077 3:0.84291001 4:0.31411424 5:0.51712041 6:0.64904543 7:0.23764322 8:0.66867201 9:0.31787355 10:0.65372943 11:0.51130506 12:0.59522198 13:0.43580761 14:0.56791711 15:0.43202261 16:0.50045993 17:0.46748187 18:0.5663354 
-4 4 1:0.4115078 2:0.45821427 3:0.59421319 4:0.38850922 5:0.54209871 6:0.75820618 7:0.45975746 8:0.80911198 9:0.19522764 10:0.59616364 11:0.49059559 12:0.51429506 13:0.49214097 14:0.65555459 15:0.51869718 16:0.65357176 17:0.2743387 18:0.57902244 
-0 4 1:0.71698171 2:0.63891449 3:0.7544461 4:0.45414125 5:0.57290787 6:0.78141732 7:0.25571916 8:0.77580814 9:0.32260643 10:0.50318789 11:0.4055828 12:0.29541638 13:0.3144498 14:0.46216789 15:0.39833347 16:0.4544874 17:0.3252139 18:0.29810003 
-4 0 1:0.22849453 2:0.46427978 3:0.74574523 4:0.46678071 5:0.65915692 6:0.78976234 7:0.38228328 8:0.79125916 9:0.36978264 10:0.60734859 11:0.58495907 12:0.45505964 13:0.51116022 14:0.41945872 15:0.36531294 16:0.51247 17:0.24163344 18:0.39841718 
-0 4 1:0.82642439 2:0.61537376 3:0.86598971 4:0.31952261 5:0.43134491 6:0.68986372 7:0.1559665 8:0.71522329 9:0.22065409 10:0.54250553 11:0.26720101 12:0.29386107 13:0.3491784 14:0.39249714 15:0.43735275 16:0.5776004 17:0.26315931 18:0.36633473 
-4 4 1:0.58603889 2:0.39843908 3:0.68518147 4:0.45547163 5:0.91807226 6:0.8364752 7:0.33228262 8:0.81260437 9:0.30452741 10:0.7636163 11:0.37800792 12:0.59648214 13:0.47527734 14:0.53722598 15:0.38634573 16:0.51826595 17:0.26797356 18:0.41845082 
-0 4 1:0.85011764 2:0.60690294 3:0.73892505 4:0.43988395 5:0.53724526 6:0.61991724 7:0.30690867 8:0.70459713 9:0.27042989 10:0.58359702 11:0.31836605 12:0.33970258 13:0.60387858 14:0.50933625 15:0.31797261 16:0.32304209 17:0.082488489 18:0.43306247 
-4 4 1:0.59145264 2:0.65101918 3:0.72434991 4:0.45745878 5:0.5138879 6:0.67077268 7:0.11324168 8:0.64193768 9:0.19831175 10:0.67722957 11:0.22233473 12:0.32462374 13:0.51172677 14:0.58900619 15:0.40965204 16:0.42707816 17:0.24691729 18:0.4033654 
-4 0 1:0.41056877 2:0.56572256 3:0.82804363 4:0.49025808 5:0.67478561 6:0.66584469 7:0.35941778 8:0.70167226 9:0.35369327 10:0.59795588 11:0.49180285 12:0.41626114 13:0.52320123 14:0.54677807 15:0.56023266 16:0.50073462 17:0.34855138 18:0.43932314 
-0 4 1:0.705142 2:0.70837358 3:0.79917212 4:0.49161904 5:0.54376517 6:0.76366951 7:0.26679293 8:0.79681128 9:0.35180765 10:0.61209443 11:0.37902861 12:0.38461522 13:0.52279368 14:0.68512167 15:0.36509515 16:0.36731742 17:0.31845797 18:0.38077586 
-0 4 1:0.76597537 2:0.60520578 3:0.9026242 4:0.39447313 5:0.52212826 6:0.68342511 7:0.1416973 8:0.75191031 9:0.32110345 10:0.57794408 11:0.39639984 12:0.29442624 13:0.38584318 14:0.44285661 15:0.2302451 16:0.46121071 17:0.39908038 18:0.39901708 
-4 0 1:0.576057 2:0.56806348 3:0.87195484 4:0.32311797 5:0.58231815 6:0.74831128 7:0.16845245 8:0.69317484 9:0.28878386 10:0.52582198 11:0.27806041 12:0.44833369 13:0.3262755 14:0.50915271 15:0.41074391 16:0.47144755 17:0.29935258 18:0.50552921 
-4 4 1:0.39792268 2:0.51903912 3:0.72505651 4:0.51365129 5:0.58456358 6:0.81235463 7:0.27314683 8:0.76834638 9:0.33768876 10:0.62156103 11:0.49818472 12:0.57028109 13:0.6917589 14:0.67502838 15:0.50769454 16:0.38879145 17:0.35165329 18:0.44111459 
-4 0 1:0.35528545 2:0.45183738 3:0.71130479 4:0.47453865 5:0.87154425 6:0.94342062 7:0.17226085 8:0.62613048 9:0.3626707 10:0.76764316 11:0.45726682 12:0.3975474 13:0.37293477 14:0.36872117 15:0.41097657 16:0.44088249 17:0.35614744 18:0.6567039 
-0 4 1:0.73501627 2:0.65080098 3:0.81778429 4:0.4778093 5:0.49673883 6:0.69517135 7:0.21816638 8:0.8059173 9:0.37878393 10:0.55509243 11:0.41492073 12:0.33075666 13:0.41462216 14:0.46930004 15:0.38452962 16:0.53879917 17:0.3759752 18:0.37108371 
-4 0 1:0.53577202 2:0.42949629 3:0.83065289 4:0.46128805 5:0.54436551 6:0.74731172 7:0.24605075 8:0.81158655 9:0.37449457 10:0.69243082 11:0.30524956 12:0.50277775 13:0.45960381 14:0.58907442 15:0.48612588 16:0.67884443 17:0.29276882 18:0.63211801 
-0 4 1:0.81452069 2:0.63630285 3:0.87437816 4:0.37914844 5:0.44592418 6:0.60283055 7:0.17951469 8:0.76603396 9:0.25473773 10:0.52400904 11:0.30625259 12:0.34418994 13:0.46643308 14:0.57939381 15:0.4128721 16:0.35317475 17:0.17468172 18:0.27695726 
-0 4 1:0.81917645 2:0.66403473 3:0.86840559 4:0.3994673 5:0.48501635 6:0.65995968 7:0.15161987 8:0.76491653 9:0.23026626 10:0.53760514 11:0.33446278 12:0.35033657 13:0.29816955 14:0.58529814 15:0.41961939 16:0.43223986 17:0.31871257 18:0.50359766 
-1.3119012692783991 4 1:0.82924692 2:0.58233972 3:0.91437525 4:0.37361946 5:0.5661903 6:0.71494179 7:0.090868115 8:0.74881163 9:0.21820318 10:0.57354431 11:0.29348502 12:0.32013326 13:0.26045478 14:0.56042769 15:0.44777567 16:0.69048268 17:0.48515902 18:0.53745862 
-4 4 1:0.5951425 2:0.54138926 3:0.71666309 4:0.50454342 5:0.69536709 6:0.74002649 7:0.29403223 8:0.83573005 9:0.367741 10:0.69373127 11:0.47878763 12:0.47351572 13:0.46959865 14:0.44876131 15:0.24917052 16:0.43997669 17:0.37745559 18:0.60057302 
-4 0 1:0.55245399 2:0.58360404 3:0.73503452 4:0.58684261 5:0.53811773 6:0.61915597 7:0.23419578 8:0.75761988 9:0.3107581 10:0.68736265 11:0.41885452 12:0.55618572 13:0.55354364 14:0.69726294 15:0.47133506 16:0.56012836 17:0.28292545 18:0.52140491 
-4 0 1:0.40173365 2:0.4677862 3:0.90501605 4:0.33533945 5:0.63850895 6:0.51769151 7:0.42627024 8:0.62396081 9:0.42543864 10:0.4932949 11:0.45971492 12:0.4009777 13:0.36515998 14:0.52608624 15:0.52036992 16:0.45068738 17:0.34550203 18:0.52650882 
-0 4 1:0.76195625 2:0.61448923 3:0.81792173 4:0.46878037 5:0.57186559 6:0.61562501 7:0.24755128 8:0.70913373 9:0.20705994 10:0.44063661 11:0.3172446 12:0.34630206 13:0.44792454 14:0.39693906 15:0.26035755 16:0.44244722 17:0.37527642 18:0.54510396 
-0 4 1:0.74023871 2:0.66382768 3:0.79533992 4:0.40418877 5:0.5453486 6:0.65949454 7:0.24194195 8:0.75952032 9:0.40338302 10:0.56713315 11:0.44293772 12:0.25559478 13:0.39268128 14:0.50376326 15:0.32798874 16:0.4341785 17:0.42197012 18:0.58046373 
-4 4 1:0.65795279 2:0.53731106 3:0.71887816 4:0.46997473 5:0.53763791 6:0.74056804 7:0.21363422 8:0.71769679 9:0.28797915 10:0.75390139 11:0.40073811 12:0.42363743 13:0.51902149 14:0.52408746 15:0.3145119 16:0.56723056 17:0.35583064 18:0.60309408 
-4 0 1:0.45080503 2:0.65800988 3:0.79042465 4:0.35347312 5:0.57551125 6:0.61692663 7:0.28697313 8:0.69690854 9:0.48404274 10:0.60983445 11:0.41266661 12:0.3552877 13:0.62614461 14:0.49366048 15:0.51084687 16:0.68061975 17:0.46138326 18:0.49590237 
-0 4 1:0.69972785 2:0.74105279 3:0.75537716 4:0.3997476 5:0.60895217 6:0.66612216 7:0.19311507 8:0.68465052 9:0.49864771 10:0.63208089 11:0.4761469 12:0.41818539 13:0.63012049 14:0.55582591 15:0.35305909 16:0.44725362 17:0.46195565 18:0.37547865 
-4 4 1:0.63471893 2:0.66731124 3:0.65089303 4:0.42642351 5:0.56103665 6:0.67352925 7:0.1822948 8:0.77852586 9:0.30566078 10:0.54182396 11:0.33618485 12:0.49776103 13:0.49670927 14:0.6185107 15:0.39186065 16:0.45179076 17:0.37133224 18:0.34031319 
-4 4 1:0.74910529 2:0.59206543 3:0.72753803 4:0.4284251 5:0.51137748 6:0.74202502 7:0.17667786 8:0.70885514 9:0.24205036 10:0.59577259 11:0.40252396 12:0.39886098 13:0.4913277 14:0.57575575 15:0.40776208 16:0.46071782 17:0.29887561 18:0.29192639 
-0 4 1:0.80326514 2:0.58827884 3:0.87282246 4:0.34825004 5:0.54761927 6:0.60485529 7:0.11841596 8:0.64522935 9:0.19905468 10:0.5738679 11:0.36342805 12:0.25156268 13:0.40324255 14:0.52736352 15:0.33284257 16:0.47368128 17:0.33800029 18:0.37993265 
-0 4 1:0.84869658 2:0.64725546 3:0.85404521 4:0.33620777 5:0.53210317 6:0.54131746 7:0.1478814 8:0.62572752 9:0.32728978 10:0.48609936 11:0.35561817 12:0.25482558 13:0.62201123 14:0.46391795 15:0.43656541 16:0.39209382 17:0.38494592 18:0.50138843 
-0 4 1:0.82312586 2:0.72426487 3:0.83610846 4:0.37008819 5:0.50623794 6:0.63403641 7:0.15386535 8:0.67004283 9:0.30505118 10:0.4804332 11:0.40134862 12:0.30421198 13:0.49229375 14:0.5059286 15:0.3610301 16:0.50880292 17:0.38827328 18:0.44712813 
-0 4 1:0.67785807 2:0.62053071 3:0.79380483 4:0.28983315 5:0.6209229 6:0.63156934 7:0.28467083 8:0.69026848 9:0.33848903 10:0.56026606 11:0.3573246 12:0.39984319 13:0.59694921 14:0.61746398 15:0.39678451 16:0.49202549 17:0.34086024 18:0.25223456 
-0 4 1:0.78304231 2:0.62895858 3:0.82919404 4:0.47129641 5:0.54106669 6:0.57832246 7:0.1837301 8:0.72226999 9:0.24830889 10:0.55233819 11:0.36178683 12:0.43179573 13:0.37931996 14:0.57322961 15:0.42535487 16:0.59585311 17:0.40694391 18:0.58135859 
-4 4 1:0.61973862 2:0.44731412 3:0.74238011 4:0.52215476 5:0.5778284 6:0.6562422 7:0.20417008 8:0.83653648 9:0.36691397 10:0.7180695 11:0.58693694 12:0.5874353 13:0.75426374 14:0.56890378 15:0.44122106 16:0.47842514 17:0.21849819 18:0.42239755 
-0 4 1:0.78968385 2:0.54666571 3:0.75296863 4:0.43556336 5:0.56155892 6:0.76450881 7:0.20780588 8:0.88838192 9:0.37548161 10:0.60434293 11:0.49297322 12:0.45108228 13:0.47906565 14:0.72955863 15:0.51252877 16:0.55238794 17:0.35964797 18:0.5370874 
-0 4 1:0.7733582 2:0.61291697 3:0.91306801 4:0.31473084 5:0.60620115 6:0.72333882 7:0.28669297 8:0.70044341 9:0.44256268 10:0.46557493 11:0.46572442 12:0.41241018 13:0.4777791 14:0.56694914 15:0.40463092 16:0.46449987 17:0.28268213 18:0.2422311 
-4 4 1:0.7176019 2:0.65649969 3:0.73606474 4:0.4754944 5:0.62408151 6:0.85195833 7:0.075048264 8:0.6641834 9:0.18820545 10:0.54095536 11:0.52506798 12:0.38640658 13:0.42281273 14:0.53291753 15:0.26023008 16:0.45125647 17:0.44486056 18:0.45294722 
-3.5687724388742987 4 1:0.754396 2:0.59387657 3:0.89930872 4:0.36004004 5:0.50074933 6:0.61156353 7:0.22474944 8:0.80820005 9:0.3407082 10:0.63107635 11:0.43325738 12:0.49646365 13:0.56587613 14:0.53834912 15:0.3715831 16:0.55853854 17:0.46070071 18:0.46538252 
-4 4 1:0.74912072 2:0.59689173 3:0.79112735 4:0.40927141 5:0.52027244 6:0.5737253 7:0.24120576 8:0.76321037 9:0.2675802 10:0.73078756 11:0.35695632 12:0.47527278 13:0.49319876 14:0.38955924 15:0.32490906 16:0.38172499 17:0.40391432 18:0.39526686 
-0 4 1:0.68775314 2:0.76497967 3:0.67119653 4:0.48601062 5:0.50598993 6:0.66635059 7:0.26008857 8:0.72823046 9:0.34487684 10:0.42602917 11:0.42194956 12:0.40994597 13:0.42494004 14:0.5269305 15:0.46260643 16:0.46611512 17:0.38687177 18:0.17989924 
-0 4 1:0.76921345 2:0.75839699 3:0.62319952 4:0.34790208 5:0.50058633 6:0.58439568 7:0.1990595 8:0.56531376 9:0.37784445 10:0.36439767 11:0.62864705 12:0.40631888 13:0.27786477 14:0.49159652 15:0.33698861 16:0.70208675 17:0.17700015 18:0.29531257 
-0 4 1:0.7376954 2:0.65032943 3:0.79205814 4:0.46559739 5:0.63841258 6:0.6809444 7:0.23658755 8:0.71837762 9:0.35437852 10:0.52131785 11:0.37012551 12:0.27925063 13:0.5479446 14:0.55550614 15:0.23314212 16:0.32129506 17:0.25226274 18:0.43000194 
-4 4 1:0.71922315 2:0.63958767 3:0.73907882 4:0.4547111 5:0.63779358 6:0.65623916 7:0.19292944 8:0.77235712 9:0.34481429 10:0.61853622 11:0.39118347 12:0.62903524 13:0.70976653 14:0.73555597 15:0.48789484 16:0.55594694 17:0.44816762 18:0.43736296 
-0 4 1:0.72810449 2:0.54603308 3:0.88512068 4:0.31962 5:0.57174837 6:0.45523901 7:0.29569385 8:0.65393021 9:0.46174452 10:0.56800902 11:0.47967344 12:0.4823743 13:0.56438753 14:0.54133082 15:0.51616558 16:0.43905173 17:0.33000859 18:0.40993188 
-0 4 1:0.49007932 2:0.66283696 3:0.67573266 4:0.49880518 5:0.58121372 6:0.65237033 7:0.2537494 8:0.68730482 9:0.49745121 10:0.54085989 11:0.56149518 12:0.3546106 13:0.45061106 14:0.61979456 15:0.53905489 16:0.42120326 17:0.22498828 18:0.45940059 
-0 4 1:0.65561755 2:0.62220309 3:0.74028568 4:0.57832351 5:0.66905965 6:0.55124837 7:0.22913153 8:0.61968863 9:0.39436979 10:0.60719234 11:0.62309719 12:0.29785771 13:0.66564698 14:0.56435295 15:0.3845521 16:0.56507166 17:0.37005087 18:0.41897735 
-0 4 1:0.59240576 2:0.6038573 3:0.67626809 4:0.62540671 5:0.62620472 6:0.56833105 7:0.27681988 8:0.7085646 9:0.49060246 10:0.65436859 11:0.54043139 12:0.29230231 13:0.62936235 14:0.56648347 15:0.44403674 16:0.48541052 17:0.36576842 18:0.4145591 
-4 4 1:0.62866406 2:0.61733301 3:0.73635664 4:0.50431333 5:0.61795727 6:0.56751471 7:0.30554396 8:0.60602912 9:0.46944261 10:0.59132739 11:0.53369763 12:0.40074754 13:0.51662104 14:0.51301974 15:0.35050216 16:0.45452384 17:0.50138523 18:0.54262186 
-4 0 1:0.35454025 2:0.52073189 3:0.80332017 4:0.7428658 5:0.57928998 6:0.7327412 7:0.39038303 8:0.76069401 9:0.35410121 10:0.64428448 11:0.51013987 12:0.19963912 13:0.67829499 14:0.53992424 15:0.45923311 16:0.46894133 17:0.30038543 18:0.35064915 
-0 4 1:0.58645183 2:0.67390809 3:0.70458333 4:0.52873725 5:0.50284817 6:0.70383918 7:0.26556491 8:0.70646488 9:0.47270449 10:0.56377219 11:0.47154142 12:0.21033329 13:0.66225733 14:0.60020099 15:0.41043166 16:0.42902452 17:0.38575178 18:0.53576831 
-0 4 1:0.58898769 2:0.66654055 3:0.69303455 4:0.45769511 5:0.54574323 6:0.60221745 7:0.36388013 8:0.68998332 9:0.45267655 10:0.49995508 11:0.31798312 12:0.23590453 13:0.48728887 14:0.44089817 15:0.46341104 16:0.50345243 17:0.48136148 18:0.47031667 
-0 4 1:0.63409811 2:0.57257362 3:0.6445048 4:0.66788287 5:0.65059699 6:0.6482712 7:0.26420749 8:0.66253952 9:0.41411925 10:0.5810485 11:0.41175146 12:0.24334305 13:0.73348496 14:0.50867467 15:0.39413281 16:0.37865682 17:0.18405474 18:0.39967647 
-0 1.3417420456466482 1:0.48923504 2:0.73991314 3:0.61751597 4:0.52991906 5:0.5022777 6:0.75294366 7:0.32209127 8:0.6494129 9:0.59031972 10:0.60860071 11:0.45529801 12:0.16242138 13:0.517591 14:0.59635482 15:0.47812152 16:0.33295334 17:0.095266205 18:0.36998931 
-0 4 1:0.64346385 2:0.65683012 3:0.6491505 4:0.57185772 5:0.54012912 6:0.74137511 7:0.32469167 8:0.68038913 9:0.45781743 10:0.59448062 11:0.46470235 12:0.16325245 13:0.459546 14:0.34875479 15:0.30519518 16:0.42242803 17:0.33415843 18:0.71249248 
