svm_type c_svc
kernel_type linear
nr_class 4
total_sv 2023
rho -20.976059585132234 -6.0025571280656287 -5.7022872296859353 17.222445355060493 20.784434200672017 -3.16839200460225
label 11 36 38 42
nr_sv 585 415 488 535
SV
0 14.857543435122565 100 1:0.55259671 2:0.33962625 3:0.57008805 4:0.69975456 5:0.52958233 6:0.65365251 7:0.5685758 8:0.46052667 9:0.45604744 10:0.23470205 11:0.3251698 12:0.376378 13:0.32801535 14:0.39945204 15:0.22490587 16:0.3937071 17:0.38126662 18:0.3920487 
0 100 100 1:0.48481726 2:0.34020229 3:0.66555191 4:0.55423422 5:0.52159678 6:0.59755192 7:0.58270325 8:0.42659508 9:0.48762486 10:0.24873299 11:0.41386916 12:0.44319031 13:0.32065649 14:0.49938013 15:0.14956981 16:0.26094479 17:0.40139964 18:0.4536184 
0 100 0 1:0.49863113 2:0.2708676 3:0.70655177 4:0.72291142 5:0.5554565 6:0.65114374 7:0.50054325 8:0.41338979 9:0.53468484 10:0.2937047 11:0.48895863 12:0.46108387 13:0.25426273 14:0.37870966 15:0.21243112 16:0.42130092 17:0.38696609 18:0.44327413 
0 100 100 1:0.54845622 2:0.27907836 3:0.61066779 4:0.62604882 5:0.49232254 6:0.66808458 7:0.53814006 8:0.47373318 9:0.39288249 10:0.30558495 11:0.34319 12:0.32772917 13:0.39008437 14:0.50871244 15:0.30352438 16:0.2860379 17:0.37182296 18:0.43579641 
0 100 100 1:0.55726662 2:0.24845375 3:0.62366609 4:0.61748672 5:0.42042326 6:0.6390273 7:0.58901628 8:0.61141955 9:0.6438547 10:0.4400207 11:0.45140573 12:0.35248985 13:0.32426546 14:0.42513565 15:0.1525264 16:0.281602 17:0.35614403 18:0.30274119 
0 100 100 1:0.58595719 2:0.27298502 3:0.60402897 4:0.60159975 5:0.4724354 6:0.63334786 7:0.51987729 8:0.43878754 9:0.49846643 10:0.38882458 11:0.46951757 12:0.44857522 13:0.28103747 14:0.36947322 15:0.24765229 16:0.34180262 17:0.35395319 18:0.33766701 
0 100 100 1:0.59371672 2:0.27203661 3:0.62288853 4:0.61151962 5:0.40466815 6:0.6078333 7:0.52485767 8:0.52528027 9:0.51379458 10:0.39064008 11:0.46880063 12:0.34874092 13:0.21188136 14:0.39120841 15:0.34743907 16:0.4724108 17:0.48951648 18:0.39854452 
0 100 100 1:0.61216324 2:0.27760633 3:0.5786705 4:0.61524073 5:0.41171431 6:0.62273563 7:0.57047378 8:0.45620091 9:0.53187401 10:0.38695125 11:0.38965915 12:0.40811804 13:0.26714108 14:0.31864972 15:0.20619465 16:0.31858823 17:0.41096492 18:0.50008126 
0 100 100 1:0.61273144 2:0.30937154 3:0.62275271 4:0.60120749 5:0.41240186 6:0.57897261 7:0.50509895 8:0.46498599 9:0.49248532 10:0.36522898 11:0.38788842 12:0.38591137 13:0.30015068 14:0.4543847 15:0.26847428 16:0.38130074 17:0.46888068 18:0.51476754 
0 100 100 1:0.63942547 2:0.19536383 3:0.5831932 4:0.77232258 5:0.45887683 6:0.60873504 7:0.52792912 8:0.47848244 9:0.60504557 10:0.37893342 11:0.33714984 12:0.47866561 13:0.26875714 14:0.3713815 15:0.14600186 16:0.32140403 17:0.45863175 18:0.44168471 
0 100 100 1:0.61206066 2:0.30485246 3:0.59061646 4:0.64509753 5:0.43527471 6:0.63839288 7:0.44731291 8:0.41345687 9:0.4627042 10:0.33224857 11:0.32054409 12:0.35123131 13:0.3471148 14:0.39022933 15:0.19186989 16:0.41357961 17:0.49663715 18:0.33495596 
0 100 0 1:0.35211595 2:0.37940626 3:0.32628355 4:0.55001966 5:0.59519778 6:0.40681795 7:0.41839914 8:0.44224211 9:0.41050648 10:0.56449106 11:0.3915185 12:0.59666042 13:0.40156584 14:0.67693057 15:0.61333554 16:0.54036608 17:0.52580544 18:0.55611533 
100 0 100 1:0.65642215 2:0.60574549 3:0.65669641 4:0.57600363 5:0.63738614 6:0.43252408 7:0.56499558 8:0.33243429 9:0.4464256 10:0.3449149 11:0.3455759 12:0.42712583 13:0.38887642 14:0.34485047 15:0.35909133 16:0.41759335 17:0.38412805 18:0.4898571 
0 100 0 1:0.30082425 2:0.44806319 3:0.37466358 4:0.59828599 5:0.63114536 6:0.48246366 7:0.39603595 8:0.52886959 9:0.70270991 10:0.36690279 11:0.39467829 12:0.54970943 13:0.45237442 14:0.65596267 15:0.52654381 16:0.5239642 17:0.64093716 18:0.52817257 
0 100 100 1:0.58265152 2:0.53702213 3:0.69574522 4:0.66957667 5:0.56287358 6:0.51349585 7:0.58387196 8:0.40017361 9:0.50208821 10:0.43312168 11:0.30656115 12:0.47657088 13:0.25714437 14:0.61323428 15:0.35811488 16:0.32423762 17:0.25638519 18:0.5406917 
100 0 100 1:0.6855263 2:0.66127069 3:0.55768911 4:0.47665897 5:0.73885609 6:0.58985614 7:0.60417533 8:0.291626 9:0.44794819 10:0.34259135 11:0.055420449 12:0.48358296 13:0.20168039 14:0.35283152 15:0.45106617 16:0.40728952 17:0.54477496 18:0.54707072 
100 0 100 1:0.67295399 2:0.62758597 3:0.60217899 4:0.5771729 5:0.62647116 6:0.4407986 7:0.62942281 8:0.32183731 9:0.39498782 10:0.19658369 11:0.27210611 12:0.36691537 13:0.37924241 14:0.39794967 15:0.40208594 16:0.36758629 17:0.3857679 18:0.40564785 
100 3.132558812011685 100 1:0.67791104 2:0.51113874 3:0.60215833 4:0.58500817 5:0.66589842 6:0.71739695 7:0.49318873 8:0.44706447 9:0.63353207 10:0.36497945 11:0.31330085 12:0.34547408 13:0.12982217 14:0.44894366 15:0.29192556 16:0.37113323 17:0.21102498 18:0.3463204 
100 0 100 1:0.66140411 2:0.60138309 3:0.60970642 4:0.62133718 5:0.69902992 6:0.55324765 7:0.60464396 8:0.38185108 9:0.40507253 10:0.37379955 11:0.32960236 12:0.30150532 13:0.42420599 14:0.39983962 15:0.33791299 16:0.46448756 17:0.44297364 18:0.40657738 
100 0 100 1:0.68744542 2:0.6124674 3:0.70320705 4:0.59301623 5:0.62940594 6:0.48777655 7:0.62484207 8:0.39262208 9:0.53528176 10:0.16620209 11:0.34662698 12:0.43133908 13:0.35900525 14:0.4165346 15:0.25077959 16:0.29071469 17:0.41189089 18:0.51801363 
100 0 100 1:0.64808698 2:0.58505367 3:0.67591961 4:0.7043351 5:0.62866109 6:0.52991221 7:0.57137464 8:0.42720114 9:0.55028343 10:0.26054121 11:0.31390261 12:0.2998924 13:0.21895974 14:0.32819596 15:0.279034 16:0.41655816 17:0.386444 18:0.28696328 
100 0 100 1:0.63372666 2:0.63476946 3:0.68535499 4:0.52888033 5:0.51402923 6:0.69382835 7:0.60522889 8:0.42224401 9:0.64099334 10:0.18359957 11:0.20116751 12:0.44254203 13:0.27972537 14:0.38951847 15:0.32941659 16:0.36473385 17:0.41250413 18:0.259678 
100 0 100 1:0.68046543 2:0.64545181 3:0.69603592 4:0.5705245 5:0.61319342 6:0.54425574 7:0.68853514 8:0.43320529 9:0.47038767 10:0.30691524 11:0.38310691 12:0.33854871 13:0.54789817 14:0.43658385 15:0.38529494 16:0.43163133 17:0.48062132 18:0.39561525 
100 0 100 1:0.65820358 2:0.6081585 3:0.67176587 4:0.69293207 5:0.70797078 6:0.60973422 7:0.60028638 8:0.34494808 9:0.34838657 10:0.32110796 11:0.36758992 12:0.40279127 13:0.19528645 14:0.46113257 15:0.32801305 16:0.49466585 17:0.45364439 18:0.39163186 
100 0 100 1:0.62784651 2:0.62738716 3:0.68506726 4:0.51849089 5:0.53338822 6:0.68801188 7:0.62627942 8:0.55096183 9:0.49176514 10:0.17931759 11:0.32706953 12:0.54697948 13:0.16650261 14:0.47350201 15:0.24170647 16:0.36789068 17:0.47367768 18:0.40381548 
100 0 0 1:0.62906265 2:0.65853162 3:0.66535064 4:0.57182475 5:0.58954991 6:0.54568255 7:0.69651067 8:0.53196377 9:0.54777395 10:0.31788505 11:0.30961589 12:0.36737674 13:0.50073927 14:0.3325917 15:0.32274494 16:0.4165624 17:0.51597156 18:0.41548485 
100 0 100 1:0.70711219 2:0.64788303 3:0.68131724 4:0.53189453 5:0.60487853 6:0.47148108 7:0.64337726 8:0.39287009 9:0.42214073 10:0.38057088 11:0.53223382 12:0.36727094 13:0.33493238 14:0.34975706 15:0.31842963 16:0.29675849 17:0.35960316 18:0.50434013 
100 0 100 1:0.61307084 2:0.59767319 3:0.60843177 4:0.66869036 5:0.77408431 6:0.58209357 7:0.59040681 8:0.39241045 9:0.55026992 10:0.33675256 11:0.33249201 12:0.56304556 13:0.25228087 14:0.37196929 15:0.46210283 16:0.62445354 17:0.47781646 18:0.39452325 
100 0 100 1:0.51056797 2:0.62275958 3:0.6208007 4:0.64706065 5:0.8205833 6:0.60530582 7:0.58343396 8:0.42379292 9:0.59073162 10:0.42320479 11:0.46714232 12:0.57308097 13:0.17770815 14:0.44061986 15:0.35977076 16:0.39383943 17:0.45215011 18:0.47185403 
100 0 0 1:0.51108903 2:0.60889664 3:0.67986646 4:0.7247973 5:0.71377336 6:0.51768075 7:0.61064522 8:0.3094079 9:0.50599749 10:0.35447788 11:0.31892769 12:0.48335787 13:0.2282648 14:0.22695431 15:0.42108791 16:0.4525038 17:0.31480702 18:0.46030349 
100 0 0 1:0.54423038 2:0.59291709 3:0.63313866 4:0.7755644 5:0.75116114 6:0.55079348 7:0.54036587 8:0.31403691 9:0.61665203 10:0.39201871 11:0.28113669 12:0.47377891 13:0.3395932 14:0.48662731 15:0.47236741 16:0.55872284 17:0.3354433 18:0.4653057 
100 0 100 1:0.56271769 2:0.62881614 3:0.66705124 4:0.62392046 5:0.77767691 6:0.60081486 7:0.59950365 8:0.4060952 9:0.52435366 10:0.35363476 11:0.38685178 12:0.47908373 13:0.43996493 14:0.45110094 15:0.34914185 16:0.43129629 17:0.46121109 18:0.3229485 
100 0 0 1:0.56903774 2:0.62247336 3:0.62362917 4:0.64680379 5:0.69996258 6:0.50808264 7:0.57727186 8:0.42044476 9:0.46755924 10:0.22897627 11:0.42507252 12:0.35009041 13:0.37105424 14:0.4332831 15:0.39449918 16:0.45882778 17:0.43480262 18:0.47278913 
100 0 0 1:0.545196 2:0.65642859 3:0.74459461 4:0.58264309 5:0.65556699 6:0.53398184 7:0.57399856 8:0.27160313 9:0.61009111 10:0.34933561 11:0.4215548 12:0.47823131 13:0.26231227 14:0.31754135 15:0.3968111 16:0.32447505 17:0.33894986 18:0.37001875 
100 0 0 1:0.49812375 2:0.62712823 3:0.67239225 4:0.64043264 5:0.7113841 6:0.61385993 7:0.64002828 8:0.47809803 9:0.60211414 10:0.4352607 11:0.4127744 12:0.38130164 13:0.12300401 14:0.17950378 15:0.34477124 16:0.57180462 17:0.34715568 18:0.38383037 
100 0 94.589509395693042 1:0.63593337 2:0.67213265 3:0.68143698 4:0.56538835 5:0.60054815 6:0.54542608 7:0.52388213 8:0.33820838 9:0.6831678 10:0.42897066 11:0.47592236 12:0.33716675 13:0.23455255 14:0.32884289 15:0.38063083 16:0.5011776 17:0.36278584 18:0.36511044 
100 0 0 1:0.54860686 2:0.65918315 3:0.6663457 4:0.67718975 5:0.6430741 6:0.49471588 7:0.55320249 8:0.23669499 9:0.39894748 10:0.30033904 11:0.36620923 12:0.45393136 13:0.3176981 14:0.26803505 15:0.33616488 16:0.41048185 17:0.29759343 18:0.46145206 
0 100 100 1:0.49192348 2:0.25344255 3:0.49942514 4:0.49646742 5:0.57902957 6:0.43026733 7:0.45745966 8:0.48415875 9:0.57099976 10:0.64776402 11:0.54414828 12:0.53601336 13:0.51254008 14:0.68819058 15:0.42705944 16:0.5996098 17:0.53407216 18:0.45200853 
0 100 100 1:0.63689701 2:0.38826911 3:0.5866603 4:0.68399349 5:0.57166278 6:0.50391485 7:0.46557481 8:0.41935789 9:0.53163063 10:0.5153713 11:0.26953383 12:0.50107507 13:0.32721685 14:0.73957754 15:0.52197489 16:0.43408226 17:0.54324231 18:0.61268752 
0 100 100 1:0.60131719 2:0.32015832 3:0.50586243 4:0.6209895 5:0.51458597 6:0.48963986 7:0.39821023 8:0.38911549 9:0.54001313 10:0.53492969 11:0.28488638 12:0.38300056 13:0.39603155 14:0.76604769 15:0.51573251 16:0.32825236 17:0.55921801 18:0.68793305 
0 100 0 1:0.44327923 2:0.12696783 3:0.54646854 4:0.58363171 5:0.41728386 6:0.4702791 7:0.39198273 8:0.2611495 9:0.48703711 10:0.46188048 11:0.31214306 12:0.57594511 13:0.59372151 14:0.64468902 15:0.42592165 16:0.4784729 17:0.55444771 18:0.48411325 
100 100 100 1:0.70548922 2:0.59969909 3:0.64420894 4:0.54607357 5:0.65270512 6:0.53175073 7:0.63233041 8:0.52499766 9:0.5078903 10:0.47107521 11:0.27680354 12:0.35720297 13:0.27849508 14:0.39005595 15:0.34360024 16:0.3583094 17:0.63260183 18:0.5349443 
100 100 100 1:0.59724565 2:0.3846085 3:0.74509891 4:0.81521525 5:0.66141196 6:0.60694743 7:0.53640646 8:0.57858404 9:0.70353819 10:0.48209343 11:0.2529304 12:0.52717565 13:0.31025515 14:0.52792089 15:0.39932809 16:0.24590692 17:0.41512767 18:0.54081538 
100 100 100 1:0.74874665 2:0.59507173 3:0.70228875 4:0.50712634 5:0.60058444 6:0.5173046 7:0.54066629 8:0.4427525 9:0.50022876 10:0.36107028 11:0.40527295 12:0.38352872 13:0.35513772 14:0.30168063 15:0.32873905 16:0.48103036 17:0.51696893 18:0.44450302 
100 0 0 1:0.57885141 2:0.44808155 3:0.7171783 4:0.88893003 5:0.6818338 6:0.66687094 7:0.49304992 8:0.50561891 9:0.74844166 10:0.41432647 11:0.02280132 12:0.53438772 13:0.35087688 14:0.24297559 15:0.30715046 16:0.14877299 17:0.45114405 18:0.4062242 
0 100 0 1:0.59787981 2:0.32991048 3:0.74855738 4:0.73469038 5:0.57338831 6:0.6089055 7:0.46953894 8:0.5766097 9:0.69098406 10:0.37101855 11:0.11608918 12:0.45864718 13:0.22447477 14:0.40272088 15:0.36888505 16:0.24329428 17:0.39073446 18:0.28468757 
0 100 100 1:0.65197985 2:0.31013955 3:0.69773124 4:0.63669062 5:0.55214151 6:0.5631241 7:0.6353307 8:0.58817099 9:0.60536177 10:0.43866855 11:0.38903488 12:0.51634869 13:0.36141225 14:0.61464438 15:0.41668868 16:0.35900516 17:0.65756688 18:0.51447026 
100 100 0 1:0.5974021 2:0.40213797 3:0.70876962 4:0.8348066 5:0.64666524 6:0.52664639 7:0.44769647 8:0.56791722 9:0.61128652 10:0.44605253 11:0.24877604 12:0.40654004 13:0.36623765 14:0.59632948 15:0.48515582 16:0.29010703 17:0.45609773 18:0.53289648 
100 0 100 1:0.74410319 2:0.5997439 3:0.67340874 4:0.50846782 5:0.56640467 6:0.51310025 7:0.56140072 8:0.4175546 9:0.39980344 10:0.16826373 11:0.4134424 12:0.36714567 13:0.3770264 14:0.41907454 15:0.37200643 16:0.48298905 17:0.51241734 18:0.41667503 
54.941105842854903 100 0 1:0.57082144 2:0.3038331 3:0.77699612 4:0.86126897 5:0.66687574 6:0.64875468 7:0.4247071 8:0.61944412 9:0.80465452 10:0.36843442 11:0.14775518 12:0.41958351 13:0.22991002 14:0.40892319 15:0.32177138 16:0.3040208 17:0.55117381 18:0.3936797 
100 100 100 1:0.60656215 2:0.45771263 3:0.71900368 4:0.83407963 5:0.69749264 6:0.56957603 7:0.47538491 8:0.48868097 9:0.62968338 10:0.53717675 11:0.26362423 12:0.47279948 13:0.36182049 14:0.55654763 15:0.40673696 16:0.35204015 17:0.36909886 18:0.53898694 
100 0 100 1:0.73392858 2:0.54997967 3:0.70112617 4:0.53679315 5:0.60430466 6:0.61970134 7:0.57597334 8:0.43049845 9:0.49031102 10:0.20345897 11:0.37608226 12:0.37442845 13:0.38656979 14:0.43353209 15:0.35221609 16:0.42408229 17:0.37645194 18:0.27851951 
0 100 0 1:0.53191612 2:0.36972042 3:0.76062128 4:0.75898147 5:0.60955002 6:0.67242047 7:0.56110434 8:0.50728478 9:0.67233474 10:0.42054706 11:0.085061764 12:0.34842478 13:0.26178286 14:0.54388051 15:0.35579439 16:0.19710843 17:0.44984803 18:0.47985345 
100 100 0 1:0.61976262 2:0.40408422 3:0.75195651 4:0.79948085 5:0.64536005 6:0.62422404 7:0.41664441 8:0.51149303 9:0.69851709 10:0.3888821 11:0.12219139 12:0.35573671 13:0.28849221 14:0.55368471 15:0.34543288 16:0.32358088 17:0.30309224 18:0.21271293 
0 100 0 1:0.48554381 2:0.33609116 3:0.73989095 4:0.80919213 5:0.53083964 6:0.6397864 7:0.51024362 8:0.53863464 9:0.49169961 10:0.57819486 11:0.24044229 12:0.42085674 13:0.37314107 14:0.42228225 15:0.24305345 16:0.24828315 17:0.53113851 18:0.53264442 
0 100 100 1:0.62676301 2:0.36680107 3:0.67143572 4:0.72537217 5:0.54244409 6:0.64715636 7:0.60638711 8:0.53153766 9:0.47814525 10:0.35382358 11:0.26345439 12:0.55478017 13:0.52326259 14:0.57291787 15:0.26463182 16:0.23098647 17:0.35567648 18:0.44073115 
100 0 100 1:0.78236575 2:0.57592193 3:0.63296944 4:0.48664324 5:0.59102146 6:0.54639006 7:0.54457385 8:0.49147335 9:0.46119428 10:0.24576514 11:0.40951421 12:0.21099484 13:0.40829273 14:0.37780712 15:0.33838813 16:0.44681303 17:0.41453884 18:0.37256373 
100 100 26.459639068428295 1:0.6134836 2:0.45199062 3:0.72039112 4:0.75658504 5:0.67485081 6:0.64360569 7:0.49248618 8:0.57631629 9:0.69893706 10:0.36936302 11:0.23549123 12:0.53355373 13:0.25450906 14:0.36192498 15:0.20373245 16:0.40988474 17:0.55075777 18:0.41724422 
100 100 100 1:0.61071294 2:0.43120533 3:0.68029979 4:0.84362354 5:0.6398451 6:0.59696136 7:0.60162687 8:0.60021303 9:0.51995616 10:0.50204472 11:0.23359114 12:0.47317619 13:0.32902086 14:0.54281074 15:0.30141128 16:0.27256287 17:0.4247197 18:0.55191581 
100 100 100 1:0.7450706 2:0.53995176 3:0.66268601 4:0.54213159 5:0.66561604 6:0.61194216 7:0.55749406 8:0.38369949 9:0.61734379 10:0.17967015 11:0.45230682 12:0.38445769 13:0.42158908 14:0.49863786 15:0.2535331 16:0.31915795 17:0.44147356 18:0.44729511 
100 100 0 1:0.55389258 2:0.43666134 3:0.80994134 4:0.78033804 5:0.61506315 6:0.73950004 7:0.51720002 8:0.53536452 9:0.53629338 10:0.40360788 11:0.071949349 12:0.4313455 13:0.36184925 14:0.43426512 15:0.46084156 16:0.17240763 17:0.43620687 18:0.4208674 
100 100 0 1:0.623008 2:0.47953411 3:0.75109128 4:0.78644998 5:0.67058052 6:0.66066099 7:0.50338583 8:0.60922627 9:0.71804571 10:0.47358782 11:0.079663024 12:0.54932385 13:0.38496833 14:0.42304437 15:0.33165101 16:0.29914025 17:0.30976892 18:0.31685284 
100 100 0 1:0.55933638 2:0.41006235 3:0.7738411 4:0.84158342 5:0.57788008 6:0.6238969 7:0.55149535 8:0.5548194 9:0.5785293 10:0.51870749 11:0.12054881 12:0.34138471 13:0.33371558 14:0.42929902 15:0.43335139 16:0.098697187 17:0.46490633 18:0.55678863 
100 100 0 1:0.61727016 2:0.44135762 3:0.66237003 4:0.75939253 5:0.60168294 6:0.60503214 7:0.50999332 8:0.54003968 9:0.69983169 10:0.53861513 11:0.14678966 12:0.41757738 13:0.35838843 14:0.41250428 15:0.3730874 16:0.2150145 17:0.34322246 18:0.43669459 
100 0 100 1:0.72851952 2:0.55766059 3:0.67979913 4:0.51014118 5:0.61996864 6:0.58374543 7:0.59847128 8:0.40452209 9:0.54586671 10:0.23159265 11:0.42145893 12:0.38814176 13:0.4209451 14:0.42963505 15:0.2889955 16:0.29882669 17:0.46760272 18:0.32584505 
100 100 0 1:0.60378281 2:0.35960587 3:0.74056938 4:0.83421475 5:0.72398154 6:0.63218112 7:0.42256563 8:0.67094067 9:0.70455261 10:0.46437277 11:0.23710378 12:0.54042897 13:0.30132579 14:0.45384097 15:0.3032388 16:0.33141549 17:0.49412442 18:0.44454946 
100 100 100 1:0.5965974 2:0.43342748 3:0.67053164 4:0.82678762 5:0.67185042 6:0.60744378 7:0.59775234 8:0.62282647 9:0.55958327 10:0.49562964 11:0.082985597 12:0.51128409 13:0.41528414 14:0.62179324 15:0.36997711 16:0.16771163 17:0.47074477 18:0.62859144 
0 100 0 1:0.43375535 2:0.24742969 3:0.52264736 4:0.61205261 5:0.48309824 6:0.50928257 7:0.52720681 8:0.51217451 9:0.46542445 10:0.38083307 11:0.42521024 12:0.60881016 13:0.45404437 14:0.58190734 15:0.41386938 16:0.51019935 17:0.70800736 18:0.57826832 
100 0 100 1:0.74271869 2:0.63971871 3:0.69020524 4:0.56296021 5:0.58465838 6:0.53349959 7:0.62379744 8:0.47004555 9:0.43313203 10:0.34128469 11:0.35897796 12:0.47543444 13:0.32681254 14:0.41467021 15:0.31723493 16:0.41795977 17:0.4929897 18:0.48186787 
100 100 100 1:0.6426551 2:0.50998507 3:0.57492981 4:0.65057288 5:0.71291406 6:0.64309523 7:0.59244624 8:0.40751214 9:0.50624106 10:0.4749252 11:0.73624762 12:0.45139664 13:0.37755665 14:0.54549649 15:0.53088445 16:0.59072176 17:0.44160927 18:0.38715963 
100 100 100 1:0.66667015 2:0.49010076 3:0.54131574 4:0.63803721 5:0.66467185 6:0.59598448 7:0.46667827 8:0.39788182 9:0.48630432 10:0.37549863 11:0.52530629 12:0.48918158 13:0.50413279 14:0.44081679 15:0.45110828 16:0.49082001 17:0.44496184 18:0.42032347 
100 100 100 1:0.59198233 2:0.55241987 3:0.67375737 4:0.58143554 5:0.63406455 6:0.55166022 7:0.58558303 8:0.56466967 9:0.54949429 10:0.49901489 11:0.48875304 12:0.52093016 13:0.34383592 14:0.38922042 15:0.44850541 16:0.59155346 17:0.56242116 18:0.51430536 
100 100 100 1:0.64190653 2:0.51050385 3:0.64597689 4:0.65422999 5:0.78464608 6:0.57514834 7:0.5396162 8:0.43469994 9:0.49482188 10:0.55188686 11:0.43114847 12:0.4182972 13:0.30279694 14:0.37746844 15:0.43220874 16:0.43204776 17:0.39689668 18:0.56590001 
100 100 100 1:0.59523915 2:0.57782805 3:0.74129206 4:0.58735603 5:0.59617717 6:0.61199937 7:0.60538703 8:0.50237981 9:0.52408652 10:0.37438221 11:0.48294026 12:0.62189638 13:0.51396488 14:0.49826448 15:0.28078036 16:0.40847607 17:0.48976019 18:0.52908194 
100 0 100 1:0.66047204 2:0.55235758 3:0.52920299 4:0.64409073 5:0.6308961 6:0.67507514 7:0.57365292 8:0.34068122 9:0.40350644 10:0.33009309 11:0.51438271 12:0.52600843 13:0.37377773 14:0.40600137 15:0.39200139 16:0.56628366 17:0.42564374 18:0.41346549 
100 0 100 1:0.63819641 2:0.59874921 3:0.50424757 4:0.62846049 5:0.72776088 6:0.5618161 7:0.60687033 8:0.38384164 9:0.62996327 10:0.36741449 11:0.46480333 12:0.53578046 13:0.22872094 14:0.29635335 15:0.46172268 16:0.62464881 17:0.42989714 18:0.3451199 
100 0 100 1:0.67028284 2:0.58345021 3:0.53332312 4:0.63714284 5:0.67672982 6:0.52679703 7:0.58804768 8:0.39547281 9:0.61891288 10:0.44581562 11:0.49231009 12:0.60846629 13:0.28218504 14:0.43212682 15:0.39908291 16:0.52295494 17:0.40849829 18:0.33078525 
0 100 0 1:0.38774491 2:0.23624432 3:0.71781086 4:0.40460637 5:0.48247759 6:0.35991954 7:0.51936862 8:0.46404452 9:0.57563807 10:0.43466122 11:0.41260317 12:0.50045993 13:0.42317238 14:0.50775898 15:0.19966523 16:0.54231864 17:0.47176396 18:0.540268 
100 100 0 1:0.54739693 2:0.56722605 3:0.73659047 4:0.61515629 5:0.65496512 6:0.54429215 7:0.60428885 8:0.59030134 9:0.50604133 10:0.37207069 11:0.41086725 12:0.49693455 13:0.56433661 14:0.5634856 15:0.42896838 16:0.48393437 17:0.55181055 18:0.6133289 
0 100 100 1:0.64784313 2:0.52879672 3:0.57249893 4:0.6892805 5:0.6648179 6:0.5863379 7:0.436826 8:0.22592561 9:0.60342032 10:0.54171507 11:0.57052544 12:0.28818279 13:0.20897843 14:0.51777452 15:0.47368621 16:0.50787797 17:0.40912105 18:0.47165656 
0 100 100 1:0.59831675 2:0.4775667 3:0.57777236 4:0.81785649 5:0.62644959 6:0.52698291 7:0.59533666 8:0.29547264 9:0.77678284 10:0.42881482 11:0.54046879 12:0.56360469 13:0.36637959 14:0.60335679 15:0.44455742 16:0.50830813 17:0.57593939 18:0.39558146 
100 0 0 1:0.61395985 2:0.56205221 3:0.7289535 4:0.65583046 5:0.81281826 6:0.49384245 7:0.60117668 8:0.40846671 9:0.68155155 10:0.38139859 11:0.3073421 12:0.30930935 13:0.28804845 14:0.37120387 15:0.34424373 16:0.50950582 17:0.49975458 18:0.27083261 
100 0 100 1:0.61593974 2:0.63750962 3:0.70333097 4:0.57788782 5:0.742318 6:0.4889601 7:0.57710794 8:0.24125751 9:0.38120798 10:0.33799775 11:0.44237742 12:0.45328832 13:0.11387922 14:0.42629555 15:0.41805646 16:0.43599084 17:0.29183994 18:0.34435437 
100 0 100 1:0.69381228 2:0.64422965 3:0.69196438 4:0.5474199 5:0.63062815 6:0.50415066 7:0.58430986 8:0.34618203 9:0.59325741 10:0.41964068 11:0.41507533 12:0.50038929 13:0.29259427 14:0.30795938 15:0.42127056 16:0.49547753 17:0.37728155 18:0.38904759 
100 0 100 1:0.68790451 2:0.63198678 3:0.66791353 4:0.52995038 5:0.58266953 6:0.53895802 7:0.48855257 8:0.24390325 9:0.46655677 10:0.33328003 11:0.29398415 12:0.45453936 13:0.20143933 14:0.31297155 15:0.4902761 16:0.60116804 17:0.32329513 18:0.36999564 
100 0 100 1:0.64419908 2:0.63250135 3:0.67374496 4:0.55212232 5:0.67275488 6:0.57638705 7:0.5244669 8:0.4091949 9:0.56626523 10:0.25186274 11:0.430622 12:0.41351167 13:0.28759009 14:0.4480106 15:0.43182769 16:0.46371358 17:0.39656251 18:0.34264401 
100 0 0 1:0.61720233 2:0.57137793 3:0.68230231 4:0.70645758 5:0.6990933 6:0.50293889 7:0.52084518 8:0.38790362 9:0.62907532 10:0.36575772 11:0.35288747 12:0.55881692 13:0.40467252 14:0.5511205 15:0.48781404 16:0.60312703 17:0.30693909 18:0.27648499 
100 100 100 1:0.59531634 2:0.59392591 3:0.67590839 4:0.60263238 5:0.67483993 6:0.59652632 7:0.58389861 8:0.49425257 9:0.50949875 10:0.38314874 11:0.43020255 12:0.49024624 13:0.36530658 14:0.47427912 15:0.36460478 16:0.38676789 17:0.5050731 18:0.46683558 
100 100 100 1:0.64055256 2:0.54872701 3:0.55304604 4:0.64156238 5:0.66986157 6:0.56966309 7:0.43737719 8:0.37877071 9:0.42907165 10:0.37886227 11:0.53931734 12:0.36109119 13:0.2280453 14:0.40924354 15:0.59322734 16:0.5603882 17:0.36383136 18:0.41301922 
0 0 100 1:0.61783991 2:0.51201226 3:0.57846611 4:0.68188782 5:0.6263253 6:0.54823487 7:0.59551043 8:0.36656488 9:0.54530136 10:0.41390047 11:0.53691115 12:0.48719835 13:0.30728615 14:0.43719215 15:0.47787007 16:0.49508406 17:0.31814167 18:0.28679032 
100 100 100 1:0.64877 2:0.53114985 3:0.57869459 4:0.6120506 5:0.57334175 6:0.645214 7:0.49976672 8:0.40039382 9:0.65479421 10:0.34925035 11:0.59292968 12:0.55301612 13:0.33734539 14:0.44195094 15:0.49014633 16:0.60979972 17:0.44172987 18:0.33793158 
100 100 100 1:0.55724266 2:0.53096046 3:0.67346797 4:0.64421842 5:0.64404787 6:0.58217231 7:0.51610301 8:0.52533925 9:0.47327576 10:0.49161248 11:0.43016835 12:0.47083839 13:0.44502187 14:0.43323381 15:0.38823349 16:0.5580109 17:0.6801357 18:0.52789845 
100 100 100 1:0.62485081 2:0.54528237 3:0.60714513 4:0.69267964 5:0.58265896 6:0.54853449 7:0.54450772 8:0.43141606 9:0.5074853 10:0.39175793 11:0.47302327 12:0.37018142 13:0.31439917 14:0.54051711 15:0.45115824 16:0.45341417 17:0.46661973 18:0.52248987 
0 100 0 1:0.54545791 2:0.43726861 3:0.67658046 4:0.59925743 5:0.6095205 6:0.52416154 7:0.56473198 8:0.47167486 9:0.50586474 10:0.53707235 11:0.3944099 12:0.55944522 13:0.4220157 14:0.4305025 15:0.3427852 16:0.58026932 17:0.5082565 18:0.54063352 
100 77.865667263532458 100 1:0.65163863 2:0.54102462 3:0.72761135 4:0.67788313 5:0.75568762 6:0.55004685 7:0.60073197 8:0.32582041 9:0.5295892 10:0.38145416 11:0.31646435 12:0.40638447 13:0.19995358 14:0.39295599 15:0.4481976 16:0.36624204 17:0.31646471 18:0.39966811 
100 0 100 1:0.5940363 2:0.54301298 3:0.66597095 4:0.65894017 5:0.68759894 6:0.56596243 7:0.60567673 8:0.4174569 9:0.50439275 10:0.3408899 11:0.39158841 12:0.45706754 13:0.26908628 14:0.294513 15:0.36696275 16:0.44979433 17:0.286114 18:0.38007779 
100 0 0 1:0.63473128 2:0.62345603 3:0.67687425 4:0.65297571 5:0.73518003 6:0.57962528 7:0.64632915 8:0.38599343 9:0.60214365 10:0.29319355 11:0.27904757 12:0.39051747 13:0.29055083 14:0.28788127 15:0.44535331 16:0.54769029 17:0.33068967 18:0.31409749 
100 0 0 1:0.53112864 2:0.6072757 3:0.63259791 4:0.62662274 5:0.60551106 6:0.49638029 7:0.65364925 8:0.38954733 9:0.63143895 10:0.43031945 11:0.590979 12:0.47840507 13:0.33294151 14:0.37514671 15:0.36171461 16:0.38387918 17:0.23922465 18:0.3733666 
100 0 100 1:0.71986912 2:0.64632101 3:0.71102609 4:0.57601863 5:0.62969874 6:0.46330334 7:0.55540771 8:0.36106067 9:0.62933092 10:0.42268207 11:0.32287657 12:0.34055135 13:0.14041652 14:0.23511114 15:0.37383699 16:0.45408221 17:0.28595753 18:0.28886531 
100 0 100 1:0.68855067 2:0.65203641 3:0.6584774 4:0.56345634 5:0.57481401 6:0.45792057 7:0.45248325 8:0.42324708 9:0.484847 10:0.29702211 11:0.21916553 12:0.382048 13:0.3122063 14:0.46654033 15:0.32905179 16:0.41502019 17:0.45946561 18:0.45092774 
100 100 100 1:0.55466246 2:0.54585065 3:0.67966836 4:0.64118098 5:0.65182657 6:0.56486119 7:0.48810543 8:0.46391547 9:0.59858289 10:0.51914818 11:0.5516659 12:0.40573888 13:0.51528883 14:0.66882788 15:0.41926152 16:0.53677412 17:0.51733861 18:0.4462766 
100 100 100 1:0.62829605 2:0.51967804 3:0.58808391 4:0.68515689 5:0.62308939 6:0.56696618 7:0.48549628 8:0.40636737 9:0.44200678 10:0.47302088 11:0.56302124 12:0.39380559 13:0.22402092 14:0.50377545 15:0.54530725 16:0.51429668 17:0.31395532 18:0.39763386 
100 100 100 1:0.62983445 2:0.5719366 3:0.60849977 4:0.71517882 5:0.61925932 6:0.57102782 7:0.54687202 8:0.35843506 9:0.346354 10:0.36938213 11:0.5373522 12:0.49440519 13:0.29497901 14:0.48691414 15:0.56605522 16:0.55341818 17:0.43191129 18:0.50363328 
100 100 100 1:0.63839744 2:0.575685 3:0.53927852 4:0.67106515 5:0.75140199 6:0.56737535 7:0.45194338 8:0.51639024 9:0.38692008 10:0.30752936 11:0.52234238 12:0.36941156 13:0.35432311 14:0.51031505 15:0.61657038 16:0.55344636 17:0.42386713 18:0.41428626 
100 0 0 1:0.32363344 2:0.81370136 3:0.38837917 4:0.61651766 5:0.41169482 6:0.71650413 7:0.26090399 8:0.53153303 9:0.3620996 10:1 11:0.68198944 12:0.41921166 13:0.51867162 14:0.59861843 15:0.76881054 16:0.11140015 17:0.48572675 18:0.24595286 
0 100 0 1:0.46854966 2:0.5256139 3:0.49519667 4:0.65616243 5:0.47552513 6:0.70069143 7:0.1468253 8:0.54124071 9:0.69333549 10:0.47345145 11:0.57652292 12:0.49280036 13:0.57369572 14:0.60697232 15:0.42898695 16:0.15260138 17:0.80585847 18:0.56326183 
100 100 100 1:0.60482293 2:0.75290916 3:0.47433883 4:0.66477225 5:0.26053284 6:0.82075311 7:0.061377095 8:0.569476 9:0.33439435 10:0.66074934 11:0.56023016 12:0.41037183 13:0.33775103 14:0.37234262 15:0.42226864 16:0.40472638 17:0.76900092 18:0.21793005 
100 0 100 1:0.58428673 2:0.70630087 3:0.48687714 4:0.82615053 5:0.30777605 6:0.88044408 7:0.17424984 8:0.46201967 9:0.26415951 10:0.6340698 11:0.39131901 12:0.29014999 13:0.31550198 14:0.3677902 15:0.43520133 16:0.28127524 17:0.69403938 18:0.24387385 
97.382680892515395 100 100 1:0.52145632 2:0.49585908 3:0.46169673 4:0.66543654 5:0.28772782 6:0.90221247 7:0.16796892 8:0.65257621 9:0.28013564 10:0.66672281 11:0.43946845 12:0.44560342 13:0.62644304 14:0.47940055 15:0.64771046 16:0.42976383 17:0.61754883 18:0.24018564 
0 100 100 1:0.47542241 2:0.66186645 3:0.36585878 4:0.71243932 5:0.18073345 6:0.89921896 7:0.26086969 8:0.65119527 9:0.24329874 10:0.59359499 11:0.42678375 12:0.55100762 13:0.42621419 14:0.5268019 15:0.48355943 16:0.39850925 17:0.77205177 18:0.27611822 
0 100 0 1:0.53110005 2:0.56135536 3:0.33935164 4:0.55196862 5:0.4242362 6:0.65019845 7:0.10744837 8:0.49821592 9:0.61184088 10:0.47106769 11:0.45094603 12:0.48137211 13:0.68897656 14:0.52815945 15:0.40272111 16:0.28611938 17:0.84635696 18:0.51344113 
100 0 100 1:0.48527271 2:0.72789465 3:0.35135985 4:0.60003525 5:0.46461074 6:0.94174851 7:0.34543174 8:0.61269442 9:0.10582152 10:0.36300144 11:0.40315201 12:0.58000668 13:0.43322285 14:0.58114777 15:0.58569265 16:0.30466409 17:0.81437013 18:0.37840887 
100 0 0 1:0.48729353 2:0.70276954 3:0.50193316 4:0.79383026 5:0.35133527 6:0.73384203 7:0.23426774 8:0.69197103 9:0.16143235 10:0.66427629 11:0.62267265 12:0.25794645 13:0.41200352 14:0.22057386 15:0.39548067 16:0.2807634 17:0.8034187 18:0.24934854 
100 100 100 1:0.5096792 2:0.61290066 3:0.52084272 4:0.75055092 5:0.20662893 6:0.93821206 7:0.20207688 8:0.58526743 9:0.21343224 10:0.48460211 11:0.48445804 12:0.46129839 13:0.44623132 14:0.34971688 15:0.51540403 16:0.36144245 17:0.73104934 18:0.46531746 
100 100 100 1:0.5221961 2:0.64226503 3:0.37625703 4:0.80769073 5:0.26488797 6:0.78739369 7:0.059282221 8:0.60668031 9:0.42947442 10:0.59131232 11:0.39038182 12:0.35716639 13:0.60583375 14:0.7081416 15:0.58564951 16:0.064785427 17:0.78187789 18:0.49867156 
100 0 0 1:0.52189836 2:0.56789337 3:0.43010452 4:0.87298792 5:0.32341093 6:0.8557529 7:0.18061945 8:0.62944279 9:0.57949728 10:0.47233426 11:0.20062325 12:0.35492521 13:0.51355974 14:0.42549267 15:0.36181077 16:0.046987667 17:0.58141654 18:0.37604233 
100 100 100 1:0.50140633 2:0.56808077 3:0.4462534 4:0.69375065 5:0.3734593 6:0.8037538 7:0.31147892 8:0.60138008 9:0.28644357 10:0.53108816 11:0.59572861 12:0.35271531 13:0.53767266 14:0.53464407 15:0.43957564 16:0.20874441 17:0.68577021 18:0.25171766 
100 100 100 1:0.52524891 2:0.50585272 3:0.3252761 4:0.71840932 5:0.18798608 6:0.91323282 7:0.18351071 8:0.88085081 9:0.21711161 10:0.70897163 11:0.54196967 12:0.56903401 13:0.65513649 14:0.40618524 15:0.5162376 16:0.40976794 17:0.7632236 18:0.38380074 
100 0 0 1:0.42229301 2:0.66507791 3:0.36791703 4:0.69064209 5:0.45858364 6:0.81827914 7:0.36578277 8:0.62112635 9:0.19541146 10:0.41116428 11:0.5753696 12:0.59900172 13:0.74423969 14:0.48170964 15:0.6468144 16:0.42204557 17:0.78711479 18:0.51445491 
100 100 100 1:0.47624494 2:0.676343 3:0.34044766 4:0.69267709 5:0.418722 6:0.91939696 7:0.33771995 8:0.7032081 9:0.19570857 10:0.533868 11:0.58772629 12:0.45717545 13:0.66025996 14:0.61456637 15:0.48182844 16:0.49839908 17:0.91005697 18:0.23063598 
100 0 0 1:0.51688716 2:0.64325709 3:0.49994582 4:0.72218226 5:0.38431157 6:0.74747359 7:0.26174061 8:0.6447218 9:0.3033347 10:0.62511381 11:0.30283391 12:0.42553429 13:0.44002255 14:0.30001187 15:0.37655434 16:0.21422469 17:0.6922926 18:0.18573002 
100 0 0 1:0.52581376 2:0.72829857 3:0.3625362 4:0.64133365 5:0.32488228 6:0.76563312 7:0.14715769 8:0.86074442 9:0.26522878 10:0.50764764 11:0.22470166 12:0.45095871 13:0.63904068 14:0.47427785 15:0.5680255 16:0.17553672 17:0.72213006 18:0.33144338 
0 100 0 1:0.56708825 2:0.59139049 3:0.28482823 4:0.64614087 5:0.40159709 6:0.66094914 7:0.10096873 8:0.51240936 9:0.56100579 10:0.43283266 11:0.63170869 12:0.50133974 13:0.60828735 14:0.40931367 15:0.52768594 16:0.35886636 17:0.71721014 18:0.52016474 
79.793864955323528 100 0 1:0.44032755 2:0.72273223 3:0.47219002 4:0.42845037 5:0.51217534 6:0.58670306 7:0.15632633 8:0.3833953 9:0.54499214 10:0.98899654 11:0.69778089 12:0.54460028 13:0.84677926 14:0.76178185 15:0.71204967 16:0.14104815 17:0.46705692 18:0.17009128 
0 100 0 1:0.43498667 2:0.66855766 3:0.40411058 4:0.53620002 5:0.38919601 6:0.5748628 7:0.31992358 8:0.31404116 9:0.65868936 10:0.80934773 11:0.78600787 12:0.44153723 13:0.75279747 14:0.6672293 15:0.43364144 16:0.42081979 17:0.61484803 18:0.54446657 
100 0 0 1:0.36335929 2:0.71957504 3:0.4601026 4:0.78277138 5:0.3074007 6:0.84266604 7:0.22837405 8:0.6988012 9:0.31929463 10:0.57688904 11:0.49886264 12:0.53050146 13:0.59569903 14:0.26159043 15:0.50146499 16:0.4571686 17:0.5339104 18:0.305902 
100 100 0 1:0.47915268 2:0.53548812 3:0.51803018 4:0.65881874 5:0.25736627 6:0.8906134 7:0.2104727 8:0.90974367 9:0.40661298 10:0.64656339 11:0.40136624 12:0.52641402 13:0.6004241 14:0.56320342 15:0.73077546 16:0.50607452 17:0.80330732 18:0.31656707 
0 100 100 1:0.4563358 2:0.70874012 3:0.50210819 4:0.62318895 5:0.20199497 6:0.73943062 7:0.17319872 8:0.51705951 9:0.18541523 10:0.61045054 11:0.49681573 12:0.51771453 13:0.46551346 14:0.57338177 15:0.54338241 16:0.32571866 17:0.74139855 18:0.35281473 
100 100 100 1:0.70000403 2:0.39144935 3:0.46497051 4:0.71416614 5:0.22173116 6:0.83660336 7:0.16170893 8:0.78479622 9:0.48391757 10:0.42847476 11:0.33589682 12:0.65329926 13:0.65104583 14:0.36965574 15:0.45561902 16:0.44274037 17:0.71841804 18:0.28237382 
100 0 0 1:0.5484524 2:0.55352455 3:0.37472533 4:0.87401616 5:0.38316537 6:0.6968806 7:0.402473 8:0.56787811 9:0.49672125 10:0.59892705 11:0.37746615 12:0.41041544 13:0.67782132 14:0.3011577 15:0.505637 16:0.48947173 17:0.64065145 18:0.31320419 
100 100 100 1:0.71405603 2:0.44971214 3:0.61632826 4:0.67810243 5:0.82240914 6:0.52766119 7:0.81350328 8:0.47212105 9:0.54019364 10:0.5261369 11:0.54676109 12:0.40735849 13:0.42670086 14:0.6053556 15:0.22601305 16:0.54999647 17:0.42402375 18:0.57396308 
100 100 100 1:0.76606089 2:0.58145417 3:0.6339699 4:0.71209791 5:0.78788022 6:0.48800969 7:0.73824105 8:0.48472035 9:0.50265513 10:0.47935501 11:0.52178924 12:0.42835951 13:0.47569241 14:0.4538353 15:0.32051473 16:0.67765799 17:0.47121064 18:0.44042385 
100 100 100 1:0.72371912 2:0.58039885 3:0.57624882 4:0.66634897 5:0.77282189 6:0.6208428 7:0.68903596 8:0.65397417 9:0.59173754 10:0.61801356 11:0.71175502 12:0.59896425 13:0.3971667 14:0.51288437 15:0.29692304 16:0.47410336 17:0.35065044 18:0.48276806 
100 0 100 1:0.54310179 2:0.74007689 3:0.56819873 4:0.79177813 5:0.80251746 6:0.57500578 7:0.64357048 8:0.50587268 9:0.44828613 10:0.50158158 11:0.57728528 12:0.56862895 13:0.47071386 14:0.54094317 15:0.44730125 16:0.71205161 17:0.53065094 18:0.3565986 
100 100 0 1:0.37692592 2:0.54307153 3:0.60255334 4:0.77232371 5:0.81379982 6:0.79258072 7:0.64424361 8:0.45298717 9:0.87823693 10:0.72417666 11:0.60363302 12:0.44766653 13:0.36583301 14:0.61583482 15:0.46012551 16:0.45468165 17:0.3945185 18:0.56859255 
100 0 100 1:0.59118808 2:0.69907001 3:0.35873515 4:0.79943694 5:0.74453338 6:0.49750761 7:0.73263952 8:0.48095958 9:0.5895426 10:0.3127572 11:0.40410317 12:0.4983263 13:0.51136949 14:0.37985454 15:0.33631408 16:0.67379534 17:0.43883593 18:0.44228744 
0 100 100 1:0.5513559 2:0.36967903 3:0.50819298 4:0.50040915 5:0.77331942 6:0.3203603 7:0.60604859 8:0.38348765 9:0.36172349 10:0.52714424 11:0.47294018 12:0.55483183 13:0.39073872 14:0.63439129 15:0.20999354 16:0.65584371 17:0.48459325 18:0.66650602 
0 100 100 1:0.66992341 2:0.50184706 3:0.43784462 4:0.68245076 5:0.6587998 6:0.41640464 7:0.74344597 8:0.3104227 9:0.69926495 10:0.54462283 11:0.47542386 12:0.58788833 13:0.51368223 14:0.65705444 15:0.29004293 16:0.62707543 17:0.44727851 18:0.74081203 
0 100 100 1:0.62281005 2:0.50175666 3:0.39566453 4:0.65221357 5:0.73386374 6:0.39993854 7:0.70002829 8:0.33698838 9:0.82678657 10:0.46465422 11:0.20517085 12:0.45589106 13:0.48950472 14:0.87242207 15:0.39265229 16:0.54885107 17:0.37201256 18:0.66583322 
0 0 100 1:0.61072585 2:0.56237619 3:0.43404082 4:0.68993536 5:0.62839949 6:0.40817748 7:0.75409375 8:0.33180657 9:0.6925552 10:0.41206277 11:0.39876945 12:0.54507551 13:0.45924408 14:0.64493878 15:0.44257659 16:0.69840604 17:0.56426199 18:0.67050002 
0 0 100 1:0.55940329 2:0.60046111 3:0.41347422 4:0.66290979 5:0.61324953 6:0.35416555 7:0.75872304 8:0.29887157 9:0.68136506 10:0.43914427 11:0.31774018 12:0.55681604 13:0.61241004 14:0.6920796 15:0.44178157 16:0.64309581 17:0.57016718 18:0.67031162 
100 100 0 1:0.44976042 2:0.63709136 3:0.7983085 4:0.6526728 5:0.71165782 6:0.63590779 7:0.5967812 8:0.55002217 9:0.4474168 10:0.58212884 11:0.45316129 12:0.39643722 13:0.40163203 14:0.58543818 15:0.45456498 16:0.53544245 17:0.51797126 18:0.48852962 
100 100 100 1:0.32754573 2:0.59905551 3:0.66215722 4:0.70398877 5:0.76292847 6:0.69562572 7:0.49714862 8:0.39845268 9:0.34498588 10:0.54640889 11:0.99952515 12:0.69408329 13:0.30191361 14:0.53210894 15:0.49438351 16:0.70212247 17:0.70750729 18:0.70216817 
100 100 100 1:0.45444755 2:0.55489783 3:0.76773153 4:0.65231985 5:0.81048473 6:0.70467239 7:0.6926747 8:0.49570273 9:0.51633395 10:0.69838565 11:0.66594314 12:0.48650499 13:0.47269775 14:0.52767672 15:0.3984726 16:0.36787859 17:0.53147635 18:0.63132549 
100 100 100 1:0.50162804 2:0.57418369 3:0.67553547 4:0.61627378 5:0.71085886 6:0.70848524 7:0.57028335 8:0.6014684 9:0.60289643 10:0.70638477 11:0.60397862 12:0.46454854 13:0.47273659 14:0.84708092 15:0.42500472 16:0.50945825 17:0.52603256 18:0.69776617 
100 100 0 1:0.41035925 2:0.58044612 3:0.70530872 4:0.70177196 5:0.74579843 6:0.65864518 7:0.6858888 8:0.52967396 9:0.57721457 10:0.74457889 11:0.44468487 12:0.46429348 13:0.43002797 14:0.60987075 15:0.49147309 16:0.5030604 17:0.50918371 18:0.60188975 
100 100 100 1:0.50216174 2:0.51589696 3:0.68151158 4:0.7426896 5:0.70592095 6:0.66003657 7:0.63651071 8:0.53374823 9:0.6836993 10:0.53908882 11:0.48510609 12:0.4090385 13:0.38533015 14:0.76299382 15:0.39744519 16:0.41460567 17:0.34766445 18:0.58125769 
100 100 100 1:0.56278224 2:0.60955714 3:0.57024088 4:0.6301755 5:0.8532611 6:0.64913499 7:0.60333716 8:0.5584794 9:0.56064652 10:0.63145573 11:0.58575136 12:0.48493233 13:0.37642296 14:0.66960495 15:0.47893019 16:0.69407912 17:0.4937571 18:0.54548461 
100 100 0 1:0.35927363 2:0.4994191 3:0.70442548 4:0.72088536 5:0.86332893 6:0.81159174 7:0.69187457 8:0.48418013 9:0.65410171 10:0.72619773 11:0.58852638 12:0.41785799 13:0.40909987 14:0.55496759 15:0.66564857 16:0.60593391 17:0.50741163 18:0.53048741 
100 100 100 1:0.49914024 2:0.49987753 3:0.67740151 4:0.64867394 5:0.73866772 6:0.77711388 7:0.61912948 8:0.66730821 9:0.68372607 10:0.6185233 11:0.56726105 12:0.55846717 13:0.42009459 14:0.67131906 15:0.3108951 16:0.53332914 17:0.38390102 18:0.57867567 
100 100 0 1:0.47353586 2:0.53225691 3:0.78743475 4:0.65527968 5:0.69500078 6:0.76641042 7:0.613609 8:0.59877249 9:0.58473695 10:0.46482572 11:0.42878053 12:0.43096442 13:0.37563278 14:0.56636205 15:0.38942435 16:0.57354248 17:0.38404092 18:0.48040125 
100 100 0 1:0.41313726 2:0.60599313 3:0.80913612 4:0.69643555 5:0.72347295 6:0.63305514 7:0.57303079 8:0.60576328 9:0.71389713 10:0.70786839 11:0.58546001 12:0.4835918 13:0.38085037 14:0.69496559 15:0.44408409 16:0.50296965 17:0.50862007 18:0.78881615 
100 100 0 1:0.48367202 2:0.53228876 3:0.74749599 4:0.68245821 5:0.64909489 6:0.60955844 7:0.50514711 8:0.60168849 9:0.69827315 10:0.45351442 11:0.56003356 12:0.52006302 13:0.34260931 14:0.52963594 15:0.32718375 16:0.42625168 17:0.30215775 18:0.60801475 
0 100 0 1:0.27693933 2:0.42606477 3:0.48813761 4:0.60945752 5:0.62401312 6:0.51464093 7:0.41269726 8:0.35806173 9:0.39660655 10:0.57198565 11:0.57021367 12:0.49181944 13:0.52287493 14:0.90012614 15:0.47675944 16:0.59869242 17:0.62776633 18:0.5719818 
100 100 100 1:0.47861969 2:0.64154443 3:0.57098358 4:0.65466352 5:0.84433797 6:0.71201892 7:0.61881271 8:0.53237019 9:0.41215427 10:0.52158063 11:0.65432603 12:0.6364642 13:0.36824004 14:0.71765934 15:0.47891625 16:0.69017859 17:0.46153149 18:0.46429541 
100 100 0 1:0.37922772 2:0.61494293 3:0.75486432 4:0.79306142 5:0.78693229 6:0.59950799 7:0.6622461 8:0.52929798 9:0.5111009 10:0.65326583 11:0.71481271 12:0.36659096 13:0.4260329 14:0.601966 15:0.32356745 16:0.48431068 17:0.52021854 18:0.75291892 
100 100 0 1:0.44690232 2:0.58426077 3:0.75998497 4:0.68085262 5:0.70588133 6:0.677287 7:0.57036023 8:0.54606215 9:0.64608405 10:0.5646761 11:0.65676692 12:0.52569472 13:0.46252463 14:0.71684696 15:0.35606932 16:0.55787444 17:0.43702378 18:0.61124074 
100 100 0 1:0.37918775 2:0.62845894 3:0.62446664 4:0.77677732 5:0.83773098 6:0.63606065 7:0.87012174 8:0.57491354 9:0.46742907 10:0.55282799 11:0.4218049 12:0.45527674 13:0.61142117 14:0.65309008 15:0.31907582 16:0.45591979 17:0.54798762 18:0.60013162 
100 100 100 1:0.49236929 2:0.55318077 3:0.70988643 4:0.67625169 5:0.72340153 6:0.64234126 7:0.60640321 8:0.66751402 9:0.64085916 10:0.59974972 11:0.57076908 12:0.40738041 13:0.54688478 14:0.83161056 15:0.36496094 16:0.33589894 17:0.47556667 18:0.65097034 
100 100 0 1:0.28744867 2:0.61532688 3:0.77627242 4:0.78954917 5:0.70805581 6:0.7063285 7:0.77035142 8:0.50950256 9:0.6273166 10:0.73495622 11:0.45013866 12:0.42860737 13:0.45046806 14:0.63872188 15:0.46647417 16:0.46780391 17:0.62092562 18:0.77823797 
100 100 100 1:0.45339001 2:0.54892583 3:0.64288155 4:0.58419986 5:0.57747129 6:0.65315347 7:0.53646495 8:0.60302854 9:0.67215074 10:0.61621896 11:0.70680149 12:0.57701547 13:0.57186275 14:0.88201695 15:0.59039797 16:0.60634281 17:0.58432828 18:0.77230286 
100 100 24.970992226277463 1:0.43940225 2:0.59847026 3:0.69010157 4:0.67022665 5:0.77954862 6:0.69749637 7:0.67803137 8:0.64582764 9:0.67923071 10:0.6595738 11:0.64739597 12:0.51348054 13:0.44503366 14:0.65423646 15:0.40094831 16:0.40867392 17:0.50532773 18:0.75305438 
100 100 0 1:0.43305002 2:0.51412193 3:0.70587287 4:0.6872371 5:0.66251353 6:0.67318856 7:0.58858304 8:0.63348319 9:0.66459162 10:0.43910631 11:0.52831145 12:0.52388835 13:0.46381906 14:0.63660858 15:0.29512844 16:0.51890346 17:0.47017795 18:0.51704031 
100 100 0 1:0.45123662 2:0.57494202 3:0.73967504 4:0.73365881 5:0.78685952 6:0.66460988 7:0.63692112 8:0.53331832 9:0.64772935 10:0.5947805 11:0.54663355 12:0.51991671 13:0.45779673 14:0.72849633 15:0.52522128 16:0.44379729 17:0.41512933 18:0.62020669 
100 100 100 1:0.48460055 2:0.57141675 3:0.79706891 4:0.65064084 5:0.72247175 6:0.70474349 7:0.64221751 8:0.5974522 9:0.60930079 10:0.5629703 11:0.53809772 12:0.46269402 13:0.44980224 14:0.63703378 15:0.23939585 16:0.49704394 17:0.59204349 18:0.54154347 
100 100 0 1:0.48049946 2:0.55367922 3:0.77739567 4:0.75807982 5:0.82008252 6:0.65947115 7:0.70125439 8:0.58937144 9:0.69905426 10:0.65109405 11:0.5320636 12:0.45098178 13:0.50463894 14:0.67246601 15:0.3167698 16:0.39836501 17:0.37730966 18:0.57737337 
100 100 100 1:0.56516749 2:0.46198902 3:0.7090302 4:0.61272741 5:0.76602316 6:0.70992802 7:0.63721167 8:0.7506908 9:0.67547597 10:0.51178511 11:0.58148328 12:0.4988138 13:0.34233202 14:0.56192395 15:0.39383043 16:0.52994115 17:0.38955861 18:0.6098672 
100 0 0 1:0.48012936 2:0.72317145 3:0.5342115 4:0.56848242 5:0.67223067 6:0.6916276 7:0.63578567 8:0.51098532 9:0.54026561 10:0.33951508 11:0.60147367 12:0.58490097 13:0.61231037 14:0.55553714 15:0.40286253 16:0.65324923 17:0.5451226 18:0.71991219 
0 100 0 1:0.265094 2:0.32557917 3:0.39595651 4:0.52294044 5:0.49858286 6:0.71139038 7:0.60866313 8:0.4447945 9:0.48243947 10:0.13569158 11:0.64280011 12:0.58901505 13:0.77429769 14:0.61429865 15:0.29003481 16:0.67470678 17:0.47249012 18:0.73442991 
0 100 0 1:0.23958793 2:0.40030017 3:0.35974944 4:0.49786454 5:0.45224235 6:0.55899148 7:0.70065672 8:0.42033531 9:0.39615199 10:0.27371355 11:0.64001879 12:0.63986999 13:0.6437758 14:0.57449539 15:0.36288035 16:0.64873065 17:0.67432254 18:0.61034782 
0 100 0 1:0.3075046 2:0.67652332 3:0.48932692 4:0.70224104 5:0.72594759 6:0.63441027 7:0.71011924 8:0.52562688 9:0.71002455 10:0.50338291 11:0.55419359 12:0.43096488 13:0.49415857 14:0.47738748 15:0.58114422 16:0.94849857 17:0.7393885 18:0.5012085 
0 92.769523247230822 0 1:0.32635047 2:0.65682772 3:0.55344503 4:0.65707827 5:0.62225453 6:0.70318516 7:0.72879832 8:0.5531594 9:0.62482646 10:0.5057339 11:0.44541909 12:0.48364466 13:0.5103537 14:0.49719201 15:0.54277631 16:0.81972703 17:0.46203369 18:0.61997428 
0 100 0 1:0.19210822 2:0.43953951 3:0.48572779 4:0.49422733 5:0.47534163 6:0.51536438 7:0.66920329 8:0.47841211 9:0.65207591 10:0.51205124 11:0.62803014 12:0.62916964 13:0.68516048 14:0.68607527 15:0.55262721 16:0.73200201 17:0.6154622 18:0.59278191 
0 100 0 1:0.24692662 2:0.3242227 3:0.43842171 4:0.54084218 5:0.55363123 6:0.68754911 7:0.6074189 8:0.47629148 9:0.40653361 10:0.33971779 11:0.6891748 12:0.6023092 13:0.57337524 14:0.38945023 15:0.36645023 16:0.76853415 17:0.69619942 18:0.76355331 
0 100 0 1:0.42728451 2:0.59011742 3:0.47474633 4:0.63075336 5:0.52030395 6:0.65572754 7:0.68795762 8:0.38002618 9:0.83114756 10:0.36606694 11:0.66166852 12:0.49396574 13:0.69429082 14:0.54424609 15:0.37383065 16:0.74851794 17:0.6415101 18:0.73250224 
0 100 0 1:0.20309801 2:0.39759572 3:0.38655336 4:0.43214257 5:0.42734989 6:0.65821881 7:0.60389988 8:0.48081774 9:0.66237051 10:0.2402339 11:0.5029284 12:0.54452704 13:0.70283771 14:0.71032571 15:0.45995786 16:0.75808519 17:0.57151139 18:0.65728622 
0 100 0 1:0.25452245 2:0.73554461 3:0.48169289 4:0.57235527 5:0.57158508 6:0.77071571 7:0.71032692 8:0.46100689 9:0.80061291 10:0.41899107 11:0.70149411 12:0.45294079 13:0.62082987 14:0.67231292 15:0.34533265 16:0.64087314 17:0.63588659 18:0.66792979 
0 100 0 1:0.20786827 2:0.39345523 3:0.32257391 4:0.45363539 5:0.4291235 6:0.56849206 7:0.59943965 8:0.47621428 9:0.64910519 10:0.29817353 11:0.59988932 12:0.53868425 13:0.60219143 14:0.62974657 15:0.37770598 16:0.64772196 17:0.50322926 18:0.70742788 
0 100 0 1:0.42662221 2:0.42370714 3:0.66395246 4:0.90273978 5:0.66016578 6:0.56676173 7:0.78368496 8:0.52930042 9:0.689135 10:0.53373081 11:0.72610936 12:0.44099237 13:0.60228952 14:0.8715832 15:0.36531667 16:0.66189491 17:0.34143124 18:0.5689514 
0 100 0 1:0.38738543 2:0.41037548 3:0.6796532 4:0.81072484 5:0.68970827 6:0.49199264 7:0.69689109 8:0.47052258 9:0.75309588 10:0.30852531 11:0.62795792 12:0.56181898 13:0.39239246 14:0.78650931 15:0.36236118 16:0.68273897 17:0.4221812 18:0.6394074 
0 100 0 1:0.2012936 2:0.37316468 3:0.40366252 4:0.54247785 5:0.37845097 6:0.55785517 7:0.65120645 8:0.53244211 9:0.54017557 10:0.33498878 11:0.49899628 12:0.61026429 13:0.79501711 14:0.59027302 15:0.31651549 16:0.66753887 17:0.63279623 18:0.86701269 
0 100 0 1:0.38253049 2:0.50743741 3:0.57373832 4:0.69348748 5:0.60005874 6:0.40558199 7:0.7104288 8:0.30039911 9:0.58624355 10:0.51848756 11:0.57406352 12:0.56980631 13:0.54280009 14:0.73007606 15:0.40387523 16:0.71760508 17:0.49039281 18:0.84071097 
0 100 0 1:0.23481585 2:0.31413404 3:0.39653479 4:0.54296166 5:0.41629414 6:0.61010658 7:0.67585878 8:0.54399576 9:0.51348169 10:0.26687141 11:0.64260981 12:0.53519947 13:0.55471771 14:0.55307747 15:0.37568139 16:0.81220832 17:0.56508262 18:0.73415325 
0 100 0 1:0.31532224 2:0.50774579 3:0.68272401 4:0.91774177 5:0.60237091 6:0.41288215 7:0.64127404 8:0.37789692 9:0.71156548 10:0.59205335 11:0.45832303 12:0.46826923 13:0.44842004 14:0.68968633 15:0.34274875 16:0.60548765 17:0.46476712 18:0.64855866 
0 100 0 1:0.41033914 2:0.40019062 3:0.56520774 4:0.74190555 5:0.69630796 6:0.70740922 7:0.59755678 8:0.57364621 9:0.98686032 10:0.37491429 11:0.53041679 12:0.73811517 13:0.17585515 14:0.63162089 15:0.41086131 16:0.52460543 17:0.564855 18:0.50539102 
0 100 0 1:0.22072422 2:0.38743244 3:0.41147251 4:0.49857248 5:0.40941855 6:0.65577972 7:0.59815298 8:0.45466401 9:0.58242717 10:0.29539794 11:0.60419339 12:0.59789417 13:0.56751618 14:0.66530851 15:0.49011235 16:0.79625539 17:0.49574834 18:0.6576342 
0 100 0 1:0.29419349 2:0.4136798 3:0.36757473 4:0.61316116 5:0.52619162 6:0.63420791 7:0.56351994 8:0.33345864 9:0.48885165 10:0.27490868 11:0.6634532 12:0.6195543 13:0.57021718 14:0.50052762 15:0.42350928 16:0.80528692 17:0.62265346 18:0.74727698 
100 0 0 1:0.38341916 2:0.76159056 3:0.53703097 4:0.69346982 5:0.66077821 6:0.54825594 7:0.82535464 8:0.53207502 9:0.76990284 10:0.57404128 11:0.47148989 12:0.51472971 13:0.52102652 14:0.39176083 15:0.42566257 16:0.50285632 17:0.52486177 18:0.68167219 
100 100 0 1:0.24692252 2:0.67180745 3:0.60376974 4:0.77121107 5:0.72020201 6:0.6577731 7:0.70412695 8:0.63481364 9:0.83061124 10:0.54760227 11:0.60193223 12:0.54540365 13:0.5298488 14:0.63751708 15:0.5107107 16:0.73140779 17:0.60644857 18:0.59813861 
100 0 0 1:0.32398 2:0.77487609 3:0.57075875 4:0.65504778 5:0.65521052 6:0.6160391 7:0.71968459 8:0.5267874 9:0.80886165 10:0.49946671 11:0.5310851 12:0.53633363 13:0.47598842 14:0.47284827 15:0.50801964 16:0.59057931 17:0.52361352 18:0.66492873 
0 100 0 1:0.24952821 2:0.45906496 3:0.260338 4:0.56722576 5:0.64010583 6:0.59850611 7:0.60257079 8:0.33855911 9:0.52122595 10:0.50125015 11:0.67995714 12:0.61695581 13:0.73860151 14:0.52430354 15:0.5216149 16:0.79488914 17:0.59733582 18:0.65375773 
0 100 0 1:0.16474467 2:0.51584246 3:0.32941797 4:0.58864928 5:0.58695841 6:0.5790376 7:0.63173375 8:0.55045122 9:0.48786532 10:0.42940653 11:0.56702967 12:0.58438252 13:0.73234617 14:0.59009879 15:0.47148316 16:0.68225956 17:0.62421772 18:0.92299484 
0 100 66.908383340079951 1:0.26192467 2:0.40623327 3:0.30104667 4:0.59163565 5:0.56558622 6:0.7911818 7:0.69898089 8:0.35906658 9:0.29248817 10:0.26028189 11:0.72154787 12:0.54161619 13:0.71805971 14:0.59574114 15:0.43350985 16:0.74899683 17:0.54225612 18:0.69741576 
0 100 0 1:0.28789909 2:0.51789992 3:0.43507717 4:0.53356119 5:0.49820662 6:0.59777963 7:0.67315262 8:0.53484711 9:0.41520353 10:0.39771557 11:0.59480378 12:0.53718296 13:0.60174093 14:0.55886915 15:0.31757 16:0.48145515 17:0.59608217 18:0.74178592 
0 100 0 1:0.31045128 2:0.73826112 3:0.47221859 4:0.50712359 5:0.60238746 6:0.70360712 7:0.71892829 8:0.50361147 9:0.72763668 10:0.58749496 11:0.63156829 12:0.46787908 13:0.53820182 14:0.45695017 15:0.50402047 16:0.72025284 17:0.70774777 18:0.59272251 
0 100 0 1:0.23614711 2:0.51211091 3:0.391722 4:0.49362519 5:0.53158105 6:0.62366258 7:0.61651427 8:0.4500602 9:0.41394365 10:0.31301844 11:0.44079865 12:0.63394702 13:0.75178905 14:0.66144903 15:0.49384072 16:0.49699893 17:0.50251919 18:0.75597088 
0 100 0 1:0.21141157 2:0.47054556 3:0.37950896 4:0.59704535 5:0.34036267 6:0.66614951 7:0.70117694 8:0.3997571 9:0.49266542 10:0.37949557 11:0.67674188 12:0.70120843 13:0.58276451 14:0.61445234 15:0.55682582 16:0.74643658 17:0.57643001 18:0.78371115 
0 100 0 1:0.34902371 2:0.57660791 3:0.4115952 4:0.61146017 5:0.68576589 6:0.68719043 7:0.65757886 8:0.46672465 9:0.70458698 10:0.52833238 11:0.88348297 12:0.58920374 13:0.55399216 14:0.57594118 15:0.57759393 16:0.72462641 17:0.72393275 18:0.62745313 
100 0 100 1:0.75869535 2:0.8009021 3:0.44491681 4:0.36317024 5:0.85569352 6:0.31663756 7:0.32388476 8:0.35110998 9:0.48492598 10:0.2687762 11:0.43754784 12:0.41244343 13:0.048319844 14:0.71016299 15:0.4633709 16:0.30469831 17:0.46199439 18:0.50975232 
100 0 100 1:0.77619541 2:0.81949223 3:0.51469156 4:0.38766887 5:0.74536339 6:0.36524146 7:0.41645621 8:0.19852886 9:0.32553407 10:0.46634359 11:0.61654849 12:0.44571203 13:0.072333723 14:0.51958123 15:0.48240516 16:0.48670413 17:0.24017842 18:0.45160765 
100 100 100 1:0.54480756 2:0.56122574 3:0.69718382 4:0.72528888 5:0.80615781 6:0.56474566 7:0.61121516 8:0.45813433 9:0.65279259 10:0.5742586 11:0.62902464 12:0.48456236 13:0.38300145 14:0.68720567 15:0.39955984 16:0.43519221 17:0.62916045 18:0.56371368 
100 0 0 1:0.50705218 2:0.71716896 3:0.57464587 4:0.72707689 5:0.86038022 6:0.50919442 7:0.55876041 8:0.47514482 9:0.54882916 10:0.46412768 11:0.62843116 12:0.50293908 13:0.32594678 14:0.48048932 15:0.47296128 16:0.83098317 17:0.45799182 18:0.28594188 
100 100 100 1:0.56802168 2:0.63065798 3:0.66471489 4:0.6996622 5:0.75183161 6:0.53983806 7:0.56865746 8:0.50899909 9:0.73644768 10:0.42088605 11:0.46688445 12:0.59791825 13:0.17496666 14:0.90043781 15:0.28121858 16:0.3230157 17:0.58004163 18:0.35908699 
100 100 100 1:0.50286252 2:0.66236389 3:0.67505596 4:0.62944973 5:0.69956659 6:0.6201827 7:0.58596881 8:0.45876479 9:0.76781561 10:0.34120808 11:0.31439562 12:0.34057999 13:0.1768461 14:0.70789772 15:0.37748636 16:0.4570573 17:0.58429568 18:0.35236036 
0 100 100 1:0.37974804 2:0.52224687 3:0.42102901 4:0.54460266 5:0.66933693 6:0.55306531 7:0.57580635 8:0.48081654 9:0.68047547 10:0.34940806 11:0.64081812 12:0.69370014 13:0.29754757 14:0.74936434 15:0.35813702 16:0.64609278 17:0.79639106 18:0.37292758 
100 0 100 1:0.55523587 2:0.6875555 3:0.56905044 4:0.49473538 5:0.67442322 6:0.48387213 7:0.59865182 8:0.52698813 9:0.45887131 10:0.34349138 11:0.69084868 12:0.65809255 13:0.29471383 14:0.6449408 15:0.40738488 16:0.75576569 17:0.53554633 18:0.44308527 
0 100 0 1:0.50320987 2:0.50839166 3:0.49002468 4:0.56130918 5:0.52690694 6:0.35940407 7:0.51494164 8:0.35766171 9:0.64653197 10:0.52187089 11:0.43873948 12:0.40669619 13:0.45941338 14:0.68667403 15:0.38404587 16:0.63932136 17:0.45833047 18:0.51644321 
100 0 100 1:0.69642436 2:0.73544265 3:0.82123194 4:0.72872492 5:0.61134169 6:0.51563012 7:0.67601515 8:0.34770978 9:0.5508531 10:0.4542651 11:0.58044123 12:0.55129509 13:0.35613016 14:0.38409641 15:0.21731658 16:0.55372554 17:0.32861059 18:0.59252043 
100 0 100 1:0.7300182 2:0.7321065 3:0.63316096 4:0.65607618 5:0.46789356 6:0.54869232 7:0.63539413 8:0.36171534 9:0.56875055 10:0.35961511 11:0.5026721 12:0.52060487 13:0.49162269 14:0.43768477 15:0.29943567 16:0.62445814 17:0.40434005 18:0.56199456 
100 0 0 1:0.65753576 2:0.78755804 3:0.72895983 4:0.62572366 5:0.46971718 6:0.45080208 7:0.69224743 8:0.41328389 9:0.65270307 10:0.31003124 11:0.40145 12:0.54197393 13:0.46527119 14:0.44238235 15:0.41627955 16:0.48289953 17:0.34048457 18:0.47312136 
100 27.549126890872941 100 1:0.79617454 2:0.7039779 3:0.70829468 4:0.73757739 5:0.43321525 6:0.47564167 7:0.73973178 8:0.39418713 9:0.60246233 10:0.45295504 11:0.53493868 12:0.5453268 13:0.58358049 14:0.49067021 15:0.38467502 16:0.71820202 17:0.5193063 18:0.53676068 
100 100 0 1:0.71277535 2:0.63251042 3:0.81632708 4:0.58038413 5:0.70315649 6:0.41384674 7:0.63356188 8:0.57954987 9:0.6187415 10:0.34581377 11:0.33842398 12:0.49855464 13:0.48640414 14:0.51910922 15:0.39341858 16:0.70495398 17:0.52947639 18:0.73472004 
100 0 100 1:0.82596521 2:0.74223959 3:0.65239401 4:0.56684708 5:0.55606382 6:0.3826996 7:0.81657222 8:0.3958428 9:0.59050802 10:0.47510824 11:0.44931678 12:0.56470946 13:0.37906704 14:0.60305261 15:0.39901604 16:0.60608757 17:0.43298781 18:0.6152275 
100 100 100 1:0.76816543 2:0.7246892 3:0.6425002 4:0.48892159 5:0.56683755 6:0.4661555 7:0.72136683 8:0.47430945 9:0.66568524 10:0.43754405 11:0.4704883 12:0.59205404 13:0.47130539 14:0.57801172 15:0.44741525 16:0.64669848 17:0.52736619 18:0.52111717 
100 100 100 1:0.71766808 2:0.51157271 3:0.80058467 4:0.74161933 5:0.56668376 6:0.56500613 7:0.71883537 8:0.48511232 9:0.82683495 10:0.49910567 11:0.52241373 12:0.55241065 13:0.30232573 14:0.69971679 15:0.27616534 16:0.63822481 17:0.387293 18:0.58186332 
100 100 100 1:0.84323791 2:0.70961057 3:0.67250687 4:0.64139727 5:0.46955016 6:0.47672427 7:0.70903054 8:0.30393182 9:0.61738368 10:0.56337831 11:0.40925986 12:0.55929838 13:0.45990425 14:0.5239139 15:0.39294793 16:0.53625851 17:0.40756009 18:0.62091154 
100 0 100 1:0.7147008 2:0.65453678 3:0.66810888 4:0.66632466 5:0.4711102 6:0.63255744 7:0.80628956 8:0.37915165 9:0.66449298 10:0.2847423 11:0.42733903 12:0.56025729 13:0.32315743 14:0.50833969 15:0.30624023 16:0.53021864 17:0.64528254 18:0.51776655 
100 100 100 1:0.83814337 2:0.58389675 3:0.76416489 4:0.62547763 5:0.58460677 6:0.33301749 7:0.74392249 8:0.37057838 9:0.47796752 10:0.4014844 11:0.24681992 12:0.54206602 13:0.37172405 14:0.60097029 15:0.20886306 16:0.4959206 17:0.4641158 18:0.68519152 
100 100 100 1:0.83887705 2:0.70414631 3:0.66639878 4:0.60961335 5:0.53897696 6:0.45249819 7:0.67736593 8:0.4279377 9:0.46233061 10:0.47716266 11:0.40406212 12:0.52182537 13:0.47594122 14:0.54950754 15:0.3473744 16:0.5288946 17:0.41662935 18:0.68808949 
0 100 100 1:0.70791165 2:0.29749189 3:0.78228026 4:0.75786006 5:0.53898992 6:0.59785581 7:0.6450296 8:0.50704998 9:0.66003577 10:0.46361483 11:0.3019446 12:0.61914364 13:0.35137098 14:0.64326942 15:0.2534847 16:0.61719381 17:0.50008515 18:0.56235251 
100 100 100 1:0.82177825 2:0.44524509 3:0.74182786 4:0.67553402 5:0.68294306 6:0.35278268 7:0.64012878 8:0.44348677 9:0.55248112 10:0.5216114 11:0.33739582 12:0.5682515 13:0.48520217 14:0.58208432 15:0.29715707 16:0.59465532 17:0.40631958 18:0.54409171 
100 0 100 1:0.80193701 2:0.80488281 3:0.57920253 4:0.61280414 5:0.53432319 6:0.48487809 7:0.70897574 8:0.5038382 9:0.62124914 10:0.44046466 11:0.43542767 12:0.48786843 13:0.45252926 14:0.5781809 15:0.32900241 16:0.65032995 17:0.44088922 18:0.54233203 
100 100 100 1:0.73008343 2:0.69708102 3:0.63600578 4:0.53045911 5:0.64557239 6:0.50056794 7:0.74175623 8:0.45542944 9:0.6315221 10:0.48698773 11:0.46886586 12:0.55199989 13:0.49810272 14:0.58106614 15:0.36458806 16:0.66638619 17:0.46076122 18:0.63956182 
0 100 100 1:0.79142027 2:0.49003035 3:0.5992204 4:0.65094872 5:0.67351668 6:0.38544511 7:0.4635454 8:0.31491071 9:0.51363364 10:0.38206743 11:0.2249912 12:0.37274528 13:0.49427993 14:0.45753443 15:0.041517021 16:0.59964272 17:0.44970885 18:0.63731403 
100 100 100 1:0.78682645 2:0.635129 3:0.6232779 4:0.51042974 5:0.62548898 6:0.41108952 7:0.63491773 8:0.53637712 9:0.65899318 10:0.50379641 11:0.44490493 12:0.5363222 13:0.57318626 14:0.56972343 15:0.34599452 16:0.62550896 17:0.46160994 18:0.52482394 
100 100 100 1:0.87049295 2:0.7156335 3:0.66780825 4:0.53625396 5:0.52269198 6:0.38207392 7:0.71402002 8:0.4786584 9:0.61844519 10:0.42128899 11:0.46658175 12:0.47441093 13:0.44284232 14:0.54714882 15:0.29851383 16:0.67464742 17:0.4717075 18:0.61984419 
100 0 100 1:0.86194789 2:0.66726599 3:0.69130528 4:0.71105626 5:0.51415545 6:0.42017164 7:0.68072912 8:0.47923344 9:0.57850303 10:0.40566084 11:0.38723447 12:0.65433342 13:0.47856498 14:0.57200162 15:0.31930318 16:0.55312158 17:0.40087389 18:0.46959521 
0 100 100 1:0.69836588 2:0.49996361 3:0.58333653 4:0.6113089 5:0.57124634 6:0.27672759 7:0.52571664 8:0.31611914 9:0.59136343 10:0.42326153 11:0.32927579 12:0.557474 13:0.68153275 14:0.82869181 15:0.34932688 16:0.55362844 17:0.46218978 18:0.63928179 
100 0 100 1:0.73674834 2:0.73035794 3:0.71439146 4:0.56162604 5:0.47284504 6:0.57815877 7:0.67236911 8:0.46926682 9:0.6457079 10:0.40322194 11:0.48533804 12:0.61754366 13:0.40124498 14:0.56122072 15:0.32785491 16:0.76245271 17:0.3156108 18:0.51513128 
100 0 100 1:0.876817 2:0.7337825 3:0.63315654 4:0.50081263 5:0.55559176 6:0.46686961 7:0.70758853 8:0.42908112 9:0.63598232 10:0.3332975 11:0.54579709 12:0.48918581 13:0.36664955 14:0.55269398 15:0.39281547 16:0.53503653 17:0.4774039 18:0.59634266 
100 100 100 1:0.7501205 2:0.76044809 3:0.69238606 4:0.41262838 5:0.6055064 6:0.46336687 7:0.73205337 8:0.42161354 9:0.63183409 10:0.44109559 11:0.59869496 12:0.4764635 13:0.46885929 14:0.57605745 15:0.38992897 16:0.58342502 17:0.49323419 18:0.62115565 
0 100 100 1:0.62992805 2:0.31070541 3:0.53392045 4:0.63728463 5:0.60395234 6:0.32005361 7:0.45910408 8:0.35428361 9:0.59937445 10:0.32659362 11:0.25300602 12:0.49440971 13:0.43930464 14:0.78142931 15:0.29915386 16:0.85780226 17:0.80985599 18:0.74080763 
0 0 100 1:0.58115933 2:0.68929461 3:0.59379878 4:0.59285334 5:0.72373746 6:0.32616276 7:0.50984682 8:0.43044735 9:0.41456883 10:0.47492971 11:0.27547254 12:0.26641317 13:0.23459542 14:0.62118985 15:0.44212947 16:0.64283877 17:0.34057539 18:0.60797284 
100 0 100 1:0.66775788 2:0.73561172 3:0.69591137 4:0.56451978 5:0.52859086 6:0.6216752 7:0.67844517 8:0.45386381 9:0.66455541 10:0.32624002 11:0.57529377 12:0.52993705 13:0.41987399 14:0.64335271 15:0.27017887 16:0.61726541 17:0.41967458 18:0.43113425 
100 0 100 1:0.72710498 2:0.69526569 3:0.75751065 4:0.6372859 5:0.57565828 6:0.456612 7:0.78188701 8:0.41486851 9:0.55615409 10:0.51354971 11:0.43856266 12:0.61296927 13:0.38633215 14:0.52576434 15:0.24000344 16:0.65092152 17:0.28255935 18:0.59592655 
100 0 100 1:0.86248285 2:0.68139062 3:0.69718983 4:0.53549106 5:0.56525335 6:0.34109455 7:0.72041672 8:0.2933727 9:0.56091776 10:0.41864248 11:0.41660814 12:0.51448523 13:0.39571288 14:0.42922871 15:0.3140266 16:0.55973639 17:0.32789335 18:0.54498076 
100 0 100 1:0.88913946 2:0.68831099 3:0.67416114 4:0.53563302 5:0.49893129 6:0.43597772 7:0.71828323 8:0.38911197 9:0.55715773 10:0.41918534 11:0.41672188 12:0.56164002 13:0.44776129 14:0.54891019 15:0.31865526 16:0.57085341 17:0.3422745 18:0.60091547 
100 100 100 1:0.85574809 2:0.69537186 3:0.68343385 4:0.48781565 5:0.57590574 6:0.45471174 7:0.68879554 8:0.4785415 9:0.61239154 10:0.4527875 11:0.44116165 12:0.52311258 13:0.40549893 14:0.56219468 15:0.35276866 16:0.61441637 17:0.37721219 18:0.49134451 
100 100 100 1:0.83013492 2:0.63151322 3:0.80402434 4:0.46004782 5:0.70337043 6:0.42394001 7:0.72577146 8:0.46854572 9:0.39418796 10:0.40692827 11:0.30035332 12:0.57402557 13:0.39272674 14:0.4875134 15:0.31117913 16:0.59962366 17:0.43665837 18:0.59954419 
100 100 100 1:0.76006127 2:0.42162093 3:0.72389154 4:0.63361035 5:0.79950884 6:0.51402512 7:0.6403144 8:0.5049373 9:0.4294284 10:0.39716351 11:0.4926443 12:0.5507361 13:0.4852077 14:0.65193189 15:0.33182445 16:0.62224081 17:0.37252968 18:0.5522062 
100 100 100 1:0.75583857 2:0.43032109 3:0.76584266 4:0.61566987 5:0.71851277 6:0.57954207 7:0.60659069 8:0.44705918 9:0.50532038 10:0.52883935 11:0.47152952 12:0.41272229 13:0.42871784 14:0.63402604 15:0.30699687 16:0.65765415 17:0.43657353 18:0.64186781 
100 100 100 1:0.70088379 2:0.41732801 3:0.76758995 4:0.65946394 5:0.76472203 6:0.58631358 7:0.56916677 8:0.52281867 9:0.47021087 10:0.54026505 11:0.39851362 12:0.4716465 13:0.57529149 14:0.52386366 15:0.40846641 16:0.77629045 17:0.42976252 18:0.61084629 
100 100 100 1:0.69478142 2:0.44030086 3:0.77260428 4:0.64097803 5:0.65097859 6:0.58305909 7:0.64260358 8:0.59741311 9:0.41554087 10:0.35587793 11:0.48488909 12:0.46836839 13:0.51971538 14:0.58743489 15:0.26421897 16:0.68030886 17:0.59139948 18:0.62229377 
100 100 100 1:0.75825192 2:0.45492338 3:0.74788239 4:0.67005533 5:0.74946616 6:0.59331494 7:0.61740074 8:0.45780192 9:0.37124222 10:0.40105308 11:0.43138345 12:0.45313835 13:0.48074812 14:0.52591964 15:0.16826238 16:0.64314046 17:0.47411423 18:0.63655778 
100 100 100 1:0.81392756 2:0.48477636 3:0.73328915 4:0.63058425 5:0.79648426 6:0.56708933 7:0.63670749 8:0.50567938 9:0.49553491 10:0.49017037 11:0.41614182 12:0.57126425 13:0.42500688 14:0.63246517 15:0.36503075 16:0.71153606 17:0.38866649 18:0.61947057 
100 100 100 1:0.83291791 2:0.76977253 3:0.67667166 4:0.48553947 5:0.57356238 6:0.42715944 7:0.71140602 8:0.49565603 9:0.52838049 10:0.48995132 11:0.5162912 12:0.52151053 13:0.44241257 14:0.58244382 15:0.39489504 16:0.63715764 17:0.50581373 18:0.61162428 
100 0 100 1:0.72183222 2:0.80596381 3:0.71680209 4:0.45220708 5:0.53808157 6:0.47202284 7:0.73225088 8:0.40116433 9:0.71780286 10:0.39055609 11:0.54349834 12:0.53772801 13:0.39931077 14:0.57491155 15:0.39176176 16:0.59355647 17:0.44023262 18:0.56791868 
100 0 100 1:0.83870123 2:0.77956793 3:0.60919285 4:0.51266078 5:0.57867629 6:0.40115654 7:0.74787158 8:0.46881767 9:0.53095586 10:0.44336687 11:0.60318865 12:0.4713618 13:0.52248394 14:0.5731786 15:0.40534659 16:0.5358118 17:0.54351025 18:0.61348946 
100 0 100 1:0.76715236 2:0.74793313 3:0.67901187 4:0.53331853 5:0.60227937 6:0.49239827 7:0.64586432 8:0.43201283 9:0.58974709 10:0.3870324 11:0.32412455 12:0.39275408 13:0.46589904 14:0.50473952 15:0.27143233 16:0.65673107 17:0.3680532 18:0.61448183 
100 100 100 1:0.81673923 2:0.60265132 3:0.79646817 4:0.62873755 5:0.4945294 6:0.51468875 7:0.60586469 8:0.52244825 9:0.66388421 10:0.39549059 11:0.44520265 12:0.38407397 13:0.41481886 14:0.64982673 15:0.23485508 16:0.57783281 17:0.29790893 18:0.51675155 
100 0 100 1:0.8821408 2:0.67078407 3:0.65521156 4:0.62477293 5:0.58011333 6:0.41230804 7:0.76844778 8:0.46412197 9:0.48965797 10:0.38298169 11:0.38690498 12:0.43908562 13:0.39990015 14:0.46320513 15:0.29180332 16:0.51292728 17:0.26996508 18:0.57368409 
100 0 100 1:0.7946639 2:0.75783984 3:0.58983402 4:0.52368503 5:0.58259322 6:0.50404695 7:0.6577846 8:0.49336777 9:0.60276108 10:0.4557426 11:0.38068691 12:0.52068288 13:0.40008022 14:0.53549294 15:0.36026007 16:0.63931583 17:0.45845398 18:0.62568233 
100 0 100 1:0.8725624 2:0.74412842 3:0.64474907 4:0.44961172 5:0.63084782 6:0.42589991 7:0.70200144 8:0.44940884 9:0.59347052 10:0.42776015 11:0.41369957 12:0.58571369 13:0.35289136 14:0.63931652 15:0.30651029 16:0.66688485 17:0.46210445 18:0.49918569 
100 0 100 1:0.79342625 2:0.70142899 3:0.61663191 4:0.5453839 5:0.5146515 6:0.52395323 7:0.6598295 8:0.51360934 9:0.51783135 10:0.44994181 11:0.33583466 12:0.57444136 13:0.40968942 14:0.54673286 15:0.38700734 16:0.66248625 17:0.42980511 18:0.50064778 
100 0 100 1:0.88326987 2:0.69840163 3:0.63283296 4:0.55276938 5:0.59128603 6:0.38554019 7:0.72569282 8:0.46433817 9:0.54170314 10:0.4342707 11:0.34948804 12:0.53873448 13:0.32673249 14:0.58808447 15:0.34165012 16:0.63129569 17:0.41967473 18:0.49854666 
100 100 100 1:0.77364839 2:0.68846503 3:0.82536781 4:0.4979632 5:0.57486991 6:0.48183459 7:0.6477619 8:0.44122162 9:0.57550631 10:0.26485187 11:0.36991663 12:0.56430497 13:0.44527752 14:0.65317341 15:0.16065911 16:0.63638335 17:0.27472552 18:0.65647602 
100 0 100 1:0.79509955 2:0.72983528 3:0.65055624 4:0.43691873 5:0.60859869 6:0.41373662 7:0.74559889 8:0.52480051 9:0.60566142 10:0.45279192 11:0.46969608 12:0.63175822 13:0.44899149 14:0.51940279 15:0.37959131 16:0.60769074 17:0.5128534 18:0.54177295 
100 100 100 1:0.71175137 2:0.77079161 3:0.71298939 4:0.48546433 5:0.56752934 6:0.50904881 7:0.74567304 8:0.53214827 9:0.51097821 10:0.52335688 11:0.5039731 12:0.5522395 13:0.43984694 14:0.55448892 15:0.46345536 16:0.53980282 17:0.4849593 18:0.52930554 
100 0 100 1:0.84719133 2:0.68068387 3:0.64856811 4:0.53279162 5:0.70419026 6:0.37074485 7:0.74920625 8:0.41874137 9:0.63875282 10:0.41729292 11:0.44256168 12:0.44468995 13:0.35651803 14:0.52416696 15:0.31281973 16:0.64190162 17:0.33844181 18:0.58386328 
100 100 100 1:0.7352755 2:0.69116115 3:0.77887815 4:0.5118634 5:0.59849189 6:0.39745475 7:0.70832884 8:0.50294245 9:0.61157754 10:0.46715548 11:0.4156223 12:0.55495339 13:0.44210882 14:0.67643004 15:0.23600981 16:0.70217084 17:0.31647593 18:0.59718904 
100 100 100 1:0.68651424 2:0.74827973 3:0.7131597 4:0.51493297 5:0.51141892 6:0.54417773 7:0.6208546 8:0.51038376 9:0.65427236 10:0.43773844 11:0.42051739 12:0.65716347 13:0.45950714 14:0.53525558 15:0.46662628 16:0.55463128 17:0.39557117 18:0.62218133 
100 0 100 1:0.75468178 2:0.70824484 3:0.68987187 4:0.58256023 5:0.51408645 6:0.46791065 7:0.67754792 8:0.49386186 9:0.61982834 10:0.36302832 11:0.47071193 12:0.45914992 13:0.29114258 14:0.52060267 15:0.25306853 16:0.50074234 17:0.16581181 18:0.48268504 
100 0 100 1:0.70370059 2:0.68722869 3:0.73737413 4:0.73842743 5:0.44721936 6:0.42576035 7:0.7253477 8:0.3627657 9:0.69122563 10:0.47015799 11:0.21395353 12:0.49471553 13:0.48268382 14:0.59426438 15:0.16537922 16:0.38074758 17:0.35036501 18:0.54606517 
100 100 100 1:0.75283541 2:0.74839076 3:0.74751603 4:0.54332438 5:0.48940458 6:0.52770755 7:0.62122184 8:0.5555557 9:0.50766455 10:0.45044882 11:0.58711865 12:0.5666364 13:0.43067753 14:0.51597917 15:0.36375338 16:0.54089404 17:0.39670688 18:0.58788244 
100 100 100 1:0.81246947 2:0.58718153 3:0.75644666 4:0.75083834 5:0.47366006 6:0.50055557 7:0.74928984 8:0.39012009 9:0.5983647 10:0.5453922 11:0.17087241 12:0.3802189 13:0.40959978 14:0.57612567 15:0.2788133 16:0.58147067 17:0.42284792 18:0.59457569 
100 100 100 1:0.82215212 2:0.65394519 3:0.80081981 4:0.60111109 5:0.60282566 6:0.39605207 7:0.6660554 8:0.44109127 9:0.64832567 10:0.35216906 11:0.55064805 12:0.52181928 13:0.36508348 14:0.44990644 15:0.12954317 16:0.55870042 17:0.51405101 18:0.7363375 
100 100 100 1:0.79516606 2:0.62798869 3:0.83231898 4:0.6195487 5:0.63706211 6:0.48590096 7:0.62500112 8:0.47499486 9:0.41302506 10:0.4852274 11:0.522115 12:0.58971719 13:0.50920645 14:0.63640286 15:0.383263 16:0.61714909 17:0.30511862 18:0.72963588 
100 0 100 1:0.92597302 2:0.69277672 3:0.60828205 4:0.41807037 5:0.54231554 6:0.48181876 7:0.63441172 8:0.38483481 9:0.52883677 10:0.30981822 11:0.39228633 12:0.52347081 13:0.37807455 14:0.45661663 15:0.27851371 16:0.36631468 17:0.2579657 18:0.41609926 
0 100 100 1:0.52303314 2:0.38553463 3:0.55098464 4:0.46383355 5:0.4706273 6:0.5203371 7:0.63419117 8:0.53301764 9:0.50803998 10:0.45960642 11:0.52387318 12:0.55337434 13:0.43063123 14:0.59998496 15:0.49855214 16:0.55613784 17:0.61685247 18:0.65694733 
0 100 0 1:0.40343782 2:0.47862977 3:0.51441788 4:0.49530314 5:0.49040204 6:0.49552066 7:0.61523453 8:0.52789141 9:0.56737901 10:0.41598956 11:0.40902897 12:0.63748209 13:0.52548418 14:0.65078885 15:0.50991153 16:0.62943776 17:0.53136651 18:0.52726774 
100 0 0 1:0.49667269 2:0.75796808 3:0.63282387 4:0.87036183 5:0.91099985 6:0.20315456 7:0.62554427 8:0.46504839 9:0.61185914 10:0.38860384 11:0.10502531 12:0.62288848 13:0.44281344 14:0.68717682 15:0.36251651 16:0.64578986 17:0.35435681 18:0.66821976 
0 100 100 1:0.4786453 2:0.12320267 3:0.49993207 4:0.99182893 5:0.55491107 6:0.41725939 7:0.81447778 8:0.66239272 9:0.4565901 10:0.63565543 11:0.56594253 12:0.32675516 13:0.44888572 14:0.5889838 15:0.43392791 16:0.6484805 17:0.47525442 18:0.60491301 
0 100 0 1:0.46383029 2:0.35962584 3:0.89455725 4:0.68380931 5:0.68187494 6:0.66740474 7:0.60654726 8:0.35571249 9:0.77558346 10:0.49077037 11:0.28340115 12:0.35433552 13:0.31294547 14:0.60955475 15:0.46978947 16:0.30544228 17:0.43415424 18:0.54057174 
0 100 0 1:0.44176676 2:0.20665261 3:0.84718122 4:0.5762898 5:0.6434514 6:0.64593683 7:0.69057603 8:0.59749114 9:0.85811721 10:0.52093892 11:0.62627201 12:0.69953694 13:0.63146036 14:0.56784672 15:0.35990388 16:0.52733897 17:0.55036349 18:0.67651938 
100 0 100 1:0.53666622 2:0.87537178 3:0.53369067 4:0.72257591 5:0.83199963 6:0.34614047 7:0.66401378 8:0.2588805 9:0.78194943 10:0.57524003 11:0.27949448 12:0.57598031 13:0.17734802 14:0.77646857 15:0.47205339 16:0.28934875 17:0.43191182 18:0.56872292 
100 0 0 1:0.39004351 2:0.85229588 3:0.56480253 4:0.72789223 5:0.80739826 6:0.4608758 7:0.72348367 8:0.33622807 9:0.40788665 10:0.90568711 11:0.15573504 12:0.33957397 13:0.52160153 14:0.51238227 15:0.33499118 16:0.37338268 17:0.47897463 18:0.43791602 
100 100 0 1:0.42527395 2:0.64892195 3:0.66202189 4:0.72816096 5:0.94388883 6:0.42832624 7:0.60765127 8:0.50119737 9:0.91671017 10:0.50359946 11:0.38890303 12:0.40861222 13:0.42818578 14:0.81147916 15:0.23365427 16:0.39084887 17:0.45134482 18:0.68557294 
100 0 0 1:0.36570831 2:1 3:0.80652241 4:0.61666675 5:0.62589445 6:0.26240163 7:0.78469275 8:0.52313315 9:0.55095253 10:0.48417865 11:0.23845002 12:0.38205465 13:0.31616504 14:0.37683297 15:0.5503947 16:0.65804157 17:0.40023836 18:0.54636099 
100 0 0 1:0.60824083 2:0.89871697 3:0.63847578 4:0.60070077 5:0.41575706 6:0.36709869 7:0.86792524 8:0.43824208 9:0.5381176 10:0.4760388 11:0.48633298 12:0.61619424 13:0.46296049 14:0.63101368 15:0.60053602 16:0.41185768 17:0.33680303 18:0.53149069 
100 0 0 1:0.47597933 2:0.74255034 3:0.57051458 4:0.85375915 5:0.78831814 6:0.33997239 7:0.64019387 8:0.59682965 9:0.52296873 10:0.67110059 11:0.28878381 12:0.53816826 13:0.20120322 14:0.40858325 15:0.37714231 16:0.54871112 17:0.33967196 18:0.44770858 
100 0 0 1:0.57978218 2:0.7460796 3:0.54453499 4:0.89329968 5:0.81661262 6:0.1798953 7:0.57650621 8:0.40399578 9:0.55025241 10:0.42195096 11:0.23976772 12:0.699361 13:0.27227449 14:0.44308283 15:0.39160306 16:0.67293746 17:0.43214903 18:0.59168962 
100 0 0 1:0.4522988 2:0.96868945 3:0.5872666 4:0.6089371 5:0.52658109 6:0.50097152 7:0.86841655 8:0.25277733 9:0.64770712 10:0.44856415 11:0.49292494 12:0.71171586 13:0.34444363 14:0.49427096 15:0.261294 16:0.58571017 17:0.45773626 18:0.44525627 
100 0 0 1:0.41413797 2:0.90963412 3:0.5683162 4:0.67406032 5:0.79643094 6:0.38077464 7:0.75395645 8:0.31256417 9:0.3816369 10:0.56633705 11:0.40134028 12:0.59875211 13:0.063529085 14:0.56200111 15:0.47974239 16:0.47470881 17:0.39284554 18:0.54203176 
100 0 0 1:0.52240884 2:0.87003571 3:0.43345872 4:0.57732834 5:0.65586904 6:0.38892373 7:0.72256587 8:0.4035438 9:0.74442071 10:0.56700833 11:0.48392804 12:0.56525825 13:0.28403028 14:0.38579731 15:0.59004185 16:0.41664856 17:0.25404217 18:0.51447914 
100 100 100 1:0.52417603 2:0.63425923 3:0.52132948 4:0.66194722 5:0.52213325 6:0.68185987 7:0.73453559 8:0.31017578 9:0.39458278 10:0.82829582 11:0.67825902 12:0.72136045 13:0.22402986 14:0.66235728 15:0.56286239 16:0.27489313 17:0.61393495 18:0.7170136 
0 100 100 1:0.65804538 2:0.10888632 3:0.57265069 4:0.96643451 5:0.45437635 6:0.52702114 7:0.54986667 8:0.64405945 9:0.52058451 10:0.55671115 11:0.56761355 12:0.4877055 13:0.38173966 14:0.68132556 15:0.44526289 16:0.41556739 17:0.51451637 18:0.75696342 
0 100 100 1:0.63601801 2:0.11605658 3:0.53445762 4:0.91463204 5:0.41800639 6:0.51665792 7:0.58555554 8:0.49409129 9:0.62478796 10:0.5236655 11:0.52950375 12:0.45156964 13:0.47609206 14:0.54432984 15:0.39362292 16:0.50695045 17:0.52369146 18:0.43158018 
100 100 100 1:0.57095273 2:0.53042266 3:0.67433898 4:0.68501488 5:0.76688137 6:0.78795908 7:0.70533229 8:0.41168464 9:0.63671259 10:0.76204937 11:0.44490059 12:0.59124292 13:0.49874887 14:0.66482058 15:0.45689492 16:0.58313441 17:0.26473942 18:0.61640313 
0 100 100 1:0.39771284 2:0.84199558 3:0.53057064 4:0.60235358 5:0.59685294 6:0.44388836 7:0.54369606 9:0.35542459 10:0.64046872 11:0.25002001 12:0.51360413 13:0.41184096 14:0.8182918 15:0.52624466 16:0.43896555 17:0.74743694 18:0.78695551 
0 100 100 1:0.59501914 2:0.15927191 3:0.49953752 4:0.89871022 5:0.52281521 6:0.4775459 7:0.56175856 8:0.54639958 9:0.63085104 10:0.57642365 11:0.57862884 12:0.59912434 13:0.48379889 14:0.71810976 15:0.50073347 16:0.76258299 17:0.53299508 18:0.63994511 
0 100 100 1:0.509481 2:0.065870687 3:0.41493565 4:0.9585855 5:0.56425394 6:0.57610444 7:0.74320564 8:0.51486404 9:0.72339662 10:0.5850049 11:0.67970649 12:0.56975206 13:0.5129723 14:0.74260897 15:0.37353989 16:0.57102366 17:0.47739029 18:0.65992786 
0 100 0 1:0.41656034 2:0.36836553 3:0.62213381 4:0.82701929 5:0.57690816 6:0.55821997 7:0.65733197 8:0.57075925 9:0.73091043 10:0.64364443 11:0.36026681 12:0.51671864 13:0.64670415 14:0.55746237 15:0.25267957 16:0.56403017 17:0.30366262 18:0.65131721 
0 100 100 1:0.46334236 2:0.48228859 3:0.33988665 4:0.76861546 5:0.80758535 6:0.76317235 7:0.66442395 8:0.34774342 9:0.6726425 10:0.67511087 11:0.57546425 12:0.38081337 13:0.71680105 14:0.66298613 15:0.29469317 16:0.90433998 17:0.53541307 18:0.47063776 
100 0 0 1:0.50437822 2:0.71483479 3:0.57700882 4:0.48551716 5:0.55301248 6:0.40597225 7:0.4737836 8:0.49780355 9:0.64476454 10:0.5410561 11:0.73132111 12:0.73097182 13:0.74183284 14:0.5752484 15:0.3776791 16:0.42795198 17:0.55325285 18:0.52615491 
0 100 0 1:0.49177393 2:0.61120562 3:0.68854047 4:0.61603873 5:0.61504507 6:0.3128825 7:0.5140457 8:0.46972717 9:0.75367124 10:0.50637356 11:0.4424811 12:0.44453288 13:0.38696181 14:0.46829713 15:0.33979425 16:0.31430788 17:0.65695426 18:0.4050423 
0 0 100 1:0.80425901 2:0.59425223 3:0.2681223 4:0.35295183 5:0.45078443 6:0.60385337 7:0.79345752 8:0.10997469 9:0.36964751 10:0.3984476 11:0.57936962 12:0.379545 13:0.18025619 14:0.6112487 15:0.28526006 16:0.62244866 17:0.36731147 18:0.43729581 
0 100 100 1:0.94252345 2:0.34429106 3:0.52128149 4:0.20142616 5:0.27764638 6:0.47926955 7:0.79362394 8:0.35289527 9:0.60367551 10:0.47630698 11:0.42179316 12:0.33184184 13:0.26929454 14:0.34098124 15:0.4592903 16:0.55994401 17:0.50004844 18:0.25376414 
100 0 100 1:0.57047374 2:0.77912876 3:0.72924502 4:0.54849122 5:0.47789835 6:0.30985698 7:0.89307203 8:0.40459671 9:0.082274931 10:0.38443767 11:0.59675233 12:0.70751916 13:0.57844714 14:0.59758594 15:0.57919255 16:0.47417905 17:0.62431953 18:0.58428229 
0 100 100 1:0.77845402 2:0.55763796 3:0.47520028 4:0.33980691 5:0.046691049 6:0.39766331 7:0.81853638 8:0.17331321 9:0.28754362 10:0.86289137 11:0.18398479 12:0.87053358 13:0.20205748 14:0.46050644 15:0.37906049 16:0.34927972 17:0.68029448 18:0.35621951 
100 0 100 1:0.61329851 2:0.83731331 3:0.5467902 4:0.34730372 5:0.61176974 6:0.31756351 7:0.69911083 8:0.36880904 9:0.31108963 10:0.41144889 11:0.67956618 12:0.74373342 13:0.65291617 14:0.57498061 15:0.39633424 16:0.5608506 17:0.57930849 18:0.47680281 
0 100 0 1:0.46227242 2:0.64807581 3:0.77092502 4:0.53799264 5:0.56396679 6:0.20913841 7:0.46649392 8:0.52078941 9:0.61452644 10:0.46566362 11:0.47246818 12:0.43096505 13:0.44267652 14:0.67126588 15:0.34997094 16:0.076379919 17:0.55275415 18:0.56044044 
100 0 0 1:0.53626105 2:0.76254309 3:0.72243404 4:0.4443199 5:0.31350995 6:0.34907583 7:0.87545337 8:0.51605464 9:0.45784703 10:0.32028189 11:0.36402522 12:0.44593298 13:0.51080714 14:0.54994896 15:0.53630391 16:0.34841084 17:0.37512493 18:0.4161301 
0 100 0 1:0.40033533 2:0.47005867 3:0.61876854 4:0.43029592 5:0.4030742 6:0.44733238 7:0.7702163 8:0.34232328 9:0.44029259 10:0.4293461 11:0.72697486 12:0.69075085 13:0.41609961 14:0.50308187 15:0.49608787 16:0.49201274 17:0.58455996 18:0.4932146 
0 100 0 1:0.37306671 2:0.45707375 3:0.65529501 4:0.53346621 5:0.60203422 6:0.60906574 7:0.83918957 8:0.51614001 9:0.60953163 10:0.3912352 11:0.57186529 12:0.59014096 13:0.42040044 14:0.50055015 15:0.56620157 16:0.58311194 17:0.63146047 18:0.57377675 
0 100 0 1:0.29821718 2:0.46118539 3:0.76505666 4:0.57395819 5:0.64216574 6:0.5956175 7:0.74027141 8:0.52898552 9:0.5906526 10:0.42116026 11:0.50866944 12:0.53103955 13:0.60630183 14:0.58769333 15:0.58918472 16:0.55754571 17:0.51167573 18:0.42491956 
100 0 44.067760041887681 1:0.71359021 2:0.7104383 3:0.70042229 4:0.63544942 5:0.49270264 6:0.58375759 7:0.61311605 8:0.51208499 9:0.585922 10:0.38333326 11:0.52907924 12:0.67740894 13:0.55159377 14:0.35491713 15:0.55778006 16:0.51768379 17:0.35818854 18:0.61716616 
100 0 0 1:0.62763138 2:0.68172525 3:0.70302073 4:0.5657969 5:0.42433078 6:0.36090156 7:0.70280764 8:0.49079702 9:0.37407329 10:0.34114581 11:0.54508631 12:0.42500963 13:0.52503328 14:0.39000532 15:0.42158492 16:0.41232909 17:0.4332963 18:0.70304422 
100 0 0 1:0.65473169 2:0.63674164 3:0.55505715 4:0.78375095 5:0.37933987 6:0.45668481 7:0.7120035 8:0.2832482 9:0.4627386 10:0.61531673 11:0.51095725 12:0.33089259 13:0.70013526 14:0.34217597 15:0.41300678 16:0.34331513 17:0.28000413 18:0.52854058 
0 0 100 1:0.69791854 2:0.58790287 3:0.42224051 4:0.47063935 5:0.21460324 6:0.47568224 7:0.7043059 8:0.34756666 9:0.28997816 10:0.30479488 11:0.35183627 12:0.4337744 13:0.30099433 14:0.37991392 15:0.42881749 16:0.41292134 17:0.42125604 18:0.45726131 
0 100 100 1:0.75249881 2:0.34291969 3:0.53637804 4:0.48232932 5:0.28976601 6:0.48953851 7:0.62396212 8:0.39897026 9:0.32369265 10:0.14814319 11:0.35235007 12:0.44115594 13:0.42795168 14:0.62589996 15:0.61736809 16:0.6346854 17:0.35948115 18:0.57657969 
100 0 100 1:0.62248961 2:0.7081632 3:0.545277 4:0.67174022 5:0.55489305 6:0.40456606 7:0.91212131 8:0.40191757 9:0.41066634 10:0.75813879 11:0.62678049 12:0.49986121 13:0.63631104 14:0.43978127 15:0.48393085 16:0.52881555 17:0.57172382 18:0.58446764 
0 0 100 1:0.81658488 2:0.49766983 3:0.44339505 4:0.40673353 5:0.18103741 6:0.38601791 7:0.62148799 8:0.35080028 9:0.33730117 10:0.38740307 11:0.19707555 12:0.42006648 13:0.54686245 14:0.5516544 15:0.56788187 16:0.59368854 17:0.43526756 18:0.36078981 
100 0 100 1:0.66678986 2:0.66546374 3:0.51281644 4:0.74267347 5:0.38970084 6:0.43530038 7:0.9212933 8:0.34692237 9:0.45848913 10:0.7449633 11:0.60314292 12:0.47858584 13:0.88418029 14:0.55576826 15:0.56761433 16:0.74992744 17:0.31900943 18:0.52709769 
0 0 100 1:0.81622132 2:0.53971874 3:0.37598663 4:0.39436851 6:0.41365701 7:0.67957586 8:0.22627671 9:0.33491478 10:0.31941928 11:0.15911606 12:0.37784104 13:0.53713466 14:0.45078823 15:0.71259182 16:0.64759271 17:0.39567504 18:0.54703414 
0 0 100 1:0.66039093 2:0.67766071 3:0.58306614 4:0.56132661 5:0.30007818 6:0.4227688 7:0.75918338 8:0.26625495 9:0.42031909 10:0.45716808 11:0.35977077 12:0.30526622 13:0.40212577 14:0.33691511 15:0.53711862 16:0.36820617 17:0.20321374 18:0.34282927 
100 0 0 1:0.56165088 2:0.64105729 3:0.64687203 4:0.66520455 5:0.39006484 6:0.45335989 7:0.86316229 8:0.32056287 9:0.48353077 10:0.53677771 11:0.3591753 12:0.48982487 13:0.62810973 14:0.37061805 15:0.5475585 16:0.53105823 17:0.50897265 18:0.62079221 
0 0 100 1:0.75545437 2:0.66270923 3:0.41881455 4:0.53597918 5:0.15827267 6:0.35126126 7:0.74209621 8:0.23327979 9:0.35546726 10:0.44169861 11:0.20113842 12:0.47593065 13:0.53234875 14:0.28965787 15:0.6729216 16:0.53001095 17:0.51040662 18:0.39995672 
100 0 0 1:0.60319676 2:0.75043467 3:0.66661351 4:0.65058982 5:0.39367512 6:0.40532913 7:0.89050352 8:0.23455321 9:0.36466937 10:0.5158894 11:0.22015684 12:0.41133181 13:0.61794033 14:0.43319578 15:0.61990481 16:0.55785696 17:0.43934539 18:0.54315245 
100 0 0 1:0.61336787 2:0.66348505 3:0.63662402 4:0.56231268 5:0.32196501 6:0.4547127 7:0.83496403 8:0.29533676 9:0.3141531 10:0.38917703 11:0.47405271 12:0.45633546 13:0.56603703 14:0.32923104 15:0.4442723 16:0.49551517 17:0.27053172 18:0.37350268 
100 0 0 1:0.6356825 2:0.6786545 3:0.66675353 4:0.63552051 5:0.28818478 6:0.50379202 7:0.70579267 8:0.21773795 9:0.40495121 10:0.39944821 11:0.3434793 12:0.41029132 13:0.46959971 14:0.29817256 15:0.46708229 16:0.46393642 17:0.37557903 18:0.46389202 
100 0 100 1:0.67058205 2:0.64070771 3:0.57054758 4:0.79832405 5:0.47282296 6:0.62294789 7:0.85969117 8:0.34940577 9:0.43143734 10:0.59384003 11:0.36825086 12:0.30669192 13:0.68937119 14:0.39924301 15:0.44180434 16:0.57614546 17:0.28934781 18:0.54529087 
0 0 100 1:0.64405293 2:0.63787622 3:0.61664024 4:0.53989063 5:0.33060472 6:0.55146732 7:0.71932773 8:0.35688391 9:0.50354754 10:0.33744034 11:0.24293262 12:0.37443665 13:0.54501029 14:0.45622014 15:0.31930565 16:0.36189349 17:0.3917477 18:0.40786673 
0 100 100 1:0.81465772 2:0.41215336 3:0.50962708 4:0.37677028 5:0.22493613 6:0.40318669 7:0.65331664 8:0.27779547 9:0.39926287 10:0.43748761 11:0.28847007 12:0.438603 13:0.29286691 14:0.31087086 15:0.39727974 16:0.53803091 17:0.50289298 18:0.84000909 
100 0 0 1:0.61358438 2:0.72264885 3:0.58447537 4:0.56566879 5:0.36911211 6:0.46842276 7:0.86587519 8:0.2137285 9:0.36745961 10:0.43512558 11:0.26085808 12:0.44866888 13:0.42952351 14:0.22448587 15:0.50676964 16:0.47096116 17:0.26497264 18:0.47325401 
0 0 100 1:0.6792214 2:0.65177262 3:0.49985068 4:0.70307013 5:0.3470643 6:0.40064802 7:0.76324876 8:0.25117449 9:0.37972652 10:0.51937573 11:0.48589874 12:0.35115971 13:0.6445014 14:0.35042145 15:0.42246396 16:0.69924392 17:0.44118936 18:0.54530053 
0 0 100 1:0.73524828 2:0.54400775 3:0.51732907 4:0.50176366 5:0.20264268 6:0.40577224 7:0.69352484 8:0.26986431 9:0.53588573 10:0.31456664 11:0.48703816 12:0.39961366 13:0.41007625 14:0.30586278 15:0.31852073 16:0.41532956 17:0.39806353 18:0.55484723 
0 100 100 1:0.82178739 2:0.38143577 3:0.45155381 4:0.46376592 5:0.1263278 6:0.42129074 7:0.67030401 8:0.22896555 9:0.53832122 10:0.49491878 11:0.4254468 12:0.50389081 13:0.61769932 14:0.6767606 15:0.59049504 16:0.43555926 17:0.39745667 18:0.44253893 
100 0 0 1:0.63274869 2:0.68559219 3:0.5792178 4:0.68059793 5:0.3531872 6:0.47101931 7:0.81124466 8:0.23630228 9:0.44328867 10:0.49789563 11:0.3298521 12:0.28944962 13:0.65941868 14:0.35591175 15:0.47315782 16:0.52899549 17:0.3696271 18:0.63873976 
0 0 100 1:0.71175359 2:0.663681 3:0.5072656 4:0.48202843 5:0.20303494 6:0.3676867 7:0.79635127 8:0.3022931 9:0.45506456 10:0.44315578 11:0.27260734 12:0.35415098 13:0.39700334 14:0.31266117 15:0.53560726 16:0.51414746 17:0.38016334 18:0.60976154 
0 100 100 1:0.74925903 2:0.39802561 3:0.53837134 4:0.39308516 5:0.25692791 6:0.55174066 7:0.55217208 8:0.25738775 9:0.48049269 10:0.22344705 11:0.42080096 12:0.63932622 13:0.62067313 14:0.91557688 15:0.59231419 16:0.49413597 17:0.29679445 18:0.4865739 
0 100 0 1:0.55643069 2:0.51960859 3:0.81741893 4:0.47876194 5:0.44642523 6:0.5807647 7:0.66858382 8:0.26027148 9:0.31208281 10:0.35823626 11:0.15446332 12:0.35786541 13:0.38249119 14:0.33575898 15:0.46398039 16:0.49704662 17:0.34387064 18:0.47344464 
100 0 100 1:0.66349039 2:0.65652661 3:0.67522423 4:0.58006721 5:0.36890041 6:0.47294305 7:0.76935358 8:0.24606815 9:0.31062889 10:0.38588108 11:0.24729416 12:0.54448318 13:0.51067426 14:0.54504226 15:0.65792994 16:0.55756024 17:0.21577695 18:0.35684938 
100 100 100 1:0.53246246 2:0.40758198 3:0.8013697 4:0.56065986 5:0.56753936 6:0.65271532 7:0.73223434 8:0.68157174 9:0.61141863 10:0.46341684 11:0.57163298 12:0.54949774 13:0.49282002 14:0.58066898 15:0.45870153 16:0.5328621 17:0.54527378 18:0.61207537 
100 0 100 1:0.60741883 2:0.58899102 3:0.53096023 4:0.71612681 5:0.41622018 6:0.53148476 7:0.84996685 8:0.38011149 9:0.48604994 10:0.46038304 11:0.52628099 12:0.33153772 13:0.51195551 14:0.25281171 15:0.2560924 16:0.53571089 17:0.40655575 18:0.60825092 
0 0 100 1:0.73933387 2:0.56467987 3:0.39238589 4:0.49313929 5:0.11202468 6:0.41624473 7:0.66200463 8:0.25465123 9:0.47795385 10:0.26302305 11:0.4309412 12:0.23691027 13:0.40358427 14:0.48242451 15:0.39035749 16:0.4826788 17:0.4614058 18:0.56417218 
0 91.316052128070424 100 1:0.70814192 2:0.48436233 3:0.47997461 4:0.45654605 5:0.038695639 6:0.42173345 7:0.61530331 8:0.26697229 9:0.48108213 10:0.38767247 11:0.62581933 12:0.65553247 13:0.8490726 14:0.72643829 15:0.54769447 16:0.20568898 17:0.03124182 18:0.55825151 
100 0 100 1:0.62310925 2:0.64685252 3:0.66597716 4:0.59628544 5:0.34909807 6:0.53610136 7:0.76233412 8:0.26270737 9:0.33833754 10:0.40311278 11:0.34967403 12:0.30552502 13:0.55945676 14:0.4136843 15:0.41593158 16:0.6746688 17:0.37463579 18:0.2924848 
88.807717068895442 0 0 1:0.58349775 2:0.67235344 3:0.5835465 4:0.60257994 5:0.44678058 6:0.43140631 7:0.83172971 8:0.21772577 9:0.41862261 10:0.61288912 11:0.50784882 12:0.58299865 13:0.48072206 14:0.22205541 15:0.54513351 16:0.607449 17:0.25387712 18:0.46927044 
0 100 100 1:0.72905783 2:0.38551922 3:0.52132593 4:0.47957533 5:0.271644 6:0.50936809 7:0.4937169 8:0.41069312 9:0.58597115 10:0.15398745 11:0.47262362 12:0.55087834 13:0.58838785 14:0.6902418 15:0.66944126 16:0.59760379 17:0.25648922 18:0.45484451 
100 0 0 1:0.44340835 2:0.65909722 3:0.80366342 4:0.59788057 5:0.58817433 6:0.47354852 7:0.78189752 8:0.34597064 9:0.26428182 10:0.39883203 11:0.30175726 12:0.20860495 13:0.54105171 14:0.46519185 15:0.43050932 16:0.52596098 17:0.3434167 18:0.41754768 
100 100 0 1:0.47322701 2:0.50603217 3:0.6715631 4:0.72923135 5:0.61168959 6:0.66262615 7:0.82487871 8:0.49310974 9:0.7307635 10:0.33397665 11:0.48314979 12:0.56910936 13:0.64334241 14:0.62221322 15:0.313088 16:0.4405054 17:0.66008814 18:0.49522497 
100 0 0 1:0.45982439 2:0.68977061 3:0.81482765 4:0.64679256 5:0.7410127 6:0.52018939 7:0.74610468 8:0.50321328 9:0.36234547 10:0.25745862 11:0.56922223 12:0.46925037 13:0.34758574 14:0.29926724 15:0.59836426 16:0.52640784 17:0.48681835 18:0.59486705 
0 100 0 1:0.54218558 2:0.26010807 3:0.74931524 4:0.5513627 5:0.5246224 6:0.60697922 7:0.70290744 8:0.39777746 9:0.6917919 10:0.55612718 11:0.43834128 12:0.47387804 13:0.46610826 14:0.41167206 15:0.43872458 16:0.52545559 17:0.48400274 18:0.58205243 
0 100 100 1:0.81259663 2:0.25361329 3:0.68362265 4:0.5553299 5:0.66280888 6:0.53037098 7:0.62145844 8:0.42296848 9:0.39111903 10:0.15991871 11:0.34514761 12:0.43246268 13:0.31894012 14:0.48060846 15:0.38272396 16:0.4832179 17:0.47090085 18:0.41007306 
0 100 0 1:0.39429311 2:0.2332402 3:0.75998806 4:0.5500004 5:0.577609 6:0.58066761 7:0.63965525 8:0.5174366 9:0.73364979 10:0.51891373 11:0.44509741 12:0.38764829 13:0.48815967 14:0.55465909 15:0.58416251 16:0.43403154 17:0.46930799 18:0.45570901 
0 100 100 1:0.72977452 2:0.29056526 3:0.7460337 4:0.56551509 5:0.57912089 6:0.58725939 7:0.5905486 8:0.32047313 9:0.38922051 10:0.30892247 11:0.40218167 12:0.54152156 13:0.40347918 14:0.44617637 15:0.37910303 16:0.30811867 17:0.33861483 18:0.39530879 
0 100 100 1:0.54757716 2:0.25161475 3:0.76275544 4:0.43726532 5:0.55459539 6:0.50553969 7:0.60321011 8:0.45108589 9:0.51608076 10:0.47650674 11:0.5212444 12:0.34129521 13:0.24079489 14:0.50571055 15:0.35662232 16:0.45944737 17:0.3766441 18:0.49205706 
0 100 0 1:0.46747964 2:0.33871023 3:0.70404587 4:0.59921621 5:0.47117758 6:0.58785925 7:0.60532716 8:0.47954164 9:0.47432484 10:0.33983894 11:0.27395027 12:0.31009316 13:0.34703553 14:0.4845048 15:0.3445321 16:0.25134206 17:0.42095841 18:0.5355148 
0 100 100 1:0.59183162 2:0.32843786 3:0.77005983 4:0.55736267 5:0.59872562 6:0.51492595 7:0.61773173 8:0.47761959 9:0.49542014 10:0.33118453 11:0.4336803 12:0.43879705 13:0.33596216 14:0.47868393 15:0.36497534 16:0.46559204 17:0.47526847 18:0.46073492 
100 0 0 1:0.54623242 2:0.59260604 3:0.58715434 4:0.67304771 5:0.70365971 6:0.67180541 7:0.79495361 8:0.5842828 9:0.64454758 10:0.23250894 11:0.45901327 12:0.39377186 13:0.52317271 14:0.47400483 15:0.46600016 16:0.43513684 17:0.30105041 18:0.53678291 
100 0 0 1:0.44062317 2:0.50753353 3:0.75283947 4:0.73743204 5:0.86280813 6:0.57838277 7:0.71220427 8:0.63603643 9:0.75140339 10:0.45781703 11:0.42174927 12:0.38379201 13:0.5429314 14:0.32782405 15:0.34439147 16:0.51426682 17:0.32196669 18:0.28787592 
100 0 100 1:0.62996197 2:0.57354618 3:0.60586646 4:0.60046706 5:0.72561158 6:0.59358515 7:0.78829063 8:0.54260526 9:0.67447483 10:0.19075823 11:0.42914188 12:0.55010173 13:0.55230875 14:0.48335323 15:0.40468358 16:0.5930257 17:0.35075789 18:0.57442933 
100 0 0 1:0.45489134 2:0.57300038 3:0.70216696 4:0.72951105 5:0.90076537 6:0.48548163 7:0.79677562 8:0.47906484 9:0.83069776 10:0.52733828 11:0.32275337 12:0.39566148 13:0.45715259 14:0.29029007 15:0.30493379 16:0.59345192 17:0.2829385 18:0.35025812 
0 0 100 1:0.58474632 2:0.50813269 3:0.49140053 4:0.60718565 5:0.64675719 6:0.52697947 7:0.54744541 8:0.50056396 9:0.52009763 10:0.060410331 11:0.79401538 12:0.32314598 13:0.22469399 14:0.34788349 15:0.26081845 16:0.55059927 17:0.51276547 18:0.47134536 
100 0 16.269305747249042 1:0.46515359 2:0.6583049 3:0.62210918 4:0.68180955 5:0.71598563 6:0.62129989 7:0.64926526 8:0.42201001 9:0.44513572 10:0.37535332 11:0.45469513 12:0.52378192 13:0.45148012 14:0.64011966 15:0.45013537 16:0.69936011 17:0.47592547 18:0.41837896 
100 0 62.887596528741284 1:0.63632112 2:0.60387174 3:0.66233486 4:0.65290089 5:0.73525905 6:0.5499487 7:0.74414381 8:0.51665283 9:0.69255495 10:0.31129547 11:0.56880019 12:0.5848433 13:0.53949942 14:0.47812833 15:0.42462793 16:0.7327824 17:0.30025157 18:0.49609974 
100 0 0 1:0.44787266 2:0.62529404 3:0.74983132 4:0.73178738 5:0.84697175 6:0.45995002 7:0.73100181 8:0.42243738 9:0.74043021 10:0.51586262 11:0.37371567 12:0.30431965 13:0.78450163 14:0.42258845 15:0.35897147 16:0.59121896 17:0.4871113 18:0.49446791 
0 0 100 1:0.60301002 2:0.53272388 3:0.27869894 4:0.26699379 5:0.4065357 6:0.32963309 7:0.49322472 8:0.34989355 9:0.55535944 10:0.3883554 11:0.67535082 12:0.33820395 13:0.21319244 14:0.33334325 15:0.17410797 16:0.61655211 17:0.017588245 18:0.55855654 
0 100 100 1:0.50778898 2:0.55289296 3:0.43929736 4:0.57888703 5:0.54677482 6:0.52971509 7:0.53669977 8:0.61644154 9:0.64197123 10:0.40900097 11:0.59912006 12:0.21108805 13:0.21816312 14:0.63183005 15:0.46031368 16:0.58672487 17:0.37406161 18:0.41747315 
0 0 100 1:0.55276125 2:0.54383196 3:0.50920575 4:0.70894681 5:0.67440989 6:0.54217311 7:0.50158782 8:0.32045104 9:0.61007559 10:0.3860053 11:0.70137352 12:0.43450933 13:0.36091441 14:0.38972595 15:0.35747953 16:0.7301747 17:0.35928785 18:0.36774245 
100 100 100 1:0.68040376 2:0.45007622 3:0.71386276 4:0.69876501 5:0.62787458 6:0.58360423 7:0.62248365 8:0.41603552 9:0.55796903 10:0.30386629 11:0.54940007 12:0.33487384 13:0.3717827 14:0.33959622 15:0.42825582 16:0.41826767 17:0.35457403 18:0.49653497 
100 0 100 1:0.72654508 2:0.59722662 3:0.68317374 4:0.59789084 5:0.75524984 6:0.46633663 7:0.74081833 8:0.56136799 9:0.69058267 10:0.26582194 11:0.59042262 12:0.47724387 13:0.45420392 14:0.39619972 15:0.38504303 16:0.52988286 17:0.32995606 18:0.5300453 
0 100 0 1:0.35873897 2:0.50200337 3:0.89539571 4:0.6870636 5:0.82306956 6:0.44131417 7:0.73403585 8:0.5581664 9:0.90007506 10:0.39206042 11:0.12330696 12:0.36952363 13:0.46085021 14:0.54089197 15:0.47112183 16:0.56267314 17:0.28302046 18:0.29810478 
0 100 100 1:0.55126427 2:0.32677282 3:0.33972542 4:0.47768322 5:0.50583381 6:0.28951271 7:0.48883669 8:0.31112936 9:0.47567152 10:0.44458362 11:0.50891212 12:0.33665002 13:0.52076157 14:0.61206923 15:0.58784959 16:0.6654476 17:0.45115027 18:0.5970915 
0 100 0 1:0.38061789 2:0.34291779 3:0.57456169 4:0.47902717 5:0.69315367 6:0.51712108 7:0.7347503 8:0.39373214 9:0.45991045 10:0.39190364 11:0.55709145 12:0.57456579 13:0.73555877 14:0.50228845 15:0.42304723 16:0.50803708 17:0.56207576 18:0.44873804 
0 100 0 1:0.52800784 2:0.20844248 3:0.58979589 4:0.50541334 5:0.73847055 6:0.40173433 7:0.67603382 8:0.46807063 9:0.71100913 10:0.39745013 11:0.52144645 12:0.46007745 13:0.60147117 14:0.47207523 15:0.41847877 16:0.45864006 17:0.47309894 18:0.46900531 
0 100 0 1:0.40830119 2:0.19278361 3:0.54819622 4:0.43418234 5:0.59103261 6:0.33855859 7:0.62653018 8:0.44304767 9:0.55141314 10:0.38026739 11:0.523017 12:0.4324414 13:0.55022288 14:0.46249886 15:0.41533094 16:0.59611056 17:0.61992375 18:0.60007302 
0 100 100 1:0.60925572 2:0.24165787 3:0.43428614 4:0.60423802 5:0.801005 6:0.52209821 7:0.61386423 8:0.4804634 9:0.68086985 10:0.34322095 11:0.62303118 12:0.41197897 13:0.65760122 14:0.37976934 15:0.29164686 16:0.37769763 17:0.44108087 18:0.50099639 
0 0 100 1:0.65224455 2:0.30599906 3:0.47561332 4:0.57555332 5:0.66720014 6:0.39738994 7:0.64002497 8:0.44300907 9:0.47386401 10:0.26940724 11:0.61538866 12:0.43124667 13:0.475389 14:0.28170271 15:0.24857634 16:0.44024662 17:0.47631431 18:0.50962665 
0 100 100 1:0.64460841 2:0.22003612 3:0.36560234 4:0.59929757 5:0.72262822 6:0.51919927 7:0.64804293 8:0.4713036 9:0.60909191 10:0.3957587 11:0.50580307 12:0.30333996 13:0.57969976 14:0.47330531 15:0.4384726 16:0.56679408 17:0.44167452 18:0.50583959 
0 100 100 1:0.68756766 2:0.2553042 3:0.42893961 4:0.59823377 5:0.78984057 6:0.39988724 7:0.58075741 8:0.54359302 9:0.72927261 10:0.34212086 11:0.54804544 12:0.39984793 13:0.62659106 14:0.37629928 15:0.35266281 16:0.55430024 17:0.46155567 18:0.53160464 
0 100 100 1:0.66370482 2:0.21604099 3:0.39243404 4:0.69523437 5:0.81616127 6:0.45145851 7:0.58135285 8:0.53178568 9:0.59391742 10:0.35075543 11:0.49297505 12:0.42725284 13:0.6404579 14:0.4224758 15:0.42129847 16:0.58307152 17:0.50889923 18:0.42696928 
0 100 100 1:0.66151551 2:0.24045305 3:0.437647 4:0.64739809 5:0.77161433 6:0.38220018 7:0.58669119 8:0.53492697 9:0.68735225 10:0.3494033 11:0.53730138 12:0.4076415 13:0.6907443 14:0.47248803 15:0.34968269 16:0.37445979 17:0.43697374 18:0.43307336 
0 100 100 1:0.61449829 2:0.30104377 3:0.44399796 4:0.57011724 5:0.84931365 6:0.46026376 7:0.61296544 8:0.48570087 9:0.71106132 10:0.39816387 11:0.5492634 12:0.34413305 13:0.54333637 14:0.38838079 15:0.45921623 16:0.66028213 17:0.55191059 18:0.51057028 
0 100 100 1:0.62089094 2:0.28676433 3:0.3522911 4:0.4995719 5:0.86779566 6:0.50803192 7:0.6007467 8:0.45714917 9:0.72595789 10:0.48658649 11:0.5265636 12:0.33048138 13:0.58927003 14:0.40092919 15:0.48907147 16:0.60525192 17:0.52655306 18:0.51194558 
0 100 13.973128337393133 1:0.67546296 2:0.19980065 3:0.45318819 4:0.74465199 5:0.44696397 6:0.36345863 7:0.76215671 8:0.34643033 9:0.70508416 10:0.57641027 11:0.29457939 12:0.37813937 13:0.59268504 14:0.27876196 15:0.65026155 16:0.70803381 17:0.48564002 18:0.5316158 
0 100 100 1:0.71754419 2:0.18707721 3:0.39804488 4:0.74880295 5:0.64868323 6:0.29034532 7:0.68358749 8:0.49716925 9:0.51387719 10:0.36481386 11:0.62811217 12:0.2504981 13:0.73080863 14:0.51282454 15:0.48348795 16:0.58163367 17:0.49818988 18:0.66262664 
0 100 100 1:0.70098463 2:0.15897608 3:0.29013296 4:0.75748836 5:0.79709132 6:0.098621024 7:0.59614133 8:0.64827999 9:0.43805741 10:0.36616128 11:0.64266075 12:0.37804266 13:0.47934067 14:0.59301854 15:0.26420787 16:0.63539452 17:0.37230803 18:0.47345166 
0 100 0 1:0.51950024 2:0.28147272 3:0.52565838 4:0.60136232 5:0.84696364 6:0.43786217 7:0.58761244 8:0.51782012 9:0.83021085 10:0.43461818 11:0.56008004 12:0.44372539 13:0.61356303 14:0.41220691 15:0.50633118 16:0.66052646 17:0.55774474 18:0.58565828 
0 100 100 1:0.62808658 2:0.22268435 3:0.27565574 4:0.52290375 5:0.90889178 6:0.43733957 7:0.51376411 8:0.47554348 9:0.71149855 10:0.33270835 11:0.4602648 12:0.49533324 13:0.49149662 14:0.43635122 15:0.37455774 16:0.33383174 17:0.62987496 18:0.57862033 
0 100 100 1:0.70400829 2:0.21229204 3:0.29587768 4:0.60313442 5:0.77901175 6:0.52660056 7:0.57466551 8:0.40388361 9:0.70296115 10:0.3757847 11:0.37286071 12:0.37887356 13:0.45998824 14:0.57553393 15:0.49928441 16:0.38861286 17:0.55788568 18:0.4610333 
0 100 100 1:0.64632837 2:0.18225228 3:0.26010781 4:0.55771471 5:0.84598105 6:0.52623076 7:0.60502355 8:0.39957693 9:0.64186284 10:0.42651335 11:0.51370694 12:0.34399262 13:0.42104181 14:0.40518212 15:0.46465459 16:0.45631043 17:0.40751056 18:0.39571586 
0 100 100 1:0.73328553 2:0.27242578 3:0.26447372 4:0.57204736 5:0.85732938 6:0.48835652 7:0.52388221 8:0.46926493 9:0.78891962 10:0.46912421 11:0.46004065 12:0.34379118 13:0.55748583 14:0.45112817 15:0.45827152 16:0.42753829 17:0.45586737 18:0.58981702 
0 100 100 1:0.68942583 2:0.24556703 3:0.40920889 4:0.6772591 5:0.6006439 6:0.31781532 7:0.68269216 8:0.41508886 9:0.45050049 10:0.33672375 11:0.51076122 12:0.13780887 13:0.52782474 14:0.32494534 15:0.45343854 16:0.79713764 17:0.3738178 18:0.63877362 
0 0 100 1:0.7119095 2:0.13702214 3:0.32252669 4:0.79954647 5:0.70574524 6:0.2523244 7:0.57482356 8:0.48827369 9:0.58628959 10:0.28255036 11:0.59219592 12:0.31509013 13:0.54419059 14:0.23237655 15:0.26219494 16:0.58013385 17:0.31728049 18:0.43421284 
0 100 100 1:0.69849302 2:0.25343393 3:0.45629623 4:0.73878094 5:0.74863384 6:0.26233492 7:0.68766618 8:0.54860378 9:0.72347046 10:0.33896832 11:0.66578122 12:0.40129447 13:0.47851119 14:0.32733329 15:0.39131371 16:0.38348026 17:0.28143244 18:0.5019695 
0 0 100 1:0.7705407 2:0.23608523 3:0.38345324 4:0.79990881 5:0.76183515 6:0.25360425 7:0.61207718 8:0.58108519 9:0.49905726 10:0.2272005 11:0.52125527 12:0.32345322 13:0.33196139 14:0.3458471 15:0.22426186 16:0.38066235 17:0.41388304 18:0.64187323 
0 0 100 1:0.7332594 2:0.24241801 3:0.35820166 4:0.76099047 5:0.8440621 6:0.20957972 7:0.49812804 8:0.74349077 9:0.69640454 10:0.16287665 11:0.38874942 12:0.48272026 13:0.50643604 14:0.32441081 15:0.35851445 16:0.60953365 17:0.50367382 18:0.35095604 
0 100 100 1:0.64270142 2:0.3164178 3:0.49245126 4:0.61567051 5:0.80477892 6:0.42624021 7:0.58721248 8:0.44450213 9:0.85080263 10:0.43815892 11:0.4990888 12:0.30915578 13:0.55816218 14:0.43015641 15:0.36830026 16:0.42165764 17:0.47809021 18:0.63110068 
0 100 100 1:0.65363392 2:0.25399923 3:0.39762388 4:0.52869366 5:0.74105988 6:0.51100332 7:0.55304065 8:0.48654123 9:0.75183586 10:0.37367783 11:0.44007673 12:0.29015691 13:0.42249261 14:0.48073162 15:0.35434378 16:0.31174778 17:0.38784548 18:0.41137731 
100 0 0 1:0.60976482 2:0.57786762 3:0.61495978 4:0.69650689 5:0.80524822 6:0.51971397 7:0.72099439 8:0.57085246 9:0.77257995 10:0.28594874 11:0.41796628 12:0.5712514 13:0.63687859 14:0.45159738 15:0.5042792 16:0.58156264 17:0.26622689 18:0.48534661 
100 100 0 1:0.4646333 2:0.48877308 3:0.85850179 4:0.66739111 5:0.79995573 6:0.49988204 7:0.6521384 8:0.57267552 9:0.56269223 10:0.49572763 11:0.38605603 12:0.36561224 13:0.5116335 14:0.31341557 15:0.41691462 16:0.62039679 17:0.56921915 18:0.4745185 
100 0 100 1:0.62521522 2:0.56297521 3:0.62090071 4:0.62610671 5:0.68310182 6:0.47305379 7:0.6524685 8:0.44538475 9:0.56392051 10:0.34218727 11:0.52902685 12:0.23986539 13:0.49604947 14:0.49530114 15:0.32372363 16:0.27308009 17:0.40857431 18:0.60077078 
