svm_type c_svc
kernel_type linear
nr_class 3
total_sv 641
rho -5.4241252652294349 2.0653405582233848 11.466798073604798
label 38 36 42
nr_sv 202 191 248
SV
1.0792062582599371 0 1:0.52493755 2:0.40874746 3:0.70639726 4:0.52081404 5:0.48208169 6:0.65407372 7:0.30835068 8:0.63818245 9:0.34216805 10:0.73699537 11:0.36209703 12:0.40300015 13:0.4638469 14:0.56803429 15:0.44130695 16:0.46148365 17:0.50942695 18:0.4932692 
4 4 1:0.59865309 2:0.35346024 3:0.70215152 4:0.54678037 5:0.34164123 6:0.69671881 7:0.31593655 8:0.65116047 9:0.44303323 10:0.72541913 11:0.38226925 12:0.35625607 13:0.52769253 14:0.49905286 15:0.39130023 16:0.41802792 17:0.40452226 18:0.39252394 
0 4 1:0.53179209 2:0.34587617 3:0.55680003 4:0.45689345 5:0.37667123 6:0.70853802 7:0.33988771 8:0.60525276 9:0.39566068 10:0.70752846 11:0.3577262 12:0.44658444 13:0.40949682 14:0.65841207 15:0.37433172 16:0.52030906 17:0.47322259 18:0.52246449 
0 4 1:0.59170589 2:0.37495218 3:0.56588095 4:0.53914361 5:0.52973114 6:0.73938638 7:0.28102521 8:0.72549236 9:0.43979872 10:0.6754762 11:0.47144082 12:0.63082268 13:0.52658781 14:0.49121704 15:0.52173343 16:0.41913995 17:0.50590785 18:0.56128651 
0 4 1:0.49209865 2:0.41543847 3:0.46451685 4:0.56253659 5:0.51371235 6:0.71017869 7:0.35342939 8:0.65156333 9:0.39571343 10:0.64564519 11:0.32971834 12:0.30197284 13:0.42283345 14:0.37945525 15:0.31118949 16:0.34303593 17:0.45638881 18:0.70062383 
0 4 1:0.71385131 2:0.28798129 3:0.43213961 4:0.66651438 5:0.49172118 6:0.70514238 7:0.24269358 8:0.67896092 9:0.44750891 10:0.87975431 11:0.33358616 12:0.47056024 13:0.39056949 14:0.46831998 15:0.4106858 16:0.56160177 17:0.39122404 18:0.50272844 
0 4 1:0.65139803 2:0.28133842 3:0.49731837 4:0.63444166 5:0.51105092 6:0.66932631 7:0.33706312 8:0.7499768 9:0.43430068 10:0.76605265 11:0.30078383 12:0.56693981 13:0.22332436 14:0.42857202 15:0.42488217 16:0.59356702 17:0.39664497 18:0.76089307 
0 4 1:0.66910259 2:0.4397798 3:0.59119468 4:0.42895148 5:0.31358859 6:0.7473224 7:0.35694409 8:0.58404403 9:0.32919446 10:0.6824482 11:0.27418183 12:0.38118365 13:0.22168419 14:0.53368033 15:0.25483311 16:0.46106932 17:0.30314221 18:0.42721989 
4 4 1:0.46065585 2:0.87189054 3:0.37679402 4:0.49345375 5:0.71754541 6:0.32366865 7:0.74691767 8:0.27888757 9:0.47355173 10:0.8229965 11:0.36092149 12:0.57416671 13:0.64358237 14:0.23755573 15:0.56573309 16:0.2865018 17:0.547093 18:0.71214221 
4 0 1:0.24826279 2:0.86829786 3:0.41821864 4:0.60430411 5:0.81501608 6:0.30607653 7:0.86659341 8:0.25876829 9:0.44571621 10:0.74952196 11:0.19484894 12:0.52918015 13:0.5772886 14:0.51820228 15:0.75986612 16:0.42830222 17:0.40225065 18:0.58835135 
0 4 1:0.38606169 2:0.7560595 3:0.21832248 4:0.62487245 5:0.41703494 6:0.28529471 7:0.90499738 8:0.062472416 9:0.43496516 10:0.85779182 11:0.056170196 12:0.57267072 13:0.60491931 14:0.503386 15:0.76969924 16:0.28399907 17:0.37704177 18:0.76093748 
4 4 1:0.39823873 2:0.80729941 3:0.33275376 4:0.60899979 5:0.58747225 6:0.26540612 7:0.76677558 8:0.21862288 9:0.44638858 10:0.63193151 11:0.099075192 12:0.51244515 13:0.83738512 14:0.49907072 15:0.6672586 16:0.46876636 17:0.55079398 18:0.63408332 
0 4 1:0.45374789 2:0.81257064 3:0.1925672 4:0.65539834 5:0.55043768 6:0.20541214 7:0.83914876 8:0.17048281 9:0.40277032 10:0.80949875 11:0.15479786 12:0.45203642 13:0.63317788 14:0.41063632 15:0.70269413 16:0.39849321 17:0.45066141 18:0.79216038 
0 4 1:0.47334155 2:0.84911528 3:0.24250827 4:0.65696627 5:0.41523632 6:0.20080978 7:0.85403993 8:0.11702256 9:0.45582408 10:0.89600079 11:0.20800519 12:0.6231742 13:0.73340732 14:0.51129567 15:0.90946033 16:0.58821204 17:0.41180856 18:0.52160202 
4 4 1:0.52306476 2:0.94678995 3:0.24195569 4:0.59036144 5:0.6641299 6:0.28758826 7:0.78325193 8:0.16507241 9:0.46511917 10:0.82072074 11:0.31067485 12:0.62655319 13:0.72927422 14:0.36581289 15:0.72671962 16:0.47410427 17:0.65731089 18:0.63922308 
4 0 1:0.35209113 2:0.86190423 3:0.21128597 4:0.66263039 5:0.59142465 6:0.11264936 7:0.93722894 8:0.1529775 9:0.51310198 10:0.99682 11:0.1226044 12:0.61765811 13:0.69375703 14:0.42000102 15:0.69215121 16:0.35298757 17:0.36475281 18:0.72881697 
4 4 1:0.36117063 2:0.86169237 3:0.41144029 4:0.53015807 5:0.55300288 6:0.23363406 7:0.7657686 8:0.32609714 9:0.48094341 10:0.66338453 11:0.083363107 12:0.46885913 13:0.68162611 14:0.47239766 15:0.75737533 16:0.55045106 17:0.47902218 18:0.67456302 
0 4 1:0.48846856 2:0.75023893 3:0.098575726 4:0.68343082 5:0.42914887 6:0.22032605 7:0.88515695 8:0.093404313 9:0.51893295 10:0.89519633 11:0.01159242 12:0.49893713 13:0.63302271 14:0.35396286 15:0.71990676 16:0.37305466 17:0.4036841 18:0.56306854 
0 4 1:0.50352563 2:0.85278016 3:0.2307909 4:0.64811664 5:0.35218682 6:0.14120231 7:0.78352061 8:0.083109997 9:0.39887776 10:0.82772407 11:0.14780474 12:0.46096715 13:0.69225551 14:0.45179909 15:0.90740396 16:0.54772196 17:0.47192916 18:0.65107482 
0 4 1:0.53161171 2:0.78305235 3:0.17464966 4:0.74699532 5:0.45502571 6:0.16842567 7:0.81434589 8:0.024677617 9:0.36673409 10:0.77696199 11:0.06883293 12:0.56236579 13:0.80102341 14:0.34281848 15:0.78975233 16:0.37657599 17:0.5639523 18:0.7106114 
4 4 1:0.47251059 2:0.9109482 3:0.35237485 4:0.53080284 5:0.53546423 6:0.31510646 7:0.70729956 8:0.20673251 9:0.45096974 10:0.74763356 11:0.33506606 12:0.69172034 13:0.86800454 14:0.33994698 15:0.7233139 16:0.5531792 17:0.46756371 18:0.708427 
0 4 1:0.47952372 2:0.77463134 3:0.24573574 4:0.61918914 5:0.59705073 6:0.33259149 7:0.7571946 8:0.086545741 9:0.41321873 10:0.78666532 11:0.35026015 12:0.67563603 13:0.62571009 14:0.44907439 15:0.69621887 16:0.39295571 17:0.54056483 18:0.7014989 
4 4 1:0.58046871 2:0.93807363 3:0.30897761 4:0.46095117 5:0.60795658 6:0.20605643 7:0.62666357 8:0.31146679 9:0.45728611 10:0.60586944 11:0.1282234 12:0.42085089 13:0.76336282 14:0.50832505 15:0.76639432 16:0.34673567 17:0.53434148 18:0.63591618 
0 4 1:0.53586091 2:0.81666098 3:0.080105227 4:0.61219579 5:0.39915696 6:0.17978936 7:0.84096978 8:0.076294508 9:0.37305361 10:0.82884662 11:0.17791714 12:0.61186971 13:0.83033747 14:0.46833822 15:0.76386471 16:0.43675681 17:0.51893276 18:0.74739571 
4 0 1:0.31153891 2:0.80144623 3:0.28941304 4:0.62085464 5:0.77826165 6:0.30667036 7:0.87461971 8:0.33355361 9:0.53585459 10:0.69644877 11:0.2086961 12:0.69735999 13:0.5676303 14:0.28805364 15:0.61854527 16:0.13510216 17:0.55542218 18:0.93289742 
0 4 1:0.52165985 2:0.75719416 3:0.081643353 4:0.65122537 5:0.50781252 6:0.29191279 7:0.79812394 8:0.0041853108 9:0.37072112 10:0.78467194 11:0.15609323 12:0.47761938 13:0.562415 14:0.41964989 15:0.84826937 16:0.48639708 17:0.62877904 18:0.76187631 
0 2.4566720184850745 1:0.42652979 2:0.83186668 3:0.16496169 4:0.64229769 5:0.4708256 6:0.13850643 7:0.80761493 8:0.06774758 9:0.46962303 10:0.81483571 11:0.12370735 12:0.6789977 13:0.79710305 14:0.47359741 15:0.93600593 16:0.49829525 17:0.51917559 18:0.7866748 
4 4 1:0.59286897 2:0.92600906 3:0.41016548 4:0.57266401 5:0.59546857 6:0.25929484 7:0.73727787 8:0.24147039 9:0.42889237 10:0.71451892 11:0.25988052 12:0.51985507 13:0.68342859 14:0.26814223 15:0.60313103 16:0.34686851 17:0.46269624 18:0.557248 
4 4 1:0.49818745 2:0.8893799 3:0.2014717 4:0.73893254 5:0.54432961 6:0.1358523 7:0.80806652 8:0.17721 9:0.37662224 10:0.70872131 11:0.18144582 12:0.50472078 13:0.71741298 14:0.48520595 15:0.78906545 16:0.47797915 17:0.49900035 18:0.47203391 
4 4 1:0.51765587 2:0.73079832 3:0.22031967 4:0.71227633 5:0.40858378 6:0.24202874 7:0.85208628 8:0.10222631 9:0.41669944 10:0.85464883 11:0.1830421 12:0.49483065 13:0.69453632 14:0.32103826 15:0.65726434 16:0.20879134 17:0.24868579 18:0.36050489 
0 4 1:0.50094285 2:0.65980186 3:0.33438259 4:0.67427239 5:0.38081227 6:0.25408775 7:0.75201235 8:0.05494107 9:0.42392683 10:0.74381607 11:0.1485645 12:0.63389781 13:0.68837093 14:0.33527359 15:0.76103668 16:0.5684756 17:0.47435867 18:0.55303418 
0 4 1:0.54770313 2:0.65339873 3:0.26845208 4:0.65096019 5:0.51708871 6:0.34207132 7:0.82531918 8:0.20678294 9:0.42142902 10:0.82988758 11:0.33572812 12:0.52013101 13:0.59058003 14:0.21364092 15:0.47927415 16:0.19396284 17:0.42267272 18:0.54930533 
0 4 1:0.55086894 2:0.76732975 3:0.10329578 4:0.67293759 5:0.35564394 6:0.14734831 7:0.78948104 8:0.047284691 9:0.43251935 10:0.88687922 11:0.17317529 12:0.62238847 13:0.74804802 14:0.43054479 15:0.93054935 16:0.52978204 17:0.5017714 18:0.73161659 
0 4 1:0.38751193 2:0.72716038 3:0.37167473 4:0.5820254 5:0.81472061 6:0.60877163 7:0.72477651 8:0.47424613 9:0.68018547 10:0.38674803 11:0.63647396 12:0.56868674 13:0.49295839 14:0.71280993 15:0.3924328 16:0.59887244 17:0.83466484 18:0.51191948 
0 4 1:0.23537404 2:0.74404181 3:0.27428158 4:0.64224794 5:0.69038906 6:0.71527527 7:0.74055695 8:0.33001784 9:0.75585495 10:0.39618311 11:0.75635395 12:0.41260212 13:0.13065387 14:0.82234341 15:0.40205613 16:0.53721219 17:0.82733008 18:0.4756975 
0 4 1:0.2774696 2:0.76140359 3:0.43527102 4:0.66241028 5:0.65293249 6:0.64463111 7:0.6927961 8:0.3273214 9:0.61995283 10:0.19711685 11:0.66965829 12:0.6290981 13:0.56438574 14:0.82723122 15:0.24898856 16:0.37186584 17:0.67996518 18:0.49011888 
3.688036232427248 4 1:0.36535344 2:0.70105957 3:0.40358427 4:0.72291783 5:0.79208196 6:0.62331246 7:0.76158292 8:0.47543741 9:0.68349289 10:0.27509929 11:0.7303069 12:0.76367067 13:0.47904026 14:0.75316496 15:0.43698176 16:0.54671599 17:0.65015505 18:0.22975615 
0 4 1:0.37742037 2:0.73003988 3:0.29118228 4:0.65437463 5:0.62629148 6:0.57504751 7:0.67086842 8:0.32451297 9:0.63629215 10:0.15040636 11:0.65249548 12:0.6950735 13:0.65599418 14:0.92338321 15:0.26112965 16:0.53711038 17:0.79647262 18:0.32736668 
0 4 1:0.48776511 2:0.69703056 3:0.21686736 4:0.69320052 5:0.60505642 6:0.57595226 7:0.65386136 8:0.39322103 9:0.82058163 10:0.20468895 11:0.74943977 12:0.8330461 13:0.5438688 14:0.7454468 15:0.23651186 16:0.72830973 17:0.71621603 18:0.23439332 
0 4 1:0.44821902 2:0.63001784 3:0.41149248 4:0.55720374 5:0.74687732 6:0.60951515 7:0.65868087 8:0.56229211 9:0.76403934 10:0.070802289 11:0.59034617 12:0.93405022 13:0.56457011 14:0.66648206 15:0.26591237 16:0.44193877 17:0.81442194 18:0.42178719 
4 4 1:0.41487372 2:0.75068678 3:0.36968708 4:0.61880947 5:0.84114704 6:0.59427783 7:0.66373977 8:0.44973575 9:0.66663278 10:0.26897437 11:0.59869981 12:0.63595865 13:0.4807769 14:0.56598161 15:0.27284386 16:0.66261776 17:0.71224388 18:0.4029065 
4 4 1:0.49540312 2:0.71472077 3:0.37496256 4:0.61848395 5:0.56166627 6:0.77201035 7:0.59228456 8:0.3733848 9:0.94465189 10:0.29240066 11:0.7717332 12:0.52669752 13:0.30676316 14:0.8445249 15:0.16614781 16:0.55580425 17:0.60297541 18:0.055344138 
0 4 1:0.27455449 2:0.72339367 3:0.31193334 4:0.6099778 5:0.59520201 6:0.61500135 7:0.66975076 8:0.50114792 9:0.76954216 10:0.27095616 11:0.78089923 12:0.58651054 13:0.29600028 14:0.68299531 15:0.18008862 16:0.29960608 17:0.55701392 18:0.22493882 
0 4 1:0.43501285 2:0.73655985 3:0.23452765 4:0.66885647 5:0.69355383 6:0.58526111 7:0.59569572 8:0.46718757 9:0.9395865 10:0.12269208 11:0.54597537 12:0.74427707 13:0.46684544 14:0.81658282 15:0.29998819 16:0.63985287 17:0.80947741 18:0.27863418 
4 4 1:0.42158357 2:0.82462138 3:0.33728833 4:0.5234654 5:0.73303672 6:0.67751294 7:0.57076824 8:0.24185644 9:0.88383359 10:0.47700585 11:0.53924641 12:0.57941237 13:0.49142725 14:0.80326695 15:0.4293345 16:0.63645 17:0.7316578 18:0.14167257 
0 4 1:0.41161697 2:0.76027933 3:0.24836752 4:0.632987 5:0.43903336 6:0.59796387 7:0.72346202 8:0.30998215 9:0.67877965 10:0.06264418 11:0.6767941 12:0.62923768 13:0.17399347 14:0.73574181 15:0.24523937 16:0.50478329 17:0.71980167 18:0.32244459 
0 4 1:0.34054706 2:0.62206082 3:0.35272671 4:0.59471719 5:0.69854701 6:0.72866973 7:0.71292283 8:0.45248576 9:0.92868942 10:0.32302542 11:0.52485314 12:0.49326698 13:0.29652648 14:0.81848702 15:0.42426373 16:0.63615028 17:0.81433326 18:0.3019362 
4 4 1:0.42319346 2:0.69520549 3:0.28974364 4:0.55512815 5:0.6964385 6:0.67447346 7:0.73678333 8:0.46392242 9:0.80211145 10:0.15985978 11:0.52060487 12:0.71361776 13:0.36940685 14:0.80697388 15:0.4619457 16:0.40264955 17:0.61601071 18:0.262004 
0 4 1:0.37569693 2:0.75843908 3:0.1876095 4:0.82523287 5:0.37388911 6:0.50982384 7:0.67938637 8:0.16020601 9:0.75524151 10:0.24542962 11:0.59754063 12:0.39758066 13:0.23487517 14:0.79733973 15:0.22452485 16:0.72872693 17:0.74157923 18:0.2659295 
0 4 1:0.45472283 2:0.66801989 3:0.18049056 4:0.86952098 5:0.62960003 6:0.44757141 7:0.69419352 8:0.33321578 9:0.74761994 10:0.31591832 11:0.56137934 12:0.48542851 13:0.39303793 14:0.68021122 15:0.10471543 16:0.55661011 17:0.69463961 18:0.20705882 
0 4 1:0.37597329 2:0.75716942 3:0.256475 4:0.71537746 5:0.64206132 6:0.57352812 7:0.7294596 8:0.37295912 9:0.65411875 10:0.20105703 11:0.71530788 12:0.60594656 13:0.54918981 14:0.96628839 15:0.24130939 16:0.33404294 17:0.65991701 18:0.36600644 
0 0.16474376284310299 1:0.37832914 2:0.72217563 3:0.3080816 4:0.75010739 5:0.59407941 6:0.5965748 7:0.70484004 8:0.25488806 9:0.63690046 10:0.25739256 11:0.81637777 12:0.65582596 13:0.38838271 14:0.81762293 15:0.17606447 16:0.45210795 17:0.75506207 18:0.37644133 
0 4 1:0.35363492 2:0.68118641 3:0.30687027 4:0.63453574 5:0.59933161 6:0.54785807 7:0.69806768 8:0.45973193 9:0.72929047 10:0.24112693 11:0.74598563 12:0.75002905 13:0.63317668 14:0.80300918 15:0.20507413 16:0.56049372 17:0.7450796 18:0.39838504 
0 4 1:0.34572858 2:0.75929733 3:0.17670333 4:0.86440579 5:0.41766376 6:0.57104637 7:0.6619876 8:0.27864566 9:0.88582725 10:0.22169969 11:0.70316782 12:0.45807865 13:0.20074389 14:0.86645459 15:0.28337252 16:0.6460924 17:0.79180777 18:0.38290507 
0 4 1:0.4254786 2:0.87739545 3:0.22878114 4:0.6753285 5:0.55508069 6:0.58662071 7:0.57871056 8:0.30525102 9:0.90828258 10:0.16889306 11:0.53096749 12:0.64136656 13:0.50325876 14:0.76520967 15:0.063989324 16:0.51197509 17:0.74636465 18:0.33918561 
0 4 1:0.403609 2:0.71376744 3:0.29163735 4:0.67129605 5:0.58999347 6:0.59119391 7:0.69486137 8:0.36362017 9:0.77442273 10:0.26094194 11:0.61419423 12:0.62248551 13:0.52410559 14:0.72951174 15:0.078644058 16:0.46194604 17:0.70964661 18:0.34671015 
0 4 1:0.21344652 2:0.67159318 3:0.24842393 4:0.074406212 5:0.63725535 6:0.54977562 7:0.29023014 8:0.40119784 9:0.4224767 10:0.58088668 11:0.38967088 12:0.27456327 13:0.4909124 14:0.78865226 15:0.4398442 16:0.61272447 17:0.53149886 18:0.59562897 
0 4 1:0.20080022 2:0.63877245 3:0.22104653 4:0.050301758 5:0.65249676 6:0.55188605 7:0.36625717 8:0.53241403 9:0.4607984 10:0.58566562 11:0.48232289 12:0.31538014 13:0.56355104 14:0.77712531 15:0.47087376 16:0.57934084 17:0.60551386 18:0.8253837 
0 4 1:0.23175636 2:0.5065086 3:0.25136161 4:0.46114401 5:0.35615648 6:0.6057556 7:0.4704981 8:0.75879791 9:0.49633884 10:0.38689126 11:0.44560086 12:0.27990338 13:0.64646956 14:0.74313524 15:0.49466255 16:0.86861731 17:0.44821292 18:0.29026512 
4 0 1:0.31964541 2:0.56337071 3:0.47693444 4:0.62496884 5:0.71752978 6:0.75464824 7:0.39382041 8:0.69086493 9:0.60367074 10:0.68159304 11:0.85424868 12:0.16697797 13:0.67336336 14:0.68552508 15:0.46566548 16:0.66865157 17:0.46207805 18:0.47597545 
0 4 1:0.20596495 2:0.52397294 3:0.23909022 4:0.35260592 5:0.37377135 6:0.74750901 7:0.3484537 8:0.54905776 9:0.37491606 10:0.33875948 11:0.5647953 12:0.40280153 13:0.4600071 14:0.77991937 15:0.3944324 16:0.65702588 17:0.40419592 18:0.55216572 
4 0 1:0.33702375 2:0.48697019 3:0.5790597 4:0.58705792 5:0.6649297 6:0.81211926 7:0.43055709 8:0.78253221 9:0.56576131 10:0.63510279 11:0.90583196 12:0.24719149 13:0.62742783 14:0.65708721 15:0.27425086 16:0.65975479 17:0.4335485 18:0.46744524 
4 0 1:0.4881968 2:0.54422586 3:0.78896142 4:0.60037959 5:0.60859183 6:0.77065429 7:0.39538912 8:0.46725509 9:0.46177941 10:0.72698264 11:0.34250659 12:0.5893707 13:0.73619518 14:0.79740847 15:0.28888524 16:0.55129787 17:0.56303453 18:0.49338766 
0 4 1:0.61059802 2:0.55820204 3:0.6567404 4:0.49421907 5:0.48562266 6:0.7807501 7:0.44586115 8:0.53580796 9:0.51847952 10:0.7247612 11:0.49797425 12:0.54674015 13:0.62564743 14:0.80320387 15:0.1973232 16:0.44582473 17:0.53529466 18:0.67212851 
4 0 1:0.48793263 2:0.56570841 3:0.82842189 4:0.47890198 5:0.52245733 6:0.80955767 7:0.52986483 8:0.60856816 9:0.57469808 10:0.70662856 11:0.49760444 12:0.65537902 13:0.5263771 14:0.76111514 15:0.41061176 16:0.49380231 17:0.68684668 18:0.73433699 
4 0 1:0.46137637 2:0.60861503 3:0.82223128 4:0.48544836 5:0.52927894 6:0.74265454 7:0.51767401 8:0.63513737 9:0.54689432 10:0.62566669 11:0.34631483 12:0.54599493 13:0.40674172 14:0.71154524 15:0.37533542 16:0.38100502 17:0.63777682 18:0.67968002 
3.3208380754954119 0 1:0.49204196 2:0.5405492 3:0.8086248 4:0.54859335 5:0.50363002 6:0.76716333 7:0.49039908 8:0.53466658 9:0.51512626 10:0.76892521 11:0.48792607 12:0.58144161 13:0.4095678 14:0.73403156 15:0.26549191 16:0.49279495 17:0.6084091 18:0.74994638 
4 4 1:0.67118402 2:0.55092666 3:0.68054273 4:0.49305929 5:0.55777715 6:0.79782858 7:0.44686366 8:0.62738443 9:0.49811903 10:0.63376999 11:0.58797633 12:0.48393855 13:0.27348643 14:0.71583271 15:0.00017620827 16:0.1727262 17:0.64615793 18:0.55731125 
4 0 1:0.51281222 2:0.58104467 3:0.77082432 4:0.59617329 5:0.66298776 6:0.76022325 7:0.53878931 8:0.52816929 9:0.4574377 10:0.66766846 11:0.38295256 12:0.51966514 13:0.4898856 14:0.67093556 15:0.29177209 16:0.38005272 17:0.6991261 18:0.53730404 
0 4 1:0.74628335 2:0.45050179 3:0.68328165 4:0.59058667 5:0.46090907 6:0.78764114 7:0.3816072 8:0.55626494 9:0.40324377 10:0.71605997 11:0.33751438 12:0.51658557 13:0.32320967 14:0.72555079 15:0.17541777 16:0.63580256 17:0.62742069 18:0.69769784 
4 4 1:0.51344795 2:0.57710293 3:0.69826451 4:0.49329831 5:0.60188651 6:0.80494027 7:0.45951326 8:0.61731498 9:0.60508567 10:0.71115267 11:0.56932025 12:0.54940986 13:0.356909 14:0.69254979 15:0.29441286 16:0.22961674 17:0.59628087 18:0.60509501 
4 0.67642285640385258 1:0.57877076 2:0.58232675 3:0.6914553 4:0.55130755 5:0.71605413 6:0.78700472 7:0.44808952 8:0.47650146 9:0.44250536 10:0.72106296 11:0.48058501 12:0.51807799 13:0.56617182 14:0.63634215 15:0.31994635 16:0.44119588 17:0.63433918 18:0.66051511 
4 4 1:0.52005689 2:0.64647291 3:0.73950253 4:0.45070393 5:0.67181047 6:0.74776189 7:0.42081337 8:0.5717974 9:0.45104633 10:0.60581841 11:0.66758944 12:0.61255138 13:0.55615504 14:0.67594509 15:0.45867151 16:0.46442048 17:0.75512398 18:0.60462906 
4 4 1:0.65682771 2:0.64479324 3:0.71342436 4:0.50560225 5:0.51393551 6:0.69664558 7:0.52616546 8:0.49676432 9:0.37646173 10:0.67986037 11:0.55667424 12:0.50972283 13:0.46797549 14:0.59164198 15:0.44919815 16:0.52378666 17:0.62423637 18:0.60863439 
4 0 1:0.51735862 2:0.67027898 3:0.79299146 4:0.50832335 5:0.67513444 6:0.70332301 7:0.50377429 8:0.63512472 9:0.38523416 10:0.67854795 11:0.60705745 12:0.53331387 13:0.54622334 14:0.6288112 15:0.23064759 16:0.39841868 17:0.74785677 18:0.7289478 
4 0 1:0.47691545 2:0.59871182 3:0.80405154 4:0.44739615 5:0.62414534 6:0.74656167 7:0.5262181 8:0.61139194 9:0.48783609 10:0.60143962 11:0.61938954 12:0.69173689 13:0.62707012 14:0.60990976 15:0.30986833 16:0.56240656 17:0.72028931 18:0.8034992 
4 4 1:0.76536081 2:0.50887047 3:0.81920258 4:0.64028349 5:0.54971539 6:0.79285276 7:0.34401485 8:0.73615907 9:0.53187202 10:0.57877322 11:0.43575185 12:0.64307071 13:0.24655063 14:0.57879065 15:0.49595757 16:0.67025841 17:0.62538123 18:0.41457235 
4 4 1:0.80192384 2:0.36550651 3:0.80071644 4:0.82816537 5:0.44615628 6:0.85025665 7:0.3324505 8:0.55219967 9:0.4239439 10:0.56399242 11:0.34857872 12:0.61761948 13:0.10564093 14:0.72639493 15:0.35739164 16:0.75379375 17:0.42690754 18:0.25672643 
4 0 1:0.50081949 2:0.45501229 3:0.848529 4:0.51468771 5:0.5469528 6:0.63753771 7:0.4358357 8:0.57521012 9:0.54231745 10:0.6575204 11:0.59032386 12:0.61497305 13:0.43865903 14:0.74912398 15:0.51969414 16:0.78231304 17:0.64050475 18:0.59669074 
4 4 1:0.62375401 2:0.40435545 3:0.78381148 4:0.64841106 5:0.7027282 6:0.85011354 7:0.44045206 8:0.70705914 9:0.53922967 10:0.68929555 11:0.53173842 12:0.55761126 13:0.48689343 14:0.65296359 15:0.38919855 16:0.54148754 17:0.47079336 18:0.44148802 
4 4 1:0.6743349 2:0.62445255 3:0.81071427 4:0.51761033 5:0.62360467 6:0.58356491 7:0.46144405 8:0.66258318 9:0.65435076 10:0.58515167 11:0.56572693 12:0.46322044 13:0.56435022 14:0.60214793 15:0.34774794 16:0.63183677 17:0.59972216 18:0.43200441 
4 4 1:0.81352904 2:0.60936566 3:0.77570296 4:0.60288746 5:0.47384998 6:0.66421289 7:0.29731537 8:0.58394666 9:0.5675388 10:0.62593128 11:0.54867315 12:0.49396501 13:0.36677559 14:0.67674121 15:0.46708998 16:0.67919954 17:0.57307129 18:0.33256874 
4 4 1:0.74680928 2:0.60541278 3:0.80225891 4:0.57507921 5:0.59874883 6:0.72018786 7:0.36618609 8:0.64686993 9:0.55441462 10:0.55732259 11:0.53404805 12:0.49595759 13:0.40169253 14:0.66165534 15:0.50611359 16:0.64297406 17:0.60812871 18:0.41486088 
4 4 1:0.76153526 2:0.55742611 3:0.72768973 4:0.60203602 5:0.52597422 6:0.66109926 7:0.38407809 8:0.72543199 9:0.63557572 10:0.66807884 11:0.52103023 12:0.51290084 13:0.48148667 14:0.70880994 15:0.38527144 16:0.659089 17:0.60235669 18:0.34270363 
4 4 1:0.77689513 2:0.65308993 3:0.76515703 4:0.52417611 5:0.49974344 6:0.65009737 7:0.42094497 8:0.58795447 9:0.59361351 10:0.58027347 11:0.60840409 12:0.6141241 13:0.41543483 14:0.56110046 15:0.33882637 16:0.5388279 17:0.62579493 18:0.42544341 
0 4 1:0.84376684 2:0.39202765 3:0.56538888 4:0.73610974 5:0.28628016 6:0.67020534 7:0.22547535 8:0.64538883 9:0.3625431 10:0.62991355 11:0.31344588 12:0.65614823 13:0.095935258 14:0.86338694 15:0.47946553 16:0.67539523 17:0.61308023 18:0.36753834 
4 4 1:0.50418198 2:0.57581803 3:0.57838289 4:0.61442305 5:0.53673925 6:0.58165471 7:0.60059434 8:0.51881936 9:0.60110061 10:0.5385199 11:0.54854991 12:0.40021055 13:0.67507569 14:0.58623437 15:0.46871337 16:0.42529417 17:0.66050279 18:0.39088504 
0 4 1:0.58256439 2:0.63286546 3:0.4818596 4:0.61770958 5:0.22163506 6:0.7411597 7:0.52015405 8:0.36433942 9:0.67334901 10:0.45990327 11:0.40961127 12:0.45889088 13:0.71850205 14:0.66639458 15:0.22287133 16:0.46949946 17:0.72034293 18:0.44209554 
4 4 1:0.57450516 2:0.56527681 3:0.62623161 4:0.56449261 5:0.31589264 6:0.74248449 7:0.56194125 8:0.42476273 9:0.81491546 10:0.57656652 11:0.63700504 12:0.47642864 13:0.91864185 14:0.73804843 15:0.23353407 16:0.26623172 17:0.69807855 18:0.25654213 
0 4 1:0.60519106 2:0.5854649 3:0.63884231 4:0.62871018 5:0.20180132 6:0.77449988 7:0.60805608 8:0.41427008 9:0.75462513 10:0.53634944 11:0.57218487 12:0.3404062 13:0.90527461 14:0.56190298 15:0.30367881 16:0.62690461 17:0.75558437 18:0.43655259 
4 4 1:0.68487741 2:0.57045644 3:0.47365533 4:0.69198283 5:0.53263181 6:0.64037938 7:0.50782706 8:0.6653319 9:0.58239903 10:0.32042728 11:0.6758215 12:0.74466733 13:0.78399775 14:0.47635857 15:0.33164006 16:0.21916851 17:0.66361105 18:0.56269093 
4 0 1:0.20369511 2:0.72088297 3:0.71938261 4:0.37561798 5:0.75774901 6:0.61341908 7:0.51451804 8:0.74901552 9:0.6633118 10:0.57018917 11:0.65032954 12:0.64020386 13:0.63797387 14:0.61728702 15:0.7355441 16:0.71199222 17:0.92648674 18:0.48486351 
4 4 1:0.52510364 2:0.52553186 3:0.70324027 4:0.57483228 5:0.50277127 6:0.72096032 7:0.28114719 8:0.97728105 9:0.66060651 10:0.45854829 11:0.46136065 12:0.5069666 13:0.37316319 14:0.96078237 15:0.50897985 16:0.46397389 17:0.66371697 18:0.20600975 
0 4 1:0.52507177 2:0.46517772 3:0.6348384 4:0.54090566 5:0.19798035 6:0.77620274 7:0.39649544 8:0.82006631 9:0.6168138 10:0.57948475 11:0.46781183 12:0.52088974 13:0.50475935 14:0.7680965 15:0.36711182 16:0.2963486 17:0.4492368 18:0.20488901 
4 4 1:0.6043857 2:0.52400308 3:0.72585855 4:0.53568283 5:0.35280401 6:0.83486471 7:0.37337059 8:0.88481481 9:0.73130823 10:0.57077488 11:0.41210056 12:0.53902175 13:0.492342 14:0.86192719 15:0.55357005 16:0.32818119 17:0.64910396 18:0.28655512 
0 4 1:0.57679307 2:0.40557201 3:0.56555736 4:0.60548901 5:0.43306853 6:0.8419035 7:0.32020806 8:0.80034665 9:0.60465633 10:0.44276428 11:0.49600523 12:0.64860881 13:0.34660158 14:0.71012065 15:0.47207772 16:0.3284656 17:0.56503253 18:0.44583737 
0 4 1:0.59277598 2:0.45869339 3:0.71805257 4:0.61390936 5:0.30754808 6:0.82477642 7:0.37839966 8:0.96518212 9:0.69605591 10:0.53019415 11:0.5440279 12:0.53872467 13:0.49332336 14:0.83079534 15:0.58121814 16:0.43650483 17:0.73489172 18:0.4042891 
4 4 1:0.22576255 2:0.5899327 3:0.6706399 4:0.41935263 5:0.72455733 6:0.91012857 7:0.45244955 8:0.75645101 9:0.81332724 10:0.58915696 11:0.47605089 12:0.41988238 13:0.72923101 14:0.80204448 15:0.76851437 16:0.58294542 17:0.66698705 18:0.41817843 
4 4 1:0.55392359 2:0.59035502 3:0.87460347 4:0.45282188 5:0.55328497 6:0.75199026 7:0.53625509 8:0.70763307 9:0.64384948 10:0.51152025 11:0.63808635 12:0.4397408 13:0.74102282 14:0.79340287 15:0.61015605 16:0.33628199 17:0.66854966 18:0.43859628 
4 4 1:0.62077109 2:0.53438439 3:0.75407167 4:0.47900757 5:0.54763919 6:0.64486787 7:0.49837837 8:0.7370231 9:0.59537034 10:0.44216863 11:0.56248809 12:0.59822843 13:0.74157096 14:0.75324479 15:0.47379762 16:0.27004323 17:0.7034919 18:0.3349295 
0 2.5388994316262119 1:0.51395557 2:0.50926055 3:0.69112125 4:0.46225446 5:0.44102932 6:0.76999942 7:0.3599633 8:0.83366551 9:0.4879702 10:0.60638591 11:0.49172489 12:0.62502828 13:0.64885568 14:0.64977991 15:0.56274579 16:0.27933486 17:0.65650895 18:0.51714134 
0 4 1:0.57849191 2:0.43374996 3:0.62039378 4:0.58105175 5:0.49322081 6:0.79978566 7:0.37549369 8:0.73874314 9:0.63531993 10:0.60683898 11:0.60545835 12:0.69725779 13:0.3773955 14:0.71264328 15:0.36990563 16:0.44263968 17:0.62187299 18:0.33572703 
4 4 1:0.67437289 2:0.74474448 3:0.89717945 4:0.50710003 5:0.55475286 6:0.71349635 7:0.5342787 8:0.59552652 9:0.72706874 10:0.62983821 11:0.59882224 12:0.62017647 13:0.66381384 14:0.75921262 15:0.53514872 16:0.39102692 17:0.62529728 18:0.38564447 
0 4 1:0.25570878 2:0.7375215 3:0.53708396 4:0.52965208 5:0.52634938 6:0.51520251 7:0.46218073 8:0.81721989 9:0.71842433 10:0.35320452 11:0.37151895 12:0.28499389 13:0.65292126 14:0.71381544 15:0.50826032 16:0.55220975 17:0.7871296 18:0.23151515 
4 4 1:0.35814613 2:0.7098149 3:0.63031798 4:0.41807964 5:0.60985198 6:0.61711082 7:0.40287159 8:0.80734439 9:0.73353731 10:0.41831203 11:0.57592943 12:0.62309274 13:0.78288016 14:0.65115054 15:0.66855446 16:0.5022581 17:0.75610862 18:0.3836594 
4 0 2:0.93743461 3:0.83704856 4:0.091207807 5:0.35473856 6:0.4482533 7:0.49836681 8:0.73801671 9:0.6717276 10:0.58744244 11:0.52539637 12:0.50565904 13:0.61924826 14:0.59851956 15:0.31532513 16:0.41806327 17:0.46979985 18:0.44706037 
4 4 1:0.38223809 2:0.76784119 3:0.54702601 4:0.35668334 5:0.84508105 6:0.40206072 7:0.43960001 8:0.84644675 9:0.65209844 10:0.36513231 11:0.55115371 12:0.2766957 13:0.78896292 14:0.86137534 15:0.60305629 16:0.58084665 17:0.5663912 18:0.2131338 
4 4 1:0.42603681 2:0.601574 3:0.71074566 4:0.49580373 5:0.62021307 6:0.79278155 7:0.55020534 8:0.86945649 9:0.48026472 10:0.48730012 11:0.52757693 12:0.70423591 13:0.51057778 14:0.64606587 15:0.64874244 16:0.32486745 17:0.43230561 18:0.35175894 
4 2.4726306080410865 1:0.30548508 2:0.48644964 3:0.72787294 4:0.55726032 5:0.8011831 6:0.85080332 7:0.6326239 8:0.83116702 9:0.57173654 10:0.45753016 11:0.72414255 12:0.71728885 13:0.39813226 14:0.64918671 15:0.64962941 16:0.449003 17:0.61802438 18:0.35500694 
1.5137815659134057 1.5582899999121185 1:0.45721971 2:0.53661528 3:0.61735693 4:0.56558632 5:0.62558217 6:0.79038911 7:0.43364368 8:0.732312 9:0.47624161 10:0.55285726 11:0.73071252 12:0.57566037 13:0.46444721 14:0.63002017 15:0.55543813 16:0.41041019 17:0.63606696 18:0.4592148 
4 4 1:0.55305057 2:0.48381076 3:0.70223545 4:0.48525784 5:0.6348763 6:0.64947109 7:0.3609551 8:0.80008018 9:0.42111573 10:0.62548849 11:0.61266464 12:0.70554644 13:0.4380061 14:0.54285525 15:0.54207677 16:0.36837901 17:0.63084972 18:0.3903001 
4 4 1:0.58269833 2:0.49971087 3:0.70483406 4:0.49942217 5:0.62951563 6:0.63709245 7:0.37585494 8:0.71649955 9:0.5307228 10:0.49332182 11:0.78483814 12:0.75583582 13:0.51870361 14:0.56687163 15:0.61591154 16:0.34779289 17:0.68248284 18:0.43816412 
4 0 1:0.55557405 2:0.53432467 3:0.71636933 4:0.51312479 5:0.6494381 6:0.66036229 7:0.33699634 8:0.80811969 9:0.47302889 10:0.58649716 11:0.61574187 12:0.80190671 13:0.52141333 14:0.61410747 15:0.68710368 16:0.46868897 17:0.76757485 18:0.40160909 
4 0 1:0.21393912 2:0.69109057 3:0.68553013 4:0.63200618 5:0.54415355 6:0.69463284 7:0.36518647 8:0.80627474 9:0.57693674 10:0.46505795 11:0.74325325 12:0.54411392 13:0.41048108 14:0.41757712 15:0.52894186 16:0.60933102 17:0.62070662 18:0.36446069 
4 0 1:0.30368489 2:0.53406257 3:0.47459641 4:0.63525158 5:0.93689208 6:0.73662469 7:0.41926016 8:0.74014778 9:0.53875143 10:0.60339912 11:0.6669572 12:0.43208288 13:0.62781883 14:0.56151008 15:0.55288796 16:0.51918169 17:0.56991473 18:0.23825272 
4 0 1:0.17019232 2:0.59346741 3:0.54581889 4:0.50049473 5:0.97808944 6:0.92810442 7:0.37781116 8:0.52591933 9:0.67165196 10:0.66434062 11:0.60873082 12:0.55144757 13:0.67718653 14:0.45037389 15:0.74793717 16:0.6036586 17:0.47808553 18:0.38610632 
0 4 1:0.44871045 2:0.75158096 3:0.020850848 4:0.76008655 5:0.33373776 6:0.42721031 7:0.56533551 8:0.2324888 9:0.74623575 10:0.20856484 11:0.62853293 12:0.24595434 13:0.088708235 14:0.74676436 15:0.26233844 16:0.61628441 17:0.5948648 18:0.34108555 
0 4 1:0.45583558 2:0.6744711 3:0.16080273 4:0.73318015 5:0.10763817 6:0.33976271 7:0.48581405 8:0.21038767 9:0.73110649 10:0.23856824 11:0.74003531 12:0.31300511 13:0.38937914 14:0.85886562 15:0.25901849 16:0.69852647 17:0.6230274 18:0.5002468 
0 4 1:0.36628421 2:0.55701768 3:0.1051384 4:0.81654325 5:0.49711619 6:0.42155523 7:0.65643922 8:0.36801004 9:0.7295503 10:0.32658448 11:0.58443224 12:0.3494678 13:0.55818874 14:0.85742284 15:0.26321309 16:0.61610438 17:0.62645639 18:0.35714514 
0 4 1:0.53876079 2:0.73883249 3:0.12219605 4:0.78085966 5:0.22058051 6:0.54223048 7:0.59187665 8:0.15140394 9:0.77334187 10:0.093636556 11:0.57228746 12:0.37821756 13:0.28645836 14:0.81442047 15:0.2035926 16:0.73658819 17:0.58735095 18:0.23440672 
0 4 1:0.35663449 2:0.61300276 3:0.15234885 4:0.83563557 5:0.37617809 6:0.45566175 7:0.57031633 8:0.19313582 9:0.70693886 10:0.28089429 11:0.70019522 12:0.31963383 13:0.25346103 14:0.84234679 15:0.30603057 16:0.59242066 17:0.63597229 18:0.36269281 
0 4 1:0.40753972 2:0.5707021 3:0.078813934 4:0.79970767 5:0.36948494 6:0.44097154 7:0.59229157 8:0.35554771 9:0.71860855 10:0.31443936 11:0.78054071 12:0.48455691 13:0.4739002 14:0.75983081 15:0.16941729 16:0.53511765 17:0.66212745 18:0.5544315 
0 4 1:0.36432824 2:0.64658637 3:0.25970343 4:0.77680562 5:0.32638993 6:0.43995602 7:0.62579355 8:0.25570631 9:0.67256529 10:0.23213858 11:0.58365764 12:0.38249057 13:0.39950721 14:0.9036181 15:0.33868186 16:0.60228074 17:0.74236153 18:0.31157837 
0 4 1:0.46624069 2:0.73925076 3:0.027114573 4:0.82441481 5:0.12741636 6:0.5102958 7:0.58090202 8:0.20702025 9:0.74425356 10:0.042983309 11:0.72241467 12:0.3018731 13:0.26651415 14:0.78318551 15:0.048311537 16:0.63775591 17:0.54046268 18:0.25423288 
0 4 1:0.40273453 2:0.67320436 3:0.1311159 4:0.68482153 5:0.21506481 6:0.50769184 7:0.59276543 8:0.29769753 9:0.79498028 10:0.20100741 11:0.51780287 12:0.30280597 13:0.35367682 14:0.62347604 15:0.1420448 16:0.56192034 17:0.45324143 18:0.38206561 
0 4 1:0.39191109 2:0.62768021 3:0.22609486 4:0.71206021 5:0.19159937 6:0.4232688 7:0.43825807 8:0.14575919 9:0.66654591 10:0.1607958 11:0.66778074 12:0.34731468 13:0.50180864 14:0.76896326 15:0.13477025 16:0.63482296 17:0.47540212 18:0.29963143 
0 4 1:0.45107639 2:0.66763789 3:0.16880336 4:0.69736393 5:0.22536561 6:0.4210016 7:0.57747757 8:0.27951484 9:0.72689018 10:0.23634607 11:0.70343471 12:0.30487339 13:0.22209372 14:0.74784157 15:0.2165174 16:0.60378994 17:0.50484225 18:0.29640393 
0 4 1:0.36044329 2:0.71019382 3:0.011439762 4:0.78344701 5:0.38209336 6:0.4350087 7:0.5853765 8:0.2545657 9:0.74166018 10:0.24212237 11:0.70044938 12:0.42477057 13:0.38332608 14:0.8183913 15:0.23417528 16:0.60597075 17:0.61651974 18:0.38325921 
0 4 1:0.33102484 2:0.64621336 3:0.25077947 4:0.73906167 5:0.14996301 6:0.50105311 7:0.63599562 8:0.15590981 9:0.75953012 10:0.25302405 11:0.51086997 12:0.40951616 13:0.47771615 14:0.8007282 15:0.22996908 16:0.57274126 17:0.56145222 18:0.47516185 
4 4 1:0.37325546 2:0.74372874 3:0.36038365 4:0.95717844 5:0.2911867 6:0.46735883 7:0.66920591 8:0.42525715 9:0.77627349 10:0.063975191 11:0.54364412 12:0.29197182 13:0.30681851 14:0.87268528 15:0.27327077 16:0.4127462 17:0.44772219 18:0.44712927 
0 4 1:0.40835811 2:0.64135597 3:0.29034469 4:0.95715773 5:0.36707139 6:0.48548343 7:0.65567041 8:0.43080616 9:0.93273136 10:0.42869611 11:0.81363209 12:0.36110289 13:0.3676439 14:0.85942632 15:0.27675519 16:0.4380416 17:0.45374706 18:0.30490809 
4 4 1:0.46923061 2:0.73947595 3:0.31897004 4:0.90036594 5:0.24787348 6:0.4663239 7:0.62761364 8:0.30593642 9:0.70873312 10:0.11859771 11:0.55392659 12:0.24103173 13:0.22639631 14:0.7236962 15:0.25771209 16:0.61520775 17:0.4074789 18:0.28119876 
0 4 1:0.41148397 2:0.61468457 3:0.41719124 4:0.82560179 5:0.4248188 6:0.5024238 7:0.67255049 8:0.40096993 9:0.81272687 10:0.40530528 11:0.67804552 12:0.46411574 13:0.36340107 14:0.76683717 15:0.36357905 16:0.55043724 17:0.64537035 18:0.39187484 
0 4 1:0.3276536 2:0.60727626 3:0.41148845 4:0.72359048 5:0.34754792 6:0.57861507 7:0.69319016 8:0.35667348 9:0.92861733 10:0.39853663 11:0.81818999 12:0.81222748 13:0.71441672 14:0.98573287 15:0.37373818 16:0.4674048 17:0.5056251 18:0.20251122 
3.9297505693585517 2.935621396154811 1:0.60817849 2:0.2783841 3:0.76955561 4:0.59358238 5:0.52694486 6:1 7:0.35836146 8:0.89748653 9:0.47151501 10:0.68491388 11:0.24827436 12:0.58804559 13:0.023203534 14:0.60552867 15:0.32659223 16:0.73561597 17:0.32555754 18:0.42893042 
4 4 1:0.72494848 2:0.39649899 3:0.61675831 4:0.66949619 5:0.4732066 6:0.80858565 7:0.33024254 8:0.93344781 9:0.30657495 10:0.49848338 11:0.55676873 12:0.2912126 13:0.57602443 14:0.49927864 15:0.32143568 16:0.29134891 17:0.42475103 18:0.2867467 
0 4 1:0.6609568 2:0.38774756 3:0.58649075 4:0.42387616 5:0.45826284 6:0.83133062 7:0.18778116 8:0.85139565 9:0.26566889 10:0.64166892 11:0.20235103 12:0.42407669 13:0.50280019 14:0.67359523 15:0.24722273 16:0.58550452 17:0.31886448 18:0.5913573 
0 4 1:0.59285445 2:0.33210215 3:0.62256767 4:0.50773427 5:0.41402207 6:0.75544509 7:0.18884984 8:0.8411278 9:0.38598033 10:0.68896972 11:0.46730456 12:0.35279374 13:0.38857535 14:0.46234136 15:0.42542404 16:0.76535331 17:0.32626772 18:0.46841766 
4 1.195300596507513 1:0.59402462 2:0.30531735 3:0.86681083 4:0.62228613 5:0.67508377 6:0.92889119 7:0.30371868 8:0.76815495 9:0.46493919 10:0.6793334 11:0.56660132 12:0.70797969 13:0.5170823 14:0.50598918 15:0.3753614 16:0.68852521 17:0.28220819 18:0.4195222 
0 4 1:0.79326111 2:0.47286822 3:0.59077256 4:0.58199288 5:0.41226713 6:0.73576042 7:0.29238312 8:0.87916187 9:0.28885422 10:0.75233734 11:0.44161948 12:0.5268345 13:0.44156652 14:0.56181474 15:0.34143082 16:0.61730259 17:0.50767767 18:0.54156387 
4 0 1:0.61444999 2:0.22183784 3:0.78349077 4:0.68501383 5:0.46471574 6:0.86447796 7:0.27088813 8:0.92671447 9:0.39333895 10:0.64679771 11:0.26072805 12:0.56299153 13:0.17620615 14:0.45969806 15:0.18367888 16:0.52427411 17:0.25894179 18:0.51455275 
0 4 1:0.59089394 2:0.37696044 3:0.40334215 4:0.53602889 5:0.44148615 6:0.84057599 7:0.094844637 8:0.77391471 9:0.46627709 10:0.59801377 11:0.49809434 12:0.32360363 13:0.49076595 14:0.38352234 15:0.046424614 16:0.47986866 17:0.43407027 18:0.50192697 
0 4 1:0.61185574 2:0.25080287 3:0.60960906 4:0.43383946 5:0.38525768 6:0.84630435 7:0.10419063 8:0.77321652 9:0.28981338 10:0.69951463 11:0.4028145 12:0.56806188 13:0.39291343 14:0.66241272 15:0.40915966 16:0.68980129 17:0.31929542 18:0.38166797 
0 4 1:0.68497968 2:0.32079683 3:0.54574851 4:0.40830908 5:0.3905479 6:0.82671494 7:0.24743615 8:0.75377832 9:0.29079632 10:0.69250086 11:0.23341537 12:0.36032346 13:0.42334984 14:0.61051766 15:0.29495393 16:0.47603755 17:0.28928268 18:0.4221282 
0 4 1:0.50753505 2:0.54721365 3:0.56592085 4:0.49433083 5:0.49467297 6:0.79432015 7:0.35996727 8:0.74515831 9:0.38110338 10:0.62016541 11:0.51159521 12:0.53439158 13:0.60577921 14:0.6010604 15:0.29462031 16:0.3833273 17:0.36400689 18:0.45908158 
4 0 1:0.64093083 2:0.27451579 3:0.73315148 4:0.65148428 5:0.49312365 6:0.94142034 7:0.39500592 8:0.72410534 9:0.53242439 10:0.8623124 11:0.30580019 12:0.80336422 13:0.56146213 14:0.61289864 15:0.35401554 16:0.63059801 17:0.23426848 18:0.26536661 
0 4 1:0.60618653 2:0.31056419 3:0.65735023 4:0.5170087 5:0.46175871 6:0.87517296 7:0.21955583 8:0.74750014 9:0.43046744 10:0.74469385 11:0.44327191 12:0.61474265 13:0.28296643 14:0.57807303 15:0.27481164 16:0.51909772 17:0.32682956 18:0.56871547 
0 4 1:0.77679666 2:0.46390077 3:0.19831454 4:0.30882091 5:0.42859085 6:0.6785895 7:0.26636895 8:0.66643598 9:0.27321936 10:0.46682278 11:0.34704831 12:0.090561386 13:0.31086388 14:0.54532055 15:0.51114138 16:0.70338872 17:0.50812797 
0 4 1:0.7298752 2:0.456486 3:0.24057953 4:0.34443662 5:0.35836129 6:0.61908478 7:0.24939435 8:0.66322121 9:0.13809443 10:0.68731458 11:0.36760353 12:0.44684287 13:0.32853141 14:0.58425585 15:0.29591586 16:0.62721394 17:0.45643479 18:0.31233899 
0 4 1:0.70364806 2:0.47475453 3:0.46967547 4:0.4863016 5:0.22813748 6:0.6818355 7:0.23408584 8:0.8125252 9:0.31233555 10:0.44270622 11:0.23694293 12:0.33014044 13:0.44967197 14:0.63846391 15:0.40176729 16:0.49886627 17:0.23541428 18:0.33738097 
0 4 1:0.70803547 2:0.52770031 3:0.52726528 4:0.50246128 5:0.35336145 6:0.80287433 7:0.29743076 8:0.73252834 9:0.2793931 10:0.74538629 11:0.4211449 12:0.50873271 13:0.54647687 14:0.64357401 15:0.38161052 16:0.27510089 17:0.41285709 18:0.42686547 
0 4 1:0.54915087 2:0.15662702 3:0.51375772 4:0.52574854 5:0.30442007 6:0.88441305 7:0.24767489 8:0.78273004 9:0.36346405 10:0.61866689 11:0.54557711 12:0.6287544 13:0.18291246 14:0.67213439 15:0.47342333 16:0.62910252 17:0.3795589 18:0.76237285 
0 4 1:0.49130177 2:0.53267916 3:0.54133773 4:0.45498881 5:0.46571966 6:0.85658284 7:0.31113091 8:0.79527656 9:0.31444656 10:0.51509857 11:0.40257982 12:0.43534856 13:0.46530333 14:0.73786621 15:0.48149565 16:0.63942454 17:0.40739054 18:0.40784906 
4 0 1:0.64221976 2:0.34554378 3:0.73150587 4:0.61882722 5:0.68422439 6:0.94266112 7:0.30817533 8:0.89497331 9:0.47303245 10:0.72799005 11:0.43105662 12:0.68982874 13:0.43343229 14:0.62853509 15:0.40399112 16:0.52904793 17:0.39791084 18:0.50615864 
0 4 1:0.81038819 2:0.2391609 3:0.35960349 4:0.67712116 5:0.43515827 6:0.76554528 7:0.33927614 8:0.65752636 9:0.32512127 10:0.80727555 11:0.72666794 12:0.50573509 13:0.21824596 14:0.62048027 15:0.46097639 16:0.44579938 17:0.38242258 18:0.37089533 
0 4 1:0.54119455 2:0.28177254 3:0.55309137 4:0.44661508 5:0.33134054 6:0.77857149 7:0.37493351 8:0.79787529 9:0.52079974 10:0.7736846 11:0.37980283 12:0.40283741 13:0.19911308 14:0.63484376 15:0.44233293 16:0.62948574 17:0.31276598 18:0.58306663 
0 4 1:0.67445607 2:0.40756197 3:0.64944635 4:0.52489888 5:0.31211026 6:0.87696632 7:0.22140568 8:0.75068231 9:0.43870033 10:0.6639678 11:0.34241635 12:0.49804222 13:0.52183505 14:0.58711781 15:0.20384404 16:0.4547901 17:0.2969489 18:0.55869897 
1.1512064691316808 0 1:0.63760448 2:0.26856606 3:0.75306321 4:0.70184749 5:0.63085963 6:0.89010859 7:0.24465797 8:0.74694945 9:0.50116185 10:0.7509044 11:0.49684009 12:0.59413423 13:0.42970824 14:0.53680397 15:0.27968343 16:0.65157721 17:0.51252574 18:0.56722844 
4 4 1:0.39879461 2:0.49346936 3:0.76410033 4:0.73621413 5:0.64925973 6:0.79408478 7:0.26683797 8:0.6028148 9:0.51956439 10:0.52688479 11:0.47599338 12:0.11900081 13:0.49613045 14:0.55032585 15:0.21171075 16:0.46920672 17:0.2988634 18:0.13012495 
4 4 1:0.5288946 2:0.47141037 3:0.76461462 4:0.61626571 5:0.71650721 6:0.78100404 7:0.35923553 8:0.72761705 9:0.28313441 10:0.53394782 11:0.66979325 12:0.28370011 13:0.18573815 15:0.12670595 16:0.41817243 17:0.30925452 18:0.069423394 
0 4 1:0.52625108 2:0.57713773 3:0.42907669 4:0.27524742 5:0.51770324 6:0.72973323 7:0.13833035 8:0.74516114 9:0.33315902 10:0.66458127 11:0.32701228 12:0.47449985 13:0.34811878 14:0.63765094 15:0.27220923 16:0.43326067 17:0.52946556 18:0.45799939 
4 4 1:0.78635944 2:0.50034294 3:0.61967373 4:0.64534592 5:0.62090084 6:0.86168013 7:0.25323177 8:0.68542503 9:0.44245596 10:0.52916374 11:0.3803257 12:0.40494968 13:0.45328337 14:0.62885506 15:0.28200201 16:0.36255307 17:0.36023924 18:0.41191054 
0 4 1:0.58424239 2:0.26887626 3:0.49712487 4:0.47100577 5:0.46651702 6:0.9010737 7:0.21323004 8:0.82483004 9:0.35283354 10:0.57630424 11:0.19647008 12:0.23076 13:0.32832064 14:0.75599599 15:0.28976322 16:0.47928597 17:0.44197546 18:0.37891523 
0 4 1:0.46190859 2:0.27623593 3:0.51996183 4:0.25593672 5:0.45490037 6:0.70470004 7:0.19750486 8:0.6905322 9:0.37182371 10:0.57714945 11:0.36018055 12:0.44920583 13:0.42075579 14:0.73994926 15:0.24904014 16:0.67024917 17:0.54697605 18:0.56289386 
0 4 1:0.57904962 2:0.36644815 3:0.43566728 4:0.72425514 5:0.10460628 6:0.7270125 7:0.28468872 8:0.65886072 9:0.45186635 10:0.46222494 11:0.5209673 12:0.21807528 13:0.42753015 14:0.63139392 15:0.36646529 16:0.47776781 17:0.56530025 18:0.3064432 
0 4 1:0.59042927 2:0.3587503 3:0.42443732 4:0.7049113 5:0.19140389 6:0.83581627 7:0.29775571 8:0.48245007 9:0.43391686 10:0.50094075 11:0.57537548 12:0.25299573 13:0.30599929 14:0.55154701 15:0.28538256 16:0.39297735 17:0.46496389 18:0.3389505 
0 4 1:0.64407412 2:0.4524037 3:0.52159497 4:0.70736803 5:0.48661629 6:0.70501933 7:0.2671635 8:0.79536965 9:0.45510989 10:0.56453192 11:0.5633037 12:0.16647379 13:0.31577696 14:0.8394107 15:0.46029494 16:0.62448128 17:0.57608303 18:0.49829667 
4 4 1:0.59002263 2:0.42954066 3:0.55529376 4:0.74084487 5:0.50510987 6:0.66566929 7:0.35744768 8:0.76463322 9:0.53000933 10:0.48713085 11:0.61541438 12:0.22100005 13:0.54762637 14:0.62836331 15:0.44211687 16:0.52390451 17:0.50738387 18:0.5442166 
0 4 1:0.61121255 2:0.43288249 3:0.48494474 4:0.69498648 5:0.48964747 6:0.76112348 7:0.32754072 8:0.7389935 9:0.46398995 10:0.62644752 11:0.66295471 12:0.37996012 13:0.56068609 14:0.70404777 15:0.4862939 16:0.58683397 17:0.54220861 18:0.49174918 
2.5741302418424352 4 1:0.63050902 2:0.43521552 3:0.5519714 4:0.62527174 5:0.38724767 6:0.63993049 7:0.29121169 8:0.71138047 9:0.43670071 10:0.53036874 11:0.74617801 12:0.42927341 13:0.58470523 14:0.64786813 15:0.44803057 16:0.46934431 17:0.47146218 18:0.50742011 
4 4 1:0.63168886 2:0.44107181 3:0.4783335 4:0.73049907 5:0.71729568 6:0.80924332 7:0.29604582 8:0.66612693 9:0.74249962 10:0.53595533 11:0.66484491 12:0.21233754 13:0.64811319 14:0.73415116 15:0.30275086 16:0.63171461 17:0.48348859 18:0.39828145 
0 4 1:0.74403921 2:0.47782832 3:0.4057949 4:0.43823409 5:0.3644425 6:0.66501178 7:0.20583346 8:0.65746145 9:0.50853635 10:0.48634979 11:0.42604704 12:0.2660788 13:0.15652801 14:0.78101973 15:0.29151646 16:0.54507824 17:0.435833 18:0.47879575 
0 4 1:0.6147299 2:0.40461441 3:0.25086642 4:0.49462951 5:0.16022308 6:0.70129108 7:0.30832887 8:0.67800852 9:0.34489639 10:0.61793786 11:0.55895084 12:0.30747471 13:0.45595775 14:0.6985661 15:0.30873767 16:0.79075592 17:0.60898877 18:0.38327272 
0 4 1:0.48338379 2:0.47349184 3:0.48891419 4:0.69135021 5:0.26804454 6:0.77331006 7:0.37401719 8:0.54426005 9:0.49333707 10:0.50092598 11:0.68233826 12:0.27332369 13:0.63840472 14:0.59682657 15:0.42924785 16:0.62713443 17:0.44395083 18:0.32673998 
0 4 1:0.67776386 2:0.65898134 3:0.31813374 4:0.46532017 5:0.2354482 6:0.553208 7:0.32600865 8:0.58724274 9:0.51275269 10:0.59911085 11:0.48067839 12:0.11543976 13:0.54780919 14:0.80457897 15:0.55644308 16:0.75612836 17:0.36187854 18:0.58505773 
0 4 1:0.43976173 2:0.4127172 3:0.17022947 4:0.64686167 5:0.49516744 6:0.50552423 7:0.4420727 8:0.63956811 9:0.59901526 10:0.57183891 11:0.51551962 12:0.50087407 13:0.57510399 14:0.7128355 15:0.2896634 16:0.62105102 17:0.3927675 18:0.43419699 
0 4 1:0.54230343 2:0.34353996 3:0.43208905 4:0.70902486 5:0.28958687 6:0.5626881 7:0.45970619 8:0.63127459 9:0.41790733 10:0.49575542 11:0.34193439 12:0.26742911 13:0.57972707 14:0.65055758 15:0.44972604 16:0.32862176 17:0.4073054 18:0.47341272 
0 4 1:0.43166881 2:0.31438018 3:0.20130631 4:0.64019217 5:0.3185748 6:0.42008557 7:0.40371816 8:0.69646451 9:0.46747512 10:0.46134048 11:0.56765235 12:0.52992274 13:0.57594289 14:0.65057594 15:0.44770592 16:0.45778576 17:0.54187144 18:0.66166269 
0 4 1:0.4868094 2:0.33186813 3:0.44193253 4:0.56188532 5:0.26475658 6:0.50543917 7:0.30361007 8:0.61109634 9:0.44045195 10:0.56794524 11:0.40073208 12:0.45458959 13:0.36311561 14:0.90629796 15:0.53165104 16:0.5768103 17:0.5731352 18:0.55170416 
0 4 1:0.46108832 2:0.47036247 3:0.40393123 4:0.67419547 5:0.30876799 6:0.5864604 7:0.27809438 8:0.62837098 9:0.48556411 10:0.37585147 11:0.51419253 12:0.40576421 13:0.5494109 14:0.59597357 15:0.42193074 16:0.53903581 17:0.56663989 18:0.57718778 
0 4 1:0.62258947 2:0.45075031 3:0.23212588 4:0.54789368 5:0.056681008 6:0.5275421 7:0.35842882 8:0.70423643 9:0.37186478 10:0.53194791 11:0.55034306 12:0.32054753 13:0.21033873 14:0.79129477 15:0.37682648 16:0.79042272 17:0.46183939 18:0.64251743 
4 4 1:0.59897339 2:0.6521867 3:0.69706143 4:0.51325635 5:0.4303487 6:0.71241185 7:0.61161263 8:0.71808931 9:0.51892825 10:0.51937734 11:0.56939822 12:0.50475872 13:0.83393967 14:0.71387119 15:0.46407039 16:0.56510008 17:0.62610032 18:0.47781083 
4 4 1:0.48887044 2:0.69588826 3:0.73611859 4:0.41544636 5:0.61306355 6:0.8032371 7:0.53706732 8:0.60087853 9:0.58157114 10:0.39793966 11:0.59282606 12:0.37079992 13:0.67736939 14:0.63233094 15:0.46302276 16:0.67338728 17:0.7479587 18:0.3863943 
4 4 1:0.61744923 2:0.69196934 3:0.69682868 4:0.53366291 5:0.49922074 6:0.67989634 7:0.54554708 8:0.628901 9:0.46539692 10:0.61224323 11:0.84516537 12:0.4989679 13:0.71056367 14:0.63658401 15:0.25926035 16:0.37362863 17:0.7322141 18:0.42282322 
4 4 1:0.51347998 2:0.59425431 3:0.6773439 4:0.47483369 5:0.4187415 6:0.89844227 7:0.42674538 8:0.60313637 9:0.42879167 10:0.30714578 11:0.5486174 12:0.14074208 13:0.49994442 14:0.64104397 15:0.52790666 16:0.52334679 17:0.72784685 18:0.49848006 
4 4 1:0.49515225 2:0.63806157 3:0.80059725 4:0.45793315 5:0.65802672 6:0.77901637 7:0.54919319 8:0.7020097 9:0.55283901 10:0.32547362 11:0.71518723 12:0.43648321 13:0.87637337 14:0.80594484 15:0.43104309 16:0.27930588 17:0.71715313 18:0.65948089 
4 4 1:0.49705369 2:0.65372906 3:0.69462607 4:0.49101166 5:0.56219393 6:0.72402007 7:0.47841669 8:0.65295967 9:0.61832752 10:0.50475855 11:0.7677958 12:0.40600294 13:0.70162117 14:0.81014431 15:0.42117529 16:0.51065634 17:0.68395601 18:0.39841582 
0 4 1:0.57073974 2:0.59754016 3:0.66070605 4:0.54191093 5:0.53112735 6:0.80112933 7:0.50794559 8:0.69412568 9:0.46807499 10:0.50794268 11:0.67996586 12:0.39502481 13:0.87050525 14:0.73220341 15:0.37010772 16:0.39339162 17:0.81375158 18:0.54458423 
4 4 1:0.45853407 2:0.68242053 3:0.72706561 4:0.46884344 5:0.54198371 6:0.82056125 7:0.54116661 8:0.67493929 9:0.57629088 10:0.42290358 11:0.67298774 12:0.37989401 13:0.58187823 14:0.74230766 15:0.36088903 16:0.30026742 17:0.67015439 18:0.52101805 
4 0 1:0.57253655 2:0.67438721 3:0.75706271 4:0.56106852 5:0.59219406 6:0.72204066 7:0.52568509 8:0.62220629 9:0.50320863 10:0.62313639 11:0.63578177 12:0.43955824 13:0.79411741 14:0.66118441 15:0.35806789 16:0.44425079 17:0.86077625 18:0.54788926 
4 4 1:0.41667004 2:0.75076223 3:0.75040818 4:0.46134708 5:0.44759675 6:0.76471263 7:0.4670986 8:0.69950361 9:0.51888236 10:0.41664681 11:0.56938402 12:0.39067075 13:0.6037759 14:0.68578629 15:0.28960515 16:0.29744611 17:0.64471467 18:0.5176252 
0 4 1:0.41027108 2:0.75504381 3:0.63493788 4:0.47067822 5:0.59159905 6:0.75871631 7:0.33589684 8:0.70072885 9:0.5412741 10:0.3544255 11:0.61323347 12:0.5135746 13:0.65128489 14:0.66238737 15:0.26493447 16:0.50290935 17:0.72325163 18:0.49887624 
0 4 1:0.61091278 2:0.5826865 3:0.60430772 4:0.52475005 5:0.69191696 6:0.82306882 7:0.38703965 8:0.63026232 9:0.45922694 10:0.65428485 11:0.60088411 12:0.29856192 13:0.57749814 14:0.59132535 15:0.47520028 16:0.59125329 17:0.88224629 18:0.59109462 
4 4 1:0.59596252 2:0.58154981 3:0.59439283 4:0.67039447 5:0.59834288 6:0.65239606 7:0.60209261 8:0.67134867 9:0.49884507 10:0.47947598 11:0.83713946 12:0.39431562 13:0.63628182 14:0.71145002 15:0.33292403 16:0.29817765 17:0.81753205 18:0.55066909 
4 4 1:0.53506093 2:0.67213734 3:0.64743897 4:0.49610298 5:0.50586512 6:0.72222024 7:0.49819598 8:0.71979976 9:0.51368031 10:0.39141522 11:0.70803479 12:0.47697538 13:0.7835576 14:0.7000005 15:0.41267304 16:0.34505718 17:0.66139926 18:0.19754798 
4 4 1:0.47437434 2:0.69763568 3:0.64848315 4:0.49384079 5:0.4453779 6:0.81767972 7:0.50625015 8:0.7071301 9:0.57734249 10:0.27257124 11:0.6346664 12:0.35008839 13:0.6562495 14:0.66026189 15:0.24910466 16:0.21194331 17:0.5681677 18:0.36580179 
4 0 1:0.54225694 2:0.65298383 3:0.66545683 4:0.59206037 5:0.62180227 6:0.62744878 7:0.53996433 8:0.67298381 9:0.50783766 10:0.53068075 11:0.69557093 12:0.41904247 13:0.78995202 14:0.76425988 15:0.48096681 16:0.64651469 17:0.92078527 18:0.48918265 
0 4 1:0.6044755 2:0.63901585 3:0.62636143 4:0.51524062 5:0.51801639 6:0.7432312 7:0.31437684 8:0.6601415 9:0.38146583 10:0.66396681 11:0.68071974 12:0.43261702 13:0.68144651 14:0.66699852 15:0.39179623 16:0.40751707 17:0.63738763 18:0.52650351 
0 4 1:0.57270169 2:0.64873189 3:0.6103543 4:0.54142725 5:0.56401036 6:0.81431686 7:0.43329455 8:0.5667191 9:0.40330847 10:0.54848449 11:0.78957655 12:0.46202849 13:0.69909283 14:0.63030169 15:0.35443571 16:0.44724295 17:0.70401171 18:0.33965211 
4 0 1:0.32145397 2:0.70473535 3:0.8017369 4:0.53468899 5:0.61555175 6:0.77274652 7:0.50924779 8:0.5087118 9:0.53201453 10:0.54035856 11:0.78372151 12:0.32365973 13:0.64133434 14:0.71515344 15:0.52081375 16:0.31489225 17:0.68022209 18:0.41387739 
4 4 1:0.59530268 2:0.57745682 3:0.56215926 4:0.58079969 5:0.6513247 6:0.63895594 7:0.59842923 8:0.77226577 9:0.45609614 10:0.40135546 11:0.76508478 12:0.37561259 13:0.57260297 14:0.67659492 15:0.4740564 16:0.48438965 17:0.80425656 18:0.52655084 
0 4 1:0.45675388 2:0.46427151 3:0.31146919 4:0.63134792 5:0.52106635 6:0.59025256 7:0.49567866 8:0.70401344 9:0.57281893 10:0.70276741 11:0.56794718 12:0.63068483 13:0.57917 14:0.7644149 15:0.81468522 16:0.43029667 17:0.55214387 18:0.6239121 
-0 4 1:0.78428853 2:0.52527564 3:0.74912584 4:0.40622925 5:0.5162445 6:0.65201737 7:0.25957504 8:0.57377185 9:0.35589611 10:0.69198721 11:0.35229695 12:0.41074515 13:0.3684362 14:0.57726856 15:0.31136603 16:0.29018875 17:0.18913251 18:0.40258685 
-0 4 1:0.72462194 2:0.65263427 3:0.69226789 4:0.58123079 5:0.63076859 6:0.75157486 7:0.37701532 8:0.56038965 9:0.37150506 10:0.4920124 11:0.31271315 12:0.33164036 13:0.50709477 14:0.54897629 15:0.23691009 16:0.2551841 17:0.51616137 18:0.63485133 
-0 4 1:0.81945043 2:0.51851439 3:0.69934445 4:0.29600957 5:0.46945663 6:0.56385905 7:0.16574113 8:0.54938558 9:0.23262086 10:0.54266011 11:0.24021722 12:0.42217002 13:0.28770934 14:0.37292277 15:0.19765779 16:0.26012254 17:0.25659935 18:0.46702738 
-0 4 1:0.70395074 2:0.57023305 3:0.72790242 4:0.43961016 5:0.53866065 6:0.75282347 7:0.27005728 8:0.56452766 9:0.33774592 10:0.6265407 11:0.37166202 12:0.40739252 13:0.26066273 14:0.446899 15:0.27260799 16:0.44694066 17:0.2148611 18:0.40620458 
-0 4 1:0.72956296 2:0.64710524 3:0.76557707 4:0.4957973 5:0.49210086 6:0.65919761 7:0.35053589 8:0.66719904 9:0.38088338 10:0.49766602 11:0.34308759 12:0.46742707 13:0.50236964 14:0.69077957 15:0.36590739 16:0.32355617 17:0.45140477 18:0.59112978 
-0 4 1:0.75098513 2:0.55954997 3:0.76427751 4:0.40986492 5:0.53463975 6:0.67088667 7:0.28006433 8:0.57099656 9:0.32055533 10:0.50786721 11:0.13102856 12:0.37806578 13:0.28248601 14:0.40083129 15:0.31859735 16:0.30016421 17:0.35150763 18:0.54249884 
-0 4 1:0.669347 2:0.60271147 3:0.79145138 4:0.50075958 5:0.54847968 6:0.74530672 7:0.38258691 8:0.646451 9:0.42267235 10:0.57455653 11:0.3732622 12:0.39336547 13:0.44946823 14:0.65285218 15:0.25957724 16:0.29864063 17:0.47141618 18:0.51147875 
-0 4 1:0.70242901 2:0.60140205 3:0.81033295 4:0.43544387 5:0.57513394 6:0.72415058 7:0.38237063 8:0.69800615 9:0.44825067 10:0.5468549 11:0.43253026 12:0.48211813 13:0.35956724 14:0.55214295 15:0.29745643 16:0.15903541 17:0.32498734 18:0.5499677 
-0 1.5212989480212125 1:0.71666701 2:0.51684985 3:0.7480686 4:0.53731167 5:0.62459572 6:0.77241605 7:0.36438159 8:0.67744396 9:0.36252506 10:0.47663969 11:0.32249085 12:0.54430807 13:0.56996829 14:0.63967483 15:0.41470715 16:0.47977334 17:0.35923536 18:0.56349238 
-0 4 1:0.72851728 2:0.59088383 3:0.72696054 4:0.52642637 5:0.61565482 6:0.7386984 7:0.3569321 8:0.7165866 9:0.46482774 10:0.57724824 11:0.44716648 12:0.41541217 13:0.35856836 14:0.5575649 15:0.20730441 16:0.17190936 17:0.35035163 18:0.66127513 
-0 4 1:0.61811619 2:0.52394539 3:0.68573912 4:0.57069961 5:0.63371895 6:0.74247095 7:0.29831363 8:0.58662365 9:0.40603879 10:0.52034433 11:0.37542047 12:0.45638946 13:0.45339898 14:0.53564696 15:0.24842246 16:0.23363118 17:0.28950382 18:0.51292426 
-2.4058144107979209 4 1:0.82057781 2:0.46474688 3:0.64584368 4:0.51766193 5:0.56962395 6:0.72553414 7:0.3182404 8:0.71889941 9:0.33303376 10:0.59289575 11:0.33098729 12:0.5011106 13:0.54568522 14:0.54312132 15:0.30543328 16:0.40252813 17:0.24574776 18:0.58380611 
-0 4 1:0.6997482 2:0.56466523 3:0.82139186 4:0.42219633 5:0.55157312 6:0.69279659 7:0.31603564 8:0.6828375 9:0.4293252 10:0.46115954 11:0.27713951 12:0.46005667 13:0.39656467 14:0.62498208 15:0.32083226 16:0.334778 17:0.30894311 18:0.41896518 
-4 4 1:0.79425829 2:0.56884874 3:0.77949941 4:0.47879178 5:0.55622819 6:0.73785049 7:0.32151672 8:0.69387989 9:0.27267846 10:0.43533146 11:0.27560676 12:0.52329067 13:0.41166962 14:0.59913246 15:0.27425139 16:0.43195554 17:0.43929352 18:0.58052471 
-0 4 1:0.77390482 2:0.56664189 3:0.79809464 4:0.42709072 5:0.52528966 6:0.73132675 7:0.31024267 8:0.62979415 9:0.40263944 10:0.57011379 11:0.45559203 12:0.57257634 13:0.40589219 14:0.59693285 15:0.32480444 16:0.52564434 17:0.36642479 18:0.61553545 
-0 4 1:0.76539882 2:0.83476834 3:0.52502702 4:0.48735498 5:0.54766648 6:0.33473983 7:0.6520191 8:0.326761 9:0.3289935 10:0.53137579 11:0.18954537 12:0.42880217 13:0.61365391 14:0.38184186 15:0.59110781 16:0.32593385 17:0.38011571 18:0.32716542 
-3.4422199110441758 0 1:0.47219483 2:0.95500567 3:0.42629726 4:0.49608163 5:0.64250926 6:0.26893552 7:0.71807009 8:0.32373922 9:0.5413651 10:0.69433759 11:0.19232141 12:0.63668459 13:0.74646649 14:0.33715467 15:0.7701244 16:0.44564909 17:0.53680801 18:0.55023866 
-4 0 1:0.38327237 2:0.90747044 3:0.38668608 4:0.61739386 5:0.70954194 6:0.23443751 7:0.84033248 8:0.30006017 9:0.38312991 10:0.74014932 11:0.30826573 12:0.66985152 13:0.79105138 14:0.29083539 15:0.62040987 16:0.33257223 17:0.46776592 18:0.6867938 
-0 4 1:0.6135758 2:0.8668765 3:0.37884419 4:0.56252971 5:0.61413608 6:0.22343883 7:0.73302388 8:0.16906054 9:0.374095 10:0.75450848 11:0.19518936 12:0.45066875 13:0.69124815 14:0.40759689 15:0.78510627 16:0.19146753 17:0.26500011 18:0.47986051 
-0 3.3510780436781338 1:0.73901787 2:0.80620411 3:0.50966269 4:0.5636483 5:0.59634064 6:0.26489305 7:0.68217508 8:0.30449673 9:0.38477172 10:0.64527472 11:0.16617629 12:0.36116516 13:0.62306678 14:0.27080284 15:0.4781473 16:0.35287116 17:0.51172955 18:0.39529757 
-0 4 1:0.71156282 2:0.8031245 3:0.42398491 4:0.50280793 5:0.59594719 6:0.36224387 7:0.71026261 8:0.29641313 9:0.36231378 10:0.59321151 11:0.22374552 12:0.47742131 13:0.57309211 14:0.35736633 15:0.48957378 16:0.26157924 17:0.31464531 18:0.447908 
-4 0 1:0.59338633 2:0.92891172 3:0.34210163 4:0.66116394 5:0.67994377 6:0.33497985 7:0.89678629 8:0.15597932 9:0.3963395 10:0.8050639 11:0.11170146 12:0.54456792 13:0.79052257 14:0.22329779 15:0.54987658 16:0.20456138 17:0.41533328 18:0.61752386 
-4 0 1:0.47162537 2:0.91066813 3:0.37919894 4:0.56170717 5:0.65201647 6:0.36643176 7:0.86254154 8:0.30879386 9:0.53362397 10:0.71179192 11:0.12399531 12:0.53247728 13:0.64481203 14:0.33352014 15:0.7520589 16:0.33793304 17:0.51583545 18:0.70180045 
-4 0 1:0.56471911 2:0.92329633 3:0.35127903 4:0.59236918 5:0.69676863 6:0.28255909 7:0.82629604 8:0.23656548 9:0.36325105 10:0.76777234 11:0.27115809 12:0.49629613 13:0.64301008 14:0.31315403 15:0.69839524 16:0.37060659 17:0.58907756 18:0.68721305 
-4 0 1:0.24812031 2:0.80997019 3:0.47788249 4:0.54650632 5:0.74772914 6:0.33473165 7:0.67445402 8:0.29142836 9:0.50815114 10:0.75491198 11:0.3196873 12:0.67954258 13:1 14:0.54155516 15:0.71639644 16:0.44722731 17:0.31513048 18:0.65110998 
-0.68829511816657241 0 1:0.49012905 2:0.9229141 3:0.44495982 4:0.49240072 5:0.57697364 6:0.24328377 7:0.69441055 8:0.15061885 9:0.37893204 10:0.76186195 11:0.23184504 12:0.41723493 13:0.57131645 14:0.33711575 15:0.76082284 16:0.31910492 17:0.53926997 18:0.86530334 
-4 0 1:0.43209862 2:0.82773962 3:0.44101194 4:0.51102556 5:0.67248126 6:0.23891916 7:0.59673253 8:0.23703354 9:0.47720679 10:0.7135983 11:0.35989917 12:0.63128185 13:0.62010501 14:0.2245885 15:0.63765022 16:0.49522383 17:0.49397332 18:0.51495492 
-4 0 1:0.45702941 2:0.88194174 3:0.44395927 4:0.48340263 5:0.67223845 6:0.28838928 7:0.71691433 8:0.30637551 9:0.4484588 10:0.79363051 11:0.4685308 12:0.55810107 13:0.48390369 14:0.24770338 15:0.662764 16:0.38409657 17:0.56097385 18:0.64628853 
-0 4 1:0.49848913 2:0.76186735 3:0.69723701 4:0.37944059 5:0.75102624 6:0.59718044 7:0.66702356 8:0.66061613 9:0.71396892 10:0.35735155 11:0.52741472 12:0.55668507 13:0.69784092 14:0.66538019 15:0.40381968 16:0.47167259 17:0.54770497 18:0.26804035 
-0 4 1:0.53490033 2:0.71009688 3:0.53205477 4:0.57905416 5:0.79244898 6:0.71104093 7:0.70356577 8:0.39391877 9:0.81148939 10:0.50416013 11:0.56143502 12:0.59861221 13:0.49734783 14:0.70224761 15:0.51023157 16:0.59969436 17:0.66415103 18:0.32024225 
-0 4 1:0.5100894 2:0.78545015 3:0.60348964 4:0.41351916 5:0.66000105 6:0.68412808 7:0.72395249 8:0.49026537 9:0.80572962 10:0.4924224 11:0.51523705 12:0.48079044 13:0.50362185 14:0.69102534 15:0.43997851 16:0.56174336 17:0.70427533 18:0.3479048 
-4 4 1:0.32301094 2:0.70292765 3:0.53930615 4:0.61974395 5:0.74035597 6:0.57730794 7:0.65790596 8:0.37488494 9:0.61679717 10:0.51987327 11:0.62376786 12:0.50009772 13:0.54372553 14:0.64252742 15:0.39536485 16:0.44124367 17:0.64906671 18:0.40760428 
-0 4 1:0.44787599 2:0.66686471 3:0.66272188 4:0.48224009 5:0.78535036 6:0.62518529 7:0.61894759 8:0.47520505 9:0.72769729 10:0.45697698 11:0.52609734 12:0.48418915 13:0.60950745 14:0.78826727 15:0.56998234 16:0.60325932 17:0.70589538 18:0.29923178 
-0 4 1:0.48800063 2:0.73008171 3:0.60422264 4:0.54143665 5:0.75183391 6:0.6817057 7:0.6654315 8:0.36685702 9:0.67610244 10:0.34940087 11:0.53498436 12:0.62602133 13:0.65252916 14:0.84377329 15:0.62749929 16:0.61555216 17:0.6137279 18:0.22761237 
-4 4 1:0.44466169 2:0.60410258 3:0.53110378 4:0.62458701 5:0.63668918 6:0.59030541 7:0.61867609 8:0.40719851 9:0.74438206 10:0.38912899 11:0.81999216 12:0.64890927 13:0.40356097 14:0.73510071 15:0.30818284 16:0.48819349 17:0.68054145 18:0.24152276 
-4 4 1:0.52555051 2:0.62895515 3:0.47181527 4:0.46528398 5:0.63129208 6:0.69149289 7:0.69550872 8:0.42586174 9:0.84337197 10:0.38700582 11:0.51807184 12:0.64280691 13:0.52453518 14:0.74795801 15:0.4866063 16:0.53497626 17:0.63323713 18:0.33780837 
-4 4 1:0.5282265 2:0.65324804 3:0.37565687 4:0.72057129 5:0.71791223 6:0.65641294 7:0.66076584 8:0.4315888 9:0.86737106 10:0.18501634 11:0.48948815 12:0.61170459 13:0.57294367 14:0.83137502 15:0.21625147 16:0.52199192 17:0.72982186 18:0.29413684 
-0 4 1:0.58936323 2:0.71925891 3:0.61124766 4:0.52932293 5:0.73906644 6:0.69806478 7:0.61218191 8:0.32127676 9:0.7607355 10:0.41809797 11:0.5578635 12:0.63089873 13:0.53684384 14:0.75726783 15:0.51719714 16:0.46714289 17:0.55063116 18:0.26725699 
-4 3.3852626495411684 1:0.50167246 2:0.69956213 3:0.60600233 4:0.65522375 5:0.58666473 6:0.58611579 7:0.60191947 8:0.45623485 9:0.8243115 10:0.51456515 11:0.77919388 12:0.62106327 13:0.51427834 14:0.70409018 15:0.35632782 16:0.55796984 17:0.66462312 18:0.45672055 
-4 4 1:0.54277386 2:0.65646366 3:0.55836887 4:0.46546141 5:0.58585721 6:0.67763864 7:0.69236311 8:0.31548064 9:0.76592554 10:0.54241784 11:0.62666433 12:0.71326581 13:0.65109535 14:0.67013363 15:0.41883668 16:0.64234663 17:0.7392053 18:0.35097263 
-4 4 1:0.47865419 2:0.6798929 3:0.4147519 4:0.53372484 5:0.6380968 6:0.64237398 7:0.65684029 8:0.41005109 9:0.89903496 10:0.38775339 11:0.63965081 12:0.87615151 13:0.57914661 14:0.76987137 15:0.43707437 16:0.49870601 17:0.70189171 18:0.34654746 
-0 0.24168714257506752 1:0.60762167 2:0.77190922 3:0.57753364 4:0.58681281 5:0.73945171 6:0.66467058 7:0.72351203 8:0.44090036 9:0.79940855 10:0.53837389 11:0.59072007 12:0.45730494 13:0.4207684 14:0.75153223 15:0.51176147 16:0.55987983 17:0.63141191 18:0.25155751 
-4 4 1:0.38726516 2:0.6850618 3:0.55400511 4:0.7340416 5:0.60661981 6:0.61180424 7:0.59196986 8:0.27559623 9:0.80082087 10:0.46530302 11:0.75031558 12:0.4459698 13:0.36152939 14:0.85237161 15:0.35649528 16:0.51188743 17:0.61147018 18:0.27852933 
-0 4 1:0.62915797 2:0.77576712 3:0.4637464 4:0.51697762 5:0.74871213 6:0.65644242 7:0.66335128 8:0.41017445 9:0.76693097 10:0.36502651 11:0.44310373 12:0.43356305 13:0.52379742 14:0.83472128 15:0.47746603 16:0.49139713 17:0.58772673 18:0.22528223 
-4 0 1:0.44045338 2:0.73130639 3:0.61617414 4:0.74999197 5:0.7835601 6:0.60707023 7:0.59420163 8:0.3789744 9:0.80327859 10:0.47192171 11:0.62990891 12:0.41673363 13:0.44043257 14:0.72909779 15:0.29434774 16:0.65556987 17:0.73346548 18:0.30966858 
-0 4 1:0.43631291 2:0.81250766 3:0.58829915 4:0.39759318 5:0.73551838 6:0.67104547 7:0.6371223 8:0.47265086 9:0.8266594 10:0.53808096 11:0.62398683 12:0.53719586 13:0.45557122 14:0.6619321 15:0.44815433 16:0.58758588 17:0.66116493 18:0.16449163 
-4 0 1:0.29263341 2:0.7813968 3:0.58730192 4:0.47407514 5:0.66504855 6:0.68202619 7:0.64861866 8:0.42327567 9:0.83023493 10:0.60814321 11:0.66818125 12:0.54181128 13:0.71080005 14:0.80451344 15:0.49167879 16:0.59566869 17:0.65307843 18:0.32941553 
-4 4 1:0.57653162 2:0.69611181 3:0.55137154 4:0.52571413 5:0.70988201 6:0.65190883 7:0.66811641 8:0.45745091 9:0.83030057 10:0.4790209 11:0.62207147 12:0.63798322 13:0.67866464 14:0.89930164 15:0.52526264 16:0.51662867 17:0.70250283 18:0.42791808 
-0 4 1:0.63857232 2:0.6789285 3:0.66235247 4:0.53403025 5:0.69130177 6:0.65299462 7:0.62952181 8:0.39622855 9:0.77077065 10:0.44820948 11:0.63714646 12:0.62213309 13:0.48811378 14:0.79263209 15:0.51211217 16:0.39175576 17:0.58889606 18:0.27506376 
-4 4 1:0.43999941 2:0.812345 3:0.50631673 4:0.43383103 5:0.69541531 6:0.51701067 7:0.63814525 8:0.46692652 9:0.71323192 10:0.52145649 11:0.57121792 12:0.48280771 13:0.51397812 14:0.68898987 15:0.48335889 16:0.47597501 17:0.60153144 18:0.3451321 
-4 0 1:0.48918238 2:0.6811028 3:0.72664526 4:0.61246446 5:0.53593215 6:0.78618539 7:0.56556211 8:0.55426176 9:0.60933208 10:0.41442068 11:0.51667612 12:0.42315805 13:0.614509 14:0.53580821 15:0.29857432 16:0.41205941 17:0.75270518 18:0.42327505 
-4 0 1:0.39987628 2:0.56075081 3:0.71118552 4:0.61788008 5:0.4918002 6:0.84412592 7:0.56897121 8:0.52240139 9:0.68514492 10:0.63188334 11:0.66197096 12:0.53232819 13:0.9034697 14:0.64543594 15:0.50050766 16:0.47551569 17:0.62012089 18:0.39159268 
-0.75497904291004692 0 1:0.46728756 2:0.5764869 3:0.71335683 4:0.69082391 5:0.58846085 6:0.81932282 7:0.60832025 8:0.58670701 9:0.78534224 10:0.51176773 11:0.59845149 12:0.52982052 13:0.92825305 14:0.68626651 15:0.50882401 16:0.5539269 17:0.55153867 18:0.36932927 
-4 0 1:0.49438861 2:0.59456862 3:0.70947189 4:0.6398233 5:0.50978912 6:0.84099883 7:0.52534017 8:0.55548487 9:0.66854828 10:0.54222012 11:0.63590706 12:0.55629032 13:0.76031113 14:0.5354564 15:0.47173777 16:0.37877293 17:0.62297363 18:0.34285188 
-0 4 1:0.55206427 2:0.74496399 3:0.7158919 4:0.49031199 5:0.70044216 6:0.64909522 7:0.39991411 8:0.73505471 9:0.57498667 10:0.35680824 11:0.56902907 12:0.051806707 13:0.49832137 14:0.5590219 15:0.51819244 16:0.60505526 17:0.61010554 18:0.33502113 
-0 4 1:0.57512781 2:0.75711207 3:0.71675448 4:0.41075403 5:0.94217508 6:0.73824854 7:0.48312664 8:0.58291278 9:0.39221707 10:0.50078459 11:0.44263988 12:0.51036697 13:0.68260678 14:0.67658107 15:0.3478321 16:0.26914063 17:0.66357408 18:0.39761328 
-0 4 1:0.68046756 2:0.71873313 3:0.74986274 4:0.41471967 5:0.67769155 6:0.7470697 7:0.48271883 8:0.5415238 9:0.53431364 10:0.49935397 11:0.60060146 12:0.56357836 13:0.57710376 14:0.67813343 15:0.25897167 16:0.34050853 17:0.66457461 18:0.45954109 
-3.9101948126763135 4 1:0.63348501 2:0.63013817 3:0.74628272 4:0.53506188 5:0.62773908 6:0.68208775 7:0.62111538 8:0.51422338 9:0.52134471 10:0.67732445 11:0.64884016 12:0.41129326 13:0.52280695 14:0.77206468 15:0.45427234 16:0.30073659 17:0.7091015 18:0.46449827 
-4 0 1:0.3725202 2:0.54241788 3:0.80211851 4:0.40282571 5:0.76495766 6:0.71170321 7:0.44755623 8:0.73562909 9:0.52455284 10:0.64403852 11:0.57447 12:0.71043168 13:0.60467622 14:0.6277604 15:0.13532083 16:0.38472458 17:0.67271146 18:0.63803491 
-4 0 1:0.42475819 2:0.56305354 3:0.73599575 4:0.45114316 5:0.80371202 6:0.7021097 7:0.44797621 8:0.68661633 9:0.58958615 10:0.63220836 11:0.46783683 12:0.60893346 13:0.63770366 14:0.78567265 15:0.43708899 16:0.6633688 17:0.69480439 18:0.45110423 
-4 0 1:0.54662805 2:0.60936701 3:0.75670673 4:0.5403793 5:0.64583725 6:0.75814558 7:0.51772783 8:0.64485861 9:0.53553728 10:0.65732852 11:0.49697915 12:0.54124084 13:0.53652953 14:0.76094685 15:0.23041561 16:0.36981893 17:0.63402242 18:0.62932937 
-4 0 1:0.5684674 2:0.62076794 3:0.76615329 4:0.50957506 5:0.50741681 6:0.70349167 7:0.54453989 8:0.53549267 9:0.50447305 10:0.6200443 11:0.40581129 12:0.64597334 13:0.78904449 14:0.7894479 15:0.55325163 16:0.54703341 17:0.66615566 18:0.78922492 
-4 4 1:0.49565947 2:0.61514506 3:0.67929785 4:0.42151742 5:0.84189443 6:0.67868153 7:0.49400277 8:0.73645665 9:0.48866483 10:0.62527688 11:0.56933273 12:0.51053876 13:0.69242514 14:0.71607896 15:0.35058739 16:0.24731312 17:0.77307947 18:0.66767291 
-4 0 1:0.5082886 2:0.71574078 3:0.78043403 4:0.43249105 5:0.82337796 6:0.72943191 7:0.43660825 8:0.54178537 9:0.37601501 10:0.52725428 11:0.48657451 12:0.67776159 13:0.90209286 14:0.85347576 15:0.33899821 16:0.24624635 17:0.6239588 18:0.62844118 
-0 4 1:0.62223026 2:0.74929072 3:0.69106736 4:0.4362278 5:0.84155278 6:0.71989742 7:0.51161355 8:0.6366386 9:0.47883359 10:0.56969138 11:0.37336006 12:0.3822642 13:0.74927752 14:0.6453844 15:0.35176579 16:0.15206513 17:0.55463544 18:0.42201449 
-3.8164420042577674 0 1:0.63800073 2:0.71093315 3:0.77705697 4:0.54453539 5:0.6553483 6:0.74019864 7:0.46738025 8:0.49335195 9:0.41356217 10:0.60482159 11:0.56070143 12:0.44049314 13:0.63140066 14:0.5263661 15:0.23985632 16:0.45496333 17:0.61044292 18:0.57923945 
-0 4 1:0.83495461 2:0.67174516 3:0.81232034 4:0.45727097 5:0.45820561 6:0.60155637 7:0.28911126 8:0.7388675 9:0.43656453 10:0.53587994 11:0.44776201 12:0.3572349 13:0.4585229 14:0.64320335 15:0.44386895 16:0.39962731 17:0.45047843 18:0.39474705 
-0 4 1:0.71327864 2:0.7355765 3:0.81841027 4:0.4295393 5:0.55866063 6:0.54034748 7:0.5044599 8:0.67168822 9:0.49723252 10:0.55291194 11:0.57524986 12:0.37927633 13:0.40740904 14:0.6427879 15:0.40931959 16:0.42753978 17:0.53782505 18:0.43957065 
-0 4 1:0.78468321 2:0.64876916 3:0.77201696 4:0.52507294 5:0.55740628 6:0.60563321 7:0.35452464 8:0.67810963 9:0.50378607 10:0.51634587 11:0.63723767 12:0.45276052 13:0.47474936 14:0.70024249 15:0.42494579 16:0.5893405 17:0.47720709 18:0.38151752 
-0 4 1:0.79727476 2:0.68248452 3:0.73587028 4:0.51884829 5:0.55896915 6:0.66162863 7:0.31558207 8:0.59176253 9:0.56897362 10:0.56295357 11:0.63407039 12:0.43505941 13:0.17983946 14:0.63845358 15:0.45050153 16:0.5866058 17:0.59914508 18:0.44070747 
-0 4 1:0.79202289 2:0.7293015 3:0.73932437 4:0.47492838 5:0.54831393 6:0.59612119 7:0.35218537 8:0.6259912 9:0.52776397 10:0.47459269 11:0.57462268 12:0.40803531 13:0.44730316 14:0.57002599 15:0.32838865 16:0.46668886 17:0.49553593 18:0.4757363 
-0 4 1:0.78455647 2:0.64980886 3:0.73064261 4:0.57234477 5:0.59861273 6:0.68337557 7:0.44872004 8:0.66761653 9:0.59815937 10:0.54423136 11:0.5878285 12:0.47798424 13:0.33097446 14:0.57761415 15:0.34802992 16:0.55400553 17:0.55757707 18:0.45239529 
-0 4 1:0.75660774 2:0.59560353 3:0.79327811 4:0.57403079 5:0.45262812 6:0.62752998 7:0.31017688 8:0.64050662 9:0.59386972 10:0.58508274 11:0.60571457 12:0.51607718 13:0.3112847 14:0.71663399 15:0.47122953 16:0.59473861 17:0.53761421 18:0.31422427 
-0 4 1:0.75419994 2:0.7145053 3:0.79517988 4:0.43116308 5:0.55729732 6:0.59851734 7:0.42480379 8:0.58628874 9:0.46972279 10:0.56768859 11:0.4944611 12:0.34303964 13:0.45367384 14:0.66230711 15:0.40864124 16:0.5218541 17:0.48332545 18:0.45780246 
-0 4 1:0.85286251 2:0.78377003 3:0.73327252 4:0.38803 5:0.46403322 6:0.59165254 7:0.39017878 8:0.62681354 9:0.57790777 10:0.53154112 11:0.56293189 12:0.45708024 13:0.59323207 14:0.73549342 15:0.50246492 16:0.5404826 17:0.50478295 18:0.47976164 
-0 4 1:0.62972324 2:0.62603146 3:0.72305615 4:0.46529746 5:0.730886 6:0.69932642 7:0.46212723 8:0.85159492 9:0.6643757 10:0.4888903 11:0.69582762 12:0.50869755 13:0.82197828 14:0.5678241 15:0.42254222 16:0.12633025 17:0.63606849 18:0.53222355 
-0 4 1:0.599528 2:0.64899784 3:0.77584083 4:0.47027375 5:0.7779287 6:0.6593367 7:0.44560119 8:0.78712329 9:0.6177859 10:0.33858875 11:0.68909492 12:0.51241975 13:0.72106768 14:0.66185916 15:0.62659782 16:0.2954914 17:0.69751863 18:0.60663685 
-4 4 1:0.63534704 2:0.60005705 3:0.77574088 4:0.52746205 5:0.62406895 6:0.76716961 7:0.52971613 8:0.79959322 9:0.57960901 10:0.51744012 11:0.68522924 12:0.72371854 13:0.7724307 14:0.67765286 15:0.46786051 16:0.19862355 17:0.63830489 18:0.46934599 
-0 4 1:0.58612477 2:0.58017725 3:0.78425847 4:0.48202873 5:0.7008457 6:0.73051867 7:0.51842374 8:0.73778771 9:0.68341108 10:0.4609794 11:0.65921519 12:0.60064884 13:0.66198772 14:0.75569675 15:0.5922163 16:0.38742094 17:0.81664824 18:0.56874651 
-4 0 1:0.56149566 2:0.54735703 3:0.74009186 4:0.60182158 5:0.45148277 6:0.69566425 7:0.60272658 8:0.71973691 9:0.61405031 10:0.43178035 11:0.51939335 12:0.4559056 13:0.56150753 14:0.58385745 15:0.58329293 16:0.56098385 17:0.59282244 18:0.4384088 
-4 0 1:0.31766694 2:0.56461232 3:0.80547951 4:0.3589716 5:0.709612 6:0.78220972 7:0.65252626 8:0.81999507 9:0.49861033 10:0.46384479 11:0.68634782 12:1 13:0.52217215 14:0.54489082 15:0.6075587 16:0.44403688 17:0.66280916 18:0.47929544 
-0 4 1:0.59342047 2:0.61283436 3:0.69750673 4:0.52247888 5:0.71000937 6:0.77950869 7:0.50479329 8:0.77423483 9:0.5535426 10:0.49016005 11:0.64944702 12:0.71827906 13:0.54922296 14:0.75390221 15:0.77772835 16:0.34242354 17:0.62921889 18:0.46459346 
-4 0 1:0.60993266 2:0.56967871 3:0.7584609 4:0.57254151 5:0.6330104 6:0.7648932 7:0.47216625 8:0.75053082 9:0.60183554 10:0.57830018 11:0.66653423 12:0.65161707 13:0.73924777 14:0.56545734 15:0.62328076 16:0.45941408 17:0.72906944 18:0.38227444 
-4 2.4394573035389042 1:0.52053125 2:0.58966871 3:0.74520873 4:0.51351814 5:0.71163713 6:0.76377176 7:0.6094262 8:0.83200298 9:0.57181711 10:0.54792114 11:0.63120856 12:0.61810294 13:0.37394032 14:0.6592039 15:0.4581728 16:0.4196839 17:0.66849413 18:0.33634998 
-4 4 1:0.59071411 2:0.62018036 3:0.71332863 4:0.46434112 5:0.70602386 6:0.82346667 7:0.52515061 8:0.73173632 9:0.50177386 10:0.44588157 11:0.6460682 12:0.92102886 13:0.50715856 14:0.70709714 15:0.66919265 16:0.29385014 17:0.63274703 18:0.52398229 
-4 0 1:0.41091634 2:0.46402917 3:0.77931171 4:0.53822807 5:0.79045772 6:0.89252803 7:0.67262047 8:0.78913563 9:0.3874148 10:0.52461216 11:0.67386706 12:0.74136105 13:0.43753367 14:0.65768401 15:0.52774692 16:0.40685876 17:0.71142166 18:0.48017902 
-4 4 1:0.47706774 2:0.49676494 3:0.66588593 4:0.40116667 5:0.870852 6:0.87397257 7:0.5831705 8:0.7785373 9:0.52796172 10:0.48500389 11:0.69318125 12:0.85139069 13:0.63377421 14:0.43745087 15:0.58071591 16:0.39495275 17:0.54386049 18:0.37159363 
-0 3.3076015549295397 1:0.64690808 2:0.67534408 3:0.73078023 4:0.48692532 5:0.596092 6:0.74000951 7:0.53579616 8:0.58128878 9:0.66547557 10:0.5007114 11:0.69853546 12:0.56053409 13:0.69758195 14:0.77942765 15:0.74593197 16:0.47231615 17:0.61040969 18:0.43991865 
-4 4 1:0.52402097 2:0.5959942 3:0.69880404 4:0.57923852 5:0.66605992 6:0.6375614 7:0.42166569 8:0.79360941 9:0.55271484 10:0.64627469 11:0.79404083 12:0.80398538 13:0.6916697 14:0.67525764 15:0.70390333 16:0.39494068 17:0.68191741 18:0.42568015 
-4 4 1:0.58834064 2:0.54940561 3:0.72279969 4:0.56756308 5:0.69161233 6:0.65982707 7:0.44496102 8:0.79877643 9:0.56077481 10:0.45077012 11:0.62882371 12:0.54078783 13:0.37785575 14:0.61873784 15:0.67005694 16:0.59744029 17:0.80577826 18:0.46155286 
-4 0 1:0.24324723 2:0.47480322 3:0.84641334 4:0.45558333 5:0.69852691 6:0.72655752 7:0.61111504 8:0.73816226 9:0.62785902 10:0.54933451 11:0.73861763 12:0.59300438 13:0.71215551 14:0.50835802 15:0.41063918 16:0.5540552 17:0.63123174 18:0.39428755 
-4 0 1:0.58660162 2:0.43393177 3:0.76305081 4:0.64053801 5:0.50650653 6:0.76040825 7:0.39611132 8:0.66810761 9:0.61751725 10:0.63332483 11:0.61904152 12:0.54468684 13:0.50792516 14:0.70541892 15:0.70711056 16:0.51638352 17:0.74874583 18:0.53920859 
-4 0 1:0.33903403 2:0.4922828 3:0.84789062 4:0.59680698 5:0.80722117 6:0.82486001 7:0.60014454 8:0.76653813 9:0.57680223 10:0.46409778 11:0.69171329 12:0.58244034 13:0.63385882 14:0.54488991 15:0.500848 16:0.48383333 17:0.66966493 18:0.49920884 
-4 4 1:0.37514321 2:0.55507003 3:0.68167809 4:0.41507739 5:0.54528178 6:0.75114809 7:0.46809823 8:0.76813985 9:0.60622498 10:0.52173052 11:0.49813088 12:0.56180298 13:0.82301536 14:0.77322206 15:0.70407876 16:0.51167849 17:0.59847993 18:0.39496879 
-4 0 1:0.58091759 2:0.54240725 3:0.73957853 4:0.57496186 5:0.55395713 6:0.68172113 7:0.34903789 8:0.69629667 9:0.53161506 10:0.62086621 11:0.58947313 12:0.55781043 13:0.53677685 14:0.58363262 15:0.6853558 16:0.50272435 17:0.67001536 18:0.44326536 
-4 0 1:0.49590541 2:0.5988178 3:0.79435737 4:0.49444677 5:0.44783419 6:0.82399381 7:0.36276902 8:0.70590212 9:0.50126983 10:0.56889245 11:0.46584635 12:0.51319008 13:0.55641551 14:0.72015393 15:0.67973591 16:0.38052517 17:0.48077549 18:0.49753141 
-4 0 1:0.51026745 2:0.66391183 3:0.53497439 4:0.86440465 5:0.68080095 6:0.50824027 7:0.67392614 8:0.43352437 9:0.73889967 10:0.44568654 11:0.65630274 12:0.64344335 13:0.70667182 14:0.83380872 15:0.51628924 16:0.64679814 17:0.71662006 18:0.40122561 
-4 4 1:0.62086516 2:0.70978561 3:0.46725075 4:0.76613044 5:0.44518244 6:0.56223738 7:0.72421953 8:0.4341845 9:0.77355913 10:0.27674334 11:0.52957743 12:0.45373099 13:0.48907164 14:0.86677667 15:0.49951182 16:0.59915338 17:0.63520935 18:0.42720135 
-0 4 1:0.65612561 2:0.6276969 3:0.55486786 4:0.80127416 5:0.70864406 6:0.64375655 7:0.71986607 8:0.44142562 9:0.83626532 10:0.45302413 11:0.73151789 12:0.6751254 13:0.52417224 14:0.72395237 15:0.34666614 16:0.48594867 17:0.63155478 18:0.37839558 
-4 0 1:0.46800963 2:0.71984237 3:0.59557395 4:0.79764805 5:0.65931954 6:0.5247364 7:0.6772841 8:0.41473125 9:0.77716077 10:0.35403779 11:0.57436164 12:0.60833802 13:0.37616177 14:0.77162392 15:0.47262994 16:0.40091137 17:0.64629998 18:0.24620839 
-4 0 1:0.17661871 2:0.588474 3:0.71821202 4:0.54203888 5:0.5677439 6:0.61304823 7:0.69400229 8:0.61510762 9:0.94247042 10:0.56285707 11:0.72567225 12:0.61486391 13:0.61496699 14:0.88260073 15:0.70188172 16:0.68645998 17:0.63043339 18:0.42363961 
-0 4 1:0.5798117 2:0.82326389 3:0.5748735 4:0.64725288 5:0.58953073 6:0.50462856 7:0.58242566 8:0.34389365 9:0.73508989 10:0.34580929 11:0.38173947 12:0.35871972 13:0.3151552 14:0.63422912 15:0.41548469 16:0.41513367 17:0.60821216 18:0.32338124 
-0 4 1:0.52909283 2:0.85322503 3:0.65349697 4:0.56672177 5:0.51758355 6:0.44849884 7:0.60659845 8:0.4671878 9:0.79465528 10:0.4415924 11:0.57297323 12:0.50571917 13:0.45179236 14:0.71959604 15:0.40930035 16:0.39065042 17:0.6624229 18:0.52406723 
-4 0 1:0.42897575 2:0.75504702 3:0.5474271 4:0.66929408 5:0.5965789 6:0.54853354 7:0.69050083 8:0.47678475 9:0.8312567 10:0.37709583 11:0.50765357 12:0.51788993 13:0.44902703 14:0.71527742 15:0.51470443 16:0.63528382 17:0.71782567 18:0.55393259 
-0 0.28271902177428043 1:0.47904227 2:0.71692667 3:0.61848769 4:0.54185364 5:0.72570783 6:0.57146053 7:0.618252 8:0.50300795 9:0.80925472 10:0.4922353 11:0.5270536 12:0.41439858 13:0.52517559 14:0.79641539 15:0.6078312 16:0.58593361 17:0.66298869 18:0.50826191 
-0 4 1:0.47882459 2:0.75760967 3:0.57871426 4:0.53662657 5:0.63982977 6:0.45550873 7:0.62650012 8:0.55758584 9:0.83394156 10:0.54517587 11:0.5253011 12:0.38372361 13:0.49723333 14:0.81513974 15:0.66425587 16:0.56247903 17:0.62209389 18:0.43200246 
-0 4 1:0.67012053 2:0.77596549 3:0.52333741 4:0.71645966 5:0.55150597 6:0.48817498 7:0.56208263 8:0.29721321 9:0.79754523 10:0.39630516 11:0.62054528 12:0.57278045 13:0.41279889 14:0.77906762 15:0.49082955 16:0.53714385 17:0.62467874 18:0.30474315 
-0 4 1:0.37860622 2:0.71248085 3:0.47721345 4:0.62588438 5:0.58678662 6:0.41338917 7:0.5312141 8:0.571271 9:0.82271155 10:0.21585388 11:0.52514145 12:0.51801148 13:0.28946627 14:0.51590278 15:0.46028058 16:0.65672718 17:0.42770844 18:0.34358741 
-0 4 1:0.63113935 2:0.79775094 3:0.46176634 4:0.69870671 5:0.59663304 6:0.48726722 7:0.67542827 8:0.42044777 9:0.75794963 10:0.42283957 11:0.59620807 12:0.56497688 13:0.4809368 14:0.64016202 15:0.35802204 16:0.4420451 17:0.50825941 18:0.31495295 
-4 4 1:0.56335997 2:0.8168205 3:0.47783364 4:0.78586228 5:0.5105877 6:0.46561907 7:0.60023639 8:0.2217297 9:0.73702747 10:0.38706808 11:0.58107045 12:0.4400628 13:0.27488562 14:0.803146 15:0.43521523 16:0.40334652 17:0.6324373 18:0.35112997 
-0 4 1:0.54790451 2:0.8414891 3:0.42009948 4:0.66651364 5:0.61208445 6:0.45613058 7:0.6427291 8:0.58762363 9:0.82966925 10:0.26954298 11:0.43289824 12:0.59253031 13:0.37765701 14:0.57879645 15:0.49342866 16:0.52982677 17:0.51518093 18:0.22336821 
-0 4 1:0.57612043 2:0.84520525 3:0.48453485 4:0.64469156 5:0.5189575 6:0.45015978 7:0.57353661 8:0.287794 9:0.8452483 10:0.45862833 11:0.41801082 12:0.54373088 13:0.52146334 14:0.70396159 15:0.48148506 16:0.56968728 17:0.57588975 18:0.27453302 
-0.044038563944314067 4 1:0.59641932 2:0.83976338 3:0.48228421 4:0.71327554 5:0.62601804 6:0.56798909 7:0.71636169 8:0.39060198 9:0.81743078 10:0.3942451 11:0.47262369 12:0.50258481 13:0.34378707 14:0.59801871 15:0.29559986 16:0.46428306 17:0.62968605 18:0.40765282 
-0 4 1:0.48494897 2:0.77641593 3:0.57770761 4:0.63786428 5:0.59021016 6:0.41459516 7:0.56408691 8:0.44989821 9:0.76296065 10:0.34654503 11:0.45625228 12:0.31978773 13:0.28938672 14:0.74042607 15:0.45709158 16:0.3700407 17:0.5063406 18:0.31212006 
-4 0 1:0.52226467 2:0.68467096 3:0.80374749 4:0.41583825 5:0.46288777 6:0.69118145 7:0.3342558 8:0.66057504 9:0.4354675 10:0.61759455 11:0.6010973 12:0.55506994 13:0.45077356 14:0.52408636 15:0.41819725 16:0.42659732 17:0.52783048 18:0.43185295 
-4 4 1:0.4211506 2:0.43554998 3:0.56909171 4:0.43539451 5:0.53769482 6:0.77334749 7:0.533259 8:0.86836759 9:0.34199902 10:0.54750209 11:0.5443531 12:0.46518664 13:0.46664606 14:0.67035675 15:0.50796434 16:0.58402583 17:0.44558765 18:0.41976891 
-0 4 1:0.72805323 2:0.61765161 3:0.71709521 4:0.52360457 5:0.52189018 6:0.82308985 7:0.36752119 8:0.77462179 9:0.51694873 10:0.49520323 11:0.51949731 12:0.23176488 13:0.29196553 14:0.42783521 15:0.33230632 16:0.44914872 17:0.49632195 18:0.2936089 
-4 0 1:0.25878144 2:0.42343016 3:0.73009751 4:0.52351852 5:0.62869322 6:0.79886429 7:0.49492469 8:0.78262239 9:0.53008897 10:0.53721393 11:0.68032214 12:0.35453741 13:0.49973329 14:0.47528813 15:0.34590738 16:0.51769107 17:0.48714651 18:0.23505542 
-0 4 1:0.83515651 2:0.60249713 3:0.8235776 4:0.40317185 5:0.31571695 6:0.73411712 7:0.21595239 8:0.70812087 9:0.31991899 10:0.48120318 11:0.29469458 12:0.16072381 13:0.32575089 14:0.43893124 15:0.31753065 16:0.55395718 17:0.38168172 18:0.22861661 
-4 4 1:0.58656688 2:0.39230229 3:0.63632 4:0.53807645 5:0.81297695 6:0.88966097 7:0.32721317 8:0.84023091 9:0.35324651 10:0.78674359 11:0.3939058 12:0.53068095 13:0.43804558 14:0.58899459 15:0.27647323 16:0.50068777 17:0.34742687 18:0.31980081 
-0 4 1:0.84414062 2:0.60551928 3:0.72243106 4:0.52200057 5:0.48996576 6:0.69124613 7:0.37010722 8:0.69720763 9:0.36832158 10:0.5453005 11:0.35463438 12:0.25575136 13:0.64626945 14:0.63693045 15:0.2930046 16:0.40357946 17:0.28496744 18:0.29190612 
-4 4 1:0.59404036 2:0.61568378 3:0.68946892 4:0.54407496 5:0.46476037 6:0.72200242 7:0.18806549 8:0.59964532 9:0.3063397 10:0.63535071 11:0.34374755 12:0.18850512 13:0.53710492 14:0.58378414 15:0.37476428 16:0.3875556 17:0.41455088 18:0.26602444 
-0 4 1:0.76538176 2:0.57561156 3:0.83687295 4:0.47856586 5:0.43534103 6:0.75325394 7:0.2230393 8:0.70954873 9:0.41776803 10:0.53923505 11:0.40735288 12:0.19461372 13:0.28884523 14:0.51657954 15:0.19095719 16:0.36692591 17:0.52514655 18:0.34431533 
-4 0 1:0.56866274 2:0.53697086 3:0.81377276 4:0.41350853 5:0.48406115 6:0.79821812 7:0.25003029 8:0.68136757 9:0.38698626 10:0.52193128 11:0.29098684 12:0.38023636 13:0.32416324 14:0.52133679 15:0.36585655 16:0.50470388 17:0.43341239 18:0.40767431 
-4 0 1:0.43034414 2:0.5049905 3:0.71370104 4:0.58062366 5:0.5215517 6:0.80014815 7:0.35713972 8:0.72842206 9:0.49931068 10:0.5341643 11:0.60019596 12:0.47397012 13:0.79769015 14:0.67473379 15:0.54408699 16:0.28270083 17:0.41866526 18:0.30817354 
-4 0 1:0.34681662 2:0.4232962 3:0.70106953 4:0.55314575 5:0.83159422 6:0.95466315 7:0.30538155 8:0.56522936 9:0.44379141 10:0.69933503 11:0.58399041 12:0.29200366 13:0.42477019 14:0.39224724 15:0.32644508 16:0.46803904 17:0.43990408 18:0.52982572 
-0 4 1:0.73493392 2:0.61293658 3:0.79934242 4:0.55220733 5:0.42728716 6:0.70528874 7:0.28009434 8:0.7368985 9:0.52309698 10:0.49636771 11:0.51982707 12:0.21906404 13:0.38113345 14:0.5202314 15:0.36430578 16:0.48875158 17:0.49056623 18:0.25504302 
-4 0 1:0.54973424 2:0.40473344 3:0.78273858 4:0.54249762 5:0.44134428 6:0.78480545 7:0.29831191 8:0.81505545 9:0.47900881 10:0.68740563 11:0.35920914 12:0.45587227 13:0.52183123 14:0.60961055 15:0.44144375 16:0.6940556 17:0.45284229 18:0.40920584 
-0 4 1:0.81583192 2:0.61508333 3:0.83396365 4:0.45883261 5:0.36748715 6:0.66141355 7:0.24847529 8:0.749131 9:0.38420887 10:0.48854408 11:0.32288967 12:0.21658323 13:0.46131697 14:0.66627838 15:0.45003462 16:0.41250036 17:0.35141971 18:0.2269287 
-0 4 1:0.82072281 2:0.6330279 3:0.82725261 4:0.45913252 5:0.40213655 6:0.70755121 7:0.26130183 8:0.76866004 9:0.39649353 10:0.48359733 11:0.37143691 12:0.28331772 13:0.31105829 14:0.54419683 15:0.47611112 16:0.40572253 17:0.4880333 18:0.39491791 
-4 4 1:0.82608385 2:0.54300478 3:0.83160448 4:0.44978201 5:0.4185837 6:0.81051605 7:0.17816725 8:0.76236845 9:0.2828144 10:0.53888065 11:0.29886342 12:0.29322655 13:0.20338747 14:0.65327179 15:0.45172329 16:0.72673018 17:0.56812142 18:0.4592399 
-4 4 1:0.60310262 2:0.51160749 3:0.70010543 4:0.56255198 5:0.60883738 6:0.78481814 7:0.37503395 8:0.81614124 9:0.43118162 10:0.58958875 11:0.546392 12:0.34364661 13:0.48289005 14:0.51415131 15:0.23805822 16:0.31068588 17:0.49541664 18:0.41665271 
-4 4 1:0.58404256 2:0.54375771 3:0.68082485 4:0.64942156 5:0.47433101 6:0.65912991 7:0.30006022 8:0.716336 9:0.40497146 10:0.65143709 11:0.45330162 12:0.45382795 13:0.59935875 14:0.71903601 15:0.51920339 16:0.47001582 17:0.44799751 18:0.30499029 
-4 0 1:0.43397739 2:0.45836556 3:0.84091734 4:0.43268005 5:0.50821612 6:0.61528421 7:0.42246004 8:0.69502088 9:0.45327108 10:0.59293004 11:0.34630271 12:0.48812395 13:0.17841935 14:0.61586221 15:0.35257805 16:0.60029709 17:0.27837196 18:0.55620452 
-0 4 1:0.77063136 2:0.61024617 3:0.80734153 4:0.55622681 5:0.51806369 6:0.69267655 7:0.33802111 8:0.73764511 9:0.37337244 10:0.44414116 11:0.39370529 12:0.33628706 13:0.48812594 14:0.56755558 15:0.22223128 16:0.42561573 17:0.4907479 18:0.48313653 
-0 4 1:0.74430876 2:0.62830073 3:0.79497124 4:0.50883328 5:0.50927742 6:0.69601292 7:0.33430316 8:0.72480096 9:0.51427789 10:0.5364751 11:0.51155499 12:0.19117984 13:0.35732832 14:0.57633558 15:0.29887508 16:0.36955063 17:0.52162834 18:0.43312697 
-4 4 1:0.6770885 2:0.50813263 3:0.67273627 4:0.53597276 5:0.46015039 6:0.74534644 7:0.29412269 8:0.6720786 9:0.38728402 10:0.6680598 11:0.46582752 12:0.22054915 13:0.51558554 14:0.5851055 15:0.30162764 16:0.39333511 17:0.5113056 18:0.39434915 
-4 0 1:0.77690347 2:0.60236084 3:0.77277299 4:0.57923655 5:0.47002119 6:0.7401948 7:0.25169481 8:0.67655412 9:0.39023099 10:0.62276228 11:0.52609779 12:0.40409662 13:0.49021814 14:0.57033162 15:0.35506374 16:0.53807414 17:0.48327018 18:0.50151162 
-4 0 1:0.47443641 2:0.70845955 3:0.70874695 4:0.38591479 5:0.54093006 6:0.67015087 7:0.32029191 8:0.63836685 9:0.51509501 10:0.57068346 11:0.42604438 12:0.41923469 13:0.56025227 14:0.57216742 15:0.34542815 16:0.5791108 17:0.42025156 18:0.32769432 
-4 0 1:0.47881595 2:0.6177766 3:0.78375654 4:0.43880096 5:0.52816801 6:0.64344499 7:0.35529148 8:0.64801932 9:0.58253998 10:0.63611974 11:0.54694021 12:0.30315463 13:0.56405923 14:0.546314 15:0.39669993 16:0.70068781 17:0.60164158 18:0.46235079 
-0 4 1:0.70446791 2:0.70215515 3:0.75071627 4:0.45215164 5:0.59159034 6:0.70771369 7:0.32519486 8:0.61260928 9:0.58520503 10:0.60233373 11:0.57398925 12:0.33259436 13:0.61410965 14:0.59876102 15:0.35498675 16:0.30339912 17:0.54926788 18:0.35515754 
-4 4 1:0.65072428 2:0.65102134 3:0.63310785 4:0.49254339 5:0.50309789 6:0.72237016 7:0.2845609 8:0.73632008 9:0.43462876 10:0.4733857 11:0.39237686 12:0.35817823 13:0.5222175 14:0.61274028 15:0.48063337 16:0.34202464 17:0.54613951 18:0.23118911 
-0.24212308431806398 4 1:0.75000272 2:0.55693283 3:0.69889783 4:0.48693244 5:0.44353163 6:0.78223612 7:0.32610735 8:0.71812056 9:0.41646717 10:0.52770701 11:0.45345597 12:0.19580742 13:0.44793507 14:0.54138021 15:0.38186564 16:0.34957779 17:0.51157829 18:0.22044512 
-0 4 1:0.79930211 2:0.57011571 3:0.8146442 4:0.44598974 5:0.46143476 6:0.70124203 7:0.2093171 8:0.66698337 9:0.29165221 10:0.56131001 11:0.38205806 12:0.2372678 13:0.25986966 14:0.57921918 15:0.18915185 16:0.3967026 17:0.42440091 18:0.40497412 
-0 4 1:0.84526681 2:0.6171161 3:0.81966374 4:0.4259211 5:0.44642365 6:0.63496748 7:0.22060943 8:0.61310055 9:0.4108148 10:0.45866095 11:0.33505698 12:0.19613583 13:0.49805015 14:0.61320965 15:0.27925013 16:0.46415472 17:0.34068083 18:0.500003 
-0 4 1:0.82311155 2:0.70213941 3:0.80339663 4:0.41445538 5:0.41393798 6:0.69796406 7:0.26162965 8:0.63205479 9:0.4382397 10:0.43375377 11:0.41797191 12:0.2068465 13:0.39186352 14:0.57741307 15:0.28372734 16:0.45431742 17:0.45920533 18:0.38588975 
-0 4 1:0.66964771 2:0.58499821 3:0.76026234 4:0.3183019 5:0.52096659 6:0.65384677 7:0.33808649 8:0.64992039 9:0.4286286 10:0.49288043 11:0.37023738 12:0.25255089 13:0.5771069 14:0.61639172 15:0.3255849 16:0.32694938 17:0.40557589 18:0.12510399 
-0 4 1:0.78090277 2:0.60677488 3:0.78625985 4:0.53738147 5:0.47245321 6:0.63907286 7:0.25350811 8:0.65851513 9:0.36064763 10:0.5368769 11:0.4005526 12:0.32852513 13:0.39789258 14:0.57538944 15:0.3376561 16:0.50038843 17:0.46530255 18:0.42585216 
-4 4 1:0.59769777 2:0.40057286 3:0.6830376 4:0.60354709 5:0.52433576 6:0.72230572 7:0.27599504 8:0.79235762 9:0.4439878 10:0.6055044 11:0.56947756 12:0.41795726 13:0.69593069 14:0.61694294 15:0.39695746 16:0.51336033 17:0.45040783 18:0.32247582 
-0 3.4707030583050735 1:0.82267964 2:0.62005385 3:0.83995478 4:0.46967094 5:0.41995924 6:0.68349898 7:0.26704812 8:0.64611592 9:0.43964841 10:0.54709904 11:0.35853282 12:0.19121107 13:0.51378537 14:0.5926941 15:0.28189268 16:0.46268406 17:0.3886126 18:0.34042104 
-4 4 1:0.77926589 2:0.52187317 3:0.71221568 4:0.50824041 5:0.46695403 6:0.8102314 7:0.3032249 8:0.88597283 9:0.49255912 10:0.5617292 11:0.50063915 12:0.35445964 13:0.34861336 14:0.70593741 15:0.52819584 16:0.57540587 17:0.46655633 18:0.46479213 
-0 4 1:0.77188191 2:0.58948249 3:0.85758057 4:0.39289572 5:0.48289827 6:0.75105221 7:0.31449923 8:0.67436052 9:0.49549505 10:0.51656008 11:0.41923693 12:0.46150934 13:0.31245336 14:0.65480649 15:0.31683689 16:0.5557518 17:0.431511 18:0.37896313 
-4 4 1:0.71654997 2:0.62749741 3:0.69869694 4:0.55566582 5:0.55809493 6:0.86960705 7:0.17404708 8:0.6056637 9:0.34506887 10:0.4453679 11:0.60995301 12:0.35576973 13:0.38271677 14:0.56499247 15:0.26751092 16:0.29706329 17:0.55990184 18:0.34712815 
-4 4 1:0.75735533 2:0.58278478 3:0.8471635 4:0.46426635 5:0.42348019 6:0.67501606 7:0.27067655 8:0.77345199 9:0.42933268 10:0.60021691 11:0.4396109 12:0.37006214 13:0.53744096 14:0.60075645 15:0.35106327 16:0.50072611 17:0.60406642 18:0.4342855 
-0 4 1:0.76293136 2:0.58937543 3:0.75586783 4:0.47835674 5:0.45950889 6:0.65398943 7:0.33341477 8:0.78790503 9:0.39450622 10:0.68084266 11:0.46617289 12:0.3153424 13:0.53708946 14:0.43639792 15:0.27644778 16:0.33097646 17:0.48777627 18:0.32406843 
-0 4 1:0.69483985 2:0.73947207 3:0.6491219 4:0.53751068 5:0.4595955 6:0.68067265 7:0.3820734 8:0.70154353 9:0.52191308 10:0.37976715 11:0.46526019 12:0.3124847 13:0.39213232 14:0.42245792 15:0.41701805 16:0.32911838 17:0.51921631 18:0.066376998 
-0 4 1:0.77711037 2:0.72816825 3:0.59891333 4:0.38099158 5:0.45795493 6:0.62514254 7:0.30505911 8:0.5171455 9:0.4981577 10:0.33610255 11:0.55863104 12:0.46851851 13:0.12383808 14:0.53907252 15:0.19534486 16:0.59813273 17:0.40669003 18:0.12096408 
-0 4 1:0.73666726 2:0.64158661 3:0.758416 4:0.5334532 5:0.56863639 6:0.72939149 7:0.30791309 8:0.68252455 9:0.43926342 10:0.48799443 11:0.40031462 12:0.19713167 13:0.38412746 14:0.62159317 15:0.14215718 16:0.2597923 17:0.4126762 18:0.3750608 
-0 4 1:0.7239503 2:0.60728762 3:0.72386501 4:0.49994944 5:0.60691931 6:0.7078101 7:0.29303306 8:0.72383411 9:0.46205525 10:0.5516366 11:0.47117235 12:0.42539511 13:0.67354158 14:0.68470881 15:0.57552633 16:0.48686503 17:0.64228959 18:0.33234522 
-0 4 1:0.71763241 2:0.46572883 3:0.85530722 4:0.40444287 5:0.54083177 6:0.53123327 7:0.33789514 8:0.70676364 9:0.43868989 10:0.60317253 11:0.31096381 12:0.60338258 13:0.48608364 14:0.82087117 15:0.39227934 16:0.70391754 17:0.32331098 18:0.54721221 
-0 4 1:0.51406401 2:0.60655976 3:0.62400975 4:0.51787062 5:0.51324798 6:0.64531143 7:0.34374045 8:0.59815678 9:0.56533413 10:0.47209918 11:0.53295224 12:0.33962945 13:0.35584615 14:0.61554652 15:0.52787334 16:0.46063627 17:0.35674746 18:0.3447513 
-4 4 1:0.66610917 2:0.60169033 3:0.68567998 4:0.60807429 5:0.58327895 6:0.61103477 7:0.2897652 8:0.57838628 9:0.43304977 10:0.60267627 11:0.62369646 12:0.29146863 13:0.46102713 14:0.68993344 15:0.25811125 16:0.58931097 17:0.47905176 18:0.42787387 
-0 4 1:0.60587927 2:0.58887181 3:0.64637176 4:0.6616297 5:0.56731107 6:0.61989031 7:0.36697924 8:0.68228712 9:0.57722349 10:0.65021257 11:0.62405387 12:0.27559958 13:0.52294625 14:0.64337365 15:0.37441736 16:0.46765912 17:0.43840795 18:0.34531263 
-4 4 1:0.64750857 2:0.60092902 3:0.69279603 4:0.57557662 5:0.54493456 6:0.63687543 7:0.36300991 8:0.60945361 9:0.50652795 10:0.63420932 11:0.49969313 12:0.44432394 13:0.39898173 14:0.64257755 15:0.24560978 16:0.46759962 17:0.4858452 18:0.58241122 
-0.019376802990274236 0 1:0.39038975 2:0.48755177 3:0.77290502 4:0.7775541 5:0.56037622 6:0.69813163 7:0.49290428 8:0.74623847 9:0.54015735 10:0.56056211 11:0.72043125 12:0.13129275 13:0.59877962 14:0.5667896 15:0.40622744 16:0.48646969 17:0.49112691 18:0.25437514 
-0 4 1:0.60518801 2:0.64374005 3:0.6715489 4:0.56954131 5:0.43844855 6:0.71587406 7:0.35454899 8:0.6428794 9:0.58669652 10:0.53850556 11:0.55422617 12:0.17556296 13:0.52517078 14:0.70809762 15:0.39125054 16:0.48355427 17:0.46254916 18:0.44905858 
-4 4 1:0.60655449 2:0.65021178 3:0.64603773 4:0.51721069 5:0.46530453 6:0.65472767 7:0.4123131 8:0.69531946 9:0.53422227 10:0.52050812 11:0.29613524 12:0.16284289 13:0.37051019 14:0.52650467 15:0.31909026 16:0.52954759 17:0.44435244 18:0.44748676 
-0 4 1:0.63029988 2:0.54854494 3:0.60387816 4:0.74152447 5:0.60450102 6:0.67574635 7:0.36166186 8:0.6307467 9:0.49289894 10:0.57970436 11:0.55794037 12:0.17035779 13:0.62541923 14:0.59523282 15:0.31281983 16:0.52707464 17:0.33318178 18:0.27700461 
-0 4 1:0.58220197 2:0.66177616 3:0.62941488 4:0.58999084 5:0.48926951 6:0.68686229 7:0.42581093 8:0.6262895 9:0.52388623 10:0.49078479 11:0.42521232 12:0.27187488 13:0.5012485 14:0.58808658 15:0.42047299 16:0.43894747 17:0.32763206 18:0.35644137 
-0 0.87007313241812789 1:0.51221023 2:0.71126258 3:0.58078835 4:0.56897137 5:0.46671963 6:0.72045288 7:0.43084126 8:0.56889331 9:0.69817442 10:0.59718899 11:0.49792719 12:0.078755023 13:0.45318681 14:0.60773244 15:0.46072821 16:0.32163877 17:0.28073948 18:0.22556063 
-0 4 1:0.65619549 2:0.64006589 3:0.62307844 4:0.61117375 5:0.487562 6:0.7412341 7:0.4157004 8:0.63261776 9:0.5434806 10:0.54882047 11:0.56073825 12:0.12334714 13:0.38742672 14:0.45600743 15:0.20121491 16:0.41074536 17:0.38895826 18:0.49181414 
-0 4 1:0.67711854 2:0.5882018 3:0.66668345 4:0.58485329 5:0.53279688 6:0.66647836 7:0.3605419 8:0.59017258 9:0.56604624 10:0.41186206 11:0.47044155 12:0.319089 13:0.64039133 14:0.75456185 15:0.24976587 16:0.58437414 17:0.3875384 18:0.51734143 
-4 4 1:0.66056451 2:0.58323342 3:0.60379026 4:0.66572955 5:0.53104641 6:0.62131697 7:0.25056849 8:0.57727013 9:0.66002447 10:0.64581968 11:0.55160448 12:0.28383387 13:0.3856821 14:0.61586161 15:0.27736222 16:0.5424207 17:0.42805693 18:0.6632603 
-0 0.98376512720370612 1:0.6487879 2:0.54635225 3:0.79918647 4:0.50983452 5:0.50699722 6:0.60240876 7:0.4360252 8:0.64321087 9:0.41526341 10:0.6706601 11:0.54261114 12:0.44854599 13:0.40699794 14:0.79481183 15:0.44175076 16:0.62809352 17:0.41153924 18:0.54543251 
-4 4 1:0.5890401 2:0.62275174 3:0.62374423 4:0.62830655 5:0.60589628 6:0.66958043 7:0.37601502 8:0.70934481 9:0.54392045 10:0.57526356 11:0.53495567 12:0.21028339 13:0.53893972 14:0.52204784 15:0.32897765 16:0.5854541 17:0.51677895 18:0.39626722 
-0 4 1:0.47866616 2:0.62066965 3:0.61980388 4:0.6301612 5:0.54217643 6:0.67222856 7:0.39649518 8:0.5822808 9:0.56732099 10:0.43086424 11:0.6684915 12:0.1564622 13:0.59201282 14:0.60628763 15:0.48490066 16:0.54997414 17:0.34948305 18:0.21829177 
-4 4 1:0.35326912 2:0.55924359 3:0.52701619 4:0.6806992 5:0.57235144 6:0.69933202 7:0.43972657 8:0.89684057 9:0.58265037 10:0.37748383 11:0.80968354 12:0.29201374 13:0.65108392 14:0.58828274 15:0.2296917 16:0.27178731 17:0.5029184 18:0.38859363 
-4 4 1:0.5206075 2:0.62264524 3:0.57018908 4:0.70107869 5:0.42668965 6:0.60736477 7:0.39824164 8:0.75270216 9:0.4801256 10:0.45490012 11:0.61396155 12:0.29502767 13:0.67716292 14:0.68393966 15:0.39126533 16:0.32974734 17:0.49231144 18:0.55577296 
-0 4 1:0.51937 2:0.70005159 3:0.59310536 4:0.5896628 5:0.60460401 6:0.71429123 7:0.46627109 8:0.5845456 9:0.51923876 10:0.40197784 11:0.53087752 12:0.1324193 13:0.35182452 14:0.58508733 15:0.24432178 16:0.39076093 17:0.36395564 18:0.27670411 
-4 4 1:0.59800162 2:0.62667307 3:0.56386767 4:0.70057314 5:0.58668589 6:0.65880391 7:0.44228111 8:0.69699311 9:0.48407902 10:0.39966066 11:0.68853654 12:0.18342231 13:0.51469036 14:0.52264517 15:0.21005937 16:0.3546594 17:0.57061822 18:0.44145006 
-0 4 1:0.5364174 2:0.69017784 3:0.59433221 4:0.62067082 5:0.56874246 6:0.70699369 7:0.46441531 8:0.58700101 9:0.51843376 10:0.52575401 11:0.60404708 12:0.20274504 13:0.51688493 14:0.61622328 15:0.28803173 16:0.29216571 17:0.31488854 18:0.33657185 
-4 4 1:0.6066661 2:0.6165973 3:0.61661039 4:0.58904809 5:0.5608118 6:0.57902458 7:0.45015779 8:0.66702629 9:0.47931905 10:0.54741 11:0.58625556 12:0.23348112 13:0.46794777 14:0.7331225 15:0.2269876 16:0.46733571 17:0.54091599 18:0.50072897 
-4 4 1:0.49001966 2:0.73122925 3:0.52151545 4:0.57227717 5:0.43151466 6:0.72400911 7:0.55630169 8:0.52296225 9:0.56582881 10:0.43347796 11:0.61109644 12:0.034327555 13:0.47829377 14:0.64736437 15:0.44114701 16:0.465738 17:0.40502455 18:0.45756169 
-0 4 1:0.49520462 2:0.72715509 3:0.56216989 4:0.56777285 5:0.46101457 6:0.57956571 7:0.48132977 8:0.58040506 9:0.5533168 10:0.64376281 11:0.56814754 12:0.19877371 13:0.44768411 14:0.59812922 15:0.51202916 16:0.3299854 17:0.26968283 18:0.22647732 
-0 4 1:0.48106391 2:0.71356879 3:0.562011 4:0.54219553 5:0.56902355 6:0.67329062 7:0.49778515 8:0.68488239 9:0.57082455 10:0.46761856 11:0.45911572 12:0.12496948 13:0.42186875 14:0.58689897 15:0.56372622 16:0.62991042 17:0.47379228 18:0.37959224 
-4 0 1:0.40325938 2:0.57649787 3:0.65485687 4:0.76708025 5:0.51749107 6:0.56205209 7:0.56997991 8:0.68262765 9:0.67608984 10:0.59439859 11:0.5649127 12:0.278952 13:0.6001561 14:0.647422 15:0.48239935 16:0.35467348 17:0.45418148 18:0.40235119 
-1.9334656613232231 0 1:0.38234803 2:0.58222555 3:0.80055837 4:0.52603438 5:0.79264654 6:0.75007702 7:0.69231532 8:0.66019355 9:0.55748326 10:0.47585315 11:0.62266435 12:0.21758866 13:0.63096508 14:0.6799461 15:0.45183264 16:0.58380336 17:0.80606268 18:0.53505454 
-4 0 1:0.69241298 2:0.61484813 3:0.52574414 4:0.6908706 5:0.45864658 6:0.57163981 7:0.57883769 8:0.57893249 9:0.65890044 10:0.77260845 11:0.50038102 12:0.65305875 13:0.61738843 14:0.54600222 15:0.62160033 16:0.47395009 17:0.53223908 18:0.58422178 
-0 4 1:0.74515125 2:0.57495247 3:0.54232848 4:0.66924792 5:0.48161343 6:0.57770164 7:0.60049144 8:0.55878698 9:0.65659027 10:0.71042211 11:0.48908277 12:0.46835199 13:0.53975307 14:0.54811891 15:0.72180968 16:0.27155635 17:0.46671114 18:0.3508016 
-4 0 1:0.67847958 2:0.58028594 3:0.52040829 4:0.72548008 5:0.44136742 6:0.61510926 7:0.64872223 8:0.60041071 9:0.63522864 10:0.68679212 11:0.41711784 12:0.49772908 13:0.5044171 14:0.62598729 15:0.6520343 16:0.55500363 17:0.52856936 18:0.44286297 
-4 0 1:0.69183402 2:0.54907893 3:0.53393481 4:0.70584444 5:0.42495002 6:0.60672736 7:0.58353368 8:0.66432461 9:0.76065165 10:0.70964209 11:0.41895782 12:0.54873192 13:0.63358346 14:0.59357592 15:0.63577521 16:0.48183163 17:0.46928748 18:0.65351895 
-4 -4 1:0.69389215 2:0.59911688 3:0.75637415 4:0.5471345 5:0.46656388 6:0.6641879 7:0.3589326 8:0.68125205 9:0.39278857 10:0.65518875 11:0.41404658 12:0.43532778 13:0.34601846 14:0.52179139 15:0.25083284 16:0.34546006 17:0.42721384 18:0.45235348 
-4 -4 1:0.54164836 2:0.56745994 3:0.73041278 4:0.48991975 5:0.49895802 6:0.67361721 7:0.42650094 8:0.68895838 9:0.39003084 10:0.53871312 11:0.56611079 12:0.50598861 13:0.32509606 14:0.36183191 15:0.40189666 16:0.43990104 17:0.38122194 18:0.35343561 
-4 -0 1:0.6740768 2:0.50031025 3:0.47597435 4:0.4383493 5:0.44885684 6:0.75841547 7:0.38982692 8:0.62663545 9:0.50758328 10:0.74985666 11:0.21837152 12:0.53197837 13:0.43654439 14:0.55896359 15:0.54313903 16:0.6698659 17:0.66282063 18:0.54880488 
-4 -0 1:0.54669145 2:0.40709627 3:0.35383708 4:0.3746944 5:0.55418682 6:0.5789111 7:0.49666852 8:0.3618813 9:0.023454827 10:0.63901928 11:0.27927905 12:0.11114835 13:0.33043212 14:0.62694985 15:0.23550362 16:0.5201408 17:0.24134568 18:0.403423 
-4 -0 1:0.68911508 2:0.38651926 3:0.42681015 4:0.51819782 5:0.41118254 6:0.64183702 7:0.48086619 8:0.47141711 9:0.23565412 10:0.73073554 11:0.25759135 12:0.27727309 13:0.3909386 14:0.57068001 15:0.27663267 16:0.60118855 17:0.1404462 18:0.74764451 
-4 -4 1:0.60236292 2:0.28886936 3:0.64000032 4:0.59914558 5:0.47791077 6:0.69502258 7:0.36374482 8:0.78626104 9:0.43241719 10:0.80488675 11:0.57993434 12:0.5761857 13:0.60787405 14:0.69862584 15:0.41748774 16:0.46502446 17:0.59501119 18:0.39267213 
-3.6316571514735427 -0 1:0.71311976 2:0.35596701 3:0.38629338 4:0.42158756 5:0.42141871 6:0.66119923 7:0.39549281 8:0.41816735 9:0.047315458 10:0.56450284 11:0.1765672 12:0.309276 13:0.30158071 14:0.55229825 15:0.2748945 16:0.57549502 17:0.27899787 18:0.62339153 
-4 -0 1:0.65198337 2:0.31559122 3:0.56474648 4:0.5447999 5:0.38780235 6:0.63705802 7:0.37875217 8:0.68370596 9:0.35342865 10:0.674117 11:0.35416498 12:0.64423054 13:0.36024588 14:0.59449904 15:0.43265854 16:0.38361166 17:0.49355598 18:0.48249119 
-4 -0 1:0.71005971 2:0.39683663 3:0.43283699 4:0.48145174 5:0.47609345 6:0.72918096 7:0.49464563 8:0.50656402 10:0.71251454 11:0.29057199 12:0.32533532 13:0.46223476 14:0.47135491 15:0.34276521 16:0.40992208 17:0.1225787 18:0.52018209 
