svm_type c_svc
kernel_type linear
nr_class 4
total_sv 1114
rho -15.190107122477595 -4.6326098301060359 -3.4770759261273403 10.044076015728836 14.249138026699919 -0.95542441494246588
label 11 36 38 42
nr_sv 301 254 277 282
SV
0 4 0 1:0.51827164 2:0.33781823 3:0.59897512 4:0.54633363 5:0.42668876 6:0.53698544 7:0.47026876 8:0.67593631 9:0.33850179 10:0.7196728 11:0.27947889 12:0.37084594 13:0.43771776 14:0.65032589 15:0.39543882 16:0.51043825 17:0.40954066 18:0.077680066 
0 4 4 1:0.55200037 2:0.31452294 3:0.51653823 4:0.5523601 5:0.45082872 6:0.46090067 7:0.52385479 8:0.62132095 9:0.36410186 10:0.75901005 11:0.27233487 12:0.49705817 13:0.36995775 14:0.57651447 15:0.34912821 16:0.56114216 17:0.41404082 18:0.37296376 
0 4 4 1:0.59730339 2:0.31611658 3:0.53238792 4:0.55735316 5:0.43325625 6:0.42885224 7:0.51245253 8:0.61121229 9:0.30231076 10:0.72688226 11:0.30642195 12:0.48982269 13:0.39169252 14:0.51282469 15:0.28763704 16:0.23964621 17:0.12749188 18:0.11380526 
0 4 4 1:0.61788264 2:0.34071331 3:0.5154128 4:0.57558983 5:0.42879402 6:0.43434795 7:0.50490539 8:0.69543451 9:0.40068011 10:0.80521256 11:0.31924426 12:0.37880081 13:0.40784149 14:0.51511203 15:0.24513379 16:0.2867463 17:0.26625253 18:0.22641273 
0 4 0 1:0.56018976 2:0.27245037 3:0.50525292 4:0.65501582 5:0.4960366 6:0.45125452 7:0.46870913 8:0.68814282 9:0.28727041 10:0.81842041 11:0.35175998 12:0.58682545 13:0.34903945 14:0.58191249 15:0.35796343 16:0.41662394 17:0.31799874 18:0.15336731 
0 4 0 1:0.31681931 2:0.46380461 3:0.32312602 4:0.3495841 5:0.49246206 6:0.58134397 7:0.35523158 8:0.49864759 9:0.34470494 10:0.64209553 11:0.34325992 12:0.50456884 13:0.35326515 14:0.61121358 15:0.53989594 16:0.44576248 17:0.85180892 18:0.55604025 
0 4 0 1:0.24989864 2:0.56850746 3:0.34106089 4:0.41105859 5:0.5439651 6:0.58979074 7:0.48679274 8:0.45971333 9:0.37066312 10:0.7567791 11:0.54337993 12:0.36567074 13:0.43346755 14:0.65776363 15:0.56323052 16:0.54414456 17:0.71107721 18:0.49324791 
0 4 0 1:0.52209773 2:0.49079464 3:0.63045397 4:0.52378418 5:0.51539978 6:0.57811268 7:0.43364183 8:0.66338737 9:0.31926532 10:0.69552901 11:0.37878309 12:0.45372579 13:0.5324983 14:0.53990774 15:0.51238628 16:0.37211249 17:0.56819875 18:0.17941452 
4 0 4 1:0.67442088 2:0.60300624 3:0.63670213 4:0.33097507 5:0.50182303 6:0.68581861 7:0.42409245 8:0.65537501 9:0.24500327 10:0.58621771 11:0.42621443 12:0.34426267 13:0.10213666 14:0.55226307 15:0.4473259 16:0.27222508 17:0.58901502 18:0.41435424 
4 0 4 1:0.61180656 2:0.66470262 3:0.62962406 4:0.48574802 5:0.56953265 6:0.57293393 7:0.42378002 8:0.67971484 9:0.40132112 10:0.55343433 11:0.3372529 12:0.35711968 13:0.28808947 14:0.50766367 15:0.43757086 16:0.40624532 17:0.43787468 18:0.36371498 
4 0 0 1:0.47693001 2:0.62222503 3:0.69795285 4:0.53825023 5:0.70603375 6:0.61244925 7:0.52654214 8:0.72473687 9:0.32599604 10:0.54068437 11:0.53387581 12:0.57908997 13:0.44820108 14:0.50771534 15:0.34983216 16:0.21857685 17:0.27735578 18:0.45657093 
4 0 4 1:0.65566216 2:0.56597734 3:0.64252436 4:0.47944424 5:0.60456531 6:0.60361915 7:0.47687083 8:0.68063094 9:0.36350534 10:0.59124161 11:0.36563427 12:0.41955599 13:0.40560115 14:0.39751896 15:0.38209994 16:0.32520015 17:0.21357533 18:0.26945503 
4 0 4 1:0.58866944 2:0.62296946 3:0.68646665 4:0.53807263 5:0.47944855 6:0.59067633 7:0.5864438 8:0.72345295 9:0.38727972 10:0.73913267 11:0.47103561 12:0.29761607 13:0.36746179 14:0.56222324 15:0.46856272 16:0.24432756 17:0.46118741 18:0.30565635 
4 4 4 1:0.60726467 2:0.6118934 3:0.68340127 4:0.50375705 5:0.46995028 6:0.56838393 7:0.54110218 8:0.69485194 9:0.45228964 10:0.78553235 11:0.39456017 12:0.30115355 13:0.42966746 14:0.64759619 15:0.36720086 16:0.24689304 17:0.58382983 18:0.23441647 
4 0 4 1:0.6907538 2:0.60503338 3:0.69363709 4:0.50316567 5:0.50327377 6:0.60547294 7:0.43267306 8:0.70748159 9:0.42294658 10:0.69109399 11:0.37113557 12:0.40614228 13:0.53392688 14:0.50288325 15:0.35673263 16:0.3139618 17:0.17597913 18:0.1641369 
4 0 4 1:0.61069339 2:0.63115961 3:0.6416562 4:0.49503856 5:0.61587722 6:0.69050374 7:0.48492035 8:0.69385888 9:0.31789318 10:0.7028196 11:0.47278554 12:0.34749518 13:0.34288609 14:0.64123183 15:0.36454491 16:0.18887506 17:0.53641832 18:0.46004573 
0 0 4 1:0.50492522 2:0.61265173 3:0.57705849 4:0.50168663 5:0.67043533 6:0.60967662 7:0.48610045 8:0.62911667 9:0.32823015 10:0.64247185 11:0.32455587 12:0.48176967 13:0.49734078 14:0.56683589 15:0.36570678 16:0.22821878 17:0.24313343 18:0.24751497 
4 0.0050115535751165136 0 1:0.45771229 2:0.59962127 3:0.73463331 4:0.51485589 5:0.73788033 6:0.68481994 7:0.52009277 8:0.67378175 9:0.34364799 10:0.7136018 11:0.56661442 12:0.47063671 13:0.36691076 14:0.51177571 15:0.41674342 16:0.35985505 17:0.50976098 18:0.44695232 
4 0 4 1:0.56997991 2:0.61124872 3:0.66530449 4:0.44864414 5:0.62417636 6:0.65385847 7:0.45467492 8:0.69305849 9:0.3670171 10:0.69915083 11:0.32787454 12:0.35705681 13:0.58393716 14:0.50623761 15:0.38628767 16:0.41467713 17:0.45525931 18:0.40400321 
4 0 0 1:0.4154038 2:0.66270745 3:0.73765385 4:0.47966935 5:0.61103573 6:0.642242 7:0.54567896 8:0.71579421 9:0.47342134 10:0.68426313 11:0.51943291 12:0.44790498 13:0.5256555 14:0.56716701 15:0.38340788 16:0.2561531 17:0.30399616 18:0.40286516 
4 0 0 1:0.48095626 2:0.67130673 3:0.60352131 4:0.49888403 5:0.64089431 6:0.58377683 7:0.49298773 8:0.65948674 9:0.44551854 10:0.60058115 11:0.51089993 12:0.39485759 13:0.72289922 14:0.64749345 15:0.42845272 16:0.34621962 17:0.37165232 18:0.36357553 
0 4 4 1:0.47848813 2:0.32113759 3:0.47520506 4:0.40210138 5:0.46378843 6:0.59302157 7:0.38006014 8:0.54937444 9:0.30766512 10:0.64551184 11:0.455949 12:0.68146304 13:0.60494409 14:0.5725748 15:0.49607363 16:0.53674596 17:0.71721483 18:0.37062429 
0 4 4 1:0.58966989 2:0.45607782 3:0.48430337 4:0.61089518 5:0.53367622 6:0.52695369 7:0.38325646 8:0.61686757 9:0.35169794 10:0.7392514 11:0.38529379 12:0.4971993 13:0.38910406 14:0.56813795 15:0.4697724 16:0.41570377 17:0.80184655 18:0.36962949 
0 4 0 1:0.54867444 2:0.39739604 3:0.43491628 4:0.57708114 5:0.46164885 6:0.51140747 7:0.36545455 8:0.59535687 9:0.32704541 10:0.76460578 11:0.38728677 12:0.51043855 13:0.46765225 14:0.50704426 15:0.50720986 16:0.48729847 17:0.74204655 18:0.39513179 
0 4 0 1:0.41669852 2:0.25626577 3:0.37882234 4:0.61728138 5:0.36219369 6:0.47254665 7:0.3605764 8:0.55444649 9:0.15619805 10:0.61027664 11:0.46589234 12:0.51426884 13:0.50357101 14:0.51314206 15:0.6073196 16:0.41664245 17:0.68793884 18:0.35894392 
0 4 0 1:0.56022441 2:0.38524689 3:0.59483719 4:0.70630759 5:0.63478177 6:0.64763519 7:0.41725788 8:0.6144156 9:0.40613399 10:0.84933274 11:0.45553246 12:0.50804868 13:0.35368288 14:0.55401167 15:0.50831643 16:0.33246942 17:0.54945616 18:0.26750892 
4 0 4 1:0.76691688 2:0.53812305 3:0.72989737 4:0.48509827 5:0.47869821 6:0.57610198 7:0.43405135 8:0.59933723 9:0.33608292 10:0.68482641 11:0.39532512 12:0.42018662 13:0.52494522 14:0.46010259 15:0.41768458 16:0.23773223 17:0.19405468 18:0.20889079 
4 4 0 1:0.47888539 2:0.51993281 3:0.60940194 4:0.75293994 5:0.70260773 6:0.59270314 7:0.52808214 8:0.60246212 9:0.33605864 10:0.81015536 11:0.46655855 12:0.46506158 13:0.14441247 14:0.41122535 15:0.53695481 16:0.10069364 17:0.41923093 18:0.12409713 
4 0 4 1:0.73587512 2:0.55482998 3:0.72074485 4:0.43027356 5:0.46707458 6:0.44724346 7:0.45080476 8:0.61516201 9:0.35536651 10:0.64745708 11:0.26421878 12:0.25177124 13:0.47197017 14:0.52313299 15:0.43428528 16:0.35469999 17:0.45331943 18:0.36861953 
0 4 0 1:0.54323425 2:0.43659539 3:0.58625251 4:0.67753011 5:0.68191369 6:0.60487635 7:0.45847323 8:0.59962879 9:0.39915693 10:0.82781318 11:0.43718948 12:0.48488813 13:0.28527623 14:0.51572873 15:0.47893654 16:0.25814084 17:0.54126595 18:0.32201265 
0 4 0 1:0.52750714 2:0.42171814 3:0.63379175 4:0.75181245 5:0.62062759 6:0.6291596 7:0.52264044 8:0.65321899 9:0.31158648 10:0.78025514 11:0.4145107 12:0.39964426 13:0.1522094 14:0.43624032 15:0.39181996 16:0.15349365 17:0.5785366 18:0.21082723 
0 4 0 1:0.4417323 2:0.35069634 3:0.56927756 4:0.74209307 5:0.64116019 6:0.56109548 7:0.48448511 8:0.66344732 9:0.40169784 10:0.81006119 11:0.4045009 12:0.56036315 13:0.32048151 14:0.4105842 15:0.55586907 16:0.3705856 17:0.63291012 18:0.10830097 
4 0 4 1:0.79521034 2:0.54326107 3:0.66557935 4:0.40650995 5:0.47753957 6:0.58254674 7:0.48192578 8:0.63633724 9:0.48669909 10:0.73406253 11:0.33634935 12:0.38853066 13:0.56274018 14:0.31173287 15:0.4032678 16:0.42887233 17:0.34163621 18:0.31023981 
3.7381234178725053 4 0 1:0.55585857 2:0.44011174 3:0.56209222 4:0.69834033 5:0.65854477 6:0.56820177 7:0.47454846 8:0.65207065 9:0.46836167 10:0.78695179 11:0.33344002 12:0.54871187 13:0.29989949 14:0.53594358 15:0.51445406 16:0.36712298 17:0.65402043 18:0.25403943 
4 4 0 1:0.58203181 2:0.48267879 3:0.65835394 4:0.75351989 5:0.70019163 6:0.69588288 7:0.51574054 8:0.60905897 9:0.3862687 10:0.86024161 11:0.44784982 12:0.33151942 13:0.0846878 14:0.41288322 15:0.47597567 16:0.19055807 17:0.47716882 18:0.2352276 
4 0 4 1:0.70874945 2:0.51293727 3:0.69963481 4:0.44684969 5:0.52287676 6:0.58251672 7:0.49709781 8:0.66317782 9:0.36708856 10:0.65588989 11:0.39913953 12:0.31040745 13:0.60599219 14:0.53950825 15:0.36608956 16:0.38206635 17:0.40517063 18:0.21782312 
4 4 0 1:0.55512316 2:0.44134167 3:0.53805277 4:0.64109038 5:0.63822085 6:0.58220409 7:0.4756843 8:0.62177738 9:0.44740578 10:0.80259731 11:0.41875032 12:0.52418681 13:0.28415964 14:0.50716996 15:0.6730123 16:0.42072145 17:0.85655953 18:0.30212073 
4 3.0761784325319956 4 1:0.74510496 2:0.61906314 3:0.71072305 4:0.5320317 5:0.51970852 6:0.62832063 7:0.46108848 8:0.70739966 9:0.37778562 10:0.65060198 11:0.29316605 12:0.38768829 13:0.37620717 14:0.55470717 15:0.45682676 16:0.34995031 17:0.4508549 18:0.2494966 
4 4 4 1:0.66544116 2:0.55468644 3:0.51047815 4:0.47435158 5:0.52068414 6:0.65126964 7:0.53682626 8:0.63222339 9:0.25206943 10:0.64805837 11:0.37213405 12:0.41656884 13:0.59226119 14:0.529145 15:0.46997748 16:0.44268735 17:0.38139464 18:0.45070883 
0 0 4 1:0.62290976 2:0.5365333 3:0.53860358 4:0.3842022 5:0.53618465 6:0.56519177 7:0.49203787 8:0.6781445 9:0.28859104 10:0.61226546 11:0.36761 12:0.42898703 13:0.47337384 14:0.54231836 15:0.43255228 16:0.20184029 17:0.37477858 18:0.30717421 
4 4 4 1:0.65001595 2:0.51804417 3:0.57455446 4:0.45071505 5:0.67498602 6:0.61331889 7:0.447984 8:0.67200632 9:0.3479734 10:0.71185368 11:0.57004269 12:0.54022367 13:0.56784277 14:0.66624879 15:0.43767336 16:0.29577589 17:0.54749428 18:0.33573054 
0 4 0 1:0.35506094 2:0.274891 3:0.62588078 4:0.48382541 5:0.30649581 6:0.53085377 7:0.34915852 8:0.56982637 9:0.40199563 10:0.71341714 11:0.48125378 12:0.36810235 13:0.52642613 14:0.49752661 15:0.56161771 16:0.38645516 17:0.55091759 18:0.16581655 
4 4 0 1:0.55187818 2:0.59778643 3:0.72424127 4:0.56478748 5:0.51255257 6:0.66519545 7:0.46918137 8:0.60684576 9:0.52687344 10:0.70545409 11:0.41560242 12:0.53649752 13:0.42028137 14:0.58339351 15:0.5668343 16:0.53659605 17:0.43826264 18:0.41765426 
0 4 0 1:0.54823727 2:0.47480983 3:0.5931137 4:0.48103134 5:0.65194866 6:0.4501824 7:0.41597219 8:0.64240029 9:0.27243921 10:0.67292065 11:0.56744524 12:0.46823321 13:0.56986036 14:0.62585506 15:0.49402744 16:0.47059681 17:0.67280905 18:0.48578361 
4 0 4 1:0.59689055 2:0.59539962 3:0.70380177 4:0.49235378 5:0.55041261 6:0.67551404 7:0.4074607 8:0.65068768 9:0.26860686 10:0.55801058 11:0.32642687 12:0.38456454 13:0.4468449 14:0.5575494 15:0.27401139 16:0.3259386 17:0.44102764 18:0.21798983 
4 0 4 1:0.65431828 2:0.58446744 3:0.67666878 4:0.47856844 5:0.46673049 6:0.5031943 7:0.43555462 8:0.65552711 9:0.26671889 10:0.69049846 11:0.46173073 12:0.37836851 13:0.38898786 14:0.49915774 15:0.38178125 16:0.2553808 17:0.4923826 18:0.45229211 
4 4 4 1:0.57069318 2:0.55397553 3:0.66112935 4:0.57626564 5:0.61111201 6:0.65573879 7:0.45604487 8:0.59191939 9:0.30805034 10:0.69464881 11:0.45106247 12:0.31071933 13:0.49082612 14:0.57194842 15:0.42726609 16:0.34128202 17:0.63412331 18:0.43444104 
4 4 4 1:0.62342899 2:0.59016145 3:0.72939837 4:0.51422014 5:0.53663264 6:0.61825483 7:0.47976045 8:0.65243211 9:0.37968009 10:0.77059162 11:0.36905535 12:0.49242409 13:0.52294222 14:0.59126317 15:0.455716 16:0.32536646 17:0.57222363 18:0.2469154 
0 4 4 1:0.58868627 2:0.4841365 3:0.5785036 4:0.43732653 5:0.58384646 6:0.54269219 7:0.4866821 8:0.72813623 9:0.37290004 10:0.70075562 11:0.40205052 12:0.39686366 13:0.500629 14:0.57853619 15:0.50562357 16:0.41614299 17:0.59326415 18:0.47525807 
4 4 4 1:0.60717305 2:0.58537551 3:0.6211933 4:0.52312509 5:0.55671178 6:0.51104155 7:0.44510138 8:0.64611494 9:0.34376472 10:0.76087039 11:0.37590295 12:0.46858701 13:0.71362976 14:0.61256857 15:0.39809023 16:0.33587375 17:0.48797629 18:0.43735075 
4 4 4 1:0.65744576 2:0.53614098 3:0.73336172 4:0.54524494 5:0.6732764 6:0.71206971 7:0.45176467 8:0.66683913 9:0.29931749 10:0.64633569 11:0.43673158 12:0.43690237 13:0.34944705 14:0.56004374 15:0.42337558 16:0.33692112 17:0.56223344 18:0.35614396 
4 0 0 1:0.61234438 2:0.61400091 3:0.74741978 4:0.48445261 5:0.65079089 6:0.67298413 7:0.48908468 8:0.73825856 9:0.37579998 10:0.68865138 11:0.4355914 12:0.39454283 13:0.43610778 14:0.47075583 15:0.39229198 16:0.26841624 17:0.23542998 18:0.42328024 
4 0 4 1:0.68749239 2:0.5853691 3:0.75773633 4:0.5234555 5:0.60538829 6:0.65338937 7:0.43016893 8:0.6122676 9:0.31499738 10:0.70211783 11:0.50594134 12:0.47780618 13:0.38989776 14:0.50975186 15:0.41103594 16:0.26106109 17:0.28038306 18:0.33867734 
4 4 4 1:0.58829973 2:0.59727268 3:0.58422738 4:0.5227536 5:0.54972581 6:0.57776931 7:0.47125392 8:0.60805206 9:0.33084923 10:0.65191214 11:0.25821497 12:0.45632115 13:0.63415257 14:0.51247454 15:0.34835208 16:0.2901811 17:0.55848207 18:0.41364709 
4 4 4 1:0.59525892 2:0.65517347 3:0.57139843 4:0.49645412 5:0.61588788 6:0.65776638 7:0.46988087 8:0.52946067 9:0.42073452 10:0.76854994 11:0.35680704 12:0.43561351 13:0.55303876 14:0.44493106 15:0.36980377 16:0.35814016 17:0.63873523 18:0.5770812 
4 4 4 1:0.52044496 2:0.88543743 3:0.42310705 4:0.6903911 5:0.6024337 6:0.30014651 7:0.79371385 8:0.28971768 9:0.2846567 10:0.63940381 11:0.30128054 12:0.70701068 13:0.50313679 14:0.36319545 15:0.4847969 16:0.11731969 17:0.54590335 18:0.29809622 
4 4 4 1:0.39246765 2:0.90910289 3:0.26787419 4:0.5972186 5:0.4809521 6:0.15847451 7:0.88142986 8:0.29494634 9:0.63561129 10:0.69153981 11:0.30115397 12:0.61807659 13:0.51085403 14:0.55212645 15:0.66631725 16:0.23689578 17:0.71052804 18:0.31828075 
4 0 4 1:0.39705331 2:0.95152465 3:0.33010251 4:0.47961849 5:0.51009504 6:0.29722642 7:0.85178641 8:0.35054089 9:0.59180371 10:0.68790637 11:0.15600152 12:0.46478778 13:0.50442862 14:0.55673738 15:0.61926407 16:0.17724103 17:0.82361907 18:0.40547597 
4 4 0 1:0.41518661 2:0.8968811 3:0.44158862 4:0.66946552 5:0.62654559 6:0.33273925 7:0.74037973 8:0.31210973 9:0.55451999 10:0.74802935 11:0.1596646 12:0.77919763 13:0.79069297 14:0.40549798 15:0.55088556 16:0.18440392 17:0.47229435 18:0.39425596 
4 4 0.87577152620258314 1:0.39485925 2:0.81725727 3:0.31502731 4:0.72440564 5:0.46930235 6:0.13192674 7:0.90872186 8:0.26327026 9:0.49128327 10:0.66255409 11:0.22547062 12:0.60132055 13:0.66947701 14:0.54568874 15:0.71624782 16:0.24198546 17:0.68574863 18:0.42969875 
4 4 0 1:0.42973991 2:0.84238237 3:0.27703056 4:0.72816083 5:0.64663607 6:0.24789618 7:0.8214588 8:0.2477154 9:0.43498601 10:0.86570544 11:0.42539414 12:0.54875061 13:0.28708884 14:0.33823249 15:0.64824679 16:0.25404548 17:0.65564934 18:0.2775176 
4 4 0 1:0.41441527 2:0.80756728 3:0.19990775 4:0.65144942 5:0.43683206 6:0.19395368 7:0.85950665 8:0.25330356 9:0.78398115 10:0.81878901 11:0.28659471 12:0.75484029 13:0.59235994 14:0.48960052 15:0.808154 16:0.34801517 17:0.60443273 18:0.35511292 
4 4 4 1:0.42881962 2:0.84708574 3:0.36420172 4:0.52457243 5:0.51190216 6:0.42217023 7:0.80523039 8:0.39916275 9:0.58272634 10:0.6538874 11:0.17174805 12:0.59331207 13:0.66359718 14:0.45350665 15:0.68351189 16:0.47414726 17:0.63462527 18:0.31827527 
4 3.7430164558243564 1.8114448563530816 1:0.45657848 2:0.84066438 3:0.3992376 4:0.59907429 5:0.48077392 6:0.32633128 7:0.73058267 8:0.31101431 9:0.50966265 10:0.70897439 11:0.28102595 12:0.6403391 13:0.3560378 14:0.3338653 15:0.55348438 16:0.13107356 17:0.43331662 18:0.23530543 
4 4 0 1:0.39827219 2:0.85409773 3:0.51884394 4:0.36879779 5:0.43197508 6:0.39142785 7:0.65225768 8:0.2648469 9:0.3314349 10:0.65344377 11:0.51619877 12:0.97112722 13:0.80337203 14:0.48841059 15:0.75477924 16:0.55968809 17:0.93393179 18:0.58295052 
0 4 4 1:0.41693959 2:0.69071182 3:0.24054628 4:0.6446621 5:0.33048747 6:0.7374746 7:0.41984118 8:0.40756535 9:0.8386091 10:0.24799183 11:0.66529918 12:0.40431959 13:0.54182989 14:0.77491552 15:0.2366371 16:0.67285295 17:0.32178021 18:0.20324454 
0 4 4 1:0.50726778 2:0.78696693 3:0.27189138 4:0.57051025 5:0.52294839 6:0.59268582 7:0.40602076 8:0.5415732 9:0.71135653 10:0.41749661 11:0.9878729 12:0.36061811 13:0.2395928 14:0.58803963 15:0.28284606 16:0.79475974 17:0.50856051 18:0.27709814 
0 4 4 1:0.45587389 2:0.84390749 3:0.2830081 4:0.53573169 5:0.54155032 6:0.45426022 7:0.38744179 8:0.57442697 9:0.60444406 10:0.29891912 11:0.80234171 12:0.3742636 13:0.39011865 14:0.7378263 15:0.41991825 16:0.7524429 17:0.58126329 18:0.35564961 
4 4 0 1:0.20982358 2:0.60587208 3:0.66332364 4:0.5689452 5:0.60387511 6:0.65533936 7:0.66110056 8:0.60709811 9:0.52507637 10:0.57263503 11:0.38545068 12:0.56022764 13:0.81576204 14:0.67520615 15:0.40509397 16:0.46053898 17:0.47056282 18:0.42115101 
4 4 0 1:0.33633593 2:0.5706631 3:0.73636581 4:0.6498821 5:0.5879417 6:0.80118902 7:0.65573241 8:0.71869007 9:0.56661908 10:0.56142983 11:0.57416338 12:0.542407 13:0.70148916 14:0.49642172 15:0.42507321 16:0.48205749 17:0.57340453 18:0.43773408 
4 4 4 1:0.42586111 2:0.63753802 3:0.55949103 4:0.67280913 5:0.54594347 6:0.69268403 7:0.55197415 8:0.63933338 9:0.63256155 10:0.68871557 11:0.6861521 12:0.44948016 13:0.6244449 14:0.49442014 15:0.31849586 16:0.5326732 17:0.56692968 18:0.39578038 
4 4 4 1:0.51143628 2:0.73657066 3:0.47121397 4:0.56453233 5:0.47683295 6:0.8009909 7:0.48523785 8:0.52696398 9:0.53251576 10:0.57854538 11:0.61779298 12:0.58612028 13:0.77184348 14:0.60433522 15:0.31213765 16:0.39707704 17:0.52260061 18:0.40322581 
4 4 0 1:0.24477436 2:0.53675274 3:0.70161814 4:0.61303749 5:0.67502111 6:0.78027828 7:0.67880653 8:0.66207154 9:0.56384587 10:0.62894956 11:0.63545437 12:0.53083544 13:0.65862949 14:0.48118598 15:0.42189615 16:0.38625749 17:0.48465997 18:0.51070056 
4 4 0 1:0.40623288 2:0.57847142 3:0.65879914 4:0.65010426 5:0.49716877 6:0.7114341 7:0.64183277 8:0.62878933 9:0.71322217 10:0.71533879 11:0.5324513 12:0.39624118 13:0.51990449 14:0.48935278 15:0.35697328 16:0.51897416 17:0.44695022 18:0.35733156 
4 4 0 1:0.29918686 2:0.57193998 3:0.73390849 4:0.70461587 5:0.59947435 6:0.72335911 7:0.65538044 8:0.56962406 9:0.61920558 10:0.64602888 11:0.57302079 12:0.56948016 13:0.5809361 14:0.44258031 15:0.36117075 16:0.45109056 17:0.56209139 18:0.4347655 
0 4 0 1:0.22768072 2:0.53639685 3:0.4608838 4:0.55234616 5:0.5937642 6:0.58424555 7:0.49580599 8:0.41832552 9:0.41451008 10:0.51287292 11:0.57112354 12:0.56919537 13:0.71433533 14:0.5717731 15:0.41575691 16:0.59201699 17:0.7914587 18:0.42496642 
4 4 4 1:0.42465911 2:0.7526112 3:0.51179044 4:0.54609627 5:0.54782671 6:0.82785451 7:0.59907536 8:0.55572594 9:0.59777915 10:0.53984047 11:0.42034515 12:0.43927281 13:0.79795121 14:0.70678195 15:0.43680283 16:0.51585977 17:0.72782154 18:0.35653734 
4 4 0 1:0.24540385 2:0.59124283 3:0.71829789 4:0.61140767 5:0.70495085 6:0.67749577 7:0.5824818 8:0.6336929 9:0.62084206 10:0.61125841 11:0.54417914 12:0.54104183 13:0.71944646 14:0.52435671 15:0.38768618 16:0.45499771 17:0.41512475 18:0.22792425 
4 4 0 1:0.40855013 2:0.61908797 3:0.64861902 4:0.66410475 5:0.52561481 6:0.64587256 7:0.5529765 8:0.58575572 9:0.62980881 10:0.67924377 11:0.55440367 12:0.55569677 13:0.63645587 14:0.49447085 15:0.45769585 16:0.63296171 17:0.82990175 18:0.34545497 
0 4 0 1:0.14461761 2:0.49378965 3:0.80602551 4:0.59522517 5:0.73622282 6:0.64213722 7:0.60771468 8:0.72369447 9:0.52997994 10:0.5690388 11:0.56773644 12:0.52631875 13:0.45278082 14:0.3885247 15:0.42555948 16:0.43331332 17:0.56304617 18:0.38852732 
4 4 0 1:0.32376392 2:0.60704514 3:0.60724124 4:0.6455545 5:0.52643208 6:0.66046039 7:0.56072342 8:0.61997262 9:0.61922712 10:0.77963368 11:0.51311108 12:0.50027741 13:0.62268929 14:0.61868537 15:0.40994897 16:0.5010837 17:0.54152495 18:0.26132038 
4 4 0 1:0.34081364 2:0.60683014 3:0.72199429 4:0.64752661 5:0.61586232 6:0.67306175 7:0.54734295 8:0.65697965 9:0.55173275 10:0.67620142 11:0.60103593 12:0.45244354 13:0.5985749 14:0.5386433 15:0.443893 16:0.46811907 17:0.63078344 18:0.44337238 
4 4 4 1:0.51445554 2:0.57465782 3:0.5476503 4:0.68086623 5:0.42791766 6:0.81461036 7:0.58579296 8:0.60548949 9:0.68393348 10:0.79931928 11:0.527713 12:0.4673304 13:0.62470818 14:0.60850863 15:0.37288359 16:0.48943629 17:0.48905612 18:0.30146835 
4 4 0 1:0.29706338 2:0.73723192 3:0.53009081 4:0.49413084 5:0.6217971 6:0.53981661 7:0.63176231 8:0.80378248 9:0.45217351 10:0.69037684 11:0.6662601 12:0.39171534 13:0.84850736 14:0.57861819 15:0.56034555 16:0.61001442 17:0.49695471 18:0.42161847 
0 4 0 1:0.14795461 2:0.55989976 3:0.37027671 4:0.42138375 5:0.39707147 6:0.42686051 7:0.58349184 8:0.64464356 9:0.52833731 10:0.69334859 11:0.60072415 12:0.26219253 13:0.60723464 14:0.58492208 15:0.46910861 16:0.66237258 17:0.43987841 18:0.48894922 
0 4 0 1:0.33749932 2:0.51838882 3:0.45743368 4:0.76862393 5:0.56158311 6:0.67176264 7:0.33887446 8:0.69264319 9:0.49337195 10:0.69703711 11:0.68896638 12:0.24892358 13:0.68477991 14:0.61004001 15:0.27982256 16:0.53874894 17:0.67702412 18:0.27914696 
0 4 0 1:0.14926908 2:0.55761514 3:0.34776682 4:0.48190677 5:0.3759255 6:0.30699732 7:0.49512169 8:0.67109623 9:0.59814827 10:0.67150943 11:0.52095121 12:0.29010007 13:0.69029217 14:0.65338408 15:0.64001194 16:0.73962817 17:0.41331777 18:0.38277739 
0 4 4 1:0.34009277 2:0.53647004 3:0.44878577 4:0.73119771 5:0.50328207 6:0.69264838 7:0.60619829 8:0.68804099 9:0.47215903 10:0.80748094 11:0.919805 12:0.30284651 13:0.73661308 14:0.68174496 15:0.44683305 16:0.40819721 17:0.85096897 18:0.32653575 
0 4 0 1:0.16717278 2:0.55381838 3:0.36542093 4:0.4701715 5:0.38267886 6:0.45462295 7:0.54680609 8:0.6285986 9:0.52928015 10:0.68389826 11:0.52422647 12:0.23617505 13:0.65114654 14:0.64131925 15:0.59774056 16:0.67260932 17:0.56189055 18:0.45555609 
4 4 0 1:0.23411842 2:0.71635193 3:0.58016906 4:0.52935337 5:0.72691122 6:0.57919733 7:0.57065051 8:0.65648526 9:0.62010197 10:0.75901503 11:0.70011521 12:0.40809736 13:0.71359414 14:0.56453608 15:0.48774311 16:0.53208904 17:0.51464419 18:0.43154077 
4 0 0 1:0.2569028 2:0.84362002 3:0.63264857 4:0.53197486 5:0.65871366 6:0.56234496 7:0.57459237 8:0.73278573 9:0.54429648 10:0.67189163 11:0.71065927 12:0.32099735 13:0.68656655 14:0.56225102 15:0.48786687 16:0.46996148 17:0.40870608 18:0.47848012 
4 0 0 1:0.3421831 2:0.76361989 3:0.52105703 4:0.5151054 5:0.5746824 6:0.55778834 7:0.59487339 8:0.700387 9:0.48106554 10:0.7815806 11:0.57334097 12:0.27065326 13:0.61012438 14:0.52849611 15:0.49992761 16:0.61621608 17:0.46227839 18:0.46551863 
0 4 0 1:0.15740646 2:0.66844908 3:0.3300652 4:0.31616244 5:0.56156927 6:0.56512939 7:0.60691334 8:0.64892014 9:0.51613823 10:0.52651531 11:0.57129017 12:0.42630077 13:0.82334248 14:0.69261343 15:0.66949345 16:0.63909386 17:0.51862216 18:0.53499442 
4 0 0 1:0.24501413 2:0.8308541 3:0.49153766 4:0.43684502 5:0.65314209 6:0.62706748 7:0.63843347 8:0.65617879 9:0.48484358 10:0.66044876 11:0.63954539 12:0.41835004 13:0.7642537 14:0.6811545 15:0.54436778 16:0.51106498 17:0.40313654 18:0.57811202 
0 4 0 1:0.18637109 2:0.61950637 3:0.26282375 4:0.42936858 5:0.5545449 6:0.61518758 7:0.70432028 8:0.66125515 9:0.4794714 10:0.49607893 11:0.35357635 12:0.24942496 13:0.68191657 14:0.55105752 15:0.58921506 16:0.73891171 17:0.56816443 18:0.51955388 
4 0 0 1:0.17855851 2:0.76355823 3:0.66069757 4:0.36652907 5:0.5877327 6:0.58361173 7:0.65703444 8:0.7876177 9:0.62106098 10:0.72796107 11:0.59249463 12:0.45718305 13:0.70899922 14:0.57583145 15:0.55651606 16:0.48475228 17:0.56698677 18:0.42822705 
0 4 0 1:0.27963461 2:0.72745734 3:0.45989449 4:0.44010274 5:0.58541533 6:0.62218427 7:0.62494836 8:0.7197406 9:0.46802537 10:0.70028259 11:0.61035653 12:0.53373315 13:0.95648984 14:0.61196067 15:0.56394537 16:0.53539465 17:0.41552651 18:0.5346389 
4 4 4 1:0.72592463 2:0.8496911 3:0.66185851 4:0.25886555 5:0.46613177 6:0.70288631 7:0.4268779 8:0.47313538 9:0.31164257 10:0.47448612 11:0.40419871 12:0.56078042 13:0.82906386 14:0.56253016 15:0.12313565 16:0.31882428 17:0.53467715 18:0.44239322 
4 4 4 1:0.51129696 2:0.54489098 3:0.6930704 4:0.50463374 5:0.65456038 6:0.72061601 7:0.47842953 8:0.58949771 9:0.44496098 10:0.78693328 11:0.54934275 12:0.63250127 13:0.63901696 14:0.63736029 15:0.34448346 16:0.55719273 17:0.61807608 18:0.44552417 
4 4 4 1:0.48240603 2:0.56647633 3:0.70012158 4:0.44535851 5:0.53582271 6:0.60729972 7:0.49170873 8:0.64586526 9:0.46981437 10:0.75289236 11:0.59176354 12:0.49456713 13:0.45212155 14:0.83816182 15:0.29222583 16:0.54556604 17:0.76055926 18:0.42933195 
0 4 4 1:0.40103981 2:0.50869703 3:0.57730676 4:0.3005048 5:0.64034278 6:0.60842942 7:0.55623793 8:0.64704052 9:0.45365598 10:0.79838141 11:0.49077966 12:0.42294156 13:0.73998103 14:0.92669018 15:0.41126207 16:0.58439742 17:0.69955231 18:0.32685192 
4 0 4 1:0.68456712 2:0.65987141 3:0.82843893 4:0.57965274 5:0.68863846 6:0.55225554 7:0.49516073 8:0.71461982 9:0.39099899 10:0.61912662 11:0.49571097 12:0.43522268 13:0.58306946 14:0.58005854 15:0.33933802 16:0.35856037 17:0.23962871 18:0.28111043 
4 0 0 1:0.61696677 2:0.62561452 3:0.80368217 4:0.49626081 5:0.60152835 6:0.36475933 7:0.49221748 8:0.73728233 9:0.51913748 10:0.67832138 11:0.53877757 12:0.38805328 13:0.40153005 14:0.63787227 15:0.52674685 16:0.51337079 17:0.4185583 18:0.42125582 
4 0 4 1:0.79686628 2:0.740828 3:0.70149605 4:0.61070515 5:0.61914234 6:0.3461892 7:0.44856403 8:0.75916344 9:0.43651851 10:0.65521649 11:0.43934184 12:0.44306231 13:0.54560891 14:0.66398245 15:0.60654272 16:0.59625281 17:0.41519975 18:0.38475121 
1.6592569247792011 4 4 1:0.72247218 2:0.31490978 3:0.5580641 4:0.73894564 5:0.49170644 6:0.50128802 7:0.47607618 8:0.70621924 9:0.45343388 10:0.7282277 11:0.49615207 12:0.46865088 13:0.33975151 14:0.77463979 15:0.47119184 16:0.47393186 17:0.67654364 18:0.22013484 
4 0 4 1:0.76898669 2:0.55113203 3:0.55702429 4:0.52978132 5:0.55331282 6:0.59955413 7:0.37961634 8:0.54365475 9:0.38066068 10:0.57652161 11:0.51956407 12:0.36288789 13:0.32437837 14:0.53053204 15:0.39207099 16:0.62444251 17:0.13961088 18:0.084079956 
4 0 4 1:0.87536975 2:0.7601982 3:0.6867346 4:0.51263497 5:0.51699882 6:0.47902035 7:0.4196442 8:0.66512673 9:0.53414797 10:0.65016274 11:0.52363593 12:0.38203037 13:0.56408811 14:0.62557477 15:0.43848704 16:0.52366524 17:0.46009888 18:0.31615168 
4 0 4 1:0.85871223 2:0.79503565 3:0.66564689 4:0.45112523 5:0.46487495 6:0.51219231 7:0.43785624 8:0.74634108 9:0.4640873 10:0.64333361 11:0.57858015 12:0.3288268 13:0.54049271 14:0.62244538 15:0.33923653 16:0.46973681 17:0.47502339 18:0.42910978 
4 4 4 1:0.6896057 2:0.63404152 3:0.79981151 4:0.45853789 5:0.49460842 6:0.58922442 7:0.41912173 8:0.73270619 9:0.52149353 10:0.62425416 11:0.60194494 12:0.41146167 13:0.65287829 14:0.57084859 15:0.44906565 16:0.50902927 17:0.4521498 18:0.39633399 
0 4 4 1:0.6124218 2:0.34633447 3:0.48335253 4:0.52023173 5:0.58650145 6:0.5011229 7:0.35517146 8:0.49977131 9:0.37699502 10:0.62003809 11:0.6302382 12:0.36777513 13:0.38569598 14:0.61860239 15:0.41554756 16:0.67103341 17:0.72749358 18:0.31981512 
4 0 4 1:0.58768428 2:0.65489715 3:0.7380577 4:0.37866082 5:0.67406736 6:0.56453409 7:0.37922741 8:0.48705303 9:0.50858721 10:0.56222578 11:0.50374521 12:0.48917888 13:0.37945852 14:0.38424724 15:0.21591508 16:0.38505528 17:0.50276714 18:0.35269338 
4 4 4 1:0.66695821 2:0.62530044 3:0.78318857 4:0.5020236 5:0.60458459 6:0.56688468 7:0.49645237 8:0.77306993 9:0.5491668 10:0.58144759 11:0.53932175 12:0.60940067 13:0.57579796 14:0.72241587 15:0.37729703 16:0.47601821 17:0.43516351 18:0.32216084 
4 0 4 1:0.86231745 2:0.71365591 3:0.72884293 4:0.50685817 5:0.52597682 6:0.47763113 7:0.3120932 8:0.74593761 9:0.43536569 10:0.59637465 11:0.48840564 12:0.4425541 13:0.40484658 14:0.59458313 15:0.40870008 16:0.45298624 17:0.31245763 18:0.42101322 
4 0 4 1:0.89133264 2:0.74001116 3:0.67449685 4:0.54921586 5:0.4738465 6:0.46479416 7:0.38215641 8:0.70003584 9:0.48564197 10:0.59741943 11:0.4925214 12:0.38609456 13:0.47638017 14:0.63708062 15:0.45058753 16:0.52079071 17:0.37773123 18:0.36109476 
4 4 4 1:0.86214901 2:0.70083812 3:0.71394151 4:0.51220494 5:0.4634134 6:0.51407605 7:0.43437485 8:0.74672472 9:0.54666966 10:0.72026074 11:0.52665198 12:0.51396699 13:0.42713102 14:0.57745635 15:0.32144812 16:0.48569343 17:0.30579876 18:0.37326283 
4 4 4 1:0.75419672 2:0.43209373 3:0.62194447 4:0.61282428 5:0.54370438 6:0.77423404 7:0.42252298 8:0.63656818 9:0.46504894 10:0.59683595 11:0.42527908 12:0.40384069 13:0.4618625 14:0.67326954 15:0.36844215 16:0.62823154 17:0.41605745 18:0.23925011 
4 4 4 1:0.70156928 2:0.44197496 3:0.66007544 4:0.64308083 5:0.55444996 6:0.72139282 7:0.45625486 8:0.61808283 9:0.4800681 10:0.61588267 11:0.42654923 12:0.49794079 13:0.4743053 14:0.59037514 15:0.4518784 16:0.54627379 17:0.3057544 18:0.41116434 
4 4 4 1:0.74296043 2:0.5069446 3:0.64148047 4:0.64329 5:0.57906735 6:0.71422758 7:0.50740111 8:0.60519036 9:0.47038458 10:0.64333107 11:0.36277115 12:0.40167672 13:0.48827945 14:0.59182762 15:0.46549204 16:0.63132885 17:0.35164309 18:0.32128151 
4 4 4 1:0.82237003 2:0.79572145 3:0.73388859 4:0.44622459 5:0.43800131 6:0.53705837 7:0.38984712 8:0.75417898 9:0.58556969 10:0.61923965 11:0.47998167 12:0.4881228 13:0.65023538 14:0.65227102 15:0.43431899 16:0.53898027 17:0.55831732 18:0.32581323 
4 4 4 1:0.65703699 2:0.65733772 3:0.8054273 4:0.49978123 5:0.51506634 6:0.49401847 7:0.48070773 8:0.6856966 9:0.45648668 10:0.66760798 11:0.59595022 12:0.40132018 13:0.58332029 14:0.74484831 15:0.39909716 16:0.51885675 17:0.41979984 18:0.33720231 
4 0 4 1:0.83979895 2:0.82469396 3:0.69488892 4:0.43786615 5:0.49298294 6:0.5123943 7:0.41349308 8:0.72221105 9:0.54169316 10:0.59270857 11:0.49724181 12:0.42152008 13:0.62981119 14:0.64251293 15:0.45653799 16:0.52353466 17:0.36677942 18:0.40781201 
4 0 4 1:0.72414498 2:0.73958029 3:0.76267983 4:0.46995919 5:0.55857064 6:0.52791628 7:0.43816281 8:0.67525252 9:0.46550385 10:0.6313543 11:0.48115363 12:0.37760898 13:0.52700606 14:0.59735846 15:0.41716225 16:0.49090975 17:0.39056621 18:0.35779007 
4 4 4 1:0.7629076 2:0.61577215 3:0.69251202 4:0.58409426 5:0.48611451 6:0.50000122 7:0.43287217 8:0.63563492 9:0.42448664 10:0.76566766 11:0.61103395 12:0.40894392 13:0.50508313 14:0.52740089 15:0.34845198 16:0.55431592 17:0.41168557 18:0.26014494 
4 0 4 1:0.88273685 2:0.72557267 3:0.65864565 4:0.56059889 5:0.51602975 6:0.50506974 7:0.39597456 8:0.74240257 9:0.58510317 10:0.60746618 11:0.49038427 12:0.35754948 13:0.44525055 14:0.57894978 15:0.38232301 16:0.51631333 17:0.2938627 18:0.31584944 
4 0 4 1:0.71814819 2:0.66434611 3:0.71404512 4:0.44111227 5:0.59617555 6:0.57300762 7:0.49152225 8:0.69569548 9:0.49118948 10:0.71133838 11:0.5714404 12:0.42947455 13:0.46281524 14:0.57794771 15:0.36181172 16:0.52053435 17:0.45016737 18:0.27306821 
4 4 4 1:0.86407067 2:0.82196185 3:0.67184259 4:0.4214744 5:0.47599596 6:0.52866139 7:0.44545679 8:0.66799404 9:0.56966061 10:0.63526707 11:0.59268721 12:0.47586338 13:0.50520253 14:0.71080415 15:0.42132416 16:0.5506618 17:0.50954812 18:0.37146005 
4 0 4 1:0.88249315 2:0.75505383 3:0.66597975 4:0.48034048 5:0.53822866 6:0.50860722 7:0.36507436 8:0.73666083 9:0.54778442 10:0.59437406 11:0.56302554 12:0.44139576 13:0.38073259 14:0.60585494 15:0.35977096 16:0.46317648 17:0.50041179 18:0.37396498 
4 0 4 1:0.73756913 2:0.64021614 3:0.7527677 4:0.44032981 5:0.52623914 6:0.58229976 7:0.47728964 8:0.69060502 9:0.60040846 10:0.64775641 11:0.60698959 12:0.43735437 13:0.51831323 14:0.5944007 15:0.40484135 16:0.47455802 17:0.33813755 18:0.3476784 
4 0 4 1:0.84738785 2:0.7363346 3:0.6747097 4:0.43560839 5:0.54463771 6:0.57789373 7:0.37392115 8:0.68822151 9:0.53489742 10:0.63806052 11:0.55438564 12:0.41055914 13:0.42118009 14:0.56005585 15:0.29711328 16:0.50329459 17:0.33326118 18:0.33430758 
4 4 4 1:0.67633705 2:0.62680949 3:0.82597927 4:0.5001802 5:0.5001106 6:0.55634459 7:0.44925909 8:0.67881669 9:0.56531249 10:0.61782743 11:0.50623146 12:0.38310368 13:0.44728586 14:0.67624008 15:0.39841952 16:0.60219727 17:0.35562477 18:0.23130204 
4 0 4 1:0.66309649 2:0.60699207 3:0.74817734 4:0.53860809 5:0.59663862 6:0.51805218 7:0.46763511 8:0.66659298 9:0.55126001 10:0.668903 11:0.47950574 12:0.41518275 13:0.53873185 14:0.63772854 15:0.30717139 16:0.39643264 17:0.29247504 18:0.31931757 
4 0 0 1:0.63636721 2:0.62641271 3:0.75957149 4:0.59508708 5:0.61932679 6:0.35773886 7:0.41596292 8:0.66527901 9:0.52748087 10:0.61973586 11:0.62523059 12:0.32713331 13:0.29122267 14:0.52727122 15:0.38095677 16:0.54439188 17:0.49727366 18:0.28899709 
4 4 4 1:0.72793965 2:0.59841961 3:0.75117142 4:0.63747318 5:0.61377363 6:0.51759738 7:0.41438933 8:0.70508544 9:0.46595923 10:0.60312704 11:0.54833799 12:0.49479372 13:0.40101545 14:0.51685022 15:0.44437789 16:0.52733473 17:0.40683447 18:0.27939617 
4 0 4 1:0.92367873 2:0.68755817 3:0.68611192 4:0.40923952 5:0.40123803 6:0.56033785 7:0.39949532 8:0.64215145 9:0.34696752 10:0.59894731 11:0.40516069 12:0.37576147 13:0.48281543 14:0.66176708 15:0.36545095 16:0.43119285 17:0.30786609 18:0.32059905 
0 4 0 1:0.34454671 2:0.62027888 3:0.50875561 4:0.47821825 5:0.39076697 6:0.42578803 7:0.39308522 8:0.6157566 9:0.52537722 10:0.75116333 11:0.53651072 12:0.41663075 13:0.37476468 14:0.57635985 15:0.48692747 16:0.47609547 17:0.61328497 18:0.48824455 
0 4 3.567372513254329 1:0.42697273 2:0.26754469 3:0.31907623 4:0.78240708 5:0.8180529 6:0.61726874 7:0.33700632 8:0.77420302 9:0.54040835 10:0.70150396 11:0.30204173 12:0.76911249 13:0.59521738 14:0.59680697 15:0.3849092 16:0.542329 17:0.52757029 18:0.38298085 
0 4 0 1:0.48118169 2:0.22805295 3:0.63914412 4:0.74407076 5:0.35005241 6:0.6996121 7:0.45602056 8:0.72488337 9:0.46917197 10:0.89692424 11:0.53982829 12:0.59237386 13:0.37936261 14:0.86350419 15:0.44209801 16:0.79808553 17:0.29043851 18:0.46784913 
4 0 4 1:0.50125593 2:0.93605517 3:0.67204877 4:0.41174949 5:0.80508531 6:0.58062502 7:0.40860493 8:0.60071545 9:0.47475259 10:0.49981509 11:0.87620417 12:0.43704905 13:0.42345212 14:0.6295322 15:0.330876 16:0.3789731 17:0.74310808 18:0.3313899 
4 0 0 1:0.25318109 2:0.89791638 3:0.80440383 4:0.40513192 5:0.72913626 6:0.5298135 7:0.35529201 8:0.55089599 9:0.47267682 10:0.4962046 11:0.718112 12:0.37362152 13:0.35205024 14:0.65579565 15:0.50767961 16:0.46434966 17:0.48291721 18:0.22411999 
4 0 0 1:0.37125385 2:0.91082008 3:0.71338724 4:0.43413852 5:0.81363902 6:0.62807391 7:0.50166888 8:0.60999141 9:0.54102678 10:0.32856936 11:0.63780858 12:0.76264416 13:0.27966195 14:0.36399493 15:0.5555133 16:0.55424131 17:0.67590455 18:0.32611944 
4 0 0 1:0.36159514 2:0.91146013 3:1 4:0.45180479 5:0.70496797 6:0.44371924 7:0.39561489 8:0.66722192 9:0.75117273 10:0.59579491 11:0.56122705 12:0.4468683 13:0.34345089 14:0.43227087 15:0.37391307 16:0.26566488 17:0.44936634 18:0.47887107 
0.40072694609648651 0 0 1:0.49983584 2:0.96102829 3:0.57632218 4:0.43422947 5:0.93359475 6:0.62396642 7:0.1615602 8:0.53743004 9:0.50040055 10:0.32934403 11:0.77535685 12:0.28009233 13:0.16121988 14:0.62507576 15:0.52712411 16:0.48549739 17:0.63491592 18:0.38651885 
4 0 0 1:0.50827984 2:0.80622983 3:0.59967942 4:0.64624984 5:1 6:0.6684038 7:0.26974041 8:0.54525295 9:0.65920313 10:0.50680129 11:0.60752524 12:0.36284703 13:0.34092401 14:0.66304999 15:0.43861477 16:0.21656165 17:0.39701647 18:0.25139221 
4 0 0 1:0.37702981 2:0.91136037 3:0.74001572 4:0.37354397 5:0.7983421 6:0.57763003 7:0.46285193 8:0.64121174 9:0.57547684 10:0.37648746 11:0.60379556 12:0.55845002 13:0.50580239 14:0.7042143 15:0.36683506 16:0.27689707 17:0.65633689 18:0.35142908 
4 0 0 1:0.39875224 2:0.72945068 3:0.64374294 4:0.64171695 5:0.83188181 6:0.79430098 7:0.48199766 8:0.49104142 9:0.62099302 10:0.61554053 11:0.65751223 12:0.14870538 13:0.14816836 14:0.6098349 15:0.29550435 16:0.32464886 17:0.60711971 18:0.22947482 
4 4 4 1:0.48752088 2:0.74632648 3:0.53293776 4:0.52513061 5:0.61683877 6:0.47109595 7:0.5185128 8:0.83029569 9:0.31460133 10:0.57636987 11:0.56295824 12:0.74538976 13:0.65915053 14:0.76287849 15:0.45586233 16:0.28669203 17:0.84223834 18:0.33826062 
0 4 4 1:0.58970503 2:0.37442498 3:0.27330857 4:0.73925786 5:0.66933004 6:0.47225164 7:0.42935556 8:0.65922598 9:0.41355623 10:0.74077519 11:0.5185048 12:0.64003633 13:0.47183587 14:0.69394314 15:0.3366688 16:0.59209534 17:0.27603756 18:0.37189074 
0 2.2218358338429116 0 1:0.37247407 2:0.85009755 3:0.62926565 4:0.41455257 5:0.59662696 6:0.54078036 7:0.42994297 8:0.6733286 9:0.090118801 10:0.41204847 11:0.52278933 12:0.58765321 13:0.26849209 14:0.64748137 15:0.48971821 16:0.42360448 17:0.75338777 18:0.26976469 
0 4 4 1:0.47330543 2:0.30888245 3:0.19283453 4:0.65844802 5:0.75195218 6:0.57235548 7:0.45773114 8:0.76886268 9:0.45634048 10:0.79423703 11:0.62227383 12:0.6685408 13:0.6565675 14:0.73001871 15:0.35381934 16:0.67065303 17:0.49490811 18:0.33569977 
4 4 0 1:0.51463848 2:0.71997409 3:0.69030769 4:0.39474169 5:0.45047649 6:0.58567083 7:0.28867387 8:0.66132594 9:0.22785215 10:0.88156267 11:0.30718942 12:0.62741717 13:0.68217865 14:0.81871331 15:0.63415125 16:0.64864115 17:0.45302203 18:0.38030196 
4 4 0 1:0.35259564 2:0.81202002 3:0.46105822 4:0.69852552 5:0.45029387 6:0.54228801 7:0.44557271 8:0.45048408 9:0.78809098 10:0.61069459 11:0.86424184 12:0.39307299 13:0.46387276 14:0.61835256 15:0.30296502 16:0.52709734 17:0.41191158 18:0.30313612 
4 4 4 1:0.72188342 2:0.79059968 3:0.15452109 4:0.62288075 5:0.001677924 6:0.35166028 7:0.55993208 8:0.58291876 9:0.78936398 10:0.26318722 11:0.80429703 12:0.26577199 13:0.38126273 14:0.61070846 15:0.15212286 16:0.55576132 17:0.23686462 18:0.4488497 
0 4 4 1:0.58723481 2:0.90408722 3:0.29486262 4:0.62288473 5:0.082302554 6:0.042649564 7:0.47897726 8:0.61788539 9:0.66823889 11:0.71390086 12:0.61205564 13:0.2325765 14:0.89381336 15:0.38854611 16:0.24571958 17:0.43995917 18:0.16141047 
4 4 0 1:0.31271509 2:0.81487653 3:0.58537382 4:0.74547004 5:0.38230853 6:0.51658651 7:0.41591539 8:0.37757085 9:0.79775206 10:0.56850438 11:0.77248028 12:0.41754964 13:0.48178352 14:0.59868647 15:0.28968225 16:0.63867151 17:0.60601304 18:0.32841342 
0 2.2977429148883357 4 1:0.35979009 2:0.74155847 3:0.41419307 4:0.5318684 5:0.20931835 6:0.43587732 7:0.593167 8:0.63585286 9:0.74195846 10:0.39435592 11:0.44214074 12:0.28907012 13:0.62725954 14:0.75857709 15:0.55247383 16:0.64995807 17:0.14987851 18:0.21625924 
4 4 4 1:0.60292777 2:0.86669818 3:0.55897087 4:0.68854252 5:0.47332186 6:0.4204709 7:0.65814394 8:0.54989779 9:0.71644003 10:0.57135988 11:0.53865224 12:0.3697266 13:0.52105846 14:0.75219799 15:0.52818541 16:0.49422252 17:0.44762276 18:0.56443056 
4 0 0 1:0.40552164 2:0.80209277 3:0.63313349 4:0.7175539 5:0.42624082 6:0.36157275 7:0.45509873 8:0.54622051 9:0.69549545 10:0.37936615 11:0.45631808 12:0.23923598 13:0.40527675 14:0.56799901 15:0.33350422 16:0.40779797 17:0.095417265 18:0.26643569 
4 0 0.15576650673336859 1:0.54010461 2:0.87145429 3:0.43825263 4:0.68327714 5:0.57322911 6:0.24980507 7:0.51717539 8:0.62329452 9:0.53657551 10:0.34138449 11:0.50378392 12:0.52408597 13:0.50948265 14:0.40521985 15:0.49370578 16:0.58512248 17:0.26538441 18:0.44283123 
0 0 4 1:0.56444269 2:0.82399592 3:0.32872797 4:0.48686862 5:0.32306109 6:0.16361441 7:0.50885057 8:0.61034356 9:0.60183262 10:0.3258779 11:0.34720924 12:0.26436828 13:0.32281459 14:0.49942178 15:0.31801053 16:0.30401991 17:0.23244084 18:0.29838634 
0 4 4 1:0.58978503 2:0.6969799 3:0.16193448 4:0.82222411 5:0.13264139 6:0.38537288 7:0.47221438 8:0.50827144 9:0.64846377 10:0.32330769 11:0.45713469 12:0.094876825 13:0.40399775 14:0.58984573 15:0.3159605 16:0.66131306 17:0.61556528 18:0.59449685 
4 0 0 1:0.54119613 2:0.90767072 3:0.42554423 4:0.63767801 5:0.59418565 6:0.2360397 7:0.49863989 8:0.72499325 9:0.72231207 10:0.32341919 11:0.63643362 12:0.66934844 13:0.49329624 14:0.53740696 15:0.59104126 16:0.72436914 17:0.39656672 18:0.54666794 
0 0 4 1:0.64339947 2:0.86130322 3:0.15030324 4:0.51481769 5:0.17573271 7:0.50157673 8:0.60297821 9:0.5675877 10:0.25377276 11:0.56479681 12:0.30808462 13:0.10386212 14:0.50791848 15:0.37079385 16:0.42898048 17:0.40679584 18:0.60970699 
0 0 4 1:0.52153147 2:0.85585988 3:0.43727119 4:0.61441403 5:0.36584415 6:0.2455375 7:0.49775227 8:0.65007124 9:0.55927912 10:0.33060736 11:0.60897621 12:0.41858464 13:0.45338188 14:0.52795046 15:0.36659642 16:0.4208429 17:0.30633617 18:0.51378903 
4 0 0 1:0.47470145 2:0.95470897 3:0.55105357 4:0.67876579 5:0.47525281 6:0.23799048 7:0.46832811 8:0.71786457 9:0.66290848 10:0.19648523 11:0.56783805 12:0.44594513 13:0.22256854 14:0.50991731 15:0.5260382 16:0.57270167 17:0.41801116 18:0.56707418 
4 0 4 1:0.53758104 2:0.89378052 3:0.40077567 4:0.70603937 5:0.57072676 6:0.30866317 7:0.63022912 8:0.71068895 9:0.66738279 10:0.32352218 11:0.57913934 12:0.57882972 13:0.43644677 14:0.48948271 15:0.48659896 16:0.61195614 17:0.27577246 18:0.45165437 
4 0 4 1:0.52826007 2:0.8502263 3:0.49490536 4:0.58771229 5:0.33350537 6:0.24362322 7:0.54172085 8:0.62593619 9:0.56134832 10:0.38310674 11:0.53174068 12:0.29719929 13:0.32054018 14:0.49206106 15:0.41338273 16:0.53459729 17:0.24196758 18:0.22251743 
0 0 4 1:0.65079677 2:0.75508947 3:0.27464555 4:0.60261597 5:0.20817667 6:0.19425876 7:0.4959852 8:0.56329319 9:0.51231901 10:0.23247194 11:0.53148595 12:0.3208807 13:0.30863462 14:0.61401681 15:0.32955282 16:0.33205784 17:0.23313081 18:0.38829821 
0 0 4 1:0.53071163 2:0.90775428 3:0.36816356 4:0.64165572 5:0.5505798 6:0.23307634 7:0.46525384 8:0.64046137 9:0.53487627 10:0.2691744 11:0.47245179 12:0.43859878 13:0.46754599 14:0.49845654 15:0.47574031 16:0.61620824 17:0.17714733 18:0.36420944 
0 0 4 1:0.56551892 2:0.87111602 3:0.30640716 4:0.64688617 5:0.2799594 6:0.14693607 7:0.48423509 8:0.61188996 9:0.63621802 10:0.28077127 11:0.59334615 12:0.31746939 13:0.44475036 14:0.59346458 15:0.28681509 16:0.54627245 17:0.16825382 18:0.30972508 
0 4 4 1:0.67362939 2:0.73973592 3:0.19242451 4:0.61090128 5:0.19334015 6:0.022416805 7:0.42788968 8:0.5519916 9:0.48946253 10:0.30617885 11:0.71229579 12:0.49790755 13:0.50456543 14:0.73632735 15:0.54056057 16:0.67387357 17:0.69928776 18:0.56762919 
0 0 4 1:0.50164415 2:0.91303175 3:0.42903207 4:0.68420503 5:0.47367107 6:0.22591393 7:0.53152309 8:0.67765494 9:0.59602791 10:0.28116063 11:0.56589593 12:0.43107201 13:0.33832394 14:0.43502373 15:0.40826852 16:0.57314405 17:0.21074279 18:0.38563649 
0 0 4 1:0.58113733 2:0.85349052 3:0.41053633 4:0.53543541 5:0.3505349 6:0.11268944 7:0.461295 8:0.66855535 9:0.58367367 10:0.3639454 11:0.58519876 12:0.42454665 13:0.3402582 14:0.49705899 15:0.36378726 16:0.34056616 17:0.23814366 18:0.48449383 
0 4 4 1:0.59975435 2:0.64967917 3:0.36385194 4:0.61257738 5:0.18360054 6:0.22435328 7:0.52382147 8:0.54898457 9:0.42084843 10:0.35388336 11:0.51809821 12:0.18988214 13:0.44618744 14:0.85182845 15:0.61494055 16:0.76552902 17:0.94401992 18:0.61170176 
3.7996979466210714 0 0 1:0.41286192 2:0.77063702 3:0.58022865 4:0.7332384 5:0.33306252 6:0.42238854 7:0.56647145 8:0.59172489 9:0.58390598 10:0.21970568 11:0.54251616 12:0.28107114 13:0.19139255 14:0.52038382 15:0.33373724 16:0.40480436 17:0.26816795 18:0.52428303 
4 0 4 1:0.5367414 2:0.85231196 3:0.54015634 4:0.68225895 5:0.43462858 6:0.27629088 7:0.50457811 8:0.63779153 9:0.58269527 10:0.25236313 11:0.44074435 12:0.27131644 13:0.30666216 14:0.59987183 15:0.51240738 16:0.64480752 17:0.60667714 18:0.6702706 
1.7286458875607844 0 4 1:0.48076875 2:0.80964763 3:0.47075618 4:0.68742423 5:0.37296333 6:0.29919363 7:0.58913813 8:0.64779216 9:0.62644951 10:0.29471297 11:0.51763007 12:0.33135535 13:0.40242521 14:0.52510999 15:0.38497589 16:0.57931318 17:0.22458349 18:0.32653911 
4 0 4 1:0.50293698 2:0.93106066 3:0.51259711 4:0.61270801 5:0.21513202 6:0.13882934 7:0.55112118 8:0.59748604 9:0.54351449 10:0.40098774 11:0.48690346 12:0.1862034 13:0.32455765 14:0.6006445 15:0.28809656 16:0.32344797 17:0.37938128 18:0.41133877 
0 4 4 1:0.55643059 2:0.70790536 3:0.29287209 4:0.72283786 5:0.21092023 6:0.26960345 7:0.57089891 8:0.43286771 9:0.55197738 10:0.41390932 11:0.5561629 12:0.16183561 13:0.54324595 14:0.7050358 15:0.38652198 16:0.71693967 17:0.6181943 18:0.57323458 
4 4 0 1:0.26560931 2:0.77420983 3:0.58245968 4:0.80001059 5:0.4415492 6:0.55340415 7:0.51134983 8:0.60153863 9:0.75304707 10:0.31261923 11:0.52362 12:0.33014328 13:0.3259511 14:0.46053125 15:0.31016546 16:0.57641268 17:0.3932758 18:0.41918982 
0 4 4 1:0.42859433 2:0.53777924 3:0.32569764 4:0.88430111 5:0.22166693 6:0.56955003 7:0.5976008 8:0.56362219 9:0.70507225 10:0.36511847 11:0.84427256 12:0.3829895 13:0.4431967 14:0.64675289 15:0.29652104 16:0.49333927 17:0.11354783 18:0.30031872 
0 4 0 1:0.27296031 2:0.47200131 3:0.37471328 4:0.88951464 5:0.25291313 6:0.58886797 7:0.56133627 8:0.5057014 9:0.79953265 10:0.5033436 11:0.80052986 12:0.41929654 13:0.51476483 14:0.61456559 15:0.36633556 16:0.64075122 17:0.40393065 18:0.48825876 
0 4 4 1:0.36533903 2:0.56046579 3:0.31685827 4:0.86682183 5:0.074479846 6:0.60573548 7:0.55791362 8:0.46675637 9:1 10:0.34946225 11:0.77846477 12:0.28980484 13:0.41442001 14:0.62862069 15:0.036672659 16:0.69045243 17:0.30749986 18:0.35116975 
4 4 4 1:0.60056734 2:0.58384879 3:0.42125382 4:0.83566971 5:0.3250251 6:0.5492189 7:0.51434524 8:0.40606226 9:0.69445515 10:0.37547775 11:0.56291718 12:0.23309387 13:0.45737853 14:0.6596059 15:0.19069052 16:0.38879626 17:0.16792489 18:0.21369427 
4 4 4 1:0.55076809 2:0.61869324 3:0.58972148 4:0.53965122 5:0.67384472 6:0.7416705 7:0.59473828 8:0.84901441 9:0.5165537 10:0.78702568 11:0.42937614 12:0.243694 13:0.55513078 14:0.45496002 15:0.47432639 16:0.56157301 17:0.54491545 18:0.5419006 
4 0 0 1:0.46206224 2:0.56622964 3:0.6906249 4:0.58088821 5:0.75166505 6:0.74541186 7:0.46768571 8:0.78338356 9:0.58713798 10:0.83318329 11:0.56532448 12:0.38012103 13:0.38623419 14:0.41217252 15:0.52693992 16:0.46199319 17:0.21856465 18:0.24082295 
4 4 4 1:0.64180757 2:0.61073915 3:0.61021568 4:0.55066366 5:0.52621285 6:0.74658133 7:0.46666626 8:0.90616677 9:0.46727036 10:0.78123013 11:0.38500223 12:0.24980099 13:0.49290024 14:0.64657806 15:0.49843275 16:0.52084436 17:0.39551159 18:0.42685553 
4 0 0 1:0.46938266 2:0.66343432 3:0.66218374 4:0.5792931 5:0.74998241 6:0.7505021 7:0.47226906 8:0.75895662 9:0.53528922 10:0.72799778 11:0.70261736 12:0.47408751 13:0.3388369 14:0.48070342 15:0.40569574 16:0.38364638 17:0.14856948 18:0.26988036 
0 4 0 1:0.38577603 2:0.6868599 3:0.49066816 4:0.52269629 5:0.63345949 6:0.66908771 7:0.50132269 8:0.67144483 9:0.44875235 10:0.70560822 11:0.57782254 12:0.54903359 13:0.55396456 14:0.55061749 15:0.42935999 16:0.54875684 17:0.46877596 18:0.35344841 
0 0 2.0815007762981659 1:0.50641638 2:0.62112283 3:0.37836408 4:0.18762868 5:0.2766757 6:0.38591379 7:0.22238215 8:0.53048898 9:0.34024024 10:0.63801627 11:0.29018457 12:0.24302566 13:0.84684322 14:0.41747864 15:0.2203964 16:0.39563134 17:0.2736115 18:0.35224095 
4 4 4 1:0.51532118 2:0.6364841 3:0.46010758 4:0.42470013 5:0.48565022 6:0.47958999 7:0.4700051 8:0.62420404 9:0.51706642 10:0.90686381 11:0.52178435 12:0.46705347 13:0.61964706 14:0.48261657 15:0.23256953 16:0.47983876 17:0.52631851 18:0.46130701 
4 4 4 1:0.62428736 2:0.33887343 3:0.61272553 4:0.54044361 5:0.52909696 6:0.6738021 7:0.44825083 8:0.81428813 9:0.31996408 10:0.95061734 11:0.27086592 12:0.57246943 13:0.50206305 14:0.52911849 15:0.37865157 16:0.39936887 17:0.36842304 18:0.44435733 
0 4 4 1:0.5396874 2:0.4412156 3:0.32758971 4:0.37770701 5:0.39907197 6:0.5831117 7:0.24974078 8:0.67476276 9:0.16582516 10:0.64572579 11:0.36367087 12:0.55387968 13:0.56919367 14:0.51175865 15:0.42846051 16:0.62820853 17:0.6647063 18:0.70481167 
0 4 0 1:0.4127567 2:0.32542123 3:0.61823014 4:0.41279345 5:0.48357688 6:0.68739428 7:0.36633857 8:0.82589546 9:0.33562284 10:0.70440553 11:0.34434105 12:0.53492898 13:0.56278759 14:0.65161664 15:0.57011897 16:0.59507864 17:0.35038996 18:0.44247906 
0 4 4 1:0.66010664 2:0.3193907 3:0.52001463 4:0.3942948 5:0.56017888 6:0.68523807 7:0.32851622 8:0.73569596 9:0.28465672 10:0.78137595 11:0.25855404 12:0.47292199 13:0.50702811 14:0.56440078 15:0.44613886 16:0.5697209 17:0.23324554 18:0.32632211 
0 4 4 1:0.67387336 2:0.23353981 3:0.41535074 4:0.40729207 5:0.64720376 6:0.74510445 7:0.32138931 8:0.64812283 9:0.30317942 10:0.8920502 11:0.23359448 12:0.45783172 13:0.3712981 14:0.51488161 15:0.4791611 16:0.57507817 17:0.44655762 18:0.60844719 
0 4 4 1:0.63226996 2:0.28706826 3:0.48824518 4:0.3499291 5:0.59632713 6:0.80478213 7:0.32431747 8:0.75015496 9:0.38987076 10:0.89192154 11:0.4653623 12:0.63820798 13:0.47405919 14:0.5168809 15:0.40710608 16:0.54320926 17:0.20982001 18:0.46311223 
0 4 0 1:0.65758372 2:0.24005628 3:0.4815834 4:0.52370219 5:0.56654415 6:0.51075742 7:0.22892171 8:0.81750055 9:0.19307155 10:0.8460108 11:0.4665329 12:0.65425661 13:0.30928151 14:0.48043729 15:0.4484122 16:0.44891374 17:0.30543038 18:0.64122305 
0 4 0 1:0.61897853 2:0.17293575 3:0.50950746 4:0.42777796 5:0.63172969 6:0.65387752 7:0.20974834 8:0.6996628 9:0.36631003 10:0.78815672 11:0.3337779 12:0.54153514 13:0.61849484 14:0.54381981 15:0.50031499 16:0.49822321 17:0.35280412 18:0.30469303 
0 4 4 1:0.6170978 2:0.24819488 3:0.41096825 4:0.30781128 5:0.62058544 6:0.83342449 7:0.27357693 8:0.7065031 9:0.33129548 10:0.84686435 11:0.38976287 12:0.50212065 13:0.44761791 14:0.55037176 15:0.39667726 16:0.46161979 17:0.30490066 18:0.52537788 
0 4 4 1:0.64259135 2:0.24868168 3:0.40249954 4:0.36065147 5:0.63282468 6:0.79535605 7:0.30279784 8:0.78599897 9:0.36471865 10:0.86269533 11:0.28774893 12:0.4310264 13:0.45546818 14:0.55524853 15:0.39741638 16:0.4503651 17:0.24985064 18:0.4370626 
0 4 4 1:0.74717079 2:0.29343795 3:0.39024328 4:0.29371789 5:0.64199919 6:0.78055974 7:0.34524354 8:0.65556937 9:0.32448875 10:0.88003731 11:0.49586456 12:0.56954173 13:0.564047 14:0.56539195 15:0.48628754 16:0.49448462 17:0.2587888 18:0.48165824 
0 4 0 1:0.63031366 2:0.26119762 3:0.56071184 4:0.38802714 5:0.51015879 6:0.57632297 7:0.27289268 8:0.76755551 9:0.27646431 10:0.84929134 11:0.36881259 12:0.58515816 13:0.53517883 14:0.45386919 15:0.38927028 16:0.57421562 17:0.33006174 18:0.59684123 
0 4 0 1:0.66520846 2:0.14465163 3:0.4500708 4:0.44924396 5:0.64849895 6:0.60597067 7:0.23162985 8:0.7739993 9:0.36168697 10:0.86330404 11:0.22624347 12:0.48090595 13:0.53785267 14:0.53772106 15:0.38108261 16:0.51861053 17:0.16214985 18:0.42393234 
0 4 0 1:0.64089135 2:0.30405943 3:0.55499388 4:0.43247097 5:0.5729096 6:0.67388632 7:0.21488885 8:0.78818869 9:0.33707844 10:0.84862975 11:0.31899996 12:0.48069183 13:0.53951412 14:0.49777696 15:0.37813731 16:0.44179936 17:0.24442165 18:0.32650405 
0 4 0 1:0.68967156 2:0.26887704 3:0.48347263 4:0.45940792 5:0.6859104 6:0.6713009 7:0.1417403 8:0.61942549 9:0.40703377 10:0.95403034 11:0.31137852 12:0.4562566 13:0.43939461 14:0.53973059 15:0.43651724 16:0.55221711 17:0.36809614 18:0.43930972 
0 4 4 1:0.67558499 2:0.28567001 3:0.54759362 4:0.39933638 5:0.64412454 6:0.78195131 7:0.32072591 8:0.76116899 9:0.33489052 10:0.92306644 11:0.53890735 12:0.62635016 13:0.49529357 14:0.57132552 15:0.36784069 16:0.58693198 17:0.28604696 18:0.49072387 
4 0 4 1:0.57304483 2:0.69139591 3:0.56279501 4:0.66179006 5:0.65010093 6:0.59195014 7:0.51002475 8:0.70167858 9:0.57411317 10:0.78859304 11:0.49245089 12:0.2604958 13:0.48831485 14:0.51801902 15:0.4085357 16:0.32255872 17:0.46879192 18:0.25701461 
0 4 4 1:0.70267656 2:0.26842791 3:0.49911401 4:0.33867072 5:0.4882682 6:0.61661021 7:0.35328045 8:0.76953448 9:0.30340551 10:0.72003488 11:0.25619635 12:0.55709069 13:0.67250078 14:0.62900476 15:0.41482822 16:0.49500993 17:0.27709237 18:0.4474229 
0 4 4 1:0.74224279 2:0.35726288 3:0.37152633 4:0.23640504 5:0.40443878 6:0.70717589 7:0.51816147 8:0.92611044 9:0.36192781 10:0.76918383 11:0.25095408 12:0.53261122 13:0.63493137 14:0.67162479 15:0.42621357 16:0.42933754 17:0.065515472 18:0.22755194 
4 4 4 1:0.59132553 2:0.52131197 3:0.55533564 4:0.56863649 5:0.63532491 6:0.83531516 7:0.50666021 8:0.82992797 9:0.41538802 10:0.89890362 11:0.50029041 12:0.45343311 13:0.62520524 14:0.48032433 15:0.52194125 16:0.39272234 17:0.52621527 18:0.31937927 
4 4 0 1:0.51006811 2:0.56790245 3:0.69490071 4:0.62047765 5:0.74173388 6:0.72632679 7:0.48059468 8:0.69245272 9:0.60402492 10:0.72504938 11:0.53656311 12:0.51600634 13:0.37654386 14:0.42993923 15:0.4657795 16:0.57673623 17:0.24674057 18:0.35630878 
0 4 0 1:0.51399708 2:0.49241165 3:0.57733655 4:0.53666651 5:0.63521238 6:0.70423753 7:0.30749025 8:0.75104089 9:0.32765167 10:0.82305284 11:0.4203181 12:0.52492586 13:0.39900552 14:0.52703769 15:0.32680598 16:0.52509873 17:0.31258096 18:0.29235329 
0 0 4 1:0.75448864 2:0.63921163 3:0.40702455 4:0.24963547 5:0.40841793 6:0.23990142 7:0.35593111 8:0.39113548 9:0.038885332 10:0.38613252 11:0.25259801 12:0.25587704 13:0.44723007 14:0.62030072 15:0.6061522 16:0.57980698 17:1 18:1 
0 0 4 1:0.50267879 2:0.6638148 3:0.48146466 4:0.50426086 5:0.55591964 6:0.65462725 7:0.49093648 8:0.70900599 9:0.38614733 10:0.58360114 11:0.25437868 12:0.40295398 13:0.58689294 14:0.46831776 15:0.4288146 16:0.32920455 17:0.20967499 18:0.43783449 
0 0 3.1690464007569688 1:0.63528135 2:0.49469135 3:0.33000212 4:0.48462348 5:0.50033643 6:0.46209362 7:0.28108037 8:0.89207777 9:0.26616342 10:0.73451089 11:0.43683907 12:0.21045534 13:0.36649832 14:0.37660593 15:0.32350368 16:0.38519368 17:0.11208227 18:0.41215349 
4 0 0 1:0.40018479 2:0.91551705 3:0.6022459 4:0.43941689 5:0.74723121 6:0.39631294 7:0.5315534 8:0.64344352 9:0.39495461 10:0.55618294 11:0.3623365 12:0.074033274 13:0.39191957 14:0.48227934 15:0.356652 16:0.38740683 17:0.42248424 18:0.33918232 
4 4 4 1:0.75506663 2:0.57581313 3:0.83782468 4:0.61664662 5:0.45496546 6:0.65227759 7:0.35780222 8:0.8030887 9:0.37226724 10:0.69922735 11:0.4743884 12:0.3877697 13:0.62486998 14:0.51909263 15:0.35422924 16:0.4838861 17:0.51687433 18:0.3955787 
4 4 4 1:0.7377519 2:0.57237308 3:0.78454466 4:0.57466362 5:0.47873024 6:0.72419742 7:0.2899675 8:0.7498909 9:0.36371733 10:0.7604018 11:0.46361206 12:0.32532989 13:0.53713007 14:0.51123648 15:0.48139954 16:0.51225047 17:0.55447807 18:0.3793781 
4 0 4 1:0.62949711 2:0.67839245 3:0.55043803 4:0.61086951 5:0.72292415 6:0.68816293 7:0.50275466 8:0.70823634 9:0.53304062 10:0.84502619 11:0.54892309 12:0.28978993 13:0.67820089 14:0.5651837 15:0.54216227 16:0.3660966 17:0.38121832 18:0.31987764 
4 4 0 1:0.61021082 2:0.45314082 3:0.81325166 4:0.60098588 5:0.67496891 6:0.75498432 7:0.4300215 8:0.82730648 9:0.32702103 10:0.82810754 11:0.49499235 12:0.60825397 13:0.49787623 14:0.56019601 15:0.47768133 16:0.49639357 17:0.26898471 18:0.34057233 
0 0 4 1:0.4689391 2:0.55457914 3:0.60793239 4:0.062425614 5:0.13910675 6:0.38918388 7:0.61948279 8:0.90473108 9:0.50161808 10:0.52884479 11:0.2205663 12:0.34748442 13:0.68064952 14:0.76154815 15:0.44482384 16:0.24195975 17:0.36735579 18:0.2413856 
0 1.8909876214251962 0 1:0.42772343 2:0.27083353 3:0.49261631 4:0.23139368 5:0.45395518 6:0.26987878 7:0.45997506 8:0.59475659 9:0.56010342 10:0.73276701 11:0.31237577 12:0.36686801 13:0.67257518 14:0.56476714 15:0.3676291 16:0.57410983 17:0.46995583 18:0.54578972 
0 4 0 1:0.48648306 2:0.65593026 3:0.51296094 4:0.52606277 5:0.60990957 6:0.64770625 7:0.44503557 8:0.70567467 9:0.28717419 10:0.69554685 11:0.49169641 12:0.48105189 13:0.54476447 14:0.58786226 15:0.41309063 16:0.40706841 17:0.39449419 18:0.42169756 
4 4 4 1:0.56411035 2:0.60887267 3:0.55094812 4:0.56628977 5:0.62650416 6:0.81074446 7:0.42462349 8:0.76326469 9:0.49979471 10:0.78558701 11:0.34839111 12:0.40942575 13:0.47008412 14:0.57164628 15:0.45256419 16:0.52859597 17:0.40419499 18:0.28281864 
0 4 4 1:0.44306955 2:0.61992008 3:0.41834343 4:0.51107514 5:0.50360507 6:0.46984339 7:0.3945946 8:0.66285584 9:0.45257733 10:0.81048887 11:0.35972896 12:0.25565795 13:0.72651583 14:0.58775803 15:0.15874715 16:0.34531064 17:0.63395152 18:0.43724222 
0 4 4 1:0.50889072 2:0.43114402 3:0.62759154 4:0.3660039 5:0.56945961 6:0.72074415 7:0.46991287 8:0.78714625 9:0.31114155 10:0.78528958 11:0.30599209 12:0.46193393 13:0.56705691 14:0.54709226 15:0.13874538 16:0.39857683 17:0.29495323 18:0.39185924 
0 0 4 1:0.51616781 2:0.56945088 3:0.5469542 5:0.269543 6:0.37993736 7:0.59902302 8:0.80262703 9:0.60035146 10:0.48840886 11:0.13662743 12:0.24764877 13:0.76121933 14:0.7109638 15:0.45339803 16:0.31114058 17:0.21924262 18:0.27800453 
0 4 0 1:0.40087989 2:0.23255014 3:0.43689966 4:0.43185923 5:0.44470434 6:0.34549938 7:0.49139684 8:0.61865475 9:0.39616673 10:0.78112366 11:0.4169028 12:0.29138502 13:0.58672692 14:0.47342759 15:0.49567057 16:0.60553841 17:0.47704575 18:0.4217239 
0 4 4 1:0.50238879 2:0.60685822 3:0.49198586 4:0.46724382 5:0.61944239 6:0.69036913 7:0.45052761 8:0.78342394 9:0.41882918 10:0.74055723 11:0.35301444 12:0.53607197 13:0.59457906 14:0.68244128 15:0.39596382 16:0.39973386 17:0.3930092 18:0.48835972 
4 0 4 1:0.77981324 2:0.60388531 3:0.61568522 4:0.4216409 5:0.41187019 6:0.30862015 7:0.2920959 8:0.58876548 9:0.52628882 10:0.7361574 11:0.46648715 12:0.47620249 13:0.46052149 14:0.38569411 15:0.2853626 16:0.43290251 17:0.20689893 18:0.28954879 
4 4 4 1:0.67177645 2:0.45944022 3:0.69083537 4:0.64891498 5:0.51893904 6:0.74897753 7:0.4739445 8:0.80718177 9:0.25527645 10:0.74738386 11:0.33420415 12:0.43635577 13:0.46709975 14:0.57215352 15:0.35469296 16:0.57501875 17:0.20230636 18:0.29312727 
4 0 0 1:0.42365117 2:0.62511535 3:0.74337895 4:0.6052754 5:0.84671836 6:0.56474942 7:0.61921274 8:0.73100462 9:0.44111132 10:0.64423249 11:0.59791311 12:0.29519599 13:0.17113241 14:0.13751308 15:0.34760692 16:0.71327162 17:0.29896462 18:0.16192369 
4 4 0 1:0.58794376 2:0.34452103 3:0.87740006 4:0.56914752 5:0.69770244 6:0.69857281 7:0.54308706 8:0.6695995 9:0.59634986 10:0.72696432 11:0.4600697 12:0.41608956 13:0.31079216 14:0.3743633 15:0.26554543 16:0.43449665 17:0.27768721 18:0.3524293 
0 0 4 1:0.60921846 2:0.61975558 3:0.5395713 4:0.43933015 5:0.51230395 6:0.6438093 7:0.29956861 8:0.61562177 10:0.58460709 11:0.3399864 12:0.099029055 13:0.46987494 14:0.42407759 15:0.25434466 16:0.60348809 17:0.37640313 18:0.41417802 
0 0 4 1:0.8342616 2:0.59966411 3:0.34044245 4:0.26114906 5:0.28880983 6:0.17530098 7:0.10028968 8:0.58270395 9:0.28251518 10:0.81020459 11:0.46497046 12:0.21593152 13:0.58693668 14:0.28103336 15:0.3045709 16:0.46697039 17:0.51381599 18:0.33086739 
4 0 4 1:0.63877732 2:0.66034873 3:0.52806169 4:0.37574734 5:0.61125675 6:0.70774166 7:0.34310987 8:0.43353189 9:0.24078836 10:0.67544949 11:0.29383862 12:0.21156281 13:0.5412917 14:0.42008059 15:0.42356275 16:0.52499453 17:0.16977171 18:0.40668876 
4 3.9121296319277179 4 1:0.61795565 2:0.69966671 3:0.55242076 4:0.6522529 5:0.61704553 6:0.42184817 7:0.56353353 8:0.71651557 9:0.33617024 10:0.78575103 11:0.50037335 12:0.31904761 13:0.60056418 14:0.38867373 15:0.32628468 16:0.43659867 17:0.56545232 18:0.24288896 
4 0 4 1:0.70041185 2:0.71284731 3:0.46192675 4:0.52504333 5:0.55071236 6:0.63797762 7:0.37696539 8:0.66872435 9:0.40744322 10:0.64949493 11:0.067890093 12:0.36308268 13:0.82949418 14:0.38049347 15:0.44745384 16:0.65291968 17:0.12479675 18:0.20092984 
0 4 4 1:0.81777126 2:0.56713085 3:0.41727617 4:0.25834671 5:0.34448965 6:0.42557804 7:0.16269019 8:0.34125503 9:0.23882819 10:0.76105324 11:0.18405578 12:0.31442519 13:0.62141178 14:0.39686791 15:0.68016403 16:0.89253005 17:0.69330892 18:0.40767926 
4 0 2.6201143706965371 1:0.67544773 2:0.74965728 3:0.63422081 4:0.39465243 5:0.55667134 6:0.67785482 7:0.34411727 8:0.75803884 9:0.48642162 10:0.72710868 11:0.49233267 12:0.33340264 13:0.56746325 14:0.48867675 15:0.51555473 16:0.42794069 17:0.29056268 18:0.44294274 
4 0 0 1:0.37649273 2:0.75266674 3:0.66646673 4:0.66078314 5:0.76844061 6:0.49950214 7:0.53315595 8:0.56765753 9:0.37461299 10:0.82382219 11:0.43980752 12:0.16068771 13:0.55450527 14:0.4791508 15:0.2888818 16:0.31119943 17:0.35929586 18:0.48760737 
4 0 4 1:0.82011013 2:0.71169786 3:0.79064508 4:0.47428275 5:0.44609732 6:0.54378898 7:0.38283413 8:0.70606323 9:0.35367196 10:0.66240353 11:0.35847326 12:0.31010052 13:0.59583994 14:0.6212539 15:0.43702996 16:0.49003215 17:0.45440877 18:0.31366105 
0 4 4 1:0.5896073 2:0.41943835 3:0.39147265 4:0.55573645 5:0.34156319 6:0.62524876 7:0.34859357 8:0.72445617 9:0.31846861 10:0.67982071 11:0.37193195 12:0.38940476 13:0.57733827 14:0.59190333 15:0.44723374 16:0.57628172 17:0.45443081 18:0.45312886 
0 4 4 1:0.59627808 2:0.5561318 3:0.47525167 4:0.47331557 5:0.36182791 6:0.54752881 7:0.40095305 8:0.86243999 9:0.44353987 10:0.65528811 11:0.31251578 12:0.34289365 13:0.36276115 14:0.59162228 15:0.33789245 16:0.48491699 17:0.32590386 18:0.26105598 
0 0 3.1171658165793539 1:0.42702252 2:0.72430499 3:0.57332869 4:0.2321443 5:0.40336683 6:0.42193045 7:0.59220668 8:0.67832292 9:0.37630842 10:0.66584957 11:0.25236904 12:0.19563369 13:0.79943142 14:0.76653109 15:0.40269334 16:0.5098936 17:0.37428602 18:0.191606 
0 4 4 1:0.60914892 2:0.46481658 3:0.4816032 4:0.47675512 5:0.35815888 6:0.5561129 7:0.27100204 8:0.79230423 9:0.28795484 10:0.73656785 11:0.31836127 12:0.40770798 13:0.46301651 14:0.63140867 15:0.41039079 16:0.56267222 17:0.40487354 18:0.37241302 
4 0 0 1:0.47353235 2:0.74029744 3:0.56227859 4:0.27780174 5:0.40479715 6:0.37035396 7:0.48218608 8:0.67633309 9:0.5083333 10:0.64867502 11:0.26319493 12:0.45039942 13:0.95964535 14:0.7314236 15:0.4893556 16:0.52584543 17:0.30129936 18:0.20133513 
4 0 4 1:0.76159829 2:0.67431831 3:0.75576741 4:0.53489854 5:0.49016763 6:0.51413817 7:0.22420532 8:0.6767191 9:0.29529628 10:0.71877591 11:0.45463059 12:0.40022364 13:0.44661717 14:0.43549061 15:0.23585585 16:0.46608726 17:0.39900572 18:0.36978417 
4 0 4 1:0.72517997 2:0.54751927 3:0.74769518 4:0.46365537 5:0.50376601 6:0.76128869 7:0.3265831 8:0.77058163 9:0.18678785 10:0.80049361 11:0.36671704 12:0.40562222 13:0.39695064 14:0.46293097 15:0.28544316 16:0.34391645 17:0.2360713 18:0.30129546 
4 0 0 1:0.5434635 2:0.69986135 3:0.58189204 4:0.54273224 5:0.60042157 6:0.78565505 7:0.35974196 8:0.71001217 9:0.38994732 10:0.77217373 11:0.33311709 12:0.32406144 13:0.42875942 14:0.45596494 15:0.46277388 16:0.48258335 17:0.36240474 18:0.31486463 
4 0 0 1:0.48270467 2:0.76499046 3:0.62620506 4:0.48039991 5:0.72346777 6:0.39890852 7:0.54625997 8:0.83145402 9:0.70515499 10:0.77712695 11:0.56037948 12:0.52201573 13:0.74800509 14:0.43258153 15:0.55498107 16:0.61267428 17:0.29151902 18:0.22823546 
0 4 0 1:0.50181206 2:0.3020771 3:0.74755007 4:0.57453355 5:0.57124046 6:0.69814522 7:0.46587378 8:0.81677997 9:0.38272293 10:0.81014176 11:0.42859752 12:0.45384556 13:0.56841392 14:0.59056133 15:0.46988669 16:0.33534725 17:0.21159292 18:0.19702275 
4 4 4 1:0.62339325 2:0.6800942 3:0.5593683 4:0.34908774 5:0.36738429 6:0.63547132 7:0.4610384 8:0.6874443 9:0.29171797 10:0.9128886 11:0.34880412 12:0.3734057 13:0.38824828 14:0.4423776 15:0.44989773 16:0.56202348 17:0.48474558 18:0.39284122 
4 4 4 1:0.60220045 2:0.67166165 3:0.61621724 4:0.40150356 5:0.48658657 6:0.63128729 7:0.34222407 8:0.82623882 9:0.23074537 10:0.77233211 11:0.26386976 12:0.45971208 13:0.60729408 14:0.55037342 15:0.30310238 16:0.53684977 17:0.36596315 18:0.26150711 
4 4 0 1:0.58738361 2:0.63970422 3:0.73288549 4:0.58997097 5:0.50130397 6:0.7424616 7:0.23384905 8:0.69672718 9:0.35608002 10:0.69457031 11:0.56591528 12:0.47285708 13:0.555182 14:0.66100688 15:0.39267593 16:0.3141302 17:0.23819246 18:0.35421924 
4 0 4 1:0.8291067 2:0.69653707 3:0.70557008 4:0.45116513 5:0.49237114 6:0.63829289 7:0.3205151 8:0.6821597 9:0.47480525 10:0.61610646 11:0.39936344 12:0.26110055 13:0.37069234 14:0.60891635 15:0.4340212 16:0.53142847 17:0.37444853 18:0.22512721 
0 4 4 1:0.68125386 2:0.36199728 3:0.37273736 4:0.51499606 5:0.52412862 6:0.72586344 7:0.2631226 8:0.6499542 9:0.62637351 10:0.92638093 11:0.22971994 12:0.42193227 13:0.48239773 14:0.66383534 15:0.4153161 16:0.52118082 17:0.56088781 18:0.36619203 
0 2.6628409941206956 4 1:0.7498217 2:0.29958768 3:0.29714255 4:0.32658385 5:0.61916296 6:0.68684946 7:0.458443 8:0.3660402 9:0.40894484 10:0.9019997 11:0.62619237 12:0.23172328 13:0.34087175 14:0.62645149 15:0.76198561 16:0.43749447 17:0.15687857 18:0.21206053 
4 0 4 1:0.83637954 2:0.5939317 3:0.54087692 4:0.35423487 5:0.4048681 6:0.57030225 7:0.44108098 8:0.76431277 9:0.47431512 10:0.55794194 11:0.6956986 12:0.2849484 13:0.31501499 14:0.48311764 15:0.37215732 16:0.45329711 17:0.39065653 18:0.17210073 
0 4 4 1:0.90915903 2:0.39523986 3:0.20965944 4:0.27017467 5:0.35918802 6:0.60895812 7:0.42178807 8:0.62778218 9:0.39444758 10:0.59267417 11:0.8207417 12:0.35376484 13:0.4246837 14:0.58288706 15:0.54549566 16:0.54201072 17:0.45149556 18:0.27252407 
0 4 4 1:0.85738632 2:0.51793201 3:0.20283145 4:0.36213763 5:0.48306622 6:0.53410995 7:0.39743363 8:0.6329356 9:0.38335234 10:0.55586667 11:0.82245889 12:0.35357713 13:0.46688417 14:0.52676944 15:0.42690745 16:0.4371529 17:0.36552848 18:0.34373339 
4 4 4 1:0.74079218 2:0.52858938 3:0.41132197 4:0.53047315 5:0.37332683 6:0.63554384 7:0.46498512 8:0.65224386 9:0.49709924 10:0.58995494 11:0.59910848 12:0.40521756 13:0.27286329 14:0.4748626 15:0.36301381 16:0.48740378 17:0.38920505 18:0.3354856 
0 4 4 1:0.77866588 2:0.62460315 3:0.24313933 4:0.36722091 5:0.29431317 6:0.56589348 7:0.30749793 8:0.68005394 9:0.39756702 10:0.59271753 11:0.49518713 12:0.35188628 13:0.27141339 14:0.52660381 15:0.4338847 16:0.5779164 17:0.44989201 18:0.37137922 
0 4 4 1:0.7348873 2:0.68240259 3:0.19998873 4:0.28129882 5:0.3959867 6:0.71999132 7:0.42638309 8:0.70371196 9:0.51234824 10:0.60657096 11:0.74717103 12:0.34195136 13:0.55970125 14:0.60862628 15:0.52949913 16:0.64996946 17:0.22351911 18:0.27363115 
4 4 4 1:0.69178383 2:0.72866518 3:0.59828854 4:0.68527138 5:0.50782855 6:0.52668473 7:0.51337098 8:0.76766941 9:0.41516436 10:0.57139152 11:0.47696284 12:0.4583423 13:0.50337933 14:0.57297769 15:0.53471815 16:0.49291177 17:0.49895492 18:0.31329952 
0 4 4 1:0.64794284 2:0.50529158 3:0.29149429 4:0.48338804 5:0.38766617 6:0.54768689 7:0.39576249 8:0.7022598 9:0.45778233 10:0.57173646 11:0.43877545 12:0.46837917 13:0.52330253 14:0.63542063 15:0.59385667 16:0.48534902 17:0.49475427 18:0.28019849 
0 4 4 1:0.73422587 2:0.5232844 3:0.27563626 4:0.41467005 5:0.27163168 6:0.68610884 7:0.37010314 8:0.61982518 9:0.44230687 10:0.51904217 11:0.61821238 12:0.4150097 13:0.48477611 14:0.51863099 15:0.62581265 16:0.69637821 17:0.61252391 18:0.43909895 
0 4 4 1:0.65428838 2:0.29986225 3:0.28664881 4:0.53267286 5:0.39888694 6:0.77105385 7:0.41013457 8:0.65341371 9:0.5267586 10:0.840103 11:0.30851815 12:0.50247381 13:0.44461135 14:0.61419579 15:0.3633837 16:0.5041165 17:0.50601171 18:0.38311657 
0 4 4 1:0.71239854 2:0.23986777 3:0.29035242 4:0.21681189 5:0.40092687 6:0.56952889 7:0.7129849 8:0.58262997 9:0.28057777 10:0.61497499 11:0.44644023 12:0.69587047 13:1 14:0.46155387 15:0.28032331 16:0.60806887 17:0.80234563 18:0.27776705 
4 4 4 1:0.75803899 2:0.66897484 3:0.6277574 4:0.61985903 5:0.44900677 6:0.53097304 7:0.43630533 8:0.74785783 9:0.25116599 10:0.78559926 11:0.45539372 12:0.50564337 13:0.53784558 14:0.51807268 15:0.22074101 16:0.42092609 17:0.35829383 18:0.2554088 
4 0 0 1:0.50840804 2:0.7310366 3:0.61054767 4:0.58608794 5:0.69898566 6:0.61288545 7:0.52138318 8:0.7308328 9:0.48692915 10:0.74365862 11:0.76400914 12:0.33484425 13:0.62968919 14:0.44485735 15:0.41523163 16:0.5793932 17:0.32951586 18:0.28365353 
4 4 0 1:0.49237892 2:0.29500031 3:0.93433189 4:0.51513112 5:0.74015819 6:0.55255428 7:0.64905993 8:0.77862096 9:0.63107104 10:0.75423895 11:0.46921584 12:0.3243371 13:0.43588347 14:0.49411682 15:0.32633102 16:0.47833888 17:0.52462522 18:0.38191493 
0 4 4 1:0.61341118 2:0.62318344 3:0.45013229 4:0.52978709 5:0.33811656 6:0.63513019 7:0.36237807 8:0.64830417 9:0.29432508 10:0.69024586 11:0.32540409 12:0.40218294 13:0.50585893 14:0.6319906 15:0.30213896 16:0.52875348 17:0.36658789 18:0.29316125 
0 4 4 1:0.42119256 2:0.51130061 3:0.2125238 4:0.41935672 5:0.33498703 6:0.48040193 7:0.2380647 8:0.74469295 9:0.39844049 10:0.50630554 11:0.68096775 12:0.47805944 13:0.63687352 14:0.65660087 15:0.38977889 16:0.40871342 17:0.47143483 18:0.55599671 
4 0 4 1:0.62666095 2:0.55163834 3:0.58992007 4:0.62783398 5:0.55858314 6:0.62654086 7:0.47036075 8:0.72651893 9:0.35978026 10:0.47996914 11:0.47821697 12:0.30247418 13:0.65328792 14:0.66072201 15:0.24758683 16:0.32916037 17:0.33180796 18:0.38720442 
4 4 4 1:0.55649153 2:0.6590965 3:0.64433093 4:0.59579933 5:0.42835198 6:0.62839023 7:0.42264274 8:0.75622471 9:0.43176408 10:0.64058885 11:0.55671218 12:0.38013785 13:0.7603685 14:0.55187857 15:0.39546229 16:0.43995413 17:0.43569389 18:0.38459448 
0 4 4 1:0.43186011 2:0.58449595 3:0.20121505 4:0.52965617 5:0.44862501 6:0.55867374 7:0.31477972 8:0.51245628 9:0.35238701 10:0.59453972 11:0.47745166 12:0.16573728 13:0.68113902 14:0.65390203 15:0.49231515 16:0.46266008 17:0.38197149 18:0.38152111 
4 4 4 1:0.58000437 2:0.56068008 3:0.46748456 4:0.65048442 5:0.57777501 6:0.79096262 7:0.48447732 8:0.6734047 9:0.45838458 10:0.59017853 11:0.49072667 12:0.22318597 13:0.4281006 14:0.57826493 15:0.57303739 16:0.51341474 17:0.4273189 18:0.35336569 
4 0 4 1:0.56828545 2:0.59183946 3:0.62190254 4:0.64567785 5:0.51526249 6:0.6549048 7:0.49312151 8:0.68879529 9:0.49316888 10:0.75735428 11:0.56779614 12:0.21179393 13:0.59101749 14:0.56492582 15:0.34196586 16:0.43325446 17:0.19440583 18:0.19434605 
4 4 4 1:0.5606033 2:0.56360266 3:0.44179809 4:0.68285077 5:0.52125834 6:0.81173331 7:0.5125659 8:0.68649929 9:0.46760869 10:0.59976785 11:0.41087745 12:0.12219029 13:0.61387141 14:0.54734114 15:0.30218707 16:0.41973199 17:0.26688528 18:0.32681889 
4 0 4 1:0.57049912 2:0.72278902 3:0.46091713 4:0.543124 5:0.32646968 6:0.66039228 7:0.37681908 8:0.71549585 9:0.40377755 10:0.63956001 11:0.28839245 12:0.23088421 13:0.57664676 14:0.51371956 15:0.59544137 16:0.45663375 17:0.25938123 18:0.22375556 
4 4 4 1:0.53409479 2:0.63034414 3:0.51449763 4:0.69196234 5:0.54624065 6:0.60971309 7:0.46913393 8:0.78696171 9:0.44383812 10:0.58038114 11:0.44203562 12:0.28196215 13:0.49122247 14:0.60853727 15:0.44633702 16:0.58778996 17:0.38493118 18:0.27925803 
4 4 4 1:0.57783954 2:0.53882169 3:0.59074629 4:0.72115885 5:0.4575584 6:0.70746081 7:0.4254244 8:0.72955613 9:0.46587621 10:0.71889319 11:0.55988702 12:0.23953784 13:0.55458894 14:0.7408009 15:0.4395224 16:0.44864209 17:0.38264802 18:0.37505587 
4 4 4 1:0.60476254 2:0.66645253 3:0.54332182 4:0.60630002 5:0.42555184 6:0.64374191 7:0.45507814 8:0.76944335 9:0.37137848 10:0.74254325 11:0.49258974 12:0.21292124 13:0.52363171 14:0.57613262 15:0.47268825 16:0.4593172 17:0.40556214 18:0.25065448 
4 4 4 1:0.5957962 2:0.52641664 3:0.55156552 4:0.72052354 5:0.38680844 6:0.54360529 7:0.51826153 8:0.71838408 9:0.29450318 10:0.62747438 11:0.56862523 12:0.25928057 13:0.62147274 14:0.54989231 15:0.36533882 16:0.43792197 17:0.38384825 18:0.31701122 
4 4 0 1:0.41658243 2:0.68049396 3:0.4951836 4:0.75444556 5:0.51872018 6:0.5324396 7:0.54574337 8:0.7306644 9:0.43266958 10:0.69923343 11:0.50316491 12:0.19788894 13:0.60940225 14:0.6573392 15:0.42346237 16:0.41002036 17:0.42888922 18:0.54450441 
4 0 4 1:0.64864266 2:0.67034455 3:0.49379508 4:0.64752046 5:0.52570329 6:0.53133084 7:0.47813419 8:0.75044535 9:0.4878281 10:0.6577535 11:0.41279978 12:0.20552586 13:0.60121095 14:0.5381439 15:0.37926247 16:0.32504015 17:0.30023574 18:0.48548625 
4 0 0 1:0.26250752 2:0.77904024 3:0.6758852 4:0.6649129 5:0.6502587 6:0.45878051 7:0.59307713 8:0.64824566 9:0.52834373 10:0.63073339 11:0.53336596 12:0.30352304 13:0.74586233 14:0.66058236 15:0.24325903 16:0.18754569 17:0.38084032 18:0.41663101 
0 4 4 1:0.57045524 2:0.42041929 3:0.466728 4:0.85381679 5:0.45850528 6:0.55831716 7:0.56042012 8:0.84575779 9:0.33597836 10:0.68102153 11:0.5516606 12:0.22508322 13:0.6043069 14:0.63705377 15:0.44970742 16:0.48723992 17:0.55762104 18:0.35750146 
0 4 4 1:0.50761864 2:0.51693997 3:0.48446104 4:0.82083579 5:0.45442356 6:0.54093725 7:0.49424479 8:0.78648889 9:0.40264667 10:0.56557059 11:0.49423836 12:0.24673188 13:0.6510839 14:0.65540901 15:0.39425983 16:0.4875249 17:0.47245513 18:0.4286731 
4 4 4 1:0.53832364 2:0.61058185 3:0.42158482 4:0.74408236 5:0.54704848 6:0.68184501 7:0.4279559 8:0.57019227 9:0.66876961 10:0.71906913 11:0.56536933 12:0.39014276 13:0.77094453 14:0.56800512 15:0.5148789 16:0.48183926 17:0.43103166 18:0.51027355 
4 0 4 1:0.59215251 2:0.64207249 3:0.5151545 4:0.71083572 5:0.49134911 6:0.4877303 7:0.41123713 8:0.76555401 9:0.32815786 10:0.6395587 11:0.53526517 12:0.1834845 13:0.69652115 14:0.65487668 15:0.3811399 16:0.24216419 17:0.39414723 18:0.43666546 
0.46041806328052248 0 4 1:0.54373197 2:0.68652008 3:0.4800018 4:0.73807686 5:0.60873299 6:0.59036282 7:0.37489643 8:0.6630618 9:0.40188212 10:0.61448216 11:0.46723032 12:0.24772192 13:0.52290859 14:0.50012113 15:0.31692211 16:0.31575143 17:0.36654379 18:0.38163356 
0 0 4 1:0.44698925 2:0.68151162 3:0.36023093 4:0.51789827 5:0.40339011 6:0.51775083 7:0.43188173 8:0.57923673 9:0.37302222 10:0.59859609 11:0.46371163 12:0.27650266 13:0.53554959 14:0.50246307 15:0.29520145 16:0.39967393 17:0.22110165 18:0.32155415 
4 4 4 1:0.54956941 2:0.68743451 3:0.54471006 4:0.77120094 5:0.47014504 6:0.53861578 7:0.54219149 8:0.66431291 9:0.37919686 10:0.65967022 11:0.42081565 12:0.20835773 13:0.60400061 14:0.58994796 15:0.40103086 16:0.42463177 17:0.47964072 18:0.22053596 
4 4 4 1:0.58471664 2:0.61212316 3:0.52632221 4:0.66544497 5:0.48616467 6:0.64170187 7:0.48440909 8:0.66089014 9:0.5603977 10:0.59278167 11:0.48848046 12:0.09477501 13:0.43049034 14:0.49346123 15:0.20007297 16:0.41646513 17:0.53769976 18:0.48216004 
4 4 4 1:0.56962742 2:0.71421119 3:0.48196372 4:0.69425757 5:0.44859867 6:0.53639428 7:0.38969484 8:0.62444018 9:0.49835824 10:0.62213048 11:0.48942499 12:0.2577145 13:0.71776817 14:0.7025266 15:0.3994134 16:0.290089 17:0.38857027 18:0.45304282 
4 4 4 1:0.56774654 2:0.62992386 3:0.52562256 4:0.73302711 5:0.52382311 6:0.57753187 7:0.55084771 8:0.74780203 9:0.45613464 10:0.64271976 11:0.49596596 12:0.12676476 13:0.70657282 14:0.67905423 15:0.47473268 16:0.44201429 17:0.58203278 18:0.57057959 
4 4 4 1:0.54542558 2:0.5738535 3:0.50833692 4:0.64478244 5:0.59207565 6:0.74691062 7:0.49624353 8:0.79725685 9:0.42468573 10:0.61248465 11:0.43788032 12:0.22859985 13:0.88738645 14:0.62907216 15:0.49538312 16:0.4394788 17:0.38925278 18:0.43011795 
0 4 4 1:0.50850776 2:0.39825418 3:0.29825106 4:0.58166477 5:0.34694763 6:0.59738282 7:0.3446152 8:0.67440391 9:0.3697565 10:0.72006208 11:0.52157708 12:0.27453197 13:0.75734644 14:0.64276815 15:0.46485602 16:0.66346889 17:0.52428717 18:0.41144644 
1.2971458012216091 4 0 2:0.63457953 3:0.9035047 4:0.38995155 5:0.68991401 6:0.57534777 7:0.59999005 8:0.59592107 9:0.57485824 10:0.74653271 11:0.67347312 12:0.43786655 13:0.82497991 14:0.63098295 15:0.44850623 16:0.62303007 17:0.58969485 18:0.35636689 
-4 0.89994730587630634 0 1:0.59003632 2:0.6540091 3:0.72656803 4:0.48771592 5:0.50786461 6:0.71063144 7:0.46124795 8:0.65214211 9:0.45315343 10:0.68024001 11:0.51303471 12:0.39147845 13:0.40386768 14:0.50315461 15:0.36063835 16:0.36376517 17:0.4373846 18:0.048251219 
-0 0 2.0029076127828982 1:0.74460905 2:0.65928662 3:0.64731996 4:0.58756801 5:0.59325015 6:0.67724404 7:0.43662983 8:0.61281571 9:0.354181 10:0.62497011 11:0.30830725 12:0.34552497 13:0.49312248 14:0.48945471 15:0.28978682 16:0.32454181 17:0.59777815 18:0.52075308 
-0 0 4 1:0.74730552 2:0.66284501 3:0.72611748 4:0.49871449 5:0.49207916 6:0.55930863 7:0.44028745 8:0.67473902 9:0.31509372 10:0.61586348 11:0.39225393 12:0.46284361 13:0.55116782 14:0.64288416 15:0.36448859 16:0.33043107 17:0.47305624 18:0.4306312 
-4 0 4 1:0.76526014 2:0.56575864 3:0.70545567 4:0.40725469 5:0.54396811 6:0.55012545 7:0.37376864 8:0.58398103 9:0.31373671 10:0.59223807 11:0.17890868 12:0.40759592 13:0.28325155 14:0.37969987 15:0.39228282 16:0.27350136 17:0.43955165 18:0.35877591 
-1.2395798502465769 0 0 1:0.65026518 2:0.60960915 3:0.73824157 4:0.59699354 5:0.67159594 6:0.76782622 7:0.44137089 8:0.56404265 9:0.31385316 10:0.69923552 11:0.31695346 12:0.41971122 13:0.50433826 14:0.55178097 15:0.29324092 16:0.31233462 17:0.35034772 18:0.42427822 
-4 0 0 1:0.71693444 2:0.56594948 3:0.70400173 4:0.53786495 5:0.5907245 6:0.69757394 7:0.47601829 8:0.66742612 9:0.32396857 10:0.65018087 11:0.42357702 12:0.51811043 13:0.60166146 14:0.44307007 15:0.36688118 16:0.22144162 17:0.16024015 18:0.32980528 
-4 0 0 1:0.66678777 2:0.58019559 3:0.69992852 4:0.57426144 5:0.61939556 6:0.68687198 7:0.38460952 8:0.60728354 9:0.37979861 10:0.67271732 11:0.34282368 12:0.42780437 13:0.4784648 14:0.55400333 15:0.45274228 16:0.30802478 17:0.41767976 18:0.61987402 
-4 0 0 1:0.70518713 2:0.5961206 3:0.7200936 4:0.52928636 5:0.55797939 6:0.62880779 7:0.40147207 8:0.66599665 9:0.37376408 10:0.62968946 11:0.40417362 12:0.34384358 13:0.32822987 14:0.49573498 15:0.48628742 16:0.38645145 17:0.35603777 18:0.35673543 
-4 4 0 1:0.53290589 2:0.58182358 3:0.77799963 4:0.45335015 5:0.66188628 6:0.62868724 7:0.46621007 8:0.64221218 9:0.44855263 10:0.74850666 11:0.67636165 12:0.53733882 13:0.43861214 14:0.42630536 15:0.3255622 16:0.38154997 17:0.53277427 18:0.36535122 
-0 0 4 1:0.74112844 2:0.62505701 3:0.70493131 4:0.47665304 5:0.5755893 6:0.6308911 7:0.38905344 8:0.67550276 9:0.44022115 10:0.73102397 11:0.47680745 12:0.41782457 13:0.47071998 14:0.49894068 15:0.29629313 16:0.35415109 17:0.52050363 18:0.30903428 
-4 0 0 1:0.70813919 2:0.56041752 3:0.75254676 4:0.48986306 5:0.64705979 6:0.68530727 7:0.42715297 8:0.68070002 9:0.38606418 10:0.66109936 11:0.42096639 12:0.42401437 13:0.41119697 14:0.50198022 15:0.38699033 16:0.23682562 17:0.25047322 18:0.2993826 
-4 4 4 1:0.4864093 2:0.6795439 3:0.51860248 4:0.4315377 5:0.59919443 6:0.52058744 7:0.5092642 8:0.64024812 9:0.51019697 10:0.65612637 11:0.38451617 12:0.32127445 13:0.47026529 14:0.57101006 15:0.3466157 16:0.2951547 17:0.45030515 18:0.26913694 
-4 0 4 1:0.73357315 2:0.6034434 3:0.69727521 4:0.48832837 5:0.50029015 6:0.63987621 7:0.4118175 8:0.6373035 9:0.37610555 10:0.63727882 11:0.33787101 12:0.53104982 13:0.47995826 14:0.63953636 15:0.38581445 16:0.24099983 17:0.42435796 18:0.38162957 
-4 0 4 1:0.72949166 2:0.56017811 3:0.75953378 4:0.40203496 5:0.57083895 6:0.5774929 7:0.40051177 8:0.68495287 9:0.34864666 10:0.51626186 11:0.35089258 12:0.40362664 13:0.47255564 14:0.50960329 15:0.33758713 16:0.21277729 17:0.28445116 18:0.28302045 
-4 0 0 1:0.71899966 2:0.54669357 3:0.76016473 4:0.50962893 5:0.51113544 6:0.68355634 7:0.45268448 8:0.69367192 9:0.30040723 10:0.62151334 11:0.39888851 12:0.4990993 13:0.47918543 14:0.55586378 15:0.41503955 16:0.20470432 17:0.27909031 18:0.35389982 
-0 0 4 1:0.79384903 2:0.57321907 3:0.74303529 4:0.4273509 5:0.56226286 6:0.61591711 7:0.39168477 8:0.6405364 9:0.37686118 10:0.62974244 11:0.50695593 12:0.49432967 13:0.48986118 14:0.50116951 15:0.41719121 16:0.41405596 17:0.42374911 18:0.42438531 
-4 0 0 1:0.70098057 2:0.54174447 3:0.76447213 4:0.52473531 5:0.60018067 6:0.62666183 7:0.40961509 8:0.64579774 9:0.3759916 10:0.67446933 11:0.36966933 12:0.31649928 13:0.51247024 14:0.55578409 15:0.35748445 16:0.26506748 17:0.38908087 18:0.32328873 
-2.2641683130831267 0 4 1:0.78233731 2:0.84350448 3:0.45698902 4:0.53745147 5:0.43501763 6:0.24367047 7:0.64078991 8:0.31500927 9:0.29871814 10:0.58041517 11:0.14682341 12:0.49017861 13:0.45372998 14:0.4136313 15:0.54211203 16:0.25192883 17:0.32568184 18:0.24622081 
-4 0 0 1:0.52207415 2:0.95936607 3:0.38474106 4:0.57025281 5:0.52839685 6:0.2297228 7:0.7124133 8:0.36961523 9:0.55243479 10:0.67876823 11:0.21452573 12:0.73757605 13:0.53956688 14:0.43856274 15:0.69988448 16:0.32853713 17:0.60951122 18:0.35692385 
-4 0 0 1:0.57567377 2:0.91175698 3:0.44923506 4:0.59660577 5:0.54927477 6:0.2202911 7:0.68209325 8:0.30264585 9:0.43124782 10:0.73663283 11:0.27067794 12:0.63351689 13:0.43340693 14:0.25396409 15:0.48284224 16:0.10943682 17:0.30448709 18:0.23639652 
-2.2389230379160172 0 0 1:0.25634572 2:0.72106503 3:0.81193068 4:0.53885629 5:0.77802724 6:0.51119883 7:0.67162778 8:0.69228564 9:0.68700469 10:0.83273902 11:0.59760826 12:0.5656729 13:0.6972809 14:0.54090695 15:0.54627411 16:0.40998877 17:0.52474296 18:0.43873272 
-0 0 4 1:0.75872826 2:0.81743939 3:0.45276522 4:0.62599262 5:0.467077 6:0.20750314 7:0.71172164 8:0.36426327 9:0.40946393 10:0.64832112 11:0.14341683 12:0.5162653 13:0.47956855 14:0.34371726 15:0.45533491 16:0.33318163 17:0.51534407 18:0.21374608 
-4 0 4 1:0.73168282 2:0.83114392 3:0.37273888 4:0.57759941 5:0.47768644 6:0.28783473 7:0.69252703 8:0.29268314 9:0.36798098 10:0.64222608 11:0.23370678 12:0.58196447 13:0.41938644 14:0.33675078 15:0.42433577 16:0.14789386 17:0.28939321 18:0.31478673 
-4 4 0 1:0.50283628 2:0.89743523 3:0.32370521 4:0.57762492 5:0.50181963 6:0.34020239 7:0.72577441 8:0.19644491 9:0.50655944 10:0.72041674 11:0.18716296 12:0.63244822 13:0.34286096 14:0.32017214 15:0.53445867 16:0.12268855 17:0.49346318 18:0.28002349 
-0 4 0 1:0.55416565 2:0.89921191 3:0.35221501 4:0.74221078 5:0.49987068 6:0.27490858 7:0.89793121 8:0.27781435 9:0.4230474 10:0.74581966 11:0.17881997 12:0.68692106 13:0.47667079 14:0.32000893 15:0.5629834 16:0.31296823 17:0.77285433 18:0.35708999 
-4 0 0 1:0.4738567 2:0.89237106 3:0.41207596 4:0.6409796 5:0.47292025 6:0.35070492 7:0.72868527 8:0.29740016 9:0.5616282 10:0.66566513 11:0.20722543 12:0.48820246 13:0.27409346 14:0.30732037 15:0.62211238 16:0.24465667 17:0.49298509 18:0.28042827 
-4 4 0 1:0.54367896 2:0.97061807 3:0.36901693 4:0.55221122 5:0.48183798 6:0.27243947 7:0.70857269 8:0.32322615 9:0.47778471 10:0.68585074 11:0.29580233 12:0.68706226 13:0.51032433 14:0.40807662 15:0.68175211 16:0.32796529 17:0.61957277 18:0.34802946 
-4 0 0 1:0.32582432 2:0.9166967 3:0.40200469 4:0.65850579 5:0.58714072 6:0.1004692 7:0.80663921 8:0.29123317 9:0.66585155 10:0.63552949 11:0.33580659 12:0.83778791 13:0.56457153 14:0.42476681 15:0.68485849 16:0.043863695 17:0.50413962 18:0.51866043 
-4 4 0 1:0.54030974 2:0.90133749 3:0.24777299 4:0.66762873 5:0.50668549 6:0.20388296 7:0.74817541 8:0.22269984 9:0.52303352 10:0.78100135 11:0.20262167 12:0.60021961 13:0.28026844 14:0.33884997 15:0.66813481 16:0.19493346 17:0.66698093 18:0.42854079 
-4 4 0 1:0.46074042 2:0.90700768 3:0.35529469 4:0.65728809 5:0.49629204 6:0.23377723 7:0.80882194 8:0.35892514 9:0.58797245 10:0.72317057 11:0.15382339 12:0.66345776 13:0.50416368 14:0.43053975 15:0.62833545 16:0.16967079 17:0.63406686 18:0.46177143 
-4 0 0 1:0.5607454 2:0.89341228 3:0.46150284 4:0.58442767 5:0.60106438 6:0.29086934 7:0.66398763 8:0.295809 9:0.4433908 10:0.70128836 11:0.20397474 12:0.55420592 13:0.43595944 14:0.40462818 15:0.62597761 16:0.18857279 17:0.41970237 18:0.31582569 
-4 0 0 1:0.53852431 2:0.85368717 3:0.55257096 4:0.66164878 5:0.52595964 6:0.15344999 7:0.65107168 8:0.39736075 9:0.47508072 10:0.74853527 11:0.36194248 12:0.57251353 13:0.40867095 14:0.42531108 15:0.65781516 16:0.23968463 17:0.40350202 18:0.29986119 
-4 3.0510572234764295 0 1:0.53390177 2:0.95284901 3:0.38924172 4:0.57743544 5:0.45319343 6:0.20199168 7:0.68999157 8:0.19677212 9:0.41509345 10:0.73721482 11:0.1519446 12:0.50275306 13:0.3626319 14:0.42610578 15:0.65123733 16:0.22420288 17:0.73117865 18:0.59945886 
-4 4 0 1:0.46755732 2:0.86356156 3:0.36220776 4:0.60353046 5:0.53753773 6:0.13649467 7:0.6140124 8:0.30733258 9:0.508835 10:0.72889205 11:0.31617632 12:0.68880447 13:0.37613443 14:0.30423398 15:0.65900774 16:0.39344271 17:0.58271393 18:0.33098425 
-4 0 0 1:0.57397494 2:0.92048479 3:0.41927971 4:0.55916784 5:0.54993975 6:0.15461267 7:0.63468655 8:0.41630551 9:0.49257544 10:0.68524502 11:0.29235383 12:0.62614817 13:0.53055803 14:0.32619305 15:0.59991899 16:0.4086372 17:0.38843128 18:0.16841511 
-4 4 0 1:0.43649665 2:0.86610378 3:0.38953973 4:0.54352539 5:0.51882014 6:0.30587046 7:0.76331576 8:0.30769636 9:0.48880064 10:0.72482893 11:0.2825189 12:0.53871609 13:0.57792185 14:0.47264845 15:0.62429617 16:0.29630736 17:0.70203061 18:0.51686443 
-1.6165951234506148 0 4 1:0.76118947 2:0.85593641 3:0.45479026 4:0.63069077 5:0.54277651 6:0.14555299 7:0.61422911 8:0.27702173 9:0.35925212 10:0.68147838 11:0.29114284 12:0.55397794 13:0.46203787 14:0.41087081 15:0.49926839 16:0.12929252 17:0.37243268 18:0.24156755 
-4 4 0 1:0.61430129 2:0.86984302 3:0.34220516 4:0.66361146 5:0.45642378 6:0.20004736 7:0.81201671 8:0.24888914 9:0.39016651 10:0.71285712 11:0.13068862 12:0.61499369 13:0.37784514 14:0.31768549 15:0.67076084 16:0.21528558 17:0.43796195 18:0.37334353 
-4 0 4 1:0.74371961 2:0.84502314 3:0.41593045 4:0.58881168 5:0.51286798 6:0.1664623 7:0.66187923 8:0.28578205 9:0.39083686 10:0.72492887 11:0.24272938 12:0.51858561 13:0.3948553 14:0.30940134 15:0.42347536 17:0.27409639 18:0.29069254 
-4 0 0 1:0.32472123 2:0.75058897 3:0.69055988 4:0.4828807 5:0.6669828 6:0.68829467 7:0.58628503 8:0.55709775 9:0.75083578 10:0.60397563 11:0.5990228 12:0.52763091 13:0.48678416 14:0.58206141 15:0.46127515 16:0.56523719 17:0.52932924 18:0.32362743 
-2.7026408386717704 0 4 1:0.56511571 2:0.81018923 3:0.57934857 4:0.43877038 5:0.63697662 6:0.53918959 7:0.67742844 8:0.71658567 9:0.6250034 10:0.48760152 11:0.56431614 12:0.53009726 13:0.71574663 14:0.61449491 15:0.36491633 16:0.51719133 17:0.39749008 18:0.25471975 
-4 0 0 1:0.36464824 2:0.67414437 3:0.734516 4:0.56056286 5:0.72679635 6:0.63979376 7:0.56043893 8:0.6194855 9:0.67474179 10:0.6378634 11:0.6217868 12:0.43445233 13:0.60904635 14:0.57109164 15:0.47762166 16:0.63566992 17:0.53608116 18:0.29401454 
-0 4 4 1:0.5698732 2:0.72753884 3:0.47619667 4:0.61397742 5:0.66336554 6:0.68081777 7:0.62631635 8:0.49986176 9:0.79266202 10:0.59390542 11:0.65270786 12:0.55354544 13:0.58351041 14:0.71970563 15:0.50700143 16:0.67198057 17:0.5137226 18:0.36106134 
-4 0 0 1:0.35561896 2:0.7993459 3:0.58329193 4:0.56143253 5:0.6368512 6:0.5493817 7:0.6411568 8:0.71698732 9:0.81142059 10:0.55723499 11:0.60813674 12:0.42585012 13:0.49478501 14:0.63079638 15:0.46954838 16:0.65146839 17:0.4870245 18:0.39667959 
-0 0 4 1:0.51417779 2:0.87193417 3:0.51682411 4:0.50269269 5:0.54926969 6:0.69381628 7:0.67430746 8:0.55278506 9:0.79257114 10:0.558416 11:0.58193155 12:0.44845473 13:0.5685596 14:0.66907525 15:0.39280246 16:0.63424157 17:0.51969729 18:0.31708357 
-4 4 0 1:0.34788366 2:0.74190629 3:0.48994637 4:0.66506467 5:0.61188361 6:0.55205001 7:0.65395024 8:0.46107694 9:0.60476292 10:0.61923331 11:0.65559346 12:0.48025969 13:0.57821007 14:0.60359849 15:0.33284795 16:0.52005998 17:0.54862216 18:0.40455576 
-4 4 4 1:0.48958937 2:0.69090458 3:0.60961752 4:0.54056664 5:0.67223349 6:0.59382692 7:0.59273535 8:0.56953646 9:0.7068681 10:0.58024407 11:0.59586318 12:0.49265958 13:0.635352 14:0.7244145 15:0.46146091 16:0.59929475 17:0.56388471 18:0.24401822 
-0 0 2.6315347892662793 1:0.62132357 2:0.72849164 3:0.57362201 4:0.59634848 5:0.61357024 6:0.62052393 7:0.61612779 8:0.61991877 9:0.88822583 10:0.58274202 11:0.67271226 12:0.5496258 13:0.4701618 14:0.5843501 15:0.31435521 16:0.47787477 17:0.44922865 18:0.35792927 
-0 0 4 1:0.61083395 2:0.73792676 3:0.57389732 4:0.60354026 5:0.57786329 6:0.64897131 7:0.60378979 8:0.49157782 9:0.69733442 10:0.49514823 11:0.72644299 12:0.54932141 13:0.43778757 14:0.67025925 15:0.41056038 16:0.48910352 17:0.35384452 18:0.33518609 
-4 4 4 1:0.52104095 2:0.75096345 3:0.55535792 4:0.57893082 5:0.6572676 6:0.67541651 7:0.63151275 8:0.48604764 9:0.60363676 10:0.47514813 11:0.62520013 12:0.58604896 13:0.70677796 14:0.79514965 15:0.52572827 16:0.61837822 17:0.4810515 18:0.28801462 
-4 4 4 1:0.47968646 2:0.63746401 3:0.46305959 4:0.70201678 5:0.53699354 6:0.62847504 7:0.63263461 8:0.53773283 9:0.7398314 10:0.53736479 11:0.87170871 12:0.48810444 13:0.48080293 14:0.67858922 15:0.25172554 16:0.59664241 17:0.53626775 18:0.29446248 
-4 0 0 1:0.38846984 2:0.75729805 3:0.65876275 4:0.56234424 5:0.73775579 6:0.54661734 7:0.58509028 8:0.63685807 9:0.70344893 10:0.67405559 11:0.67154259 12:0.42483358 13:0.51348808 14:0.59058004 15:0.4253985 16:0.53095512 17:0.48921505 18:0.21288605 
-4 4 4 1:0.37427777 2:0.68675025 3:0.36791511 4:0.7102811 5:0.52135373 6:0.66921273 7:0.60527745 8:0.45103996 9:0.91947099 10:0.57632705 11:0.77519993 12:0.58593867 13:0.55068598 14:0.67661633 15:0.34904748 16:0.70394817 17:0.37362251 18:0.26224326 
-0 4 0 1:0.53501404 2:0.73054378 3:0.56603602 4:0.69716811 5:0.51468621 6:0.56939604 7:0.56879229 8:0.55595915 9:0.75463861 10:0.58135084 11:0.75723279 12:0.50510892 13:0.56794456 14:0.61947335 15:0.34569775 16:0.60349404 17:0.51534786 18:0.47175036 
-0 0 4 1:0.55314738 2:0.77236531 3:0.59895151 4:0.50148557 5:0.6119495 6:0.57405062 7:0.59620485 8:0.57751741 9:0.78383168 10:0.73023694 11:0.76633196 12:0.49497982 13:0.58642554 14:0.69899123 15:0.41185156 16:0.54276461 17:0.48747791 18:0.24735511 
-4 4 4 1:0.41273317 2:0.73540765 3:0.42449112 4:0.51975606 5:0.61224199 6:0.55823252 7:0.54341007 8:0.46679063 9:0.71606957 10:0.57152325 11:0.6413244 12:0.47055038 13:0.45787873 14:0.66468707 15:0.43366857 16:0.53609169 17:0.40749391 18:0.31573208 
-4 4 0 1:0.43434244 2:0.70308897 3:0.55030639 4:0.73060307 5:0.50300433 6:0.58293758 7:0.52515991 8:0.44985179 9:0.77468293 10:0.6201765 11:0.77613624 12:0.39146658 13:0.55332612 14:0.75956365 15:0.29375783 16:0.53815866 17:0.39719254 18:0.34358147 
-0 0 4 1:0.66185835 2:0.76891846 3:0.41218101 4:0.58461844 5:0.62407716 6:0.6478614 7:0.60202518 8:0.52588205 9:0.72119133 10:0.50641485 11:0.56449558 12:0.42324132 13:0.61141172 14:0.73643013 15:0.41041666 16:0.5758722 17:0.45491365 18:0.30741895 
-4 0 4 1:0.47215435 2:0.83938206 3:0.52755217 4:0.45983924 5:0.64445546 6:0.64847432 7:0.59189877 8:0.55943346 9:0.78377175 10:0.60380156 11:0.63084343 12:0.46517435 13:0.48806797 14:0.64021555 15:0.45541672 16:0.63006179 17:0.43063769 18:0.16749909 
-4 0 0 1:0.44251089 2:0.70659262 3:0.64645727 4:0.40155528 5:0.62855741 6:0.61766654 7:0.65122312 8:0.68178162 9:0.74576833 10:0.62209968 11:0.63174358 12:0.41667629 13:0.39966682 14:0.65171138 15:0.53296991 16:0.57899352 17:0.59096069 18:0.39631943 
-4 4 4 1:0.34446516 2:0.80678133 3:0.4905714 4:0.51978442 5:0.54582493 6:0.71246335 7:0.62166167 8:0.52890194 9:0.83393926 10:0.69982699 11:0.741367 12:0.52301972 13:0.74922704 14:0.74371826 15:0.44047084 16:0.61622854 17:0.50048569 18:0.39721816 
-0 0 4 1:0.5405382 2:0.74025848 3:0.58414282 4:0.43771055 5:0.77860944 6:0.66311188 7:0.58345924 8:0.52033912 9:0.61325718 10:0.67812591 11:0.71708199 12:0.5922237 13:0.6865073 14:0.68191594 15:0.47711093 16:0.55576952 17:0.59896965 18:0.41395268 
-0 4 0 1:0.52441056 2:0.71695296 3:0.69783019 4:0.62648226 5:0.51572664 6:0.77259948 7:0.55320805 8:0.60143041 9:0.50595686 10:0.52782726 11:0.45937336 12:0.4566909 13:0.5952589 14:0.51880523 15:0.3168111 16:0.54130772 17:0.7068413 18:0.3214763 
-0 4 0 1:0.5083805 2:0.63307328 3:0.70101245 4:0.69909178 5:0.5428023 6:0.82100134 7:0.60180131 8:0.62507241 9:0.62913733 10:0.61253772 11:0.50726848 12:0.51059699 13:0.81340616 14:0.58782712 15:0.48091962 16:0.59643896 17:0.57846615 18:0.33270739 
-3.2680238297346964 4 0 1:0.44947604 2:0.58490054 3:0.61981613 4:0.59625436 5:0.44857069 6:0.84617757 7:0.53271253 8:0.62184958 9:0.62105183 10:0.74185646 11:0.59512316 12:0.57527804 13:0.82822962 14:0.60613824 15:0.46760618 16:0.48133445 17:0.44520992 18:0.36309445 
-0 0.61177524190003407 0 1:0.51143737 2:0.62405754 3:0.69851905 4:0.6991019 5:0.52441176 6:0.82841263 7:0.61129546 8:0.64151653 9:0.66332391 10:0.6628652 11:0.53320496 12:0.49028049 13:0.69335102 14:0.50509036 15:0.51045955 16:0.52759484 17:0.58170936 18:0.44875537 
-0 4 0 1:0.49654956 2:0.62822422 3:0.67385844 4:0.66855746 5:0.50024971 6:0.83351437 7:0.6018602 8:0.68016825 9:0.71589532 10:0.7045494 11:0.51830192 12:0.38894709 13:0.67914636 14:0.48313933 15:0.49928891 16:0.58971043 17:0.59650568 18:0.4426539 
-0 4 0 1:0.50808181 2:0.59660935 3:0.66555394 4:0.70756439 5:0.54105508 6:0.82598314 7:0.5958705 8:0.67257038 9:0.71929488 10:0.63282948 11:0.59017899 12:0.55935396 13:0.83354499 14:0.55589137 15:0.4269872 16:0.50603986 17:0.44512715 18:0.4554248 
-0 4 0 1:0.55795178 2:0.61203067 3:0.69768671 4:0.71159756 5:0.54438707 6:0.7960949 7:0.54593072 8:0.66283952 9:0.7093777 10:0.64562531 11:0.56970125 12:0.58060615 13:0.8688594 14:0.62172431 15:0.50725172 16:0.52359478 17:0.53286136 18:0.34379833 
-0 4 0 1:0.53417778 2:0.61797181 3:0.66851588 4:0.66405262 5:0.49041773 6:0.86612352 7:0.52690025 8:0.65758786 9:0.62987889 10:0.70312855 11:0.61516647 12:0.59377442 13:0.65540836 14:0.52255153 15:0.41047313 16:0.41219262 17:0.51525276 18:0.24881602 
-4 0 0 1:0.44624153 2:0.80525266 3:0.6845236 4:0.54600056 5:0.68001941 6:0.5155619 7:0.47791816 8:0.74708145 9:0.54476169 10:0.60794591 11:0.69473989 12:0.24341326 13:0.58934197 14:0.37819485 15:0.38987394 16:0.67697655 17:0.47866775 18:0.28558789 
-4 0 0 1:0.40899831 2:0.80773905 3:0.66512398 4:0.55675164 5:0.6761442 6:0.58275098 7:0.5346582 8:0.75691417 9:0.56603822 10:0.65837287 11:0.71375934 12:0.26327792 13:0.65823062 14:0.54260479 15:0.42716414 16:0.49658354 17:0.41464104 18:0.23821061 
-4 0 0 1:0.48629783 2:0.79367171 3:0.67774413 4:0.55682673 5:0.66273322 6:0.58453543 7:0.55620186 8:0.79716017 9:0.52176531 10:0.61066188 11:0.69913893 12:0.23193085 13:0.52760467 14:0.62397575 15:0.59750055 16:0.46275815 17:0.42833875 18:0.37196809 
-4 0 0 1:0.43228427 2:0.80159681 3:0.72182912 4:0.52912507 5:0.64424064 6:0.564304 7:0.52203466 8:0.74878691 9:0.51975123 10:0.63161559 11:0.64208334 12:0.33631562 13:0.67981514 14:0.41244691 15:0.53361173 16:0.48921228 17:0.45561889 18:0.4095464 
-4 0 0 1:0.41961127 2:0.75155859 3:0.66529326 4:0.61607888 5:0.69842137 6:0.68120716 7:0.5759551 8:0.73566527 9:0.59269562 10:0.66036619 11:0.74563688 12:0.24280983 13:0.78302764 14:0.58865359 15:0.48816656 16:0.53141688 17:0.35325657 18:0.42167646 
-4 0 0 1:0.40591935 2:0.76535778 3:0.59856698 4:0.59962648 5:0.68487101 6:0.61834763 7:0.58141289 8:0.74277295 9:0.70895558 10:0.80801816 11:0.75597235 12:0.33000501 13:0.54153218 14:0.37833239 15:0.37079245 16:0.56686151 17:0.49964651 18:0.27412366 
-4 0 4 1:0.58889279 2:0.77218239 3:0.6306864 4:0.53482626 5:0.62348785 6:0.59152598 7:0.41767166 8:0.77035529 9:0.42226708 10:0.58738396 11:0.52890807 12:0.160045 13:0.53505348 14:0.47354109 15:0.48502923 16:0.56703035 17:0.53472804 18:0.2820665 
-4 0 0 1:0.53315921 2:0.81338378 3:0.71390391 4:0.6058092 5:0.65125565 6:0.49580429 7:0.52470702 8:0.78211061 9:0.51603703 10:0.59254486 11:0.63386447 12:0.15035001 13:0.59931558 14:0.47482179 15:0.43873388 16:0.38917383 17:0.19827966 18:0.28414946 
-4 0 4 1:0.61210038 2:0.78206554 3:0.65219446 4:0.47508161 5:0.85734369 6:0.69573001 7:0.53619778 8:0.62526566 9:0.31751898 10:0.6056482 11:0.35511369 12:0.51999274 13:0.62620853 14:0.63854623 15:0.26852942 16:0.45681954 17:0.58698555 18:0.28506121 
-0 4 0 1:0.51275954 2:0.6936479 3:0.78112517 4:0.47481856 5:0.68264179 6:0.63004962 7:0.53680021 8:0.61872007 9:0.47415235 10:0.78888883 11:0.49077263 12:0.66916243 13:0.6104689 14:0.69207512 15:0.36844049 16:0.52892713 17:0.6259683 18:0.31622233 
-0 4 4 1:0.68828301 2:0.73286195 3:0.68039802 4:0.43785762 5:0.61270466 6:0.68530009 7:0.47931604 8:0.60370081 9:0.44318753 10:0.64359273 11:0.63036148 12:0.56812196 13:0.58481501 14:0.64365203 15:0.24771116 16:0.49774685 17:0.615739 18:0.34842421 
-4 0 0 1:0.53820184 2:0.73842123 3:0.78873965 4:0.43642747 5:0.62593053 6:0.52100634 7:0.43186862 8:0.55570542 9:0.35052832 10:0.70613234 11:0.49498662 12:0.55620004 13:0.63996488 14:0.56410746 15:0.3120494 16:0.46919045 17:0.63984471 18:0.49739176 
-0 4 0 1:0.52205241 2:0.61404375 3:0.74255974 4:0.47541833 5:0.59401679 6:0.66810575 7:0.57534746 8:0.68603104 9:0.53614791 10:0.8251501 11:0.62174572 12:0.50594518 13:0.54799374 14:0.65800729 15:0.2769742 16:0.46201972 17:0.62222891 18:0.5069676 
-0 4 0 1:0.55040935 2:0.72372838 3:0.76575648 4:0.47827098 5:0.67555668 6:0.6178237 7:0.46184639 8:0.6329119 9:0.48387015 10:0.82317796 11:0.52324428 12:0.59177949 13:0.51818274 14:0.5944889 15:0.27323022 16:0.46649834 17:0.65208063 18:0.41684088 
-0 4 0 1:0.65663715 2:0.66537286 3:0.68736083 4:0.55646696 5:0.54477589 6:0.64673153 7:0.61413021 8:0.5757821 9:0.51486816 10:0.81409542 11:0.57027615 12:0.39825928 13:0.48644632 14:0.70256094 15:0.29876384 16:0.47047774 17:0.71255985 18:0.38082397 
-4 4 4 1:0.42455324 2:0.54761368 3:0.73317143 4:0.42085251 5:0.67846941 6:0.59141993 7:0.48511745 8:0.72070748 9:0.47305546 10:0.74115808 11:0.61302752 12:0.6885481 13:0.58528541 14:0.55470647 15:0.17509922 16:0.56422822 17:0.69039346 18:0.59314898 
-4 4 2.3260826054369352 1:0.48315395 2:0.58766997 3:0.67062113 4:0.47607175 5:0.73283719 6:0.62940102 7:0.49824716 8:0.68664202 9:0.55762299 10:0.7127738 11:0.49873846 12:0.58999727 13:0.64642547 14:0.74457712 15:0.39985082 16:0.69824511 17:0.59242186 18:0.42227709 
-0 4 0 1:0.57692253 2:0.62574773 3:0.7214045 4:0.55696857 5:0.62082366 6:0.68878605 7:0.56171578 8:0.67367682 9:0.4897372 10:0.71826233 11:0.46691669 12:0.46666498 13:0.53850281 14:0.64508632 15:0.20984323 16:0.48230958 17:0.6667625 18:0.54345627 
-4 4 0 1:0.43665944 2:0.6000252 3:0.79038859 4:0.43550991 5:0.61090687 6:0.64051448 7:0.56447592 8:0.6171626 9:0.54733199 10:0.87033778 11:0.44806277 12:0.62331956 13:0.52320917 14:0.68500202 15:0.38474781 16:0.52759349 17:0.67327608 18:0.45945753 
-0 4 0 1:0.60394409 2:0.63699636 3:0.70708981 4:0.53104001 5:0.50142456 6:0.68784626 7:0.57946973 8:0.57832816 9:0.44630969 10:0.6693506 11:0.40071422 12:0.67091328 13:0.74340758 14:0.77188988 15:0.44630474 16:0.51512736 17:0.65862014 18:0.70033809 
-4 4 4 1:0.54187302 2:0.65005581 3:0.62885192 4:0.45995658 5:0.75226503 6:0.57792812 7:0.53213786 8:0.73724584 9:0.40048476 10:0.74528551 11:0.51523855 12:0.56557415 13:0.65137084 14:0.66207559 15:0.240629 16:0.44710979 17:0.81330583 18:0.47708032 
-0 4 0 1:0.61957437 2:0.62124364 3:0.71134922 4:0.58586552 5:0.58633567 6:0.68835798 7:0.55796759 8:0.60122182 9:0.50554122 10:0.70422012 11:0.36552869 12:0.48994354 13:0.50771401 14:0.72733719 15:0.38796586 16:0.49446568 17:0.60837549 18:0.3399528 
-0 0 4 1:0.66352571 2:0.82873098 3:0.62142362 4:0.46414274 5:0.75791558 6:0.65836957 7:0.56996601 8:0.58193851 9:0.47353186 10:0.73175935 11:0.47369829 12:0.34477652 13:0.65701683 14:0.63565878 15:0.27526531 16:0.45154691 17:0.75546159 18:0.32337661 
-4 0 4 1:0.7262297 2:0.58266273 3:0.68472846 4:0.6235995 5:0.64053333 6:0.44892009 7:0.41189388 8:0.74255557 9:0.31780603 10:0.54743118 11:0.53098861 12:0.36148266 13:0.60949759 14:0.74397035 15:0.47125401 16:0.48689766 17:0.38579137 18:0.33448459 
-0 0 4 1:0.79601031 2:0.67061573 3:0.71060048 4:0.55290887 5:0.53409914 6:0.52676243 7:0.40459105 8:0.69739862 9:0.40798417 10:0.64963718 11:0.60282172 12:0.40076999 13:0.51505414 14:0.64939496 15:0.41673679 16:0.59764727 17:0.37405526 18:0.41852165 
-4 0 0 1:0.63092484 2:0.58759673 3:0.78531551 4:0.55476065 5:0.59921775 6:0.54481403 7:0.50413725 8:0.69649203 9:0.48171756 10:0.70236388 11:0.63478552 12:0.36085719 13:0.55053341 14:0.66516127 15:0.3915064 16:0.56979028 17:0.46234988 18:0.35971506 
-0 0 4 1:0.81294322 2:0.71141462 3:0.68705586 4:0.53561292 5:0.52937174 6:0.56643479 7:0.3956718 8:0.66463514 9:0.49264527 10:0.66813676 11:0.66102282 12:0.38069485 13:0.23917597 14:0.60190286 15:0.4292206 16:0.521954 17:0.46384038 18:0.35435624 
-0 0 4 1:0.78638823 2:0.62260654 3:0.67904464 4:0.60773701 5:0.46678826 6:0.51127834 7:0.41887308 8:0.65906824 9:0.51855067 10:0.59634666 11:0.53504007 12:0.38377284 13:0.42561623 14:0.6503417 15:0.40401598 16:0.59688921 17:0.26691483 18:0.22896784 
