svm_type c_svc
kernel_type linear
nr_class 4
total_sv 1095
rho -14.500672282726597 -7.5008293812707008 -3.0707415843704418 4.1226089762368083 12.834448940885823 1.6996395690032553
label 11 36 38 42
nr_sv 302 258 262 273
SV
0 4 0 1:0.51154875 2:0.30197994 3:0.521506 4:0.58662929 5:0.32458365 6:0.63747735 7:0.40282421 8:0.72649523 9:0.34518002 10:0.74757 11:0.25516172 12:0.45301621 13:0.3202948 14:0.71668888 15:0.36252377 16:0.46439912 17:0.47571605 18:0.1880465 
0 4 4 1:0.5455897 2:0.29868717 3:0.45189093 4:0.59736543 5:0.3830936 6:0.6070981 7:0.44324123 8:0.68753965 9:0.31707065 10:0.77507173 11:0.13265808 12:0.56595566 13:0.15041683 14:0.59024409 15:0.24645485 16:0.62672873 17:0.46635375 18:0.49213153 
0 4 4 1:0.59693318 2:0.30488891 3:0.47688165 4:0.59452244 5:0.34763767 6:0.52425775 7:0.41676848 8:0.68957376 9:0.2836271 10:0.76264036 11:0.24455384 12:0.58545498 13:0.23188411 14:0.54025459 15:0.21694517 16:0.31193008 17:0.2549335 18:0.21799065 
0 4 4 1:0.62434258 2:0.32351226 3:0.4540129 4:0.59714859 5:0.35095266 6:0.54140449 7:0.43637436 8:0.74913343 9:0.38556668 10:0.80517134 11:0.26196628 12:0.41001812 13:0.30000409 14:0.63467182 15:0.25115899 16:0.28662999 17:0.3210126 18:0.33564084 
0 4 4 1:0.55753969 2:0.2523775 3:0.43336171 4:0.68510045 5:0.43072878 6:0.5815203 7:0.40011555 8:0.72961611 9:0.28191864 10:0.78790754 11:0.30325788 12:0.64790287 13:0.28582028 14:0.60276972 15:0.37440512 16:0.37432411 17:0.42779669 18:0.22726318 
0 4 0 1:0.31367597 2:0.47354878 3:0.29664689 4:0.37222574 5:0.39425221 6:0.67956594 7:0.31698704 8:0.49743298 9:0.3525516 10:0.64567538 11:0.26581637 12:0.57632113 13:0.23225135 14:0.59516315 15:0.51615722 16:0.44839657 17:0.60535891 18:0.69755703 
0 4 0 1:0.24288849 2:0.55471346 3:0.29982883 4:0.4115005 5:0.46916157 6:0.68985905 7:0.46250155 8:0.45737797 9:0.33338357 10:0.72784054 11:0.48068051 12:0.43485671 13:0.22180217 14:0.6916324 15:0.56734234 16:0.64248426 17:0.64014369 18:0.58086231 
4 4 0 1:0.53468119 2:0.44665255 3:0.60217624 4:0.55594149 5:0.4652972 6:0.66769611 7:0.39588195 8:0.66585832 9:0.36021331 10:0.64229125 11:0.39928066 12:0.42296672 13:0.48737713 14:0.55096582 15:0.5021081 16:0.32775141 17:0.50348165 18:0.289818 
4 0 4 1:0.68297982 2:0.56975526 3:0.58539405 4:0.33491328 5:0.39283703 6:0.77158852 7:0.39740874 8:0.70148298 9:0.3348011 10:0.50065977 11:0.30736461 12:0.39399377 13:0.028945485 14:0.53918542 15:0.51005563 16:0.27678668 17:0.44150715 18:0.50333486 
4 0 4 1:0.61886134 2:0.6213407 3:0.58488318 4:0.48634488 5:0.51770908 6:0.67295637 7:0.40030824 8:0.64595624 9:0.45936122 10:0.5343529 11:0.272665 12:0.38771092 13:0.25094225 14:0.51863458 15:0.44944564 16:0.37234972 17:0.43077036 18:0.42934036 
4 0 0 1:0.47908861 2:0.55118013 3:0.64726079 4:0.52560921 5:0.68935804 6:0.72674448 7:0.51906129 8:0.73908911 9:0.41445599 10:0.4331739 11:0.40480731 12:0.58226701 13:0.38345537 14:0.533974 15:0.43025223 16:0.28292229 17:0.40529281 18:0.49981624 
4 0 4 1:0.65665379 2:0.52849922 3:0.59811786 4:0.4862243 5:0.56900125 6:0.71929723 7:0.45177483 8:0.67419996 9:0.42737304 10:0.51623414 11:0.27634501 12:0.39082177 13:0.2991032 14:0.42956787 15:0.34170697 16:0.43764702 17:0.34896671 18:0.30928609 
4 0 4 1:0.60912686 2:0.57575549 3:0.65503778 4:0.52743007 5:0.45384439 6:0.62609898 7:0.55711674 8:0.66409129 9:0.44102783 10:0.60041916 11:0.51841297 12:0.25173213 13:0.33932635 14:0.50031326 15:0.52200175 16:0.19713148 17:0.47391322 18:0.38547303 
4 0 4 1:0.62140595 2:0.56803328 3:0.65824912 4:0.49910269 5:0.44005733 6:0.63979836 7:0.53801695 8:0.6937136 9:0.51459025 10:0.75300007 11:0.44751274 12:0.26923712 13:0.35349751 14:0.6204234 15:0.4462334 16:0.10939739 17:0.51034904 18:0.39463461 
4 0 4 1:0.6966766 2:0.57209595 3:0.64031378 4:0.50893273 5:0.43363991 6:0.66817047 7:0.40647296 8:0.70778148 9:0.48484209 10:0.61185833 11:0.3170804 12:0.36547724 13:0.444132 14:0.56738801 15:0.40283298 16:0.40270041 17:0.34249651 18:0.27870758 
4 4 4 1:0.62509999 2:0.58842977 3:0.59424856 4:0.5069446 5:0.53957557 6:0.77532502 7:0.44357684 8:0.70609642 9:0.36539004 10:0.5996368 11:0.40865169 12:0.40172911 13:0.22775249 14:0.59504821 15:0.38768484 16:0.15782567 17:0.47019009 18:0.57663405 
0 0 4 1:0.50906998 2:0.57442071 3:0.53740794 4:0.47515083 5:0.61619064 6:0.68770001 7:0.45625712 8:0.61436728 9:0.3729864 10:0.58625942 11:0.29942915 12:0.48628349 13:0.4284852 14:0.56986519 15:0.41679163 16:0.17157966 17:0.30671029 18:0.31449855 
4 0 0 1:0.46913681 2:0.54371568 3:0.68545478 4:0.49540346 5:0.69424127 6:0.75643366 7:0.49564626 8:0.6753982 9:0.42646592 10:0.64196002 11:0.55915487 12:0.51850445 13:0.32371881 14:0.50502789 15:0.45951215 16:0.3429086 17:0.49593086 18:0.45158824 
4 4 4 1:0.58892465 2:0.57465212 3:0.6275338 4:0.463164 5:0.53449461 6:0.76950339 7:0.41316295 8:0.72034952 9:0.41627564 10:0.70439463 11:0.32891976 12:0.33927293 13:0.41508181 14:0.56471685 15:0.26723265 16:0.41220163 17:0.48430785 18:0.51135139 
4 0 0 1:0.43325658 2:0.58666875 3:0.67759615 4:0.43850769 5:0.58644303 6:0.74577618 7:0.55942658 8:0.68811102 9:0.53037159 10:0.59695163 11:0.49497487 12:0.4477892 13:0.44422144 14:0.55316193 15:0.42071092 16:0.16624456 17:0.28300663 18:0.29730347 
4 0 0 1:0.51040203 2:0.6370201 3:0.55545628 4:0.48784177 5:0.57596121 6:0.63084009 7:0.45147787 8:0.61885032 9:0.49036591 10:0.50687334 11:0.44449456 12:0.40930089 13:0.60960189 14:0.7225874 15:0.52496758 16:0.38746103 17:0.45098319 18:0.40019276 
0 4 0 1:0.46297844 2:0.30682956 3:0.41289861 4:0.43901112 5:0.35376839 6:0.7239163 7:0.32502185 8:0.57851505 9:0.30067951 10:0.65899322 11:0.33609455 12:0.83742421 13:0.45134196 14:0.60950302 15:0.33403548 16:0.56893464 17:0.5761674 18:0.63223477 
0 4 4 1:0.58196229 2:0.45850084 3:0.42205247 4:0.64093001 5:0.47243105 6:0.62274762 7:0.31624601 8:0.61578327 9:0.35945364 10:0.73456038 11:0.34789107 12:0.5994215 13:0.32239799 14:0.54994714 15:0.39581118 16:0.34373732 17:0.61106402 18:0.56579994 
0 4 0 1:0.53687883 2:0.39160231 3:0.37697838 4:0.60742833 5:0.39229791 6:0.61440262 7:0.2862862 8:0.5575808 9:0.33629967 10:0.75461253 11:0.34010647 12:0.5594341 13:0.40694009 14:0.48869057 15:0.46373954 16:0.53905935 17:0.63130026 18:0.59080111 
0 4 0 1:0.39573771 2:0.24080043 3:0.30446976 4:0.64022581 5:0.26972535 6:0.56520607 7:0.30915585 8:0.5613117 9:0.25300185 10:0.58455506 11:0.46287272 12:0.56180766 13:0.45001532 14:0.48385085 15:0.55705391 16:0.52392774 17:0.57846634 18:0.58013771 
4 4 0 1:0.5487738 2:0.32714345 3:0.52783033 4:0.67671683 5:0.59712438 6:0.72591412 7:0.40030666 8:0.58554711 9:0.444839 10:0.80310974 11:0.48663736 12:0.50905658 13:0.39146203 14:0.50143663 15:0.57365584 16:0.29960654 17:0.49926996 18:0.40866398 
4 0 4 1:0.76544275 2:0.52107453 3:0.69160361 4:0.51570802 5:0.39221943 6:0.66082624 7:0.39986202 8:0.57173736 9:0.34084746 10:0.60553353 11:0.34265947 12:0.40127556 13:0.40057921 14:0.50915686 15:0.32903755 16:0.28897816 17:0.21033021 18:0.21868744 
4 4 0 1:0.49346994 2:0.48347207 3:0.61643006 4:0.74567946 5:0.71343413 6:0.6411805 7:0.53764066 8:0.56469568 9:0.38568999 10:0.7324609 11:0.55827512 12:0.48027994 13:0.23137126 14:0.28081468 15:0.6048439 16:0.11945284 17:0.39003921 18:0.30855874 
4 0 4 1:0.73788885 2:0.53638703 3:0.66561655 4:0.46981147 5:0.35432422 6:0.58207521 7:0.36702516 8:0.62841914 9:0.32821566 10:0.66191641 11:0.22532513 12:0.33443283 13:0.25240304 14:0.64808743 15:0.39322009 16:0.48467552 17:0.40499108 18:0.53888474 
4 4 0 1:0.54398078 2:0.37851216 3:0.54609373 4:0.66336291 5:0.6719367 6:0.65887736 7:0.44396739 8:0.55012848 9:0.44159875 10:0.75851663 11:0.44660981 12:0.42440828 13:0.27328581 14:0.42644986 15:0.55803482 16:0.20756887 17:0.47454101 18:0.41654866 
4 4 0 1:0.52797669 2:0.37669233 3:0.60872097 4:0.76462668 5:0.62671634 6:0.74172669 7:0.52169925 8:0.62208692 9:0.37404354 10:0.72810448 11:0.46588519 12:0.41151781 13:0.21724833 14:0.30919062 15:0.44151248 16:0.01972426 17:0.48922045 18:0.3423144 
0 4 0 1:0.46368178 2:0.32905031 3:0.52094494 4:0.71706 5:0.60648441 6:0.62802448 7:0.42368979 8:0.63058628 9:0.40876168 10:0.81461262 11:0.48604277 12:0.59708713 13:0.39717116 14:0.34378328 15:0.51633723 16:0.33616575 17:0.55020121 18:0.3865332 
4 4 4 1:0.80154358 2:0.52633248 3:0.62110211 4:0.44293509 5:0.41284436 6:0.67316266 7:0.42939277 8:0.62695718 9:0.47710092 10:0.72830624 11:0.34042789 12:0.41007208 13:0.48781187 14:0.45629955 15:0.2876563 16:0.53392628 17:0.38340795 18:0.44659214 
0 4 0 1:0.54996381 2:0.37801205 3:0.50598457 4:0.6589181 5:0.6342611 6:0.63466925 7:0.4494953 8:0.61924245 9:0.47289306 10:0.71594499 11:0.30394272 12:0.46759881 13:0.30730113 14:0.37382047 15:0.5416084 16:0.27320966 17:0.59566376 18:0.4225113 
4 4 0 1:0.57679623 2:0.41873113 3:0.61350078 4:0.71281283 5:0.71917568 6:0.74729912 7:0.51767691 8:0.54902388 9:0.41460486 10:0.73486178 11:0.51539084 12:0.30205136 13:0.13850575 14:0.2948752 15:0.55207616 16:0.13016708 17:0.47412133 18:0.42231361 
4 0 4 1:0.71707015 2:0.50683388 3:0.64439617 4:0.47938192 5:0.45177699 6:0.69548603 7:0.44795843 8:0.7086902 9:0.39700065 10:0.64604008 11:0.41727803 12:0.33143447 13:0.36724644 14:0.59640299 15:0.29618229 16:0.50105832 17:0.42306805 18:0.41461102 
4 4 0 1:0.54927999 2:0.38149069 3:0.47115582 4:0.61150495 5:0.5725926 6:0.63798376 7:0.45309846 8:0.61962637 9:0.51036386 10:0.80940741 11:0.45072995 12:0.5624416 13:0.33128834 14:0.38918069 15:0.70198598 16:0.4121147 17:0.66824082 18:0.5048301 
4 4 4 1:0.75514869 2:0.58464933 3:0.66267193 4:0.55018572 5:0.45637281 6:0.71709269 7:0.41048175 8:0.69592856 9:0.42850474 10:0.61474876 11:0.27297842 12:0.4332654 13:0.36913378 14:0.51607141 15:0.4495218 16:0.30836864 17:0.41437548 18:0.33344641 
0 4 4 1:0.64854131 2:0.5616915 3:0.46134094 4:0.4615297 5:0.38667707 6:0.6987649 7:0.455948 8:0.64194608 9:0.2896394 10:0.60663086 11:0.31006896 12:0.44182052 13:0.39157743 14:0.5910577 15:0.38585303 16:0.52073951 17:0.3211303 18:0.50020433 
0 0 4 1:0.60353858 2:0.51315812 3:0.48494972 4:0.39349637 5:0.4302375 6:0.65754539 7:0.41418669 8:0.66763442 9:0.31048213 10:0.58511036 11:0.29711814 12:0.47928394 13:0.33890166 14:0.60063759 15:0.41135175 16:0.35124694 17:0.33896255 18:0.48972924 
2.6045857002189439 4 4 1:0.63753495 2:0.50687049 3:0.52774524 4:0.45190389 5:0.57078593 6:0.71951773 7:0.36912682 8:0.66558366 9:0.37520536 10:0.69361257 11:0.49311864 12:0.59184735 13:0.36813749 14:0.680915 15:0.39319959 16:0.35236223 17:0.43780187 18:0.52562419 
0 4 0 1:0.33975532 2:0.26230493 3:0.53725802 4:0.51878282 5:0.17896964 6:0.64701134 7:0.30447479 8:0.58807238 9:0.3687343 10:0.69950509 11:0.39214402 12:0.50148253 13:0.32734654 14:0.58043442 15:0.40700131 16:0.54679114 17:0.41735431 18:0.49023119 
4 4 0 1:0.56167027 2:0.55991377 3:0.71809821 4:0.58920673 5:0.45076469 6:0.70440581 7:0.44823855 8:0.55167562 9:0.51259466 10:0.64770407 11:0.37051634 12:0.54684136 13:0.39218543 14:0.56408789 15:0.54632363 16:0.53846222 17:0.50847096 18:0.40458627 
0 4 0 1:0.54176352 2:0.41168352 3:0.51681682 4:0.47650808 5:0.57669567 6:0.57459547 7:0.32406175 8:0.65228644 9:0.29483417 10:0.67501541 11:0.54980213 12:0.60259514 13:0.33466691 14:0.61672661 15:0.38638159 16:0.47699198 17:0.57926053 18:0.6638922 
4 0 4 1:0.60421975 2:0.55712725 3:0.65511772 4:0.51834393 5:0.48448967 6:0.75722206 7:0.37236435 8:0.62229992 9:0.31718518 10:0.49454528 11:0.28854616 12:0.39491509 13:0.30869967 14:0.57959084 15:0.27974763 16:0.23476696 17:0.46023807 18:0.35096096 
4 0 4 1:0.66855925 2:0.5574751 3:0.63244379 4:0.51789981 5:0.40470896 6:0.60011364 7:0.39819786 8:0.67181068 9:0.32711215 10:0.62534144 11:0.40575524 12:0.40015759 13:0.25750339 14:0.48153243 15:0.34677501 16:0.22847548 17:0.39349867 18:0.53989509 
4 4 4 1:0.58507026 2:0.51357345 3:0.63439155 4:0.58029501 5:0.58299725 6:0.72613535 7:0.44671462 8:0.57045165 9:0.38194261 10:0.59571068 11:0.49525296 12:0.25002432 13:0.29647018 14:0.53485368 15:0.43968282 16:0.31986979 17:0.57978052 18:0.50974099 
4 4 4 1:0.6266864 2:0.57129369 3:0.67224066 4:0.52779162 5:0.48048719 6:0.69991383 7:0.44094072 8:0.63916715 9:0.3974762 10:0.69715118 11:0.38131226 12:0.4564024 13:0.53127077 14:0.5701154 15:0.51626411 16:0.30141252 17:0.55540824 18:0.43809995 
0 4 4 1:0.59328213 2:0.44597498 3:0.50632196 4:0.45960687 5:0.5345266 6:0.69849979 7:0.43256082 8:0.78997821 9:0.37367954 10:0.64794954 11:0.29733039 12:0.43069641 13:0.29886169 14:0.6266017 15:0.43280916 16:0.49431473 17:0.49295595 18:0.62169847 
4 4 4 1:0.61563765 2:0.54603338 3:0.56238333 4:0.54807359 5:0.4819926 6:0.66033087 7:0.40371513 8:0.6995558 9:0.37691236 10:0.78577693 11:0.38918706 12:0.54095863 13:0.54808324 14:0.68760959 15:0.29234625 16:0.27831389 17:0.38723256 18:0.52803631 
4 4 4 1:0.67917538 2:0.49791699 3:0.68842689 4:0.56345046 5:0.60124193 6:0.81841896 7:0.42970469 8:0.69383218 9:0.35619844 10:0.60638299 11:0.36159309 12:0.5114251 13:0.27049782 14:0.55159614 15:0.42346167 16:0.33118778 17:0.50086607 18:0.47058288 
4 0 0 1:0.61652711 2:0.56904014 3:0.70847212 4:0.4809995 5:0.5795952 6:0.75904747 7:0.46008344 8:0.74750887 9:0.41940467 10:0.59164663 11:0.39961326 12:0.38343904 13:0.3509125 14:0.47998279 15:0.36246945 16:0.32570358 17:0.28476753 18:0.39619367 
4 0 4 1:0.7182129 2:0.53669489 3:0.71786678 4:0.56797267 5:0.56055996 6:0.74116781 7:0.38033488 8:0.58395523 9:0.36449317 10:0.60860197 11:0.47166396 12:0.50279972 13:0.33629299 14:0.53082099 15:0.42054737 16:0.34307748 17:0.35262805 18:0.3608 
4 4 4 1:0.60560052 2:0.5621939 3:0.53947034 4:0.54969171 5:0.48419003 6:0.67567551 7:0.4193272 8:0.6360374 9:0.35106283 10:0.66394424 11:0.26517524 12:0.49588192 13:0.5412121 14:0.61231648 15:0.31761984 16:0.27926805 17:0.43479357 18:0.54942094 
4 4 4 1:0.61130487 2:0.6089297 3:0.52964835 4:0.49423388 5:0.52915696 6:0.74994368 7:0.44716325 8:0.52827605 9:0.41621278 10:0.78066474 11:0.34078245 12:0.45019797 13:0.46607954 14:0.48954304 15:0.27811754 16:0.32855122 17:0.49370855 18:0.62884362 
4 4 4 1:0.53148555 2:0.86718034 3:0.40256528 4:0.6198778 5:0.6394377 6:0.30354811 7:0.79642182 8:0.2579846 9:0.26775274 10:0.58414266 11:0.24611446 12:0.66847087 13:0.67100655 14:0.3267612 15:0.4971584 16:0.046951225 17:0.40642925 18:0.46303292 
4 4 4 1:0.39619722 2:0.92997892 3:0.25708498 4:0.53379857 5:0.53734892 6:0.15405744 7:0.88301888 8:0.30761701 9:0.4886807 10:0.77326458 11:0.13170592 12:0.65013595 13:0.48776188 14:0.48830375 15:0.7161127 16:0.33474944 17:0.48136186 18:0.60623726 
4 0 4 1:0.39345176 2:0.94810087 3:0.31872104 4:0.43165547 5:0.56761562 6:0.29481231 7:0.86572404 8:0.35911722 9:0.50708541 10:0.74896102 11:0.058931889 12:0.38352201 13:0.48278839 14:0.47807312 15:0.65510623 16:0.26037862 17:0.54973497 18:0.7062912 
4 4 0 1:0.42470331 2:0.86291425 3:0.43648975 4:0.58926883 5:0.65432317 6:0.32874024 7:0.74557688 8:0.27928008 9:0.47914606 10:0.76538897 11:0.14587362 12:0.65958475 13:0.96251235 14:0.40616911 15:0.57433926 16:0.24789932 17:0.40833631 18:0.51863822 
4 4 0.21176722695520137 1:0.40448523 2:0.79238994 3:0.29831278 4:0.67392965 5:0.52593301 6:0.16301888 7:0.86305396 8:0.29547973 9:0.42228105 10:0.74287632 11:0.19127341 12:0.56939198 13:0.64254409 14:0.51829763 15:0.71210998 16:0.30922086 17:0.43711417 18:0.62817399 
4 4 0 1:0.4326414 2:0.80753048 3:0.26948868 4:0.64736762 5:0.70610225 6:0.24529688 7:0.78904981 8:0.24677087 9:0.38346646 10:0.91892995 11:0.50253348 12:0.59483523 13:0.43378383 14:0.27484535 15:0.68405824 16:0.37213366 17:0.56584845 18:0.51384815 
4 4 0 1:0.40085106 2:0.83034423 3:0.1458164 4:0.59030512 5:0.51069561 6:0.18504929 7:0.87157321 8:0.21912872 9:0.61759639 10:0.96175781 11:0.13622467 12:0.81494728 13:0.60634518 14:0.44330067 15:0.71037562 16:0.51254942 17:0.42492832 18:0.62157716 
4 4 4 1:0.43869598 2:0.83691067 3:0.35208116 4:0.47391006 5:0.54850431 6:0.42413574 7:0.8116499 8:0.36341531 9:0.51137495 10:0.69416643 11:0.13358967 12:0.50203882 13:0.70422441 14:0.39719293 15:0.67100056 16:0.53276278 17:0.56528226 18:0.46924349 
4 1.5181471937894429 4 1:0.46835558 2:0.81580789 3:0.4092733 4:0.56373001 5:0.55255808 6:0.34749274 7:0.72683566 8:0.23244285 9:0.44218033 10:0.71297763 11:0.29715512 12:0.64310471 13:0.56073338 14:0.27763958 15:0.5675727 16:0.13392347 17:0.34883769 18:0.37282973 
4 4 0 1:0.40342643 2:0.83501068 3:0.50246293 4:0.32633085 5:0.45259876 6:0.39377676 7:0.68352231 8:0.19120148 9:0.31149058 10:0.6120482 11:0.43634714 12:0.96073885 13:0.95931504 14:0.44714337 15:0.78037698 16:0.63993843 17:0.78986739 18:0.83247841 
0 4 4 1:0.40294665 2:0.70898046 3:0.1855554 4:0.63177875 5:0.3043383 6:0.70478725 7:0.51655685 8:0.20487457 9:0.88748039 10:0.20714597 11:0.50424677 12:0.55923824 13:0.28518857 14:0.84550812 15:0.23831498 16:0.46091007 17:0.61372676 18:0.043482151 
0 4 4 1:0.49102912 2:0.78804094 3:0.23913025 4:0.54962505 5:0.5113673 6:0.62129449 7:0.45212225 8:0.38130383 9:0.80976661 10:0.30413339 11:0.87234885 12:0.60405656 13:0.06093062 14:0.61067519 15:0.23730005 16:0.63355857 17:0.74503196 18:0.13975506 
0 4 4 1:0.44197554 2:0.8554935 3:0.24678761 4:0.52243193 5:0.55527763 6:0.52248186 7:0.43496819 8:0.42048191 9:0.71318946 10:0.16780525 11:0.66102003 12:0.57643395 13:0.21338238 14:0.78497163 15:0.48537244 16:0.69787592 17:0.78329049 18:0.31448722 
4 4 0 1:0.21300133 2:0.56454347 3:0.64923458 4:0.54225092 5:0.59622966 6:0.69642849 7:0.65287232 8:0.56214857 9:0.55636194 10:0.56195234 11:0.37478618 12:0.57962616 13:0.76391323 14:0.75705761 15:0.4716884 16:0.45945885 17:0.60265998 18:0.44427164 
4 4 3.0515084727833841 1:0.38635046 2:0.56459728 3:0.6981779 4:0.5984811 5:0.56905474 6:0.75300065 7:0.64874095 8:0.65952221 9:0.67132073 10:0.48684022 11:0.51983921 12:0.57408144 13:0.78715264 14:0.56728645 15:0.38768577 16:0.38981027 17:0.5737161 18:0.43292559 
4 4 4 1:0.45760818 2:0.60555374 3:0.51796479 4:0.65873764 5:0.5518411 6:0.68485659 7:0.56616548 8:0.535085 9:0.654854 10:0.59158771 11:0.7452623 12:0.47424583 13:0.52299865 14:0.55003717 15:0.27323296 16:0.40568763 17:0.66224932 18:0.42833079 
4 4 4 1:0.5240199 2:0.7125626 3:0.45031257 4:0.5097601 5:0.44966286 6:0.75689703 7:0.52753385 8:0.41665239 9:0.60027665 10:0.45375532 11:0.54580829 12:0.54122304 13:0.67505182 14:0.62346403 15:0.32962295 16:0.23853379 17:0.60693713 18:0.41208961 
4 4 0 1:0.26631164 2:0.49933169 3:0.67980688 4:0.5947363 5:0.66045048 6:0.78814392 7:0.70406352 8:0.6237268 9:0.63789056 10:0.54268368 11:0.63954069 12:0.55528665 13:0.62906257 14:0.48937428 15:0.37067284 16:0.32008132 17:0.47270887 18:0.50848906 
4 4 4 1:0.43525866 2:0.5553994 3:0.61347965 4:0.6440228 5:0.48378433 6:0.71292732 7:0.65799395 8:0.54665339 9:0.74053193 10:0.6556489 11:0.53268824 12:0.40330624 13:0.46399228 14:0.5303772 15:0.3527913 16:0.4165494 17:0.57469404 18:0.31850427 
4 4 0 1:0.31164244 2:0.5217079 3:0.70447296 4:0.6588305 5:0.62136433 6:0.74514764 7:0.68445837 8:0.53722233 9:0.65924935 10:0.58022976 11:0.56038771 12:0.55020723 13:0.56585653 14:0.47262716 15:0.37616662 16:0.42123226 17:0.65595328 18:0.48124728 
0 4 0 1:0.21541339 2:0.52872246 3:0.41638109 4:0.57437872 5:0.53106574 6:0.67919767 7:0.45751111 8:0.428488 9:0.3876438 10:0.56168037 11:0.35564423 12:0.69246122 13:0.46227865 14:0.72477969 15:0.3004164 16:0.67316397 17:0.65942121 18:0.63042914 
4 4 4 1:0.44417612 2:0.71510924 3:0.48321952 4:0.50842146 5:0.52638448 6:0.79168318 7:0.64614127 8:0.47447557 9:0.66647371 10:0.48446378 11:0.41975934 12:0.39844339 13:0.68618783 14:0.72028801 15:0.47093575 16:0.38042672 17:0.78036427 18:0.42674524 
4 4 0 1:0.25801689 2:0.53275896 3:0.66978216 4:0.56171871 5:0.67919408 6:0.69848942 7:0.58720181 8:0.54362825 9:0.65785546 10:0.54094813 11:0.52694402 12:0.52580744 13:0.64904656 14:0.51633261 15:0.3259274 16:0.38775526 17:0.58797056 18:0.2899493 
4 4 4 1:0.44820869 2:0.5933421 3:0.58566653 4:0.64175821 5:0.48902348 6:0.67257605 7:0.57575154 8:0.50058097 9:0.67848027 10:0.6201596 11:0.58822445 12:0.59929414 13:0.71019209 14:0.53126195 15:0.42939886 16:0.5261115 17:0.85028648 18:0.47518802 
4 4 0 1:0.3696024 2:0.58285208 3:0.53471362 4:0.62544298 5:0.49235026 6:0.67451308 7:0.58245067 8:0.53741496 9:0.64966553 10:0.731375 11:0.55773166 12:0.4940561 13:0.54531587 14:0.60004669 15:0.46130017 16:0.3839836 17:0.66199063 18:0.23484883 
4 4 0 1:0.35716773 2:0.53526626 3:0.68689593 4:0.61505809 5:0.62531122 6:0.71897055 7:0.58290123 8:0.59458798 9:0.62184663 10:0.58687791 11:0.63723741 12:0.48155681 13:0.57821345 14:0.54287825 15:0.48646392 16:0.41376287 17:0.64453436 18:0.46800723 
4 4 4 1:0.53471559 2:0.52147537 3:0.48650597 4:0.65179485 5:0.38710234 6:0.78072352 7:0.61814934 8:0.50953866 9:0.69318997 10:0.76903127 11:0.59630704 12:0.49160597 13:0.62753621 14:0.63489907 15:0.46681638 16:0.43975232 17:0.65709237 18:0.28074107 
0 4 0 1:0.2830625 2:0.72122368 3:0.51835644 4:0.47543871 5:0.60075418 6:0.56867768 7:0.56061597 8:0.76207003 9:0.54859725 10:0.57758777 11:0.71950697 12:0.42087907 13:0.80644971 14:0.67321862 15:0.5172087 16:0.62509777 17:0.60481509 18:0.42549453 
0 4 0 1:0.13321416 2:0.54379249 3:0.3378488 4:0.43357381 5:0.34510981 6:0.4992461 7:0.53132599 8:0.63885809 9:0.53149282 10:0.64659537 11:0.51623471 12:0.31279018 13:0.3506962 14:0.70500549 15:0.3537051 16:0.75237717 17:0.54514655 18:0.51057015 
0 4 0 1:0.31942396 2:0.48171752 3:0.37674019 4:0.74189144 5:0.5184938 6:0.73751308 7:0.34869257 8:0.61199506 9:0.53353949 10:0.53550074 11:0.72096714 12:0.21281939 13:0.44696541 14:0.63533693 15:0.23807019 16:0.31350989 17:0.72039494 18:0.26279643 
0 4 0 1:0.139229 2:0.55824473 3:0.3095726 4:0.49645971 5:0.33040474 6:0.42586959 7:0.45167581 8:0.67257689 9:0.56487971 10:0.66429763 11:0.38381683 12:0.33939239 13:0.35394494 14:0.75616657 15:0.50625077 16:0.91234864 17:0.48956555 18:0.45626421 
0 4 4 1:0.32213003 2:0.50580721 3:0.38496396 4:0.71048782 5:0.47070594 6:0.72232741 7:0.61924938 8:0.662924 9:0.58093638 10:0.6409754 11:1 12:0.37565237 13:0.58646385 14:0.75278993 15:0.54243147 16:0.33510783 17:0.77033989 18:0.57777857 
0 4 0 1:0.15249401 2:0.54437457 3:0.33864967 4:0.49101753 5:0.31556952 6:0.51008696 7:0.47429227 8:0.63565627 9:0.54033241 10:0.68201417 11:0.4702339 12:0.28648864 13:0.33093108 14:0.73385422 15:0.52732292 16:0.84712147 17:0.62959304 18:0.53038174 
4 0 0 1:0.24690783 2:0.66490597 3:0.58322248 4:0.48081413 5:0.73388051 6:0.61466942 7:0.56402837 8:0.57470636 9:0.67316934 10:0.67578639 11:0.72049706 12:0.44343342 13:0.64006942 14:0.62493744 15:0.50248021 16:0.5244254 17:0.54073093 18:0.40608761 
4 0 0 1:0.28533817 2:0.79082481 3:0.58761481 4:0.44613347 5:0.59622928 6:0.54274472 7:0.52562828 8:0.63541633 9:0.63615186 10:0.55546599 11:0.77277093 12:0.40557922 13:0.60610014 14:0.61250375 15:0.45963145 16:0.38221911 17:0.43380019 18:0.47321504 
0 4 0 1:0.33007152 2:0.73090367 3:0.48396616 4:0.46814563 5:0.5292234 6:0.59661716 7:0.56581365 8:0.69263149 9:0.52206217 10:0.69132447 11:0.60426659 12:0.30343095 13:0.48522365 14:0.60956124 15:0.4413133 16:0.65398323 17:0.59973423 18:0.54002735 
0 4 0 1:0.13890409 2:0.67684727 3:0.31016844 4:0.31208507 5:0.4962364 6:0.62760715 7:0.56363468 8:0.63543528 9:0.55085602 10:0.47200454 11:0.4764751 12:0.49995174 13:0.60209572 14:0.77039524 15:0.55143618 16:0.80508367 17:0.51736457 18:0.57323871 
0 4 0 1:0.17364074 2:0.61510371 3:0.23299571 4:0.42224108 5:0.50142619 6:0.66885714 7:0.65893471 8:0.68803198 9:0.45417616 10:0.49532066 11:0.25197641 12:0.26091424 13:0.4595422 14:0.68706009 15:0.46854361 16:0.93161132 17:0.60204393 18:0.53999237 
4 0 0 1:0.16491269 2:0.71874902 3:0.64810158 4:0.34402751 5:0.56434598 6:0.61236961 7:0.62462664 8:0.76839392 9:0.71037381 10:0.70201086 11:0.64674663 12:0.46381848 13:0.63781869 14:0.58976849 15:0.56094356 16:0.45699275 17:0.55277951 18:0.42411549 
0 4 0 1:0.13635353 2:0.67630529 3:0.37974504 4:0.39547232 5:0.43928847 6:0.59089058 7:0.56714605 8:0.65216103 9:0.55523726 10:0.55029554 11:0.41327504 12:0.31305405 13:0.40228887 14:0.70411596 15:0.59377116 16:0.82173839 17:0.52834708 18:0.60211744 
0 4 0 1:0.27341569 2:0.6835906 3:0.44975821 4:0.40353091 5:0.55378002 6:0.64636831 7:0.61931289 8:0.7067811 9:0.56523537 10:0.61961055 11:0.66388717 12:0.49857131 13:0.80686309 14:0.64646894 15:0.50105875 16:0.53921736 17:0.39524089 18:0.41285103 
4 2.6304332534123454 4 1:0.71048714 2:0.82161223 3:0.66581708 4:0.25185646 5:0.40728413 6:0.74302904 7:0.4177481 8:0.39329538 9:0.38305646 10:0.39121525 11:0.31366913 12:0.53368046 13:0.73343371 14:0.7207206 15:0.19375091 16:0.26325529 17:0.63266824 18:0.53183487 
4 4 4 1:0.51962193 2:0.50487968 3:0.63165263 4:0.49111488 5:0.56504553 6:0.79609876 7:0.47363217 8:0.5785093 9:0.46342886 10:0.75545678 11:0.51110641 12:0.71937501 13:0.58420671 14:0.68952671 15:0.2969144 16:0.4219377 17:0.59731736 18:0.5304822 
4 4 0 1:0.47270004 2:0.52899463 3:0.66001841 4:0.47464462 5:0.47448994 6:0.67680737 7:0.43879244 8:0.65519382 9:0.48641494 10:0.73608495 11:0.5174945 12:0.58037876 13:0.26558223 14:0.83011391 15:0.35086856 16:0.40239828 17:0.78468831 18:0.4642699 
0 4 0 1:0.39191397 2:0.48145641 3:0.54002887 4:0.32693876 5:0.5718735 6:0.72617286 7:0.50486752 8:0.71811211 9:0.44483316 10:0.79626956 11:0.38512943 12:0.49260199 13:0.421961 14:1 15:0.44883966 16:0.56747443 17:0.67766052 18:0.55153193 
0 4 0 1:0.52108782 2:0.4424588 3:0.54796059 4:0.37680459 5:0.51332587 6:0.53028436 7:0.28551046 8:0.5350404 9:0.29359388 10:0.63072166 11:0.33261521 12:0.62909012 13:0.20706724 14:0.66054976 15:0.24860923 16:0.74570852 17:0.5026442 18:0.54893468 
4 0 4 1:0.70944162 2:0.64341906 3:0.78607552 4:0.56785132 5:0.62982858 6:0.61853079 7:0.43602582 8:0.6750792 9:0.44114406 10:0.54638987 11:0.45750106 12:0.48582465 13:0.52322868 14:0.68173987 15:0.37845665 16:0.36612191 17:0.3584683 18:0.26219558 
4 0 0 1:0.63741578 2:0.60707618 3:0.800363 4:0.50881263 5:0.58278683 6:0.49709338 7:0.46200107 8:0.75478238 9:0.55213668 10:0.60100557 11:0.53083106 12:0.38551575 13:0.38014671 14:0.60046367 15:0.54094019 16:0.41883888 17:0.44334416 18:0.46536772 
4 0 4 1:0.80116672 2:0.70359619 3:0.65755045 4:0.56966147 5:0.59983853 6:0.46997741 7:0.40757388 8:0.73421104 9:0.50576285 10:0.59652187 11:0.41205597 12:0.46051296 13:0.48058922 14:0.63947268 15:0.6103335 16:0.60326215 17:0.51232018 18:0.36956231 
4 4 4 1:0.72185157 2:0.27260346 3:0.49393745 4:0.75301888 5:0.46223001 6:0.61307563 7:0.42409419 8:0.69342326 9:0.46081 10:0.70928815 11:0.43834635 12:0.59447557 13:0.21052323 14:0.71476546 15:0.55192063 16:0.3942479 17:0.70109955 18:0.36772547 
4 4 4 1:0.76837256 2:0.52281156 3:0.51505829 4:0.55091073 5:0.50888441 6:0.69788425 7:0.34800304 8:0.50682693 9:0.4303497 10:0.55210053 11:0.44262998 12:0.49483115 13:0.16053406 14:0.59938422 15:0.34089815 16:0.70188807 17:0.40744732 18:0.080489799 
4 0 4 1:0.86474691 2:0.75225327 3:0.67383085 4:0.49968675 5:0.45568931 6:0.55780993 7:0.41645235 8:0.58900111 9:0.61640391 10:0.59049079 11:0.49301055 12:0.37905744 13:0.4696074 14:0.63471274 15:0.50365535 16:0.52866904 17:0.57863805 18:0.39451746 
4 0 4 1:0.86582762 2:0.76620358 3:0.64511739 4:0.41081566 5:0.44356885 6:0.56088549 7:0.43795587 8:0.69951158 9:0.58188777 10:0.54652258 11:0.59249471 12:0.34401375 13:0.48138008 14:0.67470156 15:0.31560507 16:0.42839994 17:0.56073329 18:0.38182189 
4 0.19399386481596692 4 1:0.70428244 2:0.60816978 3:0.75677528 4:0.46092456 5:0.44799644 6:0.66897527 7:0.43223424 8:0.66662296 9:0.5686574 10:0.58382602 11:0.59243804 12:0.48716794 13:0.5497367 14:0.65604558 15:0.40382903 16:0.51267982 17:0.45423985 18:0.40952633 
0 4 4 1:0.60932541 2:0.32768366 3:0.43848875 4:0.54732346 5:0.52435671 6:0.65317025 7:0.32664574 8:0.51512539 9:0.39723666 10:0.63698827 11:0.47421908 12:0.54681018 13:0.10326266 14:0.6947692 15:0.32164642 16:0.7328637 17:0.685702 18:0.51347342 
4 0 4 1:0.59125639 2:0.6210426 3:0.70010896 4:0.38962708 5:0.60340562 6:0.68641134 7:0.34195701 8:0.40775323 9:0.46577498 10:0.59186624 11:0.38316299 12:0.64715653 13:0.24717838 14:0.46417182 15:0.067323647 16:0.30910861 17:0.46670493 18:0.49051083 
4 4 4 1:0.69176136 2:0.60588213 3:0.76907901 4:0.51400396 5:0.54175289 6:0.61553829 7:0.43431792 8:0.71770677 9:0.61065238 10:0.55795291 11:0.46289987 12:0.67078809 13:0.45169898 14:0.74740347 15:0.4288445 16:0.32192313 17:0.50112076 18:0.29882248 
4 0 4 1:0.86771653 2:0.69742883 3:0.68432464 4:0.5114851 5:0.46996863 6:0.5846782 7:0.29606114 8:0.71841554 9:0.51726529 10:0.55220829 11:0.45283085 12:0.49159748 13:0.27093169 14:0.5704985 15:0.39224484 16:0.4375472 17:0.44365588 18:0.41228322 
4 0 4 1:0.89195081 2:0.72451248 3:0.63374794 4:0.5394473 5:0.41781928 6:0.53885946 7:0.36562734 8:0.64389349 9:0.54660034 10:0.56503564 11:0.47834448 12:0.47483659 13:0.3380494 14:0.60725901 15:0.40663316 16:0.47161534 17:0.46329117 18:0.36810037 
4 4 4 1:0.86999374 2:0.67870021 3:0.66287194 4:0.51080065 5:0.40674574 6:0.59820367 7:0.41104467 8:0.70946306 9:0.5540478 10:0.65483431 11:0.42017267 12:0.60552548 13:0.34750237 14:0.56456076 15:0.34293718 16:0.44320449 17:0.49044291 18:0.37917389 
4 4 4 1:0.75336138 2:0.38165894 3:0.57092487 4:0.64994578 5:0.47780873 6:0.86531052 7:0.42308019 8:0.61632608 9:0.49189705 10:0.56972097 11:0.33961312 12:0.53040861 13:0.35049751 14:0.74209745 15:0.35667099 16:0.52008816 17:0.58776019 18:0.26169545 
4 4 4 1:0.7028149 2:0.40355078 3:0.56389016 4:0.6450077 5:0.45141045 6:0.78987581 7:0.419505 8:0.6114669 9:0.46104826 10:0.6189591 11:0.28452152 12:0.55592818 13:0.3272623 14:0.61577868 15:0.36261785 16:0.61355736 17:0.41778055 18:0.39178514 
4 4 4 1:0.73178917 2:0.49208451 3:0.57181877 4:0.62969608 5:0.50017371 6:0.78375928 7:0.46624903 8:0.60228492 9:0.47872311 10:0.64499307 11:0.29057492 12:0.44501328 13:0.35969119 14:0.68806594 15:0.40459235 16:0.69793561 17:0.48634881 18:0.34734492 
4 4 4 1:0.83285557 2:0.76682307 3:0.70537854 4:0.46090971 5:0.39494551 6:0.59378434 7:0.37550578 8:0.67667199 9:0.65875539 10:0.5398173 11:0.47379557 12:0.53859533 13:0.55936468 14:0.6584307 15:0.49549338 16:0.45965554 17:0.65379768 18:0.34177668 
4 4 4 1:0.67032951 2:0.61217076 3:0.76302571 4:0.49183586 5:0.46461872 6:0.5748293 7:0.45913726 8:0.67135544 9:0.5314067 10:0.62501074 11:0.5661923 12:0.47165289 13:0.44224752 14:0.79044938 15:0.48651698 16:0.49110085 17:0.54204176 18:0.33454637 
4 0 4 1:0.84625096 2:0.80200483 3:0.6877328 4:0.42227408 5:0.4427745 6:0.57451832 7:0.42429681 8:0.64424532 9:0.57815595 10:0.52739989 11:0.48807264 12:0.45896921 13:0.51748806 14:0.67341823 15:0.49610118 16:0.47885408 17:0.44721396 18:0.34646304 
4 0 4 1:0.74429872 2:0.71403164 3:0.70885617 4:0.44667001 5:0.52929934 6:0.60225069 7:0.42544822 8:0.62440298 9:0.48611706 10:0.55296502 11:0.45071508 12:0.41392523 13:0.40634516 14:0.6154915 15:0.40680354 16:0.47821626 17:0.48685764 18:0.30277767 
4 4 4 1:0.78129958 2:0.57659468 3:0.6356506 4:0.59980098 5:0.45254529 6:0.60192399 7:0.41692507 8:0.59749639 9:0.42562653 10:0.63146206 11:0.56950333 12:0.42823134 13:0.39547881 14:0.63348074 15:0.34379512 16:0.55590158 17:0.56150728 18:0.25806764 
4 0 4 1:0.87819489 2:0.69514388 3:0.63861557 4:0.54931632 5:0.49647938 6:0.58248443 7:0.36315657 8:0.67104305 9:0.60524288 10:0.57618735 11:0.51225205 12:0.46914375 13:0.34688866 14:0.59208963 15:0.37425377 16:0.45285438 17:0.47256426 18:0.31930128 
4 0 4 1:0.72336995 2:0.62079185 3:0.67517083 4:0.42504061 5:0.54873972 6:0.65015364 7:0.46371558 8:0.67645331 9:0.535278 10:0.64746402 11:0.5448592 12:0.51172404 13:0.40807601 14:0.60919448 15:0.38216172 16:0.44944241 17:0.53789535 18:0.29115694 
4 4 4 1:0.85933552 2:0.79388809 3:0.64229651 4:0.38560971 5:0.42648746 6:0.56207771 7:0.4454691 8:0.62414322 9:0.61805337 10:0.57596584 11:0.55284057 12:0.51504497 13:0.43633373 14:0.73427354 15:0.43969888 16:0.53451287 17:0.59157948 18:0.43879753 
4 0 4 1:0.8861673 2:0.72801771 3:0.64351088 4:0.4593305 5:0.49168091 6:0.62584092 7:0.34656022 8:0.68432027 9:0.61094811 10:0.5190686 11:0.47875781 12:0.52571814 13:0.22305109 14:0.60751074 15:0.3858604 16:0.43595137 17:0.58404565 18:0.41964028 
4 0 4 1:0.7490402 2:0.60452454 3:0.69984799 4:0.44358939 5:0.47062502 6:0.64891867 7:0.46238993 8:0.67899426 9:0.64220373 10:0.61762085 11:0.51215461 12:0.52614376 13:0.37974881 14:0.67338813 15:0.38794205 16:0.53867274 17:0.44799168 18:0.39581767 
4 0 4 1:0.84890988 2:0.71194247 3:0.66634806 4:0.43565442 5:0.53242155 6:0.65093731 7:0.37195587 8:0.62103547 9:0.61805628 10:0.56031227 11:0.54948315 12:0.44133715 13:0.35358308 14:0.60684673 15:0.35132978 16:0.43936812 17:0.52547364 18:0.31590895 
4 4 4 1:0.68509064 2:0.56027051 3:0.77590053 4:0.52609876 5:0.46881525 6:0.65661958 7:0.44096606 8:0.64457264 9:0.58456235 10:0.5462041 11:0.41186057 12:0.46531812 13:0.31585112 14:0.70296949 15:0.41322836 16:0.52683754 17:0.53866956 18:0.21413188 
4 0 4 1:0.68408118 2:0.60547418 3:0.72769996 4:0.53891219 5:0.55439873 6:0.58300435 7:0.41589806 8:0.62068449 9:0.55251603 10:0.6395464 11:0.4304189 12:0.44771917 13:0.33800263 14:0.6771879 15:0.33303482 16:0.36558777 17:0.40871372 18:0.25201109 
4 0 0 1:0.65976463 2:0.61193529 3:0.7427788 4:0.60302749 5:0.61795232 6:0.46630611 7:0.3886136 8:0.63126511 9:0.56624352 10:0.52826351 11:0.52351128 12:0.42737502 13:0.15881053 14:0.5484908 15:0.36888285 16:0.4933936 17:0.54580066 18:0.34902507 
4 4 4 1:0.75424722 2:0.57700011 3:0.7064695 4:0.64687531 5:0.5912075 6:0.62259504 7:0.38044305 8:0.64518227 9:0.4790356 10:0.51729698 11:0.46327329 12:0.60743837 13:0.39491254 14:0.59235228 15:0.46562598 16:0.50183705 17:0.45935352 18:0.28865893 
4 0 4 1:0.92675194 2:0.66837379 3:0.62026546 4:0.40168032 5:0.34160152 6:0.62588468 7:0.37470949 8:0.63556671 9:0.40539849 10:0.55552358 11:0.39676639 12:0.42726725 13:0.38771133 14:0.72285662 15:0.37804014 16:0.40665741 17:0.35770753 18:0.27087978 
0 4 0 1:0.34507391 2:0.59749969 3:0.45864287 4:0.49317154 5:0.33868019 6:0.56090629 7:0.37815237 8:0.63712526 9:0.53109556 10:0.73175796 11:0.42507464 12:0.4685397 13:0.23700649 14:0.6650692 15:0.52322572 16:0.54245325 17:0.55313187 18:0.59489143 
0 4 0 1:0.41946641 2:0.2604962 3:0.2941478 4:0.71944121 5:0.7722414 6:0.69468554 7:0.29130061 8:0.7705991 9:0.61689448 10:0.70715175 11:0.35009754 12:0.78935294 13:0.60178421 14:0.51456836 15:0.44955131 16:0.47077401 17:0.7019933 18:0.33928816 
0 4 0 1:0.47145691 2:0.21591354 3:0.54615904 4:0.79198292 5:0.22507017 6:0.79573054 7:0.40316363 8:0.75687231 9:0.40105338 10:0.90962762 11:0.45831995 12:0.80986839 13:0.22838905 14:0.88992587 15:0.45564467 16:0.79211211 17:0.48506295 18:0.36186868 
4 0 4 1:0.49238093 2:0.89483244 3:0.67414303 4:0.36240206 5:0.80327386 6:0.65436798 7:0.4230993 8:0.51313317 9:0.5995763 10:0.34963434 11:0.80110622 12:0.6028307 13:0.28406625 14:0.62124306 15:0.37624698 16:0.1416307 17:0.66029881 18:0.45591051 
4 0 0 1:0.36156361 2:0.86985759 3:0.72298975 4:0.37816285 5:0.82148146 6:0.72554346 7:0.49338655 8:0.510238 9:0.67180835 10:0.21577955 11:0.48585355 12:0.96740821 13:0.36080594 14:0.30009828 15:0.59742937 16:0.53560419 17:0.69332062 18:0.48188266 
4 0 0 1:0.3534071 2:0.87769823 3:1 4:0.4435486 5:0.68786775 6:0.50542307 7:0.36788878 8:0.53771733 9:0.80144669 10:0.55036642 11:0.52263508 12:0.45048979 13:0.26222934 14:0.40705213 15:0.42248975 16:0.26996366 17:0.48423333 18:0.43618142 
2.5446827415706541 0 0 1:0.49236191 2:0.92047147 3:0.571971 4:0.39116206 5:0.91789654 6:0.70583869 7:0.19607152 8:0.3474242 9:0.60205582 10:0.17210503 11:0.69933728 12:0.52621676 13:0.082706977 14:0.5561227 15:0.54319332 16:0.37006792 17:0.62677261 18:0.46191297 
4 0 0 1:0.49230909 2:0.80713911 3:0.57229333 4:0.60144763 5:1 6:0.76625277 7:0.2808492 8:0.39733966 9:0.73765353 10:0.39327812 11:0.56178019 12:0.40112338 13:0.17374808 14:0.55263135 15:0.51501608 16:0.098713635 17:0.45989764 18:0.32606234 
4 0 0 1:0.36697845 2:0.87120478 3:0.73457383 4:0.36115818 5:0.80945327 6:0.67208368 7:0.49536168 8:0.55039946 9:0.66476734 10:0.29054367 11:0.47981117 12:0.59851485 13:0.34995115 14:0.6187233 15:0.44639679 16:0.11459548 17:0.57210048 18:0.34546381 
4 0 0 1:0.39129101 2:0.67559718 3:0.6092057 4:0.60476924 5:0.80684555 6:0.815982 7:0.53115993 8:0.38208457 9:0.67572404 10:0.54932897 11:0.67791329 12:0.27486002 13:0.040437142 14:0.59010005 15:0.38713791 16:0.1483452 17:0.62893423 18:0.30907345 
0 4 4 1:0.45821042 2:0.68010832 3:0.53639492 4:0.46923752 5:0.59515579 6:0.56090591 7:0.4610072 8:0.8121134 9:0.42816744 10:0.43980136 11:0.47540596 12:0.67442178 13:0.5942179 14:0.63647775 15:0.60308903 16:0.18358398 17:0.77526082 18:0.63317571 
0 4 4 1:0.58015731 2:0.37302856 3:0.23360726 4:0.72920168 5:0.64846953 6:0.57706361 7:0.38511482 8:0.66074892 9:0.41967953 10:0.67922667 11:0.43104488 12:0.7410409 13:0.38966137 14:0.68268288 15:0.35645593 16:0.51084272 17:0.51697419 18:0.27378343 
0 4 4 1:0.45769735 2:0.30690648 3:0.12871888 4:0.62806484 5:0.69351397 6:0.67690736 7:0.38832181 8:0.81974597 9:0.5208038 10:0.80800541 11:0.59649836 12:0.74916874 13:0.49675419 14:0.78606463 15:0.4229975 16:0.62880091 17:0.68185087 18:0.40664054 
4 4 0 1:0.50787214 2:0.68778723 3:0.64775061 4:0.41402061 5:0.37123664 6:0.68648269 7:0.26110628 8:0.61986316 9:0.26230402 10:0.76073955 11:0.37533397 12:0.57009603 13:0.68849207 14:0.74032785 15:0.66142078 16:0.60952946 17:0.58834287 18:0.41145206 
4 4 0 1:0.3485659 2:0.78755906 3:0.42937645 4:0.65474143 5:0.48187976 6:0.54716706 7:0.51483741 8:0.26316783 9:0.82149533 10:0.55750288 11:0.81601685 12:0.57209189 13:0.33411649 14:0.71558482 15:0.33138455 16:0.46377713 17:0.56268279 18:0.25774397 
0.25199541618478988 4 4 1:0.72197875 2:0.76364635 3:0.13184762 4:0.59120452 6:0.30061087 7:0.61737261 8:0.42747568 9:0.89504436 10:0.23220652 11:0.6581324 12:0.45351679 13:0.17020583 14:0.70563788 15:0.1186255 16:0.40789269 17:0.48579243 18:0.28670414 
0 1.5456761384588837 4 1:0.59658421 2:0.85537477 3:0.29916098 4:0.5579396 5:0.14205856 6:0.058847012 7:0.49866795 8:0.51674669 9:0.79088843 11:0.46497739 12:0.87291026 13:0.099391454 14:0.78715892 15:0.58958119 16:0.069594093 17:0.50966888 18:0.18728824 
4 4 0 1:0.2921882 2:0.81016692 3:0.50864493 4:0.74071907 5:0.36239847 6:0.54370848 7:0.50647094 8:0.21992788 9:0.84460683 10:0.50629135 11:0.71777817 12:0.52678565 13:0.31260193 14:0.67908463 15:0.26887898 16:0.46770864 17:0.71401224 18:0.37059925 
0 3.4061226875705892 0 1:0.35472851 2:0.73951894 3:0.36960494 4:0.51895243 5:0.18700147 6:0.4116198 7:0.59207616 8:0.49232681 9:0.8264592 10:0.34297287 11:0.38821024 12:0.3204289 13:0.42944181 14:0.76296275 15:0.5510065 16:0.71861874 17:0.46807678 18:0.14952204 
4 4 4 1:0.62493763 2:0.8169643 3:0.54622499 4:0.63590479 5:0.5086538 6:0.41151175 7:0.67288878 8:0.47581919 9:0.71384929 10:0.54938827 11:0.50936555 12:0.44351787 13:0.39986755 14:0.72832739 15:0.59657533 16:0.46817513 17:0.52653394 18:0.44803555 
4 0 0 1:0.3853962 2:0.75007877 3:0.60033348 4:0.69496003 5:0.46561387 6:0.38337875 7:0.49646355 8:0.41508169 9:0.77115522 10:0.33128502 11:0.40376023 12:0.32662182 13:0.27356754 14:0.63888788 15:0.32523719 16:0.31548863 17:0.24631931 18:0.067509772 
0 0 4 1:0.53088151 2:0.82878769 3:0.38884124 4:0.61622957 5:0.57666851 6:0.27817593 7:0.5012167 8:0.50446731 9:0.6111071 10:0.22399123 11:0.33835033 12:0.52887568 13:0.42763635 14:0.39767879 15:0.37897723 16:0.5908468 17:0.4320078 18:0.30449402 
0 0 4 1:0.57490473 2:0.78378414 3:0.35981718 4:0.4538006 5:0.36754259 6:0.20903241 7:0.48925624 8:0.49176481 9:0.6516816 10:0.27155847 11:0.2186838 12:0.26587706 13:0.19887057 14:0.47371845 15:0.35451 16:0.22735929 17:0.33424156 18:0.22896138 
0 4 4 1:0.59427803 2:0.67355964 3:0.14707375 4:0.74763221 5:0.20247659 6:0.30837898 7:0.54668059 8:0.31253033 9:0.7485298 10:0.27963935 11:0.42468147 12:0.2174769 13:0.12766808 14:0.64478273 15:0.25632074 16:0.57533557 17:0.73405433 18:0.50817071 
4 0 0 1:0.5490398 2:0.89113174 3:0.41850061 4:0.57699049 5:0.631095 6:0.28550252 7:0.47115432 8:0.5874398 9:0.77736541 10:0.26378566 11:0.48683351 12:0.8247183 13:0.48060323 14:0.50214401 15:0.52479267 16:0.72880097 17:0.58480373 18:0.38158829 
0 0 4 1:0.64411558 2:0.82326504 3:0.1513444 4:0.45660716 5:0.20373789 6:0.042504946 7:0.4821526 8:0.48125231 9:0.63270721 10:0.15333683 11:0.40064455 12:0.43223543 14:0.46416918 15:0.37851262 16:0.34794557 17:0.49949342 18:0.52704874 
0 0 4 1:0.51096732 2:0.84548053 3:0.40034306 4:0.59726909 5:0.40440085 6:0.27031219 7:0.54699962 8:0.48293989 9:0.67994088 10:0.22345792 11:0.44872992 12:0.48384687 13:0.28203979 14:0.57404144 15:0.29672154 16:0.38309441 17:0.44548896 18:0.35365527 
4 0 0 1:0.48199014 2:0.91186302 3:0.54758467 4:0.63912282 5:0.54864831 6:0.28903854 7:0.48522772 8:0.61434556 9:0.78178246 10:0.14775883 11:0.38477206 12:0.56063366 13:0.14018998 14:0.48177345 15:0.52592173 16:0.61457762 17:0.57830227 18:0.42275966 
0 0 4 1:0.48915884 2:0.80426726 3:0.46525901 4:0.57809687 5:0.41131852 6:0.29714058 7:0.49226461 8:0.55386757 9:0.72040881 10:0.20524931 11:0.36217912 12:0.40650246 13:0.3370664 14:0.65289428 15:0.4665812 16:0.51886993 17:0.53169026 18:0.3766379 
4 3.1229252886265626 4 1:0.53747468 2:0.86782117 3:0.38334074 4:0.65113373 5:0.58729058 6:0.34640363 7:0.61301977 8:0.64707931 9:0.7660501 10:0.3126489 11:0.49868567 12:0.66724099 13:0.39984689 14:0.46558371 15:0.43569796 16:0.62168092 17:0.48567454 18:0.31864329 
4 0 4 1:0.52655548 2:0.82233863 3:0.46514397 4:0.54945765 5:0.34786601 6:0.2814318 7:0.55637671 8:0.53877425 9:0.65973303 10:0.33411886 11:0.47234246 12:0.37525707 13:0.20308111 14:0.49953744 15:0.35966961 16:0.48421759 17:0.49912611 18:0.14652401 
0 0 4 1:0.64796181 2:0.73691708 3:0.23705882 4:0.56214198 5:0.20502965 6:0.18682808 7:0.48920716 8:0.3971001 9:0.62882006 10:0.13968163 11:0.40363598 12:0.40972758 13:0.14110486 14:0.64238402 15:0.37955008 16:0.29518965 17:0.4007323 18:0.25070319 
0 0 4 1:0.53020768 2:0.88843895 3:0.35016911 4:0.57576084 5:0.57514357 6:0.28368419 7:0.48008476 8:0.52648598 9:0.65990328 10:0.19489639 11:0.386877 12:0.58371506 13:0.43639601 14:0.54009513 15:0.42405068 16:0.62608883 17:0.43395179 18:0.15564639 
0 0 4 1:0.57258532 2:0.83314822 3:0.29566429 4:0.58686777 5:0.31238663 6:0.14659926 7:0.46833276 8:0.45966404 9:0.70598056 10:0.19869399 11:0.46694708 12:0.43202931 13:0.28155681 14:0.68280967 15:0.24503665 16:0.42392991 17:0.4033266 18:0.10654683 
0 4 4 1:0.66120174 2:0.74598428 3:0.14440479 4:0.59873358 5:0.22787881 6:0.072624549 7:0.46708032 8:0.4068756 9:0.62048354 10:0.15367656 11:0.52523707 12:0.59047274 13:0.2930794 14:0.79222064 15:0.5400233 16:0.62673367 17:0.71420221 18:0.46490946 
0 0 4 1:0.57991023 2:0.83672701 3:0.37627787 4:0.50780998 5:0.34068624 6:0.16292845 7:0.46948097 8:0.55717904 9:0.69272028 10:0.27088209 11:0.48669872 12:0.49748235 13:0.24061929 14:0.50856746 15:0.34553707 16:0.2827892 17:0.30414647 18:0.27894884 
0 4 4 1:0.59575016 2:0.64617041 3:0.30504842 4:0.59420679 5:0.16965474 6:0.24130259 7:0.55299344 8:0.42834214 9:0.57135955 10:0.27358371 11:0.49141055 12:0.23372742 13:0.15063655 14:0.81467704 15:0.65535791 16:0.74542045 17:0.97852971 18:0.71475605 
4 0 0 1:0.40249578 2:0.7783306 3:0.53754139 4:0.72463091 5:0.32956119 6:0.42533175 7:0.60116466 8:0.46588352 9:0.67070759 10:0.15898349 11:0.40350993 12:0.41534646 13:0.034502957 14:0.53501746 15:0.38993207 16:0.34774493 17:0.40825919 18:0.33525119 
4 0 4 1:0.53258889 2:0.85078241 3:0.46179127 4:0.6647432 5:0.39827326 6:0.28984305 7:0.4992185 8:0.51128311 9:0.71831285 10:0.2161181 11:0.29489192 12:0.34534549 13:0.24862285 14:0.56800139 15:0.49761227 16:0.62973558 17:0.6665326 18:0.53563473 
0 0 4 1:0.47906 2:0.77047661 3:0.45138442 4:0.65105783 5:0.39663658 6:0.2966605 7:0.58738182 8:0.53889368 9:0.70227976 10:0.22312353 11:0.38734272 12:0.39902805 13:0.22719385 14:0.52128674 15:0.33400315 16:0.52349857 17:0.48482637 18:0.18728958 
3.3960684447741225 0 0 1:0.493963 2:0.82058831 3:0.52699962 4:0.52276169 5:0.54302224 6:0.35390616 7:0.48539259 8:0.5941535 9:0.68095251 10:0.19242314 11:0.42445499 12:0.58311309 13:0.29589063 14:0.55378696 15:0.50384124 16:0.3407629 17:0.34091995 18:0.28653279 
4 0 4 1:0.50209889 2:0.90296118 3:0.48695297 4:0.56739524 5:0.20137873 6:0.14964028 7:0.54263386 8:0.48324781 9:0.5996196 10:0.3208869 11:0.45835262 12:0.27186651 13:0.12781793 14:0.57330614 15:0.34378922 16:0.24760034 17:0.47100739 18:0.37895228 
0 4 4 1:0.5639725 2:0.72060331 3:0.25048664 4:0.71208616 5:0.20367469 6:0.2671379 7:0.59089307 8:0.31933809 9:0.60982578 10:0.33323645 11:0.52045764 12:0.18867254 13:0.25873116 14:0.71649519 15:0.41324824 16:0.67082315 17:0.75303998 18:0.51948609 
0 4 0 1:0.26919665 2:0.71982557 3:0.53967611 4:0.75202117 5:0.45043395 6:0.49187103 7:0.52244572 8:0.41872732 9:0.78845212 10:0.24445477 11:0.39140333 12:0.42378767 13:0.20151544 14:0.49033044 15:0.26335046 16:0.45148393 17:0.50081627 18:0.28321346 
0 4 4 1:0.41989416 2:0.55742465 3:0.23616665 4:0.87211925 5:0.19358159 6:0.50756584 7:0.63573648 8:0.4132211 9:0.81310594 10:0.27549338 11:0.74486769 12:0.57377331 13:0.21210051 14:0.69760253 15:0.25713234 16:0.43874757 17:0.41944768 18:0.17095383 
0 4 4 1:0.27275469 2:0.48948326 3:0.30403794 4:0.89142168 5:0.26237041 6:0.56373816 7:0.60333163 8:0.31945807 9:0.81542216 10:0.42053504 11:0.7453166 12:0.5741352 13:0.344761 14:0.68405581 15:0.33025307 16:0.60548752 17:0.58016325 18:0.40121846 
0 4 4 1:0.35822464 2:0.55849096 3:0.26325618 4:0.88676635 5:0.055551996 6:0.60737866 7:0.59264175 8:0.33499704 9:1 10:0.34992628 11:0.66160098 12:0.38056995 13:0.16174304 14:0.69018894 15:0.065687061 16:0.46993165 17:0.59339204 18:0.23460149 
4 4 4 1:0.5966885 2:0.56630273 3:0.37919424 4:0.80793222 5:0.33053643 6:0.50439902 7:0.60344032 8:0.24731663 9:0.77227668 10:0.32203843 11:0.5122324 12:0.36718362 13:0.25537648 14:0.71834546 15:0.21515851 16:0.30657718 17:0.42074555 18:0.15392705 
4 0 4 1:0.55085082 2:0.58914135 3:0.5652256 4:0.51009856 5:0.62282385 6:0.77504808 7:0.56920022 8:0.82827401 9:0.58070875 10:0.69025217 11:0.5079083 12:0.17904273 13:0.46806307 14:0.45722057 15:0.41466975 16:0.53126933 17:0.54958024 18:0.47947965 
4 0 0 1:0.45300512 2:0.47618208 3:0.65399606 4:0.57560529 5:0.71510435 6:0.81214477 7:0.45443107 8:0.73276223 9:0.60551475 10:0.72433716 11:0.52942269 12:0.28830085 13:0.36117704 14:0.42084667 15:0.48889667 16:0.46634603 17:0.3875492 18:0.22321969 
4 4 4 1:0.63476592 2:0.57950694 3:0.57625934 4:0.5410018 5:0.43529357 6:0.7774097 7:0.4372117 8:0.881264 9:0.58701132 10:0.71323857 11:0.48869177 12:0.16374439 13:0.40621141 14:0.60222508 15:0.5150175 16:0.44918558 17:0.50044575 18:0.35850116 
4 0 0 1:0.46554572 2:0.60347827 3:0.63387648 4:0.54543778 5:0.71122045 6:0.79578485 7:0.48962968 8:0.69258755 9:0.60704984 10:0.61108041 11:0.67850438 12:0.49902694 13:0.31359989 14:0.40739432 15:0.4074138 16:0.344878 17:0.32288445 18:0.16232372 
0 4 0 1:0.36531586 2:0.66361442 3:0.4679155 4:0.52680531 5:0.58841699 6:0.72383487 7:0.45549096 8:0.61470014 9:0.4527037 10:0.60957884 11:0.53131619 12:0.5560723 13:0.41914774 14:0.53926374 15:0.38596892 16:0.47178428 17:0.51827515 18:0.37785212 
0 0 0.067434892337566665 1:0.46048514 2:0.61172052 3:0.35674841 4:0.22904285 5:0.27573991 6:0.48233349 7:0.18513186 8:0.46056818 9:0.42848801 10:0.61271729 11:0.35430545 12:0.090386399 13:0.69870222 14:0.59600379 15:0.1340533 16:0.39929211 17:0.44037083 18:0.23678067 
0 4 0 1:0.50409633 2:0.61654528 3:0.39172152 4:0.41559915 5:0.38935818 6:0.56983722 7:0.41886624 8:0.64521513 9:0.48932148 10:0.93961677 11:0.51891368 12:0.56021925 13:0.45957892 14:0.61880557 15:0.15785428 16:0.43872314 17:0.50312215 18:0.49647695 
0 4 3.3669351126224263 1:0.60691424 2:0.30445322 3:0.54832502 4:0.541871 5:0.43071434 6:0.75601647 7:0.37308656 8:0.83365487 9:0.33771024 10:0.86540337 11:0.26593702 12:0.50658692 13:0.57007711 14:0.54508129 15:0.41310162 16:0.40329477 17:0.44767385 18:0.4625949 
0 4 4 1:0.52053071 2:0.42813528 3:0.28779606 4:0.39773165 5:0.30919758 6:0.69453447 7:0.22874909 8:0.64006166 9:0.22133836 10:0.5238697 11:0.32579105 12:0.50734014 13:0.52116334 14:0.54294178 15:0.35696884 16:0.54423556 17:0.59928194 18:0.65448853 
0 4 0 1:0.40328814 2:0.31362493 3:0.53602599 4:0.47000758 5:0.33929987 6:0.84485771 7:0.29623443 8:0.88527385 9:0.36341179 10:0.69494102 11:0.22955915 12:0.58679607 13:0.37794256 14:0.72087957 15:0.49560433 16:0.74027162 17:0.35905235 18:0.50038499 
0 4 4 1:0.63985156 2:0.29947705 3:0.45544351 4:0.46470031 5:0.45820206 6:0.8478195 7:0.24652196 8:0.75463061 9:0.28964678 10:0.76632995 11:0.18782423 12:0.50142504 13:0.34427285 14:0.61648647 15:0.33222785 16:0.66415231 17:0.38464454 18:0.3992938 
0 4 4 1:0.65897661 2:0.22572663 3:0.34677392 4:0.4519127 5:0.50331584 6:0.88979297 7:0.2525438 8:0.70177809 9:0.29302015 10:0.90806425 11:0.2233872 12:0.51105136 13:0.27190671 14:0.56047076 15:0.3395314 16:0.63471203 17:0.39831274 18:0.61422925 
0 4 4 1:0.61428389 2:0.25944541 3:0.43109078 4:0.3902586 5:0.46020178 6:0.9073696 7:0.26526478 8:0.75072759 9:0.39864019 10:0.83601518 11:0.40903944 12:0.67069568 13:0.40675266 14:0.5365692 15:0.33054197 16:0.60720232 17:0.37334825 18:0.44739229 
0 4 0 1:0.6464404 2:0.21264251 3:0.42612663 4:0.5696055 5:0.47679914 6:0.71563543 7:0.18136831 8:0.85723797 9:0.28426876 10:0.78188181 11:0.40568697 12:0.6563555 13:0.28964976 14:0.45551304 15:0.42950946 16:0.56518576 17:0.40871805 18:0.62504452 
0 4 0 1:0.59976576 2:0.11675459 3:0.47144251 4:0.45245197 5:0.53900491 6:0.78912222 7:0.17039862 8:0.64311451 9:0.40334046 10:0.71590261 11:0.34914922 12:0.49722206 13:0.55539905 14:0.54865493 15:0.43857938 16:0.53638493 17:0.49809505 18:0.37398295 
0 4 4 1:0.60410977 2:0.22901626 3:0.36864523 4:0.35819774 5:0.49812914 6:0.94240438 7:0.22508967 8:0.7144397 9:0.37254429 10:0.79678114 11:0.34915818 12:0.53075752 13:0.36798217 14:0.60471759 15:0.33338329 16:0.47476797 17:0.33282141 18:0.53569402 
0 4 4 1:0.62290864 2:0.23951557 3:0.33728172 4:0.41069603 5:0.48791631 6:0.93576564 7:0.22100502 8:0.85146458 9:0.38637479 10:0.87148639 11:0.25955622 12:0.47892239 13:0.36783005 14:0.66632708 15:0.347311 16:0.53092107 17:0.28629927 18:0.44490015 
0 4 4 1:0.72982765 2:0.26854928 3:0.33420381 4:0.35162952 5:0.54993555 6:0.94249752 7:0.30313829 8:0.68499407 9:0.30940557 10:0.81565041 11:0.40912073 12:0.57347274 13:0.41285464 14:0.59720588 15:0.37913018 16:0.55797965 17:0.30142881 18:0.42791331 
0 4 0 1:0.60962541 2:0.23234458 3:0.52100341 4:0.45739151 5:0.41858354 6:0.74581385 7:0.21313316 8:0.81538295 9:0.31059832 10:0.75070934 11:0.31979613 12:0.5571281 13:0.44095818 14:0.49270445 15:0.32496473 16:0.63647405 17:0.43270759 18:0.48138887 
0 4 0 1:0.64521403 2:0.11469862 3:0.38753603 4:0.48856761 5:0.51469209 6:0.77559821 7:0.15911544 8:0.82024051 9:0.35270444 10:0.83756363 11:0.19722771 12:0.46964073 13:0.44163463 14:0.62214518 15:0.31958188 16:0.62023629 17:0.32059281 18:0.32342435 
0 4 0 1:0.61989164 2:0.29858887 3:0.50586297 4:0.48505405 5:0.40392895 6:0.80517214 7:0.14254373 8:0.80703319 9:0.38760013 10:0.83411273 11:0.35635043 12:0.49253516 13:0.4488064 14:0.56928477 15:0.30468676 16:0.41889545 17:0.29214414 18:0.30127038 
0 4 0 1:0.67249669 2:0.24475192 3:0.45886382 4:0.48219241 5:0.61841896 6:0.83205468 7:0.1337235 8:0.55773129 9:0.39906909 10:0.91062051 11:0.3338533 12:0.36920731 13:0.39923007 14:0.56181741 15:0.39735772 16:0.53126263 17:0.50794691 18:0.42309785 
0 4 4 1:0.66076841 2:0.27727979 3:0.46650422 4:0.43518032 5:0.49608168 6:0.9358734 7:0.24606388 8:0.79366561 9:0.35465559 10:0.92648061 11:0.5149099 12:0.74366051 13:0.38340924 14:0.62939324 15:0.24871476 16:0.56602684 17:0.37283419 18:0.47778123 
4 0 4 1:0.56188904 2:0.63870597 3:0.52134105 4:0.62012287 5:0.63440029 6:0.64130539 7:0.50607572 8:0.67863474 9:0.62574895 10:0.69491038 11:0.61431305 12:0.26124991 13:0.50366549 14:0.53506148 15:0.46627131 16:0.18538994 17:0.48393625 18:0.22885062 
0 4 4 1:0.68253516 2:0.26361752 3:0.4424296 4:0.39488048 5:0.34796516 6:0.75612549 7:0.25301442 8:0.81161669 9:0.32063533 10:0.75195033 11:0.17914453 12:0.6116831 13:0.50763419 14:0.74046089 15:0.2847501 16:0.52501134 17:0.28607862 18:0.52561774 
0 4 4 1:0.74258188 2:0.32479928 3:0.31394362 4:0.27316433 5:0.29746353 6:0.8101379 7:0.44852865 8:1 9:0.39928075 10:0.73536426 11:0.24202797 12:0.5187158 13:0.46345655 14:0.65287876 15:0.35207857 16:0.46804905 17:0.26160653 18:0.25286158 
4 4 4 1:0.5818234 2:0.47946921 3:0.51168314 4:0.56687763 5:0.56243585 6:0.86557655 7:0.48284785 8:0.82507779 9:0.49741225 10:0.76851656 11:0.64842643 12:0.39511822 13:0.63344185 14:0.39418453 15:0.48649906 16:0.30270335 17:0.55503455 18:0.31662191 
4 4 0 1:0.50363977 2:0.50374035 3:0.66088174 4:0.57624523 5:0.69871502 6:0.78511085 7:0.47026367 8:0.60399718 9:0.63956167 10:0.70108905 11:0.53895328 12:0.56064384 13:0.38424499 14:0.39386826 15:0.41165004 16:0.5972881 17:0.46151757 18:0.27988745 
0 4 0 1:0.50206978 2:0.46129695 3:0.53280388 4:0.55293523 5:0.54497114 6:0.84517238 7:0.25586225 8:0.74718514 9:0.30577131 10:0.77440058 11:0.38333118 12:0.56307442 13:0.31712037 14:0.54728123 15:0.30567642 16:0.50353675 17:0.46649932 18:0.27430186 
0 0 4 1:0.74495266 2:0.59297749 3:0.41991721 4:0.23044453 5:0.38461294 6:0.31918031 7:0.33325031 8:0.33316036 9:0.14731332 10:0.30688339 11:0.25405793 12:0.27045558 13:0.39658971 14:0.59510103 15:0.61988743 16:0.61670596 17:0.79056871 18:1 
0.021830822250290042 0 4 1:0.48287481 2:0.6569927 3:0.45537201 4:0.50072808 5:0.51929663 6:0.7226607 7:0.4911303 8:0.70557323 9:0.52058411 10:0.53491571 11:0.32825355 12:0.37867611 13:0.57232379 14:0.46319692 15:0.38370556 16:0.33042976 17:0.33217333 18:0.36505385 
4 0 0 1:0.37173618 2:0.88751966 3:0.60871655 4:0.40071176 5:0.7582503 6:0.45182815 7:0.5361665 8:0.58818442 9:0.48638465 10:0.46194439 11:0.43622181 13:0.24092136 14:0.50138682 15:0.28581999 16:0.28663326 17:0.50394531 18:0.31171933 
4 4 4 1:0.7451567 2:0.53698482 3:0.77879968 4:0.65155537 5:0.37035084 6:0.73202586 7:0.32462579 8:0.79017232 9:0.47810584 10:0.59420895 11:0.44071186 12:0.40524492 13:0.52808508 14:0.53926003 15:0.26307668 16:0.3811408 17:0.50602978 18:0.40833185 
4 4 4 1:0.74006981 2:0.53347507 3:0.73747847 4:0.57313373 5:0.40197193 6:0.79028526 7:0.2968587 8:0.68745112 9:0.48058515 10:0.66554585 11:0.56293286 12:0.29998664 13:0.47735404 14:0.52324547 15:0.49300866 16:0.49511825 17:0.61114459 18:0.39423138 
4 0 4 1:0.61681327 2:0.6263002 3:0.52371375 4:0.57545769 5:0.7241733 6:0.72315009 7:0.50236253 8:0.62744309 9:0.56356213 10:0.68615751 11:0.6286443 12:0.20650649 13:0.56717412 14:0.55813682 15:0.58144986 16:0.362974 17:0.48268961 18:0.28322706 
4 4 0 1:0.60834528 2:0.37631848 3:0.74172992 4:0.60912677 5:0.58763798 6:0.86632115 7:0.39947225 8:0.87659404 9:0.4286309 10:0.755811 11:0.46899736 12:0.57531375 13:0.42699738 14:0.54039554 15:0.46576217 16:0.49327435 17:0.38163408 18:0.34252956 
0 0 4 1:0.47231352 2:0.4963426 3:0.58272048 4:0.061291906 5:0.055980465 6:0.45724473 7:0.57334448 8:0.92233864 9:0.60463561 10:0.49585262 11:0.22974365 12:0.27539999 13:0.52285484 14:0.71573526 15:0.50452328 16:0.24407318 17:0.44266371 18:0.22698263 
0 4 0 1:0.40158855 2:0.27710384 3:0.42589337 4:0.2945238 5:0.33826627 6:0.41696954 7:0.31260071 8:0.64322673 9:0.43433372 10:0.87242239 11:0.19338698 12:0.55282701 13:0.36845774 14:0.77667464 15:0.14359746 16:0.77139831 17:0.41277131 18:0.70820422 
0 4 0 1:0.46350509 2:0.62923998 3:0.4893479 4:0.51190029 5:0.5866982 6:0.73295887 7:0.46436924 8:0.70649377 9:0.40925884 10:0.56906939 11:0.48969269 12:0.40469886 13:0.5093159 14:0.59648703 15:0.51136664 16:0.38983641 17:0.54999399 18:0.40731373 
4 4 4 1:0.55690615 2:0.56395292 3:0.51000908 4:0.54170096 5:0.54223212 6:0.8688372 7:0.41310936 8:0.70712751 9:0.54774881 10:0.7167609 11:0.4062421 12:0.33381812 13:0.43156716 14:0.50156191 15:0.47007212 16:0.47226585 17:0.66068029 18:0.31768213 
0 4 4 1:0.4307841 2:0.58507098 3:0.39044112 4:0.49936436 5:0.47454081 6:0.54600195 7:0.3683342 8:0.58449101 9:0.4870227 10:0.71770878 11:0.43036381 12:0.21117488 13:0.61446237 14:0.6841252 15:0.2375112 16:0.1545666 17:0.64053401 18:0.44773682 
0 4 4 1:0.5052453 2:0.4189077 3:0.56012504 4:0.4091131 5:0.45511038 6:0.84633316 7:0.38453216 8:0.82667494 9:0.309196 10:0.77047569 11:0.25644742 12:0.52084101 13:0.4022852 14:0.68107735 15:0.075120342 16:0.32272807 17:0.34062669 18:0.3876718 
0 0 4 1:0.51029034 2:0.50437125 3:0.53348878 5:0.19487526 6:0.42079332 7:0.55228912 8:0.80601445 9:0.69307526 10:0.47740172 11:0.10961213 12:0.11786371 13:0.5207176 14:0.74259017 15:0.46664883 16:0.27653233 17:0.29388725 18:0.22016983 
0 4 0 1:0.39839431 2:0.20633966 3:0.3620303 4:0.48022464 5:0.33197899 6:0.48983981 7:0.38663428 8:0.67368219 9:0.28817732 10:0.76211108 11:0.2870015 12:0.37955754 13:0.25940269 14:0.6493675 15:0.24907344 16:0.79301506 17:0.3224827 18:0.57392145 
0 4 0 1:0.48386556 2:0.58235874 3:0.48310217 4:0.47062283 5:0.56880657 6:0.73846827 7:0.39642152 8:0.71231585 9:0.46167221 10:0.63506566 11:0.37324275 12:0.43874739 13:0.53331146 14:0.66718843 15:0.51085571 16:0.31125184 17:0.45153905 18:0.39216674 
4 0 0 1:0.57701774 2:0.52371486 3:0.54713509 4:0.054764255 5:0.21547806 6:0.27465368 7:0.43547088 8:0.79365539 9:0.85448068 10:0.83451118 11:0.41863669 12:0.031346243 13:0.11222361 14:0.58035054 15:0.72337967 16:0.82906986 17:0.66967008 18:0.35700789 
4 0 4 1:0.77360603 2:0.60045987 3:0.59004551 4:0.4219901 5:0.35975316 6:0.42676072 7:0.28857798 8:0.56226859 9:0.53769242 10:0.71360394 11:0.42610702 12:0.50055016 13:0.44275455 14:0.45649459 15:0.20905178 16:0.42828131 17:0.30880184 18:0.29263989 
4 4 4 1:0.66329391 2:0.42363908 3:0.64128021 4:0.65068405 5:0.458492 6:0.8263104 7:0.45013331 8:0.79774735 9:0.3661348 10:0.64631796 11:0.37800731 12:0.37668911 13:0.43432202 14:0.55906538 15:0.39669151 16:0.46441514 17:0.46024066 18:0.14969997 
4 0 0 1:0.41257918 2:0.56248806 3:0.69907005 4:0.57446698 5:0.83905542 6:0.62852533 7:0.55048953 8:0.70708766 9:0.46587371 10:0.56196938 11:0.57899963 12:0.40242477 13:0.096130953 14:0.19590242 15:0.11975554 16:0.67765068 17:0.48680265 18:0.11941316 
4 4 0 1:0.56601777 2:0.31323092 3:0.79597364 4:0.59116041 5:0.61401683 6:0.82434406 7:0.47953202 8:0.7024652 9:0.52519931 10:0.76628303 11:0.3135122 12:0.55898927 13:0.11249687 14:0.46797685 15:0.1517366 16:0.52000214 17:0.38428857 18:0.41808264 
0 0 4 1:0.62982042 2:0.58776388 3:0.49196165 4:0.45847905 5:0.45802311 6:0.72169758 7:0.27216498 8:0.54830115 9:0.13860398 10:0.39741367 11:0.45178638 12:0.032333443 13:0.37727066 14:0.4896658 15:0.16066566 16:0.48065878 17:0.53565675 18:0.29974768 
0 0 4 1:0.81480425 2:0.57687767 3:0.30460942 4:0.2533334 5:0.19105515 6:0.27977775 7:0.02923373 8:0.51901935 9:0.32409322 10:0.7178604 11:0.58104582 12:0.22765504 13:0.49486672 14:0.39931837 15:0.16983338 16:0.46128002 17:0.54384543 18:0.42789056 
0 0 4 1:0.69258906 2:0.6317648 3:0.2652614 4:0.22746938 5:0.19929662 6:0.24675775 7:0.1560057 8:0.50886922 9:0.36246795 10:0.63287957 11:0.63755356 12:0.3170942 13:0.50166621 14:0.28120368 15:0.30231429 16:0.43948585 17:0.36561288 18:0.28321595 
4 0 4 1:0.63367976 2:0.62847947 3:0.50262739 4:0.36776933 5:0.53538501 6:0.76681634 7:0.3462945 8:0.36283826 9:0.29215891 10:0.59122446 11:0.38508926 12:0.13445387 13:0.40954244 14:0.50037279 15:0.32193598 16:0.57607462 17:0.31964582 18:0.31403452 
4 0 4 1:0.5984156 2:0.62777512 3:0.5117863 4:0.5773946 5:0.64468422 6:0.46569886 7:0.5089157 8:0.63065579 9:0.38533063 10:0.5846357 11:0.60781182 12:0.23953367 13:0.55302975 14:0.43159399 15:0.27075565 16:0.27654548 17:0.55426825 18:0.23997584 
4 0 4 1:0.69043199 2:0.66039412 3:0.42680332 4:0.49825382 5:0.51840369 6:0.69208846 7:0.37351872 8:0.58762224 9:0.47691328 10:0.57552301 11:0.15378119 12:0.18549475 13:0.83361681 14:0.46745016 15:0.3235502 16:0.62784567 17:0.40856847 18:0.055535655 
4 4 4 1:0.81825994 2:0.54553016 3:0.38369344 4:0.24760452 5:0.26738951 6:0.52183561 7:0.15675166 8:0.2438026 9:0.23899328 10:0.67321025 11:0.21974215 12:0.17480991 13:0.56953066 14:0.43369684 15:0.53455535 16:1 17:0.81118442 18:0.43274511 
4 0 3.1192040015083329 1:0.65684547 2:0.7286172 3:0.59995444 4:0.38563943 5:0.51921597 6:0.7709057 7:0.32643273 8:0.63249225 9:0.56170169 10:0.62515434 11:0.58049293 12:0.3292013 13:0.53895366 14:0.47860797 15:0.48575976 16:0.43975858 17:0.44024292 18:0.33538963 
4 0 0 1:0.37011153 2:0.70904862 3:0.63807113 4:0.61319084 5:0.78834673 6:0.55046391 7:0.520174 8:0.53775326 9:0.4211652 10:0.70075228 11:0.48199902 12:0.015366626 13:0.39595558 14:0.53635701 15:0.29158431 16:0.27320887 17:0.443203 18:0.4189345 
4 0 4 1:0.81474983 2:0.68554381 3:0.7494901 4:0.50347908 5:0.39866198 6:0.64669609 7:0.3558175 8:0.67389125 9:0.39799795 10:0.57551711 11:0.32159695 12:0.22628518 13:0.41139431 14:0.64176489 15:0.39734219 16:0.4352163 17:0.49456079 18:0.32308673 
4 0 4 1:0.5091559 2:0.75159332 3:0.55441798 4:0.11909578 5:0.28494055 6:0.49428318 7:0.5197289 8:0.69031275 9:0.4803548 10:0.49855857 11:0.45086001 12:0.2955177 13:0.64007085 14:0.54224587 15:0.38069931 16:0.36361546 17:0.32232599 18:0.15688997 
0 4 4 1:0.56633973 2:0.38866626 3:0.32758335 4:0.58415909 5:0.26351973 6:0.73132085 7:0.31166002 8:0.69669533 9:0.42191096 10:0.6655284 11:0.41477523 12:0.42000839 13:0.53853577 14:0.66893225 15:0.47035163 16:0.62648803 17:0.61559085 18:0.42197404 
0 4 4 1:0.57291962 2:0.52186022 3:0.43531874 4:0.51002021 5:0.27798962 6:0.62469927 7:0.36078524 8:0.84186713 9:0.50669876 10:0.57997599 11:0.23698518 12:0.32652633 13:0.25981351 14:0.61569804 15:0.35148553 16:0.4301347 17:0.50988378 18:0.24894469 
0 4 4 1:0.5966546 2:0.43412781 3:0.40244577 4:0.49700756 5:0.2459503 6:0.68091547 7:0.23901037 8:0.82151059 9:0.38014559 10:0.64702357 11:0.28692579 12:0.38415154 13:0.36556933 14:0.6255075 15:0.38457912 16:0.52756158 17:0.51912512 18:0.38551608 
4 0 4 1:0.47840175 2:0.71542628 3:0.5433027 4:0.2862834 5:0.40077023 6:0.43885993 7:0.48536431 8:0.65128334 9:0.58249231 10:0.57731892 11:0.31033251 12:0.2508395 13:0.78956116 14:0.77211025 15:0.51364937 16:0.48701792 17:0.55495568 18:0.10163602 
4 0 4 1:0.75671154 2:0.66803388 3:0.70086317 4:0.52189311 5:0.40823596 6:0.62542778 7:0.22087212 8:0.63641631 9:0.37803117 10:0.57432009 11:0.44310666 12:0.34500713 13:0.36058666 14:0.51088361 15:0.26163014 16:0.34500036 17:0.53383966 18:0.30573387 
4 0 4 1:0.72581459 2:0.50083986 3:0.70758749 4:0.49176304 5:0.40851683 6:0.84150408 7:0.31715765 8:0.74953251 9:0.2869498 10:0.66605377 11:0.45534716 12:0.30724452 13:0.41509875 14:0.46058902 15:0.34113929 16:0.26922668 17:0.39540321 18:0.26050167 
4 4 0 1:0.51621122 2:0.65290245 3:0.56735643 4:0.52516601 5:0.57175777 6:0.8440481 7:0.35892952 8:0.66974971 9:0.47781601 10:0.70687207 11:0.4948322 12:0.28931615 13:0.49743495 14:0.43595765 15:0.48784425 16:0.45176569 17:0.52986129 18:0.27525802 
4 0 0 1:0.475443 2:0.73420906 3:0.60311302 4:0.45674441 5:0.69484788 6:0.49517737 7:0.48719948 8:0.80750358 9:0.75827838 10:0.66491506 11:0.59879969 12:0.43257295 13:0.77398535 14:0.40114003 15:0.54643372 16:0.60608137 17:0.47501981 18:0.20417329 
0 4 0 1:0.49783336 2:0.27333492 3:0.67391748 4:0.5983906 5:0.46398882 6:0.78638662 7:0.40257362 8:0.87229314 9:0.4670932 10:0.80624215 11:0.45057097 12:0.47904312 13:0.45130944 14:0.60533918 15:0.43969007 16:0.372227 17:0.32858444 18:0.2400064 
4 4 0 1:0.57600657 2:0.66635966 3:0.50131692 4:0.3886624 5:0.27685303 6:0.73983459 7:0.41346608 8:0.68353121 9:0.28641406 10:0.80114261 11:0.44054042 12:0.28269517 13:0.34380258 14:0.38396785 15:0.3879315 16:0.58296523 17:0.60456917 18:0.42268019 
0 0 0.18249304838859481 1:0.57654915 2:0.64355814 3:0.57530472 4:0.40888797 5:0.40350007 6:0.72254519 7:0.29588521 8:0.81078907 9:0.32612041 10:0.6524812 11:0.2938347 12:0.31487201 13:0.52241808 14:0.54084962 15:0.29352425 16:0.42961522 17:0.54714701 18:0.29169209 
4 2.8116366537050599 0 1:0.58236059 2:0.60573358 3:0.70225918 4:0.6122697 5:0.47572887 6:0.80670476 7:0.22705531 8:0.56245624 9:0.43884313 10:0.54088338 11:0.57839135 12:0.50399493 13:0.48253003 14:0.63488499 15:0.49553976 16:0.24419418 17:0.32664173 18:0.2375612 
4 0 4 1:0.82367191 2:0.64856974 3:0.64719461 4:0.46650215 5:0.42244749 6:0.72678718 7:0.28720126 8:0.62268907 9:0.49599169 10:0.56203636 11:0.34243982 12:0.26604497 13:0.16919411 14:0.58360839 15:0.40245392 16:0.51117329 17:0.48859188 18:0.22522156 
0 4 4 1:0.66551771 2:0.34622068 3:0.32070738 4:0.54866984 5:0.42722523 6:0.82389752 7:0.25194927 8:0.61656889 9:0.60897861 10:0.97563118 11:0.26003856 12:0.35825235 13:0.34665085 14:0.63984897 15:0.45321897 16:0.43756371 17:0.58683398 18:0.41614281 
0 1.1740708693162922 4 1:0.69742086 2:0.21207869 3:0.24799416 4:0.36924693 5:0.56749263 6:0.77803438 7:0.43671295 8:0.32579096 9:0.37085918 10:0.9046548 11:0.6831401 12:0.35567007 13:0.16564536 14:0.57785294 15:0.73404754 16:0.64928825 17:0.28828778 18:0.2406278 
4 0 4 1:0.82071666 2:0.56502317 3:0.47942009 4:0.36038623 5:0.29228419 6:0.64744242 7:0.37211989 8:0.74344654 9:0.494813 10:0.49444135 11:0.53316862 12:0.45488073 13:0.025664435 14:0.56230897 15:0.21752122 16:0.49155963 17:0.38978526 18:0.33776699 
0 4 4 1:0.88933842 2:0.37064258 3:0.14548081 4:0.28792286 5:0.25955893 6:0.70422902 7:0.39639578 8:0.60525085 9:0.43754621 10:0.47059792 11:0.69090976 12:0.54970693 13:0.21948967 14:0.62640308 15:0.4331255 16:0.60886464 17:0.4742246 18:0.40256047 
0 4 4 1:0.8436349 2:0.52242478 3:0.17150506 4:0.36087623 5:0.41968568 6:0.63995062 7:0.37756243 8:0.59396231 9:0.46111343 10:0.43790969 11:0.72934396 12:0.46861042 13:0.30743173 14:0.60803411 15:0.47937446 16:0.5420598 17:0.50259551 18:0.35525977 
4 4 4 1:0.73025226 2:0.49724446 3:0.36908676 4:0.51892049 5:0.33667744 6:0.696273 7:0.47420116 8:0.6012421 9:0.56478995 10:0.515717 11:0.56081488 12:0.54066696 13:0.22837364 14:0.46518918 15:0.29941053 16:0.41178528 17:0.48171527 18:0.33960093 
0 4 4 1:0.76337989 2:0.62771984 3:0.21116753 4:0.38262861 5:0.23136901 6:0.63663248 7:0.26602579 8:0.57868452 9:0.46333801 10:0.48065918 11:0.47063827 12:0.39044758 13:0.22170818 14:0.47298688 15:0.44384325 16:0.50104058 17:0.56239728 18:0.3246577 
0 0 4 1:0.72724389 2:0.630774 3:0.19887521 4:0.25776688 5:0.32457578 6:0.75276284 7:0.44608448 8:0.58752288 9:0.57759145 10:0.46592434 11:0.72597031 12:0.3950955 13:0.4033157 14:0.63151151 15:0.47807948 16:0.67251059 17:0.42940525 18:0.23071287 
4 4 4 1:0.66190156 2:0.67854795 3:0.54782683 4:0.65963664 5:0.4441732 6:0.60398248 7:0.4588272 8:0.73623263 9:0.50143576 10:0.46797904 11:0.42118016 12:0.41018542 13:0.41603354 14:0.56834266 15:0.5253391 16:0.42490712 17:0.57573642 18:0.3176478 
0 4 4 1:0.62022493 2:0.5115909 3:0.2462809 4:0.48116061 5:0.30992144 6:0.62469153 7:0.39670911 8:0.666204 9:0.54841538 10:0.51892049 11:0.44638328 12:0.44431854 13:0.47353599 14:0.55252371 15:0.64831866 16:0.42980427 17:0.53776636 18:0.3296451 
0 4 4 1:0.71514697 2:0.49845347 3:0.225121 4:0.41787962 5:0.17222418 6:0.7489866 7:0.38977382 8:0.54507733 9:0.48765311 10:0.43511572 11:0.56171887 12:0.60404798 13:0.42664127 14:0.56689518 15:0.53266086 16:0.80494729 17:0.59392661 18:0.52431866 
0 4 4 1:0.63444665 2:0.30605946 3:0.24249158 4:0.53781442 5:0.30447255 6:0.81725314 7:0.4015302 8:0.62483976 9:0.52693158 10:0.83408862 11:0.31634917 12:0.52492462 13:0.38711942 14:0.61111067 15:0.38558525 16:0.40302355 17:0.58162777 18:0.37149318 
0 4 4 1:0.69649143 2:0.20108386 3:0.24997743 4:0.23010621 5:0.34555939 6:0.62450659 7:0.65347275 8:0.61658241 9:0.2759339 10:0.55502274 11:0.4075029 12:0.81793053 13:1 14:0.66721137 15:0.16980248 16:0.50170028 17:0.76347066 18:0.48421945 
4 4 4 1:0.73786918 2:0.6094187 3:0.58817914 4:0.61375767 5:0.4105355 6:0.63441478 7:0.39861764 8:0.74912392 9:0.36197506 10:0.6323544 11:0.44594433 12:0.48210359 13:0.51029776 14:0.55203727 15:0.29402625 16:0.36506185 17:0.5813119 18:0.25652058 
4 0 0 1:0.49601226 2:0.67047872 3:0.5788081 4:0.55920519 5:0.69675193 6:0.69010472 7:0.52471763 8:0.67536364 9:0.56307705 10:0.59801575 11:0.78733543 12:0.32766365 13:0.53160997 14:0.46088506 15:0.32240312 16:0.50850173 17:0.52118988 18:0.17343054 
4 1.5456084420978264 0 1:0.4631027 2:0.27773835 3:0.85715361 4:0.57800805 5:0.66287314 6:0.67873802 7:0.51356366 8:0.85766926 9:0.52303188 10:0.83389214 11:0.34609643 12:0.50001733 13:0.10587929 14:0.60191129 15:0.075153045 16:0.53617794 17:0.38888009 18:0.53055654 
3.5566569202145648 0 0 1:0.23079447 2:0.65852766 3:0.66130258 4:0.64422291 5:0.87626545 6:0.48953869 7:0.63494564 8:0.62465459 9:0.56746223 10:0.68798234 11:0.56260239 12:0.2980831 13:0.37391842 14:0.26185091 15:0.083842747 16:0.2687989 17:0.59576919 18:0.17929092 
0 4 4 1:0.60517152 2:0.61048301 3:0.39846413 4:0.5354058 5:0.23938532 6:0.68768349 7:0.32336391 8:0.60656337 9:0.34854432 10:0.62573463 11:0.3334526 12:0.426762 13:0.41392253 14:0.66768325 15:0.32039516 16:0.38893902 17:0.55065468 18:0.21512808 
0 4 4 1:0.40829349 2:0.50513067 3:0.18562184 4:0.42962562 5:0.2751127 6:0.58980028 7:0.23639058 8:0.69492335 9:0.51967106 10:0.39754503 11:0.62295547 12:0.58204824 13:0.4875838 14:0.72457003 15:0.40590786 16:0.35351561 17:0.45974522 18:0.48607551 
4 4 4 1:0.63797598 2:0.51952314 3:0.54013998 4:0.64864058 5:0.50109618 6:0.69964869 7:0.42742117 8:0.72422594 9:0.47060591 10:0.46660065 11:0.47501592 12:0.41243241 13:0.4503146 14:0.76960102 15:0.23264559 16:0.29434157 17:0.3326501 18:0.36403637 
4 4 4 1:0.55787005 2:0.6182038 3:0.62183514 4:0.56553636 5:0.39083996 6:0.67018945 7:0.41431788 8:0.69243214 9:0.56828897 10:0.52614701 11:0.57599403 12:0.33335255 13:0.60032013 14:0.61970702 15:0.36224213 16:0.41572527 17:0.51928448 18:0.38123188 
0 0 4 1:0.42203918 2:0.57440777 3:0.18925742 4:0.52998541 5:0.41954546 6:0.62536953 7:0.31801552 8:0.42406708 9:0.42989452 10:0.51815234 11:0.50895774 12:0.1669573 13:0.46102237 14:0.72452946 15:0.49502068 16:0.50308355 17:0.43567483 18:0.37879448 
4 4 4 1:0.58439607 2:0.53187518 3:0.43624408 4:0.63492851 5:0.53755317 6:0.83187036 7:0.5190526 8:0.6347148 9:0.56009912 10:0.48039014 11:0.46348953 12:0.13601817 13:0.25117172 14:0.54579884 15:0.60448807 16:0.54330978 17:0.51589212 18:0.33504148 
4 0 4 1:0.57796986 2:0.55986243 3:0.6046337 4:0.62219696 5:0.48453618 6:0.70397512 7:0.465002 8:0.61377403 9:0.52502263 10:0.67114348 11:0.60866781 12:0.26561622 13:0.35853964 14:0.63618817 15:0.28294842 16:0.40765935 17:0.37435798 18:0.21711064 
4 4 4 1:0.56608407 2:0.53740424 3:0.40809261 4:0.65634334 5:0.47212281 6:0.84029688 7:0.52167522 8:0.63225602 9:0.57152827 10:0.53278341 11:0.46197633 12:0.13858597 13:0.46036203 14:0.64609867 15:0.30275848 16:0.39062074 17:0.4440102 18:0.27882071 
4 4 4 1:0.56871635 2:0.68583691 3:0.42478057 4:0.54758784 5:0.25922111 6:0.71621786 7:0.36811573 8:0.68933954 9:0.51594206 10:0.57022341 11:0.37791909 12:0.16529261 13:0.4907131 14:0.54443083 15:0.59501532 16:0.57334548 17:0.47187912 18:0.21474547 
0 4 4 1:0.53669316 2:0.58977607 3:0.46239693 4:0.65979696 5:0.50671063 6:0.64096405 7:0.43187373 8:0.68804737 9:0.48776068 10:0.43379106 11:0.43254503 12:0.25535595 13:0.37915519 14:0.60814387 15:0.42756918 16:0.48037449 17:0.52609377 18:0.17166489 
4 4 4 1:0.58098636 2:0.49416313 3:0.53436954 4:0.70701621 5:0.392029 6:0.75832774 7:0.44179592 8:0.71523005 9:0.54899245 10:0.59522342 11:0.59620182 12:0.23014614 13:0.36488042 14:0.718373 15:0.47785055 16:0.35150636 17:0.53468318 18:0.37753874 
4 4 4 1:0.61193687 2:0.65756714 3:0.49785706 4:0.59921295 5:0.37799353 6:0.70450123 7:0.43188522 8:0.72450425 9:0.4969338 10:0.63052427 11:0.55759625 12:0.11659095 13:0.43583283 14:0.57068391 15:0.48698062 16:0.44365175 17:0.54358329 18:0.31312291 
4 4 4 1:0.59070212 2:0.52019691 3:0.5054858 4:0.71375973 5:0.36250689 6:0.61844484 7:0.48204557 8:0.72229772 9:0.38854813 10:0.45371966 11:0.56575323 12:0.29782763 13:0.44938511 14:0.62665751 15:0.34012303 16:0.45446361 17:0.45967373 18:0.36317386 
4 4 0 1:0.4177474 2:0.65953352 3:0.46956205 4:0.71265951 5:0.515175 6:0.56916537 7:0.52016279 8:0.65999736 9:0.51388966 10:0.58111273 11:0.56886128 12:0.15347223 13:0.43788872 14:0.6659796 15:0.43275961 16:0.36360249 17:0.48248449 18:0.46188839 
4 0 4 1:0.65345913 2:0.64071363 3:0.47114241 4:0.61901742 5:0.49701504 6:0.60298021 7:0.44115334 8:0.70990133 9:0.5342742 10:0.60339985 11:0.44925661 12:0.24266237 13:0.42491975 14:0.67014126 15:0.35537481 16:0.35646618 17:0.31870376 18:0.43620724 
4 0 0 1:0.25873042 2:0.71821033 3:0.64646851 4:0.64101828 5:0.68362278 6:0.54083316 7:0.59737711 8:0.64282851 9:0.59808686 10:0.53651424 11:0.48263831 12:0.2419031 13:0.54311123 14:0.73523991 15:0.32896843 16:0.11427294 17:0.40938334 18:0.40152644 
0 4 4 1:0.5751844 2:0.39391536 3:0.42277197 4:0.83277849 5:0.44191966 6:0.58092936 7:0.52195778 8:0.80954932 9:0.46372061 10:0.54859756 11:0.63714853 12:0.18794415 13:0.44470476 14:0.62100929 15:0.49061674 16:0.36442108 17:0.52746675 18:0.36710602 
0 4 4 1:0.51242558 2:0.47894123 3:0.44819241 4:0.79464362 5:0.45477558 6:0.57971265 7:0.45313981 8:0.70710381 9:0.49861971 10:0.45851934 11:0.53569234 12:0.25266155 13:0.5090952 14:0.71807513 15:0.38942602 16:0.3685379 17:0.58093888 18:0.40753867 
4 4 4 1:0.54231234 2:0.59652923 3:0.40553707 4:0.70281275 5:0.54922767 6:0.67698526 7:0.46869539 8:0.44117397 9:0.71474284 10:0.65914746 11:0.58648657 12:0.33131012 13:0.66370358 14:0.59541688 15:0.4649745 16:0.45103546 17:0.43329067 18:0.47124946 
4 0 4 1:0.59774725 2:0.61156562 3:0.49316179 4:0.6932319 5:0.4776456 6:0.56435396 7:0.40837541 8:0.73245796 9:0.45700769 10:0.50320575 11:0.58645905 12:0.18934839 13:0.48793602 14:0.6830234 15:0.42224917 16:0.2931729 17:0.42637831 18:0.4905471 
3.4559999904976118 0 4 1:0.55652812 2:0.6543018 3:0.45057535 4:0.67787916 5:0.58199291 6:0.62748639 7:0.36839486 8:0.57797526 9:0.49871361 10:0.53428761 11:0.51900027 12:0.24293591 13:0.3971367 14:0.55945676 15:0.31866139 16:0.23180278 17:0.40192456 18:0.33731522 
0 0 4 1:0.44569653 2:0.69497363 3:0.325147 4:0.50060696 5:0.33291998 6:0.58603236 7:0.44293924 8:0.54260927 9:0.45032111 10:0.57361515 11:0.45132657 12:0.30103976 13:0.36803827 14:0.63090999 15:0.24642197 16:0.38659719 17:0.36987534 18:0.25963908 
4 4 4 1:0.56258075 2:0.6601456 3:0.51142322 4:0.72907774 5:0.4427383 6:0.53787724 7:0.5372572 8:0.62611961 9:0.48273148 10:0.56597623 11:0.46315196 12:0.1546338 13:0.39334131 14:0.60507179 15:0.42993226 16:0.41275379 17:0.54640337 18:0.2805368 
4 4 4 1:0.58661054 2:0.57828907 3:0.49884329 4:0.61980195 5:0.45416593 6:0.65947823 7:0.47284746 8:0.57757047 9:0.6027365 10:0.55444653 11:0.47511462 12:0.14107516 13:0.228153 14:0.57628058 15:0.13275012 16:0.26918641 17:0.50697434 18:0.51970434 
4 4 4 1:0.5743234 2:0.67301984 3:0.4547345 4:0.66533271 5:0.4069307 6:0.55490914 7:0.41576569 8:0.56898545 9:0.59405278 10:0.58166984 11:0.51651987 12:0.2250013 13:0.51846642 14:0.74528844 15:0.46640491 16:0.29082834 17:0.42137067 18:0.39963858 
4 4 4 1:0.57939945 2:0.59994971 3:0.50623292 4:0.7042513 5:0.50267934 6:0.59866674 7:0.52572638 8:0.70712601 9:0.55575685 10:0.56037894 11:0.58082103 12:0.18328205 13:0.57283216 14:0.74028183 15:0.47881625 16:0.42717186 17:0.54027392 18:0.55437033 
4 4 4 1:0.54328707 2:0.54632096 3:0.44894278 4:0.65336819 5:0.49708237 6:0.78530102 7:0.47397596 8:0.80310923 9:0.56952075 10:0.53030361 11:0.52054818 12:0.084420103 13:0.70405208 14:0.61340634 15:0.4792759 16:0.38871844 17:0.55408869 18:0.41422456 
0 4 4 1:0.4967489 2:0.38446752 3:0.25606176 4:0.60057234 5:0.30869211 6:0.67778039 7:0.3293811 8:0.61990714 9:0.42873544 10:0.61744783 11:0.53719789 12:0.29568179 13:0.56686042 14:0.77506444 15:0.4671403 16:0.65207516 17:0.56837542 18:0.40667899 
0 4 0 2:0.59205408 3:0.85396505 4:0.40233992 5:0.60291501 6:0.69148353 7:0.55017701 8:0.62371554 9:0.51796397 10:0.73844912 11:0.52476718 12:0.5243526 13:0.52544314 14:0.76627736 15:0.31966955 16:0.703435 17:0.58463265 18:0.49428959 
-4 0 0 1:0.58753944 2:0.60628115 3:0.69073209 4:0.49091766 5:0.46567744 6:0.74248878 7:0.445102 8:0.58232416 9:0.48999761 10:0.55953766 11:0.50305767 12:0.43591804 13:0.41694987 14:0.53692335 15:0.42328335 16:0.28291658 17:0.52469879 18:0.19312412 
-4 0 4 1:0.75191022 2:0.63668625 3:0.6045248 4:0.58763446 5:0.54683282 6:0.74693828 7:0.40559208 8:0.55783397 9:0.36516932 10:0.54437133 11:0.29239539 12:0.36328582 13:0.43424703 14:0.52660686 15:0.25397438 16:0.23154434 17:0.52575122 18:0.56018123 
-4 0 4 1:0.75636161 2:0.63090338 3:0.66889834 4:0.51027677 5:0.42825419 6:0.64733853 7:0.3820669 8:0.66210123 9:0.37438771 10:0.54943625 11:0.32092519 12:0.49264331 13:0.43016801 14:0.66263201 15:0.36807352 16:0.29358255 17:0.4597915 18:0.52221099 
-4 0 4 1:0.77566098 2:0.53932833 3:0.66775719 4:0.43246734 5:0.46463038 6:0.65994151 7:0.31945768 8:0.56818843 9:0.3150885 10:0.55857521 11:0.12174451 12:0.40751309 13:0.24035107 14:0.38449841 15:0.32622741 16:0.27235758 17:0.35803834 18:0.47997716 
-4 0 0 1:0.66611952 2:0.56180376 3:0.68577515 4:0.62207615 5:0.6132139 6:0.83116331 7:0.40741208 8:0.54320234 9:0.34541569 10:0.6742073 11:0.30431784 12:0.41110251 13:0.39030405 14:0.60648499 15:0.30308551 16:0.29771549 17:0.42921578 18:0.43331762 
-4 0 0 1:0.72559722 2:0.5544924 3:0.66782042 4:0.56198945 5:0.5329858 6:0.78843025 7:0.42101717 8:0.65946454 9:0.36050036 10:0.56114939 11:0.34175434 12:0.5477632 13:0.55307619 14:0.53109056 15:0.34206569 16:0.27228595 17:0.19729576 18:0.4206573 
-4 0 0 1:0.68104593 2:0.54248247 3:0.64154828 4:0.58292989 5:0.52806255 6:0.76883159 7:0.34780958 8:0.57017313 9:0.40144985 10:0.65092387 11:0.30017038 12:0.43084676 13:0.36559947 14:0.59430762 15:0.44644912 16:0.39073682 17:0.34844971 18:0.6519742 
-4 0 0 1:0.72297545 2:0.55467423 3:0.67007314 4:0.55551786 5:0.4980812 6:0.73573649 7:0.383418 8:0.66527429 9:0.42517452 10:0.59142617 11:0.39111087 12:0.42230389 13:0.21550478 14:0.46823046 15:0.42417892 16:0.50167128 17:0.44927659 18:0.46158419 
-4 4 0 1:0.54493818 2:0.53625095 3:0.7382815 4:0.47401006 5:0.62659718 6:0.75272785 7:0.44527648 8:0.63434175 9:0.48256037 10:0.6911436 11:0.61007624 12:0.66964904 13:0.3877976 14:0.49378227 15:0.28056363 16:0.3331684 17:0.50861749 18:0.47415717 
-4 0 0 1:0.76180014 2:0.56978248 3:0.68092374 4:0.54293055 5:0.5063953 6:0.67296055 7:0.34629848 8:0.65302694 9:0.37725768 10:0.62172806 11:0.35149159 12:0.5064925 13:0.24199659 14:0.44563958 15:0.35524027 16:0.34467124 17:0.31758815 18:0.38743631 
-0 4 4 1:0.7524917 2:0.61649259 3:0.65550567 4:0.49395393 5:0.48417469 6:0.73615529 7:0.35076749 8:0.66582931 9:0.46329924 10:0.68742908 11:0.43461319 12:0.45210945 13:0.36445652 14:0.5624507 15:0.30788848 16:0.3669194 17:0.54658588 18:0.41303293 
-4 0 0 1:0.71173916 2:0.52107306 3:0.69134123 4:0.4970289 5:0.54098538 6:0.78665606 7:0.39196831 8:0.67946544 9:0.41952124 10:0.632727 11:0.35668918 12:0.50400114 13:0.33182309 14:0.56024329 15:0.36395141 16:0.30234714 17:0.29111019 18:0.3783971 
-4 4 4 1:0.4990707 2:0.65349124 3:0.48558758 4:0.45309782 5:0.57255478 6:0.60864346 7:0.47104586 8:0.60329525 9:0.50630922 10:0.59049136 11:0.31205411 12:0.35710561 13:0.3632586 14:0.64133015 15:0.38012209 16:0.24429102 17:0.42427379 18:0.3202502 
-4 4 4 1:0.73418793 2:0.55195111 3:0.63952975 4:0.49441504 5:0.41102615 6:0.74751163 7:0.4111137 8:0.64373385 9:0.44671976 10:0.61776615 11:0.26839818 12:0.51874597 13:0.33845776 14:0.57619759 15:0.41275819 16:0.18101499 17:0.41697294 18:0.4865282 
-4 0 4 1:0.72950131 2:0.54467844 3:0.71790988 4:0.4436331 5:0.47911057 6:0.68356445 7:0.35141576 8:0.67736749 9:0.42200339 10:0.5167311 11:0.25898214 12:0.48562188 13:0.33883072 14:0.5995156 15:0.32820422 16:0.30376481 17:0.31468302 18:0.3726936 
-4 0 0 1:0.72738158 2:0.51532489 3:0.70619581 4:0.54709735 5:0.45110565 6:0.77463037 7:0.40989048 8:0.67817135 9:0.34858735 10:0.55570196 11:0.35547302 12:0.54272711 13:0.39836647 14:0.57092424 15:0.46370262 16:0.29743764 17:0.35757104 18:0.48839082 
-4 0 0 1:0.744328 2:0.58235186 3:0.67026848 4:0.53182375 5:0.42800165 6:0.65542295 7:0.35022397 8:0.6353823 9:0.51109337 10:0.70616387 11:0.33218929 12:0.47577837 13:0.28420699 14:0.64918907 15:0.45823988 16:0.47925965 17:0.32261011 18:0.41097609 
-4 0 0 1:0.71864904 2:0.5206921 3:0.70183945 4:0.51136391 5:0.44091224 6:0.73098229 7:0.40494549 8:0.6915846 9:0.45939959 10:0.64365105 11:0.36241188 12:0.51122732 13:0.33873049 14:0.40085655 15:0.28282006 16:0.39606487 17:0.3553314 18:0.53342043 
-4 0 4 1:0.79630947 2:0.54674585 3:0.69745236 4:0.44806483 5:0.45663486 6:0.72510707 7:0.3462691 8:0.62558659 9:0.39577274 10:0.6143402 11:0.42659724 12:0.59281398 13:0.3468828 14:0.57260931 15:0.33171764 16:0.47694966 17:0.37323266 18:0.54340624 
-4 0 0 1:0.7360806 2:0.57625359 3:0.69640871 4:0.52137068 5:0.49735271 6:0.72980181 7:0.38675332 8:0.66633368 9:0.37114906 10:0.64521926 11:0.33272752 12:0.46094279 13:0.36717201 14:0.59642136 15:0.30843475 16:0.23633381 17:0.34017309 18:0.42690705 
-4 0 0 1:0.70853221 2:0.51109715 3:0.70844578 4:0.53552681 5:0.50663235 6:0.73398556 7:0.385261 8:0.6621576 9:0.39749739 10:0.63616421 11:0.30368931 12:0.31949688 13:0.32172126 14:0.59276683 15:0.32224285 16:0.26629578 17:0.33376396 18:0.39045239 
-0 0 4 1:0.78864636 2:0.82718233 3:0.45766888 4:0.50263247 5:0.47576989 6:0.2975131 7:0.64991434 8:0.32976583 9:0.32338277 10:0.5796359 11:0.17670759 12:0.45584722 13:0.52623537 14:0.36628275 15:0.56726511 16:0.29573996 17:0.38717794 18:0.29296954 
-4 0 0 1:0.52449709 2:0.95293992 3:0.37097326 4:0.51053422 5:0.55687259 6:0.22656389 7:0.70859618 8:0.32681597 9:0.53213253 10:0.72562887 11:0.17931504 12:0.65388683 13:0.64088728 14:0.32341645 15:0.72560672 16:0.40436502 17:0.54678146 18:0.48669885 
-4 0 0 1:0.60059661 2:0.85990584 3:0.44965174 4:0.51088121 5:0.58597722 6:0.24491339 7:0.67132934 8:0.27037142 9:0.38280534 10:0.71787559 11:0.31373845 12:0.60438219 13:0.61927555 14:0.21526703 15:0.47640433 16:0.17839299 17:0.28964967 18:0.37120351 
-0 0 4 1:0.7648796 2:0.79730668 3:0.4441773 4:0.571714 5:0.51739252 6:0.22220535 7:0.67670589 8:0.30803147 9:0.37820973 10:0.6816748 11:0.15475772 12:0.39141269 13:0.53436113 14:0.25976829 15:0.46735063 16:0.32018185 17:0.52123706 18:0.35213932 
-4 0 4 1:0.74014518 2:0.79408568 3:0.36894276 4:0.5166247 5:0.51705607 6:0.32716753 7:0.70165976 8:0.30014026 9:0.35613479 10:0.63503281 11:0.20883077 12:0.50216434 13:0.49121995 14:0.34280453 15:0.47745745 16:0.23734704 17:0.32049116 18:0.39782917 
-4 0 0 1:0.51196177 2:0.86163987 3:0.35800132 4:0.51651423 5:0.58249825 6:0.35559121 7:0.75650098 8:0.17163783 9:0.43272421 10:0.77527281 11:0.200823 12:0.6105827 13:0.56288174 14:0.22328632 15:0.56880118 16:0.1310075 17:0.38116485 18:0.48389247 
-0 4 0 1:0.57028254 2:0.86049763 3:0.34860692 4:0.65879184 5:0.56860221 6:0.26746985 7:0.89331872 8:0.28292752 9:0.36867433 10:0.76688487 11:0.17513476 12:0.59160588 13:0.67406527 14:0.2545156 15:0.55143061 16:0.28655485 17:0.58548584 18:0.55067968 
-4 0 0 1:0.4776354 2:0.86525753 3:0.40079827 4:0.56067531 5:0.53512034 6:0.31527687 7:0.74793339 8:0.25803609 9:0.48651478 10:0.73679919 11:0.18400463 12:0.45451316 13:0.39940348 14:0.19433978 15:0.59298576 16:0.27579329 17:0.41585732 18:0.46398463 
-4 4 0 1:0.55490706 2:0.96040642 3:0.3627692 4:0.51473938 5:0.5337155 6:0.30066276 7:0.70467141 8:0.24486058 9:0.41309979 10:0.66488361 11:0.24480064 12:0.64101534 13:0.61622072 14:0.29140654 15:0.6429047 16:0.34820339 17:0.51202832 18:0.55945911 
-4 0 0 1:0.64567423 2:0.7681639 3:0.45667082 4:0.57308319 5:0.60750084 6:0.2843525 7:0.69469061 8:0.33734155 9:0.37094965 10:0.71783218 11:0.32266679 12:0.66768011 13:0.59316704 14:0.23925626 15:0.41063643 16:0.10800808 17:0.34328781 18:0.58616996 
-4 4 0 1:0.3234798 2:0.89422336 3:0.38253739 4:0.60919709 5:0.64853218 6:0.17390722 7:0.78012496 8:0.29488509 9:0.56698256 10:0.7507064 11:0.18184316 12:0.89007635 13:0.55467123 14:0.40464815 15:0.64148634 16:0.3098398 17:0.29558493 18:0.74363056 
-4 4 3.2743569445203615 1:0.53144961 2:0.88996921 3:0.24143307 4:0.59522285 5:0.54968108 6:0.22370241 7:0.7394028 8:0.17449638 9:0.43755104 10:0.7800396 11:0.20133721 12:0.53710532 13:0.41110789 14:0.26080071 15:0.65952476 16:0.19019852 17:0.45900225 18:0.5670641 
-4 0 0 1:0.47305021 2:0.86766339 3:0.38557217 4:0.57318945 5:0.56586349 6:0.23030158 7:0.77223601 8:0.35331362 9:0.50743065 10:0.76341987 11:0.12746261 12:0.53509934 13:0.6752855 14:0.36597997 15:0.74313122 16:0.31998741 17:0.45784942 18:0.60780087 
-4 0 0 1:0.57560387 2:0.87688662 3:0.45548079 4:0.50828833 5:0.64631883 6:0.32683139 7:0.66358023 8:0.2269597 9:0.38537446 10:0.68704516 11:0.23544558 12:0.5213604 13:0.59060107 14:0.33367836 15:0.6387614 16:0.22966396 17:0.31642286 18:0.40235251 
-4 0 0 1:0.54065414 2:0.91937498 3:0.38736105 4:0.50720125 5:0.50083126 6:0.19890655 7:0.68757628 8:0.15781598 9:0.37246965 10:0.78612208 11:0.2164384 12:0.44482767 13:0.4896871 14:0.32337912 15:0.71737942 16:0.28954366 17:0.54928916 18:0.76031868 
-4 4 0 1:0.48837417 2:0.81983092 3:0.38389438 4:0.52406554 5:0.58250248 6:0.19420071 7:0.60079596 8:0.24217394 9:0.46906839 10:0.742884 11:0.3367158 12:0.6487399 13:0.53180436 14:0.21543707 15:0.60843225 16:0.44934725 17:0.50315093 18:0.45605647 
-4 0 0 1:0.59221664 2:0.88670463 3:0.43471427 4:0.47462578 5:0.59442161 6:0.20864918 7:0.60641308 8:0.36271846 9:0.47939315 10:0.66913884 11:0.26653868 12:0.50880822 13:0.60224306 14:0.26925416 15:0.53671046 16:0.49224147 17:0.46372432 18:0.31664234 
-4 4 0 1:0.44001264 2:0.86277593 3:0.35863895 4:0.52095112 5:0.52715358 6:0.3455267 7:0.72864116 8:0.30251734 9:0.42499191 10:0.70729262 11:0.28361038 12:0.49091254 13:0.59746489 14:0.47938535 15:0.62606079 16:0.36937791 17:0.5174172 18:0.70880092 
-0 0 1.4569227541484642 1:0.75526746 2:0.85871997 3:0.4407687 4:0.5832734 5:0.60930099 6:0.1771025 7:0.61721832 8:0.21490325 9:0.32195459 10:0.63350394 11:0.24414602 12:0.47136928 13:0.51559537 14:0.33101737 15:0.56247017 16:0.13297667 17:0.3008629 18:0.33490748 
-1.8771363680648518 0 0 1:0.62070496 2:0.86408924 3:0.31354241 4:0.59737092 5:0.51602636 6:0.20559331 7:0.82052081 8:0.22893756 9:0.35687517 10:0.72473632 11:0.11088397 12:0.52108425 13:0.53788542 14:0.23701345 15:0.71611555 16:0.33142458 17:0.39915993 18:0.50176757 
-0 0 4 1:0.74953021 2:0.83981722 3:0.40940392 4:0.55268248 5:0.5514462 6:0.18989321 7:0.64644483 8:0.25380381 9:0.38071176 10:0.72495137 11:0.29252163 12:0.46718116 13:0.51039671 14:0.29542636 15:0.4791404 16:0.028297392 17:0.23490865 18:0.33662171 
-4 0 0 1:0.57026916 2:0.9158009 3:0.41582173 4:0.53273063 5:0.57216666 6:0.26483057 7:0.68375336 8:0.31070551 9:0.48573628 10:0.72079133 11:0.27123108 12:0.46903388 13:0.49400623 14:0.31867561 15:0.53052692 16:0.13607911 17:0.36303553 18:0.44353072 
-4 0 0 1:0.35428188 2:0.67572791 3:0.68276277 4:0.45702246 5:0.66457934 6:0.68879996 7:0.62311193 8:0.48537774 9:0.77712459 10:0.57740386 11:0.51945247 12:0.58674153 13:0.46555696 14:0.58040137 15:0.47163963 16:0.47896723 17:0.63384931 18:0.32752704 
-0 0 4 1:0.54818579 2:0.75093437 3:0.60888823 4:0.40491893 5:0.64966848 6:0.58047256 7:0.66324479 8:0.655675 9:0.70179273 10:0.42373239 11:0.49405814 12:0.57767512 13:0.59891072 14:0.6382676 15:0.40160726 16:0.42797776 17:0.55788087 18:0.24162202 
-4 0 0 1:0.37315275 2:0.62178053 3:0.71572836 4:0.53788952 5:0.75143639 6:0.70793468 7:0.59864894 8:0.57416871 9:0.74109044 10:0.608642 11:0.58308881 12:0.44213805 13:0.47914063 14:0.54812935 15:0.42604201 16:0.54652287 17:0.65169374 18:0.26262866 
-0 4 1.5948862814967943 1:0.58098886 2:0.69678705 3:0.46384002 4:0.58566359 5:0.68509021 6:0.70323521 7:0.69571008 8:0.3953252 9:0.79765006 10:0.55525414 11:0.52601238 12:0.6176171 13:0.42583288 14:0.67363276 15:0.49572942 16:0.54413984 17:0.6764904 18:0.28695708 
-4 0 0 1:0.38339801 2:0.7769346 3:0.53950573 4:0.52563542 5:0.657019 6:0.57378188 7:0.66054911 8:0.63616943 9:0.8691779 10:0.55137365 11:0.56677015 12:0.53708852 13:0.41518451 14:0.65132971 15:0.48582718 16:0.57392703 17:0.6290788 18:0.2876946 
-0 0 4 1:0.55863654 2:0.77559988 3:0.52656771 4:0.43577615 5:0.57183031 6:0.67421819 7:0.7138223 8:0.48937869 9:0.79198852 10:0.54473864 11:0.48262002 12:0.50537394 13:0.43124899 14:0.66286777 15:0.43359003 16:0.50970454 17:0.71736018 18:0.31098078 
-4 4 0 1:0.39009641 2:0.68928867 3:0.47020753 4:0.62250708 5:0.64054403 6:0.55904634 7:0.65514442 8:0.37674439 9:0.60627817 10:0.56933111 11:0.58455975 12:0.52376707 13:0.46586893 14:0.61634602 15:0.39412889 16:0.4003677 17:0.66112583 18:0.36282715 
-4 0 4 1:0.5025881 2:0.65157003 3:0.57858015 4:0.49800108 5:0.67901998 6:0.61066697 7:0.62053254 8:0.47467682 9:0.71528697 10:0.51298406 11:0.49282076 12:0.50861174 13:0.52265589 14:0.75614733 15:0.54857946 16:0.54737454 17:0.71901033 18:0.2687104 
-0 0 1.1372433868036105 1:0.6351788 2:0.69071684 3:0.56326711 4:0.56777266 5:0.62640515 6:0.61925239 7:0.62968843 8:0.48768133 9:0.89041433 10:0.58180698 11:0.59247308 12:0.67069677 13:0.40264576 14:0.60361785 15:0.36328046 16:0.35134119 17:0.5729591 18:0.25453174 
-0 0 4 1:0.53873663 2:0.71768941 3:0.52721136 4:0.55160195 5:0.65035913 6:0.67160642 7:0.66183035 8:0.36890754 9:0.66457204 10:0.4166096 11:0.50116807 12:0.64372845 13:0.55979485 14:0.80939162 15:0.59945367 16:0.55852859 17:0.62513045 18:0.2065121 
-4 4 4 1:0.49969231 2:0.58592641 3:0.46300494 4:0.62689234 5:0.55189568 6:0.57306001 7:0.62029133 8:0.40828888 9:0.7316872 10:0.45220093 11:0.76886735 12:0.66553269 13:0.34487035 14:0.70514718 15:0.3170157 16:0.44296819 17:0.69318534 18:0.21859266 
-4 0 0 1:0.41645899 2:0.73518622 3:0.64564413 4:0.49596061 5:0.73753712 6:0.56604836 7:0.58922225 8:0.56605683 9:0.71981595 10:0.59474294 11:0.64200334 12:0.5157123 13:0.44775089 14:0.60681221 15:0.45394808 16:0.4659288 17:0.62168657 18:0.27310896 
-4 4 4 1:0.40880387 2:0.63986908 3:0.36884053 4:0.65023562 5:0.56052612 6:0.6252729 7:0.63771448 8:0.28771911 9:0.84939697 10:0.54886012 11:0.60778175 12:0.68307088 13:0.41509138 14:0.70069447 15:0.37183317 16:0.54326642 17:0.6494878 18:0.19063299 
-0 4 4 1:0.55105367 2:0.68576863 3:0.52877413 4:0.65463307 5:0.50911838 6:0.56854283 7:0.60540421 8:0.45615812 9:0.8102535 10:0.56457572 11:0.73054675 12:0.63900515 13:0.44044833 14:0.67540025 15:0.35960032 16:0.50628059 17:0.67697127 18:0.40548248 
-0 0 4 1:0.57539479 2:0.73660533 3:0.58526653 4:0.46876079 5:0.60981047 6:0.5927216 7:0.6231054 8:0.47618709 9:0.78542693 10:0.69587612 11:0.76030522 12:0.59567924 13:0.40323558 14:0.63634099 15:0.36720634 16:0.35806075 17:0.55947333 18:0.15673657 
-4 4 4 1:0.41552859 2:0.73275343 3:0.44214535 4:0.48249659 5:0.63043558 6:0.56820324 7:0.56934789 8:0.32806941 9:0.69446607 10:0.53365726 11:0.59886384 12:0.63788322 13:0.45488026 14:0.68749103 15:0.49565814 16:0.45804048 17:0.54860743 18:0.1905802 
-4 4 4 1:0.44798343 2:0.67060257 3:0.48311483 4:0.72600049 5:0.52618252 6:0.59623972 7:0.59656466 8:0.27981882 9:0.78716348 10:0.52044313 11:0.70342223 12:0.472202 13:0.30858613 14:0.81763958 15:0.35974844 16:0.46446717 17:0.62283079 18:0.25073123 
-0 0 4 1:0.66590615 2:0.7654723 3:0.40385773 4:0.52945497 5:0.64768961 6:0.64436793 7:0.65998222 8:0.41119399 9:0.75385155 10:0.43060818 11:0.41486736 12:0.46038268 13:0.44866577 14:0.80070845 15:0.46674805 16:0.44587505 17:0.5986462 18:0.20448847 
-4 0 4 1:0.49217085 2:0.80389964 3:0.51322879 4:0.42135561 5:0.63640727 6:0.66011272 7:0.63667954 8:0.47218341 9:0.81256136 10:0.58564288 11:0.58476542 12:0.55910869 13:0.38976876 14:0.63496001 15:0.44082161 16:0.53315306 17:0.67344883 18:0.15169451 
-4 0 0 1:0.46003742 2:0.68501853 3:0.63184932 4:0.365727 5:0.62515548 6:0.63869798 7:0.66307811 8:0.63523155 9:0.81005311 10:0.56256308 11:0.532404 12:0.4357944 13:0.24567007 14:0.57182728 15:0.56254444 16:0.53401284 17:0.65654802 18:0.30273478 
-4 4 0 1:0.3627291 2:0.77136044 3:0.51235311 4:0.49060795 5:0.57614656 6:0.67195196 7:0.64689328 8:0.42398339 9:0.81607591 10:0.64840971 11:0.62627591 12:0.56350558 13:0.61009783 14:0.77173151 15:0.47931934 16:0.54048709 17:0.66521208 18:0.29492366 
-0 0 4 1:0.55745562 2:0.70345546 3:0.56298057 4:0.41014231 5:0.78033687 6:0.68698089 7:0.60337434 8:0.41082228 9:0.63124353 10:0.59677956 11:0.64311712 12:0.66337519 13:0.61561437 14:0.67887918 15:0.51914343 16:0.5066482 17:0.69483838 18:0.41946038 
-0 4 0 1:0.53980127 2:0.66646181 3:0.63471192 4:0.6159157 5:0.46573554 6:0.78425483 7:0.57310315 8:0.55185193 9:0.59894039 10:0.47485905 11:0.4839717 12:0.45047033 13:0.52697353 14:0.51397536 15:0.30851689 16:0.37388702 17:0.76668981 18:0.37643653 
-0 4 0 1:0.52299944 2:0.59168047 3:0.67958335 4:0.67427427 5:0.53082675 6:0.80328753 7:0.6442597 8:0.54352639 9:0.67891476 10:0.54707554 11:0.48280117 12:0.4583787 13:0.74589973 14:0.60602644 15:0.48738323 16:0.55723806 17:0.71087901 18:0.35616105 
-0 4 0 1:0.45934486 2:0.54058431 3:0.62113657 4:0.6208194 5:0.42799709 6:0.84672542 7:0.57613191 8:0.52074985 9:0.67346029 10:0.66967784 11:0.62044278 12:0.55447149 13:0.77642201 14:0.61913603 15:0.48712855 16:0.43146483 17:0.63164222 18:0.34892179 
-0 4 0 1:0.5200761 2:0.55704286 3:0.62304322 4:0.68686804 5:0.51065429 6:0.8199831 7:0.61109087 8:0.58352496 9:0.77194883 10:0.56206958 11:0.56078084 12:0.55208256 13:0.79781651 14:0.65830285 15:0.49448443 16:0.50261218 17:0.5617858 18:0.329587 
-0 4 0 1:0.54449161 2:0.57595473 3:0.61963181 4:0.64068839 5:0.44337992 6:0.84335385 7:0.53736868 8:0.55304593 9:0.6571467 10:0.58935104 11:0.59596174 12:0.57729906 13:0.65283881 14:0.51363788 15:0.46168135 16:0.34368413 17:0.63454796 18:0.30659254 
-4 0 0 1:0.44480897 2:0.72877457 3:0.67184227 4:0.4926803 5:0.68825276 6:0.56891522 7:0.48756034 8:0.69273251 9:0.64865884 10:0.49917674 11:0.72404056 12:0.28787559 13:0.46628951 14:0.44023875 15:0.25249326 16:0.5642615 17:0.60514148 18:0.25792272 
-4 0 0 1:0.41350619 2:0.73939456 3:0.66983287 4:0.46063166 5:0.68183896 6:0.59288652 7:0.53580369 8:0.68849233 9:0.67416411 10:0.53119549 11:0.71223435 12:0.27414521 13:0.4981278 14:0.64319064 15:0.44857501 16:0.50869279 17:0.55827686 18:0.32207802 
-4 0 0 1:0.49861833 2:0.74719739 3:0.66887316 4:0.52308589 5:0.65673742 6:0.61308765 7:0.53817863 8:0.71340096 9:0.61791262 10:0.47554098 11:0.7150689 12:0.22247128 13:0.37799523 14:0.6188132 15:0.65725583 16:0.54627947 17:0.4863171 18:0.33208954 
-3.680044117917562 0 0 1:0.44645454 2:0.75358081 3:0.66977732 4:0.50692018 5:0.66699628 6:0.65628266 7:0.54497264 8:0.70525394 9:0.64138882 10:0.55281956 11:0.78006224 12:0.33954931 13:0.58406995 14:0.47318663 15:0.45094162 16:0.51567547 17:0.51707963 18:0.42729861 
-4 0 0 1:0.43011396 2:0.68157394 3:0.65365967 4:0.57048443 5:0.71775135 6:0.69767049 7:0.58510786 8:0.6517413 9:0.67897997 10:0.53378081 11:0.79098198 12:0.28518233 13:0.6141582 14:0.67774305 15:0.41567674 16:0.49859982 17:0.41389647 18:0.39814194 
-4 0 0 1:0.46392896 2:0.7290011 3:0.6120089 4:0.46365422 5:0.62229848 6:0.59861245 7:0.5618191 8:0.62051675 9:0.67953867 10:0.57078406 11:0.70371576 12:0.28413604 13:0.56810598 14:0.57185149 15:0.48646104 16:0.64820161 17:0.47302535 18:0.47002583 
-4 0 0 1:0.4128693 2:0.65846427 3:0.60766302 4:0.54751578 5:0.75491191 6:0.6207602 7:0.60281946 8:0.71020596 9:0.78874176 10:0.72882322 11:0.78708752 12:0.36896932 13:0.47744508 14:0.48042126 15:0.33262625 16:0.49659136 17:0.54758495 18:0.18400073 
-4 0 0 1:0.59645196 2:0.73325495 3:0.62526929 4:0.50530996 5:0.60641262 6:0.63644629 7:0.42593611 8:0.72834189 9:0.56518071 10:0.42324566 11:0.53314525 12:0.096701718 13:0.42667329 14:0.53624315 15:0.50277088 16:0.54900411 17:0.62144079 18:0.29979188 
-0.41453346078306569 0 0 1:0.47434186 2:0.83691049 3:0.58860466 4:0.43745363 5:0.75486171 6:0.45758355 7:0.64534085 8:0.66921493 9:0.65821603 10:0.729746 11:0.53868009 12:0.29800686 13:0.55493139 14:0.53761706 15:0.42262568 16:0.41938638 17:0.52782433 18:0.32223013 
-4 0 4 1:0.61723005 2:0.74596076 3:0.62602673 4:0.43327241 5:0.81312516 6:0.73257005 7:0.49986482 8:0.57982103 9:0.38552811 10:0.55223009 11:0.41443167 12:0.53355009 13:0.58575969 14:0.64901206 15:0.35208579 16:0.24420796 17:0.67590273 18:0.35415041 
-4 0.78715379233554705 0 1:0.51392716 2:0.64573305 3:0.75036089 4:0.44998117 5:0.62009998 6:0.66617442 7:0.50404505 8:0.5604948 9:0.48942929 10:0.71374687 11:0.44053901 12:0.57444211 13:0.51189587 14:0.62407704 15:0.42463703 16:0.34302323 17:0.67848116 18:0.26482782 
-0 0 4 1:0.71213126 2:0.7058198 3:0.65509943 4:0.43686318 5:0.58695794 6:0.74208088 7:0.4995025 8:0.53941714 9:0.52520133 10:0.55094843 11:0.56280025 12:0.58424203 13:0.49468306 14:0.65050117 15:0.27348803 16:0.30896448 17:0.67692185 18:0.407932 
-0 4 0 1:0.6698044 2:0.61315733 3:0.65195578 4:0.54582977 5:0.5442422 6:0.67201834 7:0.62245848 8:0.51276649 9:0.51245357 10:0.71038727 11:0.60810941 12:0.43916731 13:0.44781074 14:0.74060496 15:0.44623304 16:0.27287693 17:0.72227601 18:0.41223708 
-4 4 4 1:0.4346996 2:0.52140968 3:0.70098576 4:0.42609353 5:0.66158162 6:0.70394927 7:0.46826291 8:0.7289026 9:0.51560699 10:0.68056733 11:0.53825575 12:0.72414214 13:0.51848528 14:0.60218072 15:0.16411786 16:0.34908444 17:0.68520988 18:0.56294603 
-4 4 0 1:0.48176113 2:0.54299275 3:0.64292268 4:0.46984366 5:0.69472155 6:0.6936057 7:0.46863603 8:0.68105637 9:0.57953121 10:0.66996901 11:0.43809841 12:0.62744966 13:0.54699657 14:0.75365843 15:0.43103422 16:0.6019156 17:0.70771328 18:0.40060495 
-4 4 0 1:0.59155444 2:0.59143253 3:0.66110921 4:0.55064455 5:0.55971845 6:0.75402274 7:0.53060563 8:0.64029251 9:0.5264041 10:0.69247346 11:0.46547092 12:0.56296215 13:0.45965691 14:0.72994015 15:0.24822996 16:0.33555962 17:0.64580202 18:0.55538565 
-4 4 0 1:0.44181812 2:0.5668233 3:0.76663369 4:0.45051192 5:0.56617296 6:0.7048181 7:0.53610174 8:0.57882882 9:0.52336375 10:0.865868 11:0.46658138 12:0.66278496 13:0.46695928 14:0.66772562 15:0.43582675 16:0.39709386 17:0.69643255 18:0.54040252 
-0 4 0 1:0.61122964 2:0.60335689 3:0.66940433 4:0.52275216 5:0.44135129 6:0.69509572 7:0.55442633 8:0.53352956 9:0.49586965 10:0.65907157 11:0.37983968 12:0.66273578 13:0.6776432 14:0.75727985 15:0.53378102 16:0.4963573 17:0.67853228 18:0.69424791 
-4 4 4 1:0.54563653 2:0.59747587 3:0.59313568 4:0.44301836 5:0.72737238 6:0.66834581 7:0.50952752 8:0.72971046 9:0.48033103 10:0.66375929 11:0.53343047 12:0.53371375 13:0.5942355 14:0.68690052 15:0.35452286 16:0.22440251 17:0.78744264 18:0.58868533 
-0 0 4 1:0.66595864 2:0.76951573 3:0.63789617 4:0.44506008 5:0.69889795 6:0.6690229 7:0.56086358 8:0.60603772 9:0.47711678 10:0.60097222 11:0.33125323 12:0.40016319 13:0.54998414 14:0.56234974 15:0.24820412 16:0.078691159 17:0.54745893 18:0.3077475 
-0 4 0 1:0.62968004 2:0.58214809 3:0.66393973 4:0.59508155 5:0.55603975 6:0.75359561 7:0.55338908 8:0.56647 9:0.50844442 10:0.69087352 11:0.35446966 12:0.53545329 13:0.43170538 14:0.70986866 15:0.42992491 16:0.36989843 17:0.62415667 18:0.46431038 
-0 0 4 1:0.66515226 2:0.74912019 3:0.59438049 4:0.41790859 5:0.7400266 6:0.66656662 7:0.57393168 8:0.51752095 9:0.52100618 10:0.63180055 11:0.52051662 12:0.28882223 13:0.56332885 14:0.69465066 15:0.37228184 16:0.28817393 17:0.72150077 18:0.41746309 
-4 0 4 1:0.73892943 2:0.54386723 3:0.62897257 4:0.60301566 5:0.56952707 6:0.53919422 7:0.36767968 8:0.75072656 9:0.44150205 10:0.49918982 11:0.52553583 12:0.44402705 13:0.38173498 14:0.76749824 15:0.446975 16:0.44761791 17:0.47953002 18:0.38022096 
-0 0 4 1:0.80601978 2:0.6326437 3:0.67455328 4:0.53678506 5:0.48409867 6:0.58958622 7:0.38561064 8:0.67275214 9:0.49519439 10:0.56617101 11:0.59721154 12:0.47867119 13:0.4063245 14:0.67170934 15:0.42029347 16:0.53474513 17:0.48607319 18:0.34017195 
-0 0 0.96016447366118962 1:0.75901367 2:0.72723732 3:0.7282397 4:0.45515459 5:0.40732532 6:0.53094425 7:0.38502198 8:0.63156975 9:0.54885937 10:0.60812227 11:0.57409952 12:0.4141116 13:0.36813993 14:0.6380833 15:0.38542712 16:0.48926407 17:0.47913851 18:0.30130413 
-0 0 4 1:0.81736359 2:0.66790697 3:0.64281251 4:0.53114881 5:0.48543513 6:0.64995962 7:0.35101279 8:0.58846016 9:0.55927022 10:0.60792556 11:0.59423661 12:0.46180819 13:0.15174032 14:0.61243818 15:0.44289773 16:0.53226377 17:0.6102767 18:0.39157582 
-0 0 4 1:0.78960472 2:0.55429039 3:0.62530737 4:0.62800448 5:0.43973658 6:0.58662368 7:0.39524535 8:0.57879491 9:0.54953395 10:0.52769494 11:0.45619252 12:0.46974642 13:0.35289722 14:0.74490238 15:0.49183101 16:0.63245963 17:0.51902719 18:0.14547432 
-0 0 4 1:0.81263214 2:0.71687338 3:0.64584558 4:0.49138053 5:0.47632355 6:0.5793305 7:0.38353235 8:0.62187416 9:0.51876336 10:0.52876549 11:0.53839916 12:0.43606363 13:0.38263127 14:0.54679884 15:0.3348879 16:0.42345571 17:0.50474257 18:0.42199682 
